{"construction": {"0": {"name": "FullyConnected", "params": [30, 100, "object>>activation", null], "activation": {"name": "tanh", "params": []}}, "1": {"name": "FullyConnected", "params": [100, 784, "object>>activation", null], "activation": {"name": "Sigmoid", "params": []}}, "num_layers": 2}, "data": {"0": {"weights": [[-0.10514465191329087, -0.25917054813498264, -0.2446934130646963, -0.1829096609839496, 0.5415710729189169, 0.3119190143237779, 0.41036800729582706, 0.5678341340502003, -0.1593518357595596, -0.11290470151835501, 0.42184379897460444, 0.5147610382248147, 0.41764711960801526, -0.07939829970758709, 0.04457199281155144, -0.8854457270532969, 0.4422665059949466, 0.6808594303493833, 0.06654797551628541, 0.029322431468391058, 0.2528876848956222, -0.06556970499035304, -1.0012395231178177, -0.567361253673112, -0.04908443658526229, -0.695860098489766, -0.25961343157319844, 0.33641647206032504, 0.2682403963594091, -0.0500920903561715], [-0.8696251788479534, 0.11624610339487648, -0.09344449309624764, 0.08411278775509212, 0.17415546436400137, 0.7071568120843386, 0.35726791091035237, -0.43284844135560674, -1.1682396148674394, 0.15175239848089878, -0.17272155291443472, 0.3067234758096512, -0.014385576482261669, 0.12539282991176387, 0.21224254405178827, -0.055464975990757656, 0.6731375975909917, -0.22836592456773092, -0.4888768959686167, 0.03633995366797241, 0.04670252538454638, 0.9822347244113322, 0.45881567125976963, -0.42657295180695337, -0.28089972069599034, -0.24430447849230225, -0.017008338679641407, 0.5628900303645559, 0.2662362028815787, 0.5311504889347404], [0.4315323529612323, -1.3275211933649875, 0.04399226958680511, -0.08333212221723138, 0.16534909631591121, -0.6926661057600692, 0.08928731010930852, 0.17930131696028243, -0.9580411190468604, -0.46022709402616085, -0.2857993882064516, -0.029181464383211675, -0.4378057486956317, 0.5884255318155291, 1.0702024331158426, -0.25101111570683055, -0.9445206005097172, -0.48154010070233993, -0.45427550993362975, -0.7631801443055711, 0.3281191049813685, -0.5944552482959685, 0.3292389427545163, 0.7559411415092459, 0.22483490724275634, -0.5297773488810196, -0.22352258790650464, -0.11149758876095718, 0.43774997089807344, -0.2180540540321755], [-0.323955896757965, -0.0730713940377443, -0.17113007406014688, -0.43159042440301243, -0.9674358483048489, -0.378799161841625, 0.13531176461942587, -0.5597694117998531, -0.4755376482841174, -0.6028580810119186, 0.5769413481851714, -0.2915647769814001, 0.23345162227026434, -0.3340068495339531, -0.14148834221248763, -0.8346267194636605, -0.5847247221990242, 0.21350509502308268, 0.10597830893296523, 0.5714203635062617, 0.01425735144742269, 0.8154421293031369, -0.052630396489499395, 0.10364828836407788, 0.06584481907546165, -0.28220747773450905, 0.5358279754807158, 0.6654212107693638, -0.8378347635388123, 0.33144208395010505], [-0.23284509705199455, 0.5609028405638158, 0.5850245305679739, -0.563458899710604, 0.3011086087289622, 0.07729127202053716, 0.7991318768774045, 0.12176859460359729, 0.21619734184757908, -0.09043622238775077, -0.7919706167468259, -0.43307072949296116, 0.29828429118327515, 0.3714881644964436, 0.14033233591764632, 0.32776350676660077, -0.7711690581464555, 0.3728435993860634, 0.05849615953448806, -0.586258146560996, -0.7558839887034406, 0.20151170845822156, 0.3100649183705482, -0.47599072310881374, 0.5436445853709527, 0.22691203648926345, -0.35079008123836436, -0.5121737811863514, 1.229866780770802, 0.13646887510703218], [-0.8162873549306829, -0.4051175010405263, 0.09974410266154123, -0.024626648012215525, 0.05206723410489697, 0.011530239448845212, -0.5894444792977998, -0.24615053296703787, 0.668155200164191, 0.19725172638216426, 0.25023139015531093, -0.10762873255097222, -0.3062538375908913, 0.38279769235584166, 0.02534217450379742, 0.35054681202461124, -0.516560379693934, 0.7443875083074608, 0.004186767559010258, 0.4620241243019784, 0.14098295210019596, -0.025849695283035656, -0.5854563242114345, -0.9860299425059529, -0.20792592470458682, -0.5461055545567192, 0.35179609956818364, -0.4087863673866853, -0.1848175921679728, 0.5220234976279001], [-0.0301052636360431, 0.005314044616726441, -0.039284221225234915, 0.21257389502717158, 0.11288247230286834, -0.14577716466946408, 0.5548878525725951, 0.0605314151767291, 0.6149115102221651, -0.22828605779738573, -0.23205824389046337, -0.5077683267325137, -0.3091381618662119, -0.33243124603077184, -1.2226010226740285, -0.434594456091581, -0.4476883397104896, -0.06306769662963008, 0.25539128007185075, -0.4948288387654693, 0.836249219252963, -0.6621467870966251, 0.47471170660466094, 0.29230576888757404, 0.25971437794486124, -0.6391091990731785, -0.12286612155379027, 0.1956083237857888, 0.15553052589626934, 0.07480538378276497], [-0.26477868910228913, 0.5608208205718148, -0.4142377730201392, -0.9244889861635268, -0.8585681388184576, -0.20124389652205282, 0.16754543670955133, 0.9491146698983525, -0.11320524960087457, -0.14559194504139275, 0.34410481928219, -0.5016286488023382, -0.2765739433476305, 0.1288740512538839, 0.39682141377743646, 1.0849207121877575, -0.4090994195268583, 0.14059549210389247, 0.006973256496996619, 0.28249276091856673, -0.06311293907212805, -0.1868274884651028, -0.38798524805998025, -0.3135127090902224, -0.324060092044492, 0.3976143501544908, -0.09396913965105029, 0.31662124364649546, -0.02949569467330395, -0.1041658565858864], [-0.055379729351220944, 0.6716656947820723, -0.13547841985566275, -0.3653221175069404, 0.502218767514876, -0.6941911319091223, -0.6896572888548259, 0.11106739424617464, 0.08091594129997262, 0.15620643835497922, -0.22048987689243643, -0.1273386074642018, -0.033006980140886384, 0.914288064636546, -0.4095576172372574, -0.07874820633758535, -0.7212736579647393, 0.3330647081159974, 0.05391202270916087, -0.3036849379980821, 0.6672580007653347, 0.06285187096072042, -0.14155747772916602, -0.12523464118982416, -0.049168582640618325, -0.4005332514214214, -0.3603266114252448, -0.21796239543634585, -0.37060731650795053, 0.009571527383370911], [0.9242566447888976, 0.1745656044299245, -0.5033004125144271, 0.6285341711330509, 0.5970084099213306, 0.004258237141386902, -0.24935851469960388, 0.08308571112484214, -0.2831110217795885, 0.31921814927902686, -0.4056185780936857, -0.5734364430326667, 0.12216857086763383, 0.4682215639771702, -0.5638106043810776, -0.05582988847026565, 0.4047044811394362, -0.42521835143464404, -0.22906433196521414, -0.7189270893695574, 0.11802482572835696, -0.7425524964987333, -0.027619492373635073, -1.0659784559117775, 0.377946622725691, 0.6083583202655857, -0.09983339125259148, 0.347661321962443, -0.15819675840003555, 0.3269803099457196], [-0.0525708600497666, -0.3277327951970897, -0.09745663050732734, -0.46407265594240815, 0.09035241932381054, -0.25156274226576425, -0.17823686039698206, 0.32098820341019946, -0.10950485973751635, -0.6169164775983678, 0.2816304194506066, 0.9827245164722455, -0.24984015889214267, -0.14038771914809056, -0.949767355481547, 0.09898905569803838, -0.6968493330706946, 0.12086392224963048, -0.2649776746810898, 0.13546946147850206, -0.027373237952524113, -0.4391156703788324, -0.22853176662341096, 0.6600341144152708, -0.28966188889352357, 0.1535068914465228, -0.21664857575897314, -0.6606369202487387, 0.7332435247161789, 0.06007558296256176], [0.02793626553596114, 0.1675356458415749, 0.44287698824213706, -0.2729921533608296, -0.4154195288296087, -0.15762013908587388, -0.5799940025935608, 0.26039941078289824, -0.23719267737788524, -0.17973320329615558, 0.7319533051067237, -0.40175750571219265, 0.1120552369704758, 0.08354233002547289, 0.11053940204950007, 0.06581784809405257, 0.8866048310766405, 0.6299931438920923, 0.0459632006465961, 0.2550131028614979, 0.0037586924723354825, -0.40418362822412657, 0.6533686590450406, -0.30662550129731503, 0.43414704721964903, 1.018477839636338, -0.3396161446175864, 0.7971394789521022, -0.4994640026789831, -0.4990101347394899], [-0.3865803944494221, 0.6921644519607423, 0.29080092318125006, -0.3912832466696681, 0.3174456237558044, -0.11230916896177613, -0.4827522499829073, -0.06115601236535924, 0.11041272337012689, -1.0933340196489791, 0.07125761925122369, 0.1439244353186862, -0.4812881366242308, 0.2368364736546665, 0.17378082431257463, 0.7293089744584219, -0.11471781280391606, -0.09564203889582211, 0.31469084688200777, -0.33467656980474014, 0.4662214654936968, 0.7567667783524944, 0.4183674534569201, 0.653358273059177, 0.5283591492088098, -0.2231124422006967, -0.19528983673115924, 0.9870146457264023, 0.3327979637121234, -0.886208227764023], [0.038998867034349016, 0.3462625236576396, 0.036043763710227154, 0.8997176105425126, -0.34171891497611906, 0.5798270017357516, -0.35838461482106715, 0.6617789160317863, 0.43825946973666446, -0.20844052594755208, -0.27233805458135457, -0.36022560231703604, -0.5205789285615807, 0.6211914687733273, 0.06813033861092832, 0.3501954411389512, -0.16242777863085822, 0.3034188634916995, 0.008862452644401869, -0.37476415420920683, 0.2549800502879454, -0.3495535509761513, -0.45748434147958267, 0.5273618577168379, 0.151330308742546, 0.4301611934776679, -0.50107849411962, 0.3848993283603372, 0.756874321998218, -0.20665576990270243], [-0.5636886539370705, 0.20510193524836187, 0.3769921446182906, 0.3720095565208041, -0.3876804762702427, 0.13476339942951812, -0.0480189411671583, 0.1164055855923925, 0.5530906327936521, -0.20727906184426248, -0.1177893706171636, 0.2560648999200035, -0.8328645745091396, 0.17167004274076927, -0.3497033956123045, 0.5144462461879243, 0.01793126040897412, -0.7925324973529048, -1.2764328681986892, -0.44458863625176154, -0.031306735792242045, 0.009512788546117043, -0.7389688283971676, -0.29581432358973425, -0.15758613612442973, -0.19037347962069043, 0.3203793946073946, 0.675907092126889, -0.11945189452890034, 0.035331792200489764], [-0.08584409207643327, 0.3409777618688901, 0.5362132877221458, -0.5048635396128744, -0.09363030036456876, 0.3034111065869663, 0.41611199303404595, -0.7574101134611915, -0.19776086638643767, 0.3754145401697787, -0.12224616851416023, -0.022615390576101443, 0.8395113391684067, 0.26241123287370177, 0.606547169780137, 0.11429994125255633, -0.6336550218919096, -0.177472688172965, -0.5158870400329694, 0.09918294052337961, 0.041290895484377935, -0.6488327376231422, 0.18004051507376082, -0.7313240325786392, 0.3687930003721496, -0.2883811472501817, -0.2488596804736827, -0.08338641096754576, -0.021371252672041128, 0.5382295242228801], [0.1267369103838158, 0.7060049043067324, 0.05267075395275533, 0.6983464733098321, -0.28667217387976657, 0.2069704937960198, -0.03365567945544696, 0.4253221060671943, -1.1457655170042482, 0.26548138042357433, -0.22987240409836066, -0.03450371329269438, 0.5803823611620561, -0.77232469536741, -0.5447932178851258, 0.7617460751850889, 0.4303294556605702, 0.0685758820807142, 0.07202303079107505, 0.419474139443466, 0.1760413451062808, 0.59047412267812, 0.08139804772396285, 0.6442489298016245, -0.11178606336886399, -0.4185016291290397, 0.21905054355716053, 0.41999270768520897, 0.06351145322632891, -0.13832140826870307], [-0.10138335695027753, -0.7541907123948302, -0.2447373364136735, 0.11425441055923101, -0.8857393015159553, -0.19716660983177087, -0.2751141162818681, 0.4031592229694851, -0.18216204183094453, -0.6867722424230789, -0.7850188651215407, 0.2516677487357781, -0.007858720099670181, -0.12315013524647327, 0.039816440609825386, -0.3202129945520539, -0.7087195426586784, 0.21762814013253395, -0.22076879694135326, 0.018457536323990626, -0.8362280952320947, 0.45685341743334984, -0.40519403115010566, 0.23940632012940885, -0.12610269229055412, 0.24709817998616282, 0.12080681701539199, 0.1927753411344233, -0.22551885152482964, 0.2677205302463336], [-0.12361600986162258, 0.6467948632283508, 0.629055263322672, -0.18690115506254987, -0.06567344069502705, -0.1653400522527925, -0.09295356671062549, 0.42652056767263674, -0.675833828324621, -0.8043791801404508, 0.17397740670964806, -0.07670445301374876, 0.6956455725326136, 0.4324323182518309, -0.6709553261367066, 0.3590966191022381, 0.4793955151587601, -0.3178198528056587, 0.6944757453026918, -0.8426611614713598, -0.2997910632479708, 0.5141699705429642, 0.026571625717732993, -0.13614712815922603, -0.1367028946105722, -0.7508746149727124, 0.31423097060682503, 0.6417724392950789, -0.703334993358373, 0.8107593237951025], [0.44281572596955865, 0.022613011150964035, 0.09153845579754188, -0.7641491493685159, 0.6846299036541298, 0.7555958274141856, 0.04505844488664834, 0.5821199656181112, 0.18175462900276182, -0.25216532169176725, -0.4436350189027169, 0.30575170931406886, 0.3534922531723322, -0.052604688938303515, -0.8589499773529801, -0.3465010070796443, 0.5492174207970624, 0.7220439966913265, 0.18472042580886655, 0.7049973713474561, 0.7208368263065045, 0.3386261877858833, -0.5150516405632126, 0.1955010592745588, -0.2883645526808845, -0.2692934461757571, 0.2936025159677558, -0.41987872364778106, 0.6522240747483137, 0.23184356070196405], [-0.300796554551514, 0.08500475376471658, 0.1578457172074848, -0.15132889164353933, 0.3301158025001943, 0.3635959124516123, -0.6660389110268431, 0.18077032787934164, -0.4360730287274922, -0.49917923167367706, 0.5602144925328094, 0.23423340436820234, -0.7132194183187084, 0.6430660823070331, 0.8398867044507534, -0.5314094871273654, -0.22709156809256387, 0.31829825968087544, -0.20501065283028436, -0.8752167514061929, -0.9536935978182248, 0.7677819848349178, -0.25278614252248, -0.0960555930956236, 0.07176313512895421, -0.11494953099160958, -0.20406251352430613, -0.35121088857635446, 0.3920517990844349, -0.015210360140171155], [-0.11333426914530507, 0.35187592038869847, 0.1464914558885763, 0.537506760027876, 0.030973875369807294, -0.18963863337928588, -0.38129356249728424, 0.20153931256810148, 0.17725415390313903, 0.29744029632774166, 0.7912962929679282, 0.7060575000952429, 0.678141056973032, -0.4425217510286303, -1.2270164002561292, 0.21588034189148547, 0.5502232442762119, 0.16962099759827004, -0.3522438535058104, 0.40415137636304027, -0.18415845876601739, -0.27626547173202753, -0.17546182219166329, -0.5709664857338544, -0.21780267045740892, 0.12288831703014375, -0.5302307584983017, -0.40658513576116706, -0.34503902133280473, -0.23854290173229264], [0.4518511754421291, 0.3507832944269707, 0.28207464855760306, 0.20637644454435664, 0.11505846477591188, 0.22511111674423273, 0.6616983208358777, 0.4076846046075739, -0.18196877834913877, -0.6559403556598599, 0.5037203045740167, -0.2663188264010733, 0.10223805169036829, 0.317843876660579, -0.3048185644217624, 0.0011945620400478426, -0.47906740804297737, 0.2576091384933581, -0.28520368577517824, -0.23432120001917497, 0.20616759570074755, 1.1154228562142257, -0.7156410619823144, 0.9502730340505386, 0.004290368295247274, -0.1580775088415926, 0.07257691076255682, 0.24935158083966555, -0.7702132953630126, 0.13182840766699042], [0.11074067190917924, 0.5475058870685978, -0.23056783190872962, -0.7158826217780736, -0.1249409850985394, 0.17376132989515788, 0.4703450111885205, 0.4038470786303258, 0.4325205239310043, -0.1028859552309268, -0.10897671638560578, -0.16223326281746878, -0.12888568454861887, -0.7752455814524367, -0.015415680893944269, -1.2653379705564582, 0.7866476759988422, 0.014393931743406297, -0.17682073953707772, -1.1977063978641316, 0.32368803231677895, -0.5379531698721729, -0.012448469561016655, -0.2634920678235644, 0.12972428007000097, 0.3162334498701352, -0.017433368583081622, -0.12348038731532787, 0.1242544802229959, -0.12749542639006975], [0.00940961160095744, -0.10411815299396361, -0.22809348427835816, 0.7830742977340566, -0.6145136748742135, 0.12349143762938655, 0.3059331831066656, -0.4405089014940513, 0.25233415910425283, -0.19671831067813234, 0.4792948526243173, 0.8811544477150045, 0.4017255788275488, 1.049824148519113, -0.15755328013926367, 0.2985515532372381, 0.13820563440037612, 0.03775739254263512, 0.7351978800038095, -0.102430379672716, -0.17216412531339262, -0.23942627285764143, 0.42131433892509057, 0.2637531212422382, -0.03828420018174077, -0.04557927532028375, -0.8534456092842111, 0.6723804243750385, -0.29659504616461774, 0.5033138327614644], [-0.3307235419867973, 0.4511662193905671, -0.3953354763781296, -0.6834540795826795, 0.41942000613112523, -0.8277483265660637, 0.0477462638431224, -0.17588857817772335, 0.7199850057190126, 0.16579600819029747, 0.6483058652927638, -0.36838083116091364, -0.678652625881404, -0.07078699765810033, 0.5373533053090851, -0.5423909296149066, -0.3437650461691315, 0.06564230225214251, 0.7131822634550646, 0.372484620160581, 0.187854779281648, 0.1777845005641189, 0.3748757366108499, -0.036516573326094544, 0.16280905960648218, -0.8404950093756793, -0.3309031467785196, -0.5618313246510921, 0.3294307348636807, 0.49446102007818915], [0.3280675056904403, -1.2028340433518687, -0.6450356647580892, -0.570010421065166, 0.2831149670349906, 0.22440761883247398, 0.08334015244235068, 0.8227730818282218, 0.5750293633352819, -0.3011845339717469, 0.31207081034055595, 0.07613751825618267, 0.2823045185252412, -0.409602505647843, -0.24064404292747021, 0.08082493680457223, -0.0628328795331772, 0.0690232076480239, 0.330352808416829, -0.5966490832657038, -0.30098748599400593, -0.33386361603752895, 0.037530681900565244, -0.09333234628399723, -0.020336947716558633, -0.7467622218743455, -0.10932509155003249, -0.17262591299703203, -0.13054351985606807, 0.5909985709066167], [-0.7485377880426888, -0.5090754280419226, 0.19022053210001655, 0.13459789494608354, -0.06497653200842485, -0.7884944851816067, 0.5957899213313916, 0.44020211627086564, 0.3172947499961791, 0.021225590398715806, -0.3345589194636327, -0.5034404810171559, 0.25966103554566067, 0.5888079883888142, -0.3746600177176372, 0.22923671191035502, 0.3516607351606568, -0.42513562748685463, 0.8396566060541937, 0.056759319213516055, 0.45340278036340614, 0.8714667656533007, -0.22052383865990843, -0.07921141920452558, 0.03580693287004298, 0.381798072400887, 0.11536773966524376, -0.5272617029492866, -0.16371571046533634, -0.40353187870105633], [-0.7165922601641873, 0.6682759869425763, -0.29359663878123216, 0.3004850736530914, 0.2278571049443858, -1.2126669283461036, 0.07342119804770479, 0.026145843341570236, -1.1287638123565238, -0.23672660308732305, -0.7884837718401051, -0.19693880385098925, 0.12397063520193491, -0.7510224659380664, -0.5279005609193692, -0.7648327074633109, -0.010707843485595841, -0.2987637751346198, 0.39034500036603886, -0.15480918295222448, 0.09544435189420374, 0.13486259009232401, 0.11003597749349213, -0.057838031355137556, 0.05051147775302373, 0.3011264462934981, -0.0637625736629925, 0.3036520065401208, 0.3525161301292094, -0.21319061599271358], [0.22965036965037824, -0.5800952326384111, 0.06204649490905391, -0.4012266009798843, -0.18484564269178014, 0.32741619591463234, -0.05793176145403933, -0.08150987961748626, -0.4968758016270939, -0.054265996318553236, 0.13652709225439, -1.0089375735665573, -0.5484903727943681, 0.14070270497222148, -0.3442646283169367, 0.13141391373055689, -0.12708340498128134, 0.17766574166184304, 0.8843032377644553, -0.4897317669764103, -0.8634503150612398, 0.6896369616094691, -0.04491568278551152, 0.09773740460611155, -0.1992764588951503, -0.8000163150458994, -0.5895713252918727, -0.414184143246756, 0.15893509747765702, -0.1321027939012155], [0.5883757327284049, 0.7564717602630346, 0.03837920751405171, 0.5726431813830196, -0.5282524807764803, 0.43166740832052175, 0.32584271441239565, 0.3360887958414906, 0.13717797226275646, -0.6744465445932494, -0.6715893061388365, 0.3121068989333457, 0.662144812682516, -0.45720349595384374, 0.3586191694801649, 0.7496430151454977, -0.22823746514201693, -0.24880115346915774, -0.01764603014907402, 0.18706329049750411, 0.4012100841252635, 0.9092040401693896, 0.30602622925153916, 0.2577866399362407, -0.053204100712940336, 0.2771629045725134, -0.6773286601674179, -0.0761383978115565, -0.6714215093411597, 0.3986803981916207], [0.007099437898998559, 0.20047399509707992, -0.16758006867587782, -0.6037632390131628, 0.9274948286297255, 0.36536113017194866, 0.11603383259341903, -0.03609093264123047, 0.10471681012427227, -0.16168693348271226, 0.9523978744092445, -0.048393602606261014, -0.9354876695818657, -0.1569322585302717, 0.42467676087614936, 0.6421377853183194, 0.6581250308559091, 0.1485871584805523, 0.1743456955378825, 0.6435565705844891, -0.04103925021426832, 0.75772843120608, -0.16609874549920817, 0.37265632943062466, -0.4649498362604893, 0.6073272511729592, 0.41918574014430326, 0.1510261383397181, -0.1772458712962846, 0.7397513514881385], [-0.234947256007483, -0.21346581525571823, 0.20520272369473844, 0.6559778355501813, -0.6179620788260861, -0.3254247246509014, -0.25758485887548777, 0.9145825908262974, -0.7697232029923115, -0.19801903670053347, 0.683181358436307, -0.05246998479165003, -0.03233893002430947, -0.48298678015869584, -0.04361695999868185, 0.9566107158947749, 0.015141202553087712, 0.5770492399197514, -0.3189715381622159, -0.02741925748306039, -0.3335728979107307, -0.9195278602292754, 0.4620908641553608, -0.9634180506446722, 0.22482483031649006, -0.08249764195224346, -0.15017819414233785, 0.536477217378614, 0.4885884178799676, -0.45085839193990546], [-0.0851255040848296, 0.4463844938050498, 0.034232630160805834, -0.14208595068318292, -0.03415283285490719, 0.8453118446772208, -0.14652929881702195, -0.5482827037855508, -0.13532169657259496, -0.18981676938016104, 0.5963910551265849, -0.024153913627418738, 0.11912612588888002, 1.0820260464669724, -0.046796544617786685, -0.5233684738509321, -0.5167115036673559, -0.4364606472450068, -0.05357904971528198, 0.41728455023825484, -0.16494311987277593, 0.2822719645153468, -0.35200614444231104, 1.1866737726363956, 0.22086447135302606, -0.22728936929697643, 0.5566561375151844, -0.30014227309169056, 0.18284796234690615, -0.5008570265099491], [-0.12031846433159261, 0.4829065100200115, -0.3223561548360774, 0.6776659065060213, 0.7204732407926308, 0.42152964822974237, 0.3491987001941369, 0.1759249047274349, -0.7769999600015249, 0.3665302886417641, -0.2727096300812209, 0.1102321824875694, -0.2696546556195902, 0.6520239111840112, -1.0186645244631154, -0.5503345728816873, 0.4142403498836414, 0.13186135789561568, 0.26480927233789653, 0.45634557860131186, -0.3602808390386598, -0.8537373174413028, -0.08805096557222128, 0.17510756773007397, -0.5958543092268667, -0.4994892979708164, 0.06322553862388682, -0.045028610916837575, 0.9591269288777237, 0.13965077107826926], [0.22370316115043237, 0.28137923171765133, 0.24434089873071102, 0.21359543324972521, 0.5473501063198033, -0.41869456642453906, 0.9687190278975786, 0.22845494745297834, -0.28587547836319294, -0.5776912566300798, -0.5594759315133297, -0.12527085428294324, -0.08320540784284167, -0.08696114247099672, 0.5877750854035824, -0.07903690619536151, -0.29153077341044303, 0.8266913299224433, -0.5078453654426657, 0.6902270622149795, -0.4431929074485003, -0.5624615941710714, 0.40806060959785806, 0.46356344227761426, -0.07719210480639063, -0.3232041424996855, 0.11480615928003407, 0.03179606899485202, -0.0760336463397735, 0.26220136626081214], [-0.5712294367223821, -0.4751127309533991, 0.8810526458085028, -0.1615655051329771, 0.6307746766461684, 1.0349762225645038, -0.3081926558129257, -0.20397799791697327, 0.1331548301912972, -0.11265919892026795, -0.46880812613907, 0.002382312783411136, -0.7064762170567123, -0.3234322780727213, 0.9269282291546866, -0.5649550393206918, 0.32028060647905227, -0.10991558541599501, 0.4783914739120594, 0.3725657313802372, 0.13910800584746869, -0.0714809061821019, 0.18269447911325407, 0.37265563377826216, 0.40398867148222584, 0.02635557173924235, -0.7440548558284807, 0.23425600726423054, -0.026607265006307727, -0.0029224979123394375], [-0.39645616332917405, -0.4258566430594848, -0.19805920244483483, -1.4216268646288008, 0.43439017870823565, -0.11523854994732759, 0.22783954465793452, 0.9826986673534919, -0.1781138274482961, 1.12019021283768, -0.5391696012303039, -0.3938937848493728, 0.562061568596675, 0.21459229772512936, 0.3296994629676001, -0.4595553609212658, 0.06476987971799775, 0.06162911784485599, 0.0023614128953613834, -0.04142281386287552, 0.09520899173854445, 0.42643733739337847, -0.22693962777785356, 0.38859568106502823, -0.4935907675685959, -0.09242033358684472, 0.1590876509765102, 0.4736750737032376, 0.02444901150941967, 0.27082418110931467], [-0.20682250102173355, -0.26759782999116677, 0.2319381980189436, 1.045753218388795, 0.25781369775212715, -0.15033455826727207, -0.13825221806001833, 0.729314489396093, -0.08688409358256526, 0.22039985592662245, -0.22487092764052802, 0.14308035640176042, -0.15713417021612058, 0.011679856763832475, -0.5813703677913417, -0.2060725262845997, 0.4472930043474352, 0.05335981664235028, -0.21299504080602744, -0.734511120941182, -1.186930449995173, 0.7782991499887612, 0.08946271309597387, -0.02500339436010242, -0.03949328959704937, -0.3994254688867119, -0.08466414482286569, 0.35908771381699667, -0.051063643496256375, -0.4134444251274285], [-0.4699898040346674, 0.3133116134617725, 0.4988746926926267, -0.619211493754305, 0.29514879947003225, -0.9050706266872097, -0.8668874246363029, 0.07186390572287935, 0.6603350188238986, -0.36076636424097885, -0.679610803465663, 0.4542183515395413, 0.460951058635262, 0.02439411584856048, -0.10880602262819296, -0.2606670941317142, 0.3853425938689553, -0.11075182723530325, 0.24888881524370027, 0.61847176222288, 0.4197067515641162, -0.21419852207273019, 0.31777735049211875, 0.29214993554029367, -0.15079867231102853, 0.21603402629733098, -0.05377444218161738, -0.22948556737793677, -0.7683693104462128, 0.161379482742244], [0.34944325133319165, -0.25986139260423535, 0.009268054097287523, 0.12544015644424794, 0.4787476509456245, -0.08874819104967573, 0.1550152415388413, -0.28134724826913715, 0.9475563135356587, -0.5247483406634446, 0.36778878851453645, -0.07705795246984859, 0.5364727128822759, -0.28261918316632867, 0.5122704513187114, -0.2697941198831742, -0.19111470389579538, -1.2004856978298053, -0.10162297082881885, 0.20969585636379814, 0.2291821025966865, 1.0754064746841925, 0.25676064903963813, -0.07120305185990654, 0.5527457996455284, 0.5185177572438183, -0.35390458108847433, -0.48088233428974325, 0.7504115538933683, -0.08765858953978867], [-0.11160354234795726, -0.5143995789369834, -0.2683896825434292, -0.3803342686582984, 0.26810591508617204, -0.15632208736220488, 0.04721315261690453, 0.5038012042896929, -0.5871275472995087, -0.33353757657166483, 0.7116260947090355, -0.6456297209202853, 0.09948244309755182, 0.12451038844695908, 0.3257163544543972, -1.2668169222767725, -0.24734716197269793, 0.4723942849413866, 0.10554277710895169, 0.08824569376879865, -0.21997762964498568, -0.6060178386570001, -0.4170556717947063, -0.41714390030941023, -0.02984371930473445, 0.13099722236968106, 0.26662259707209224, 0.09107535343711555, -0.8316303510636418, -0.21098297343776468], [0.23093897803486654, -0.7608428689133409, 0.11800366449774313, 0.17551521650319296, -0.28048531537173776, 0.0913577503613174, 0.41388348884347925, 0.47202180082802064, -0.3282096694329973, -0.011758791169630058, -0.3390921356026093, 0.007919385097079188, 0.609490537933826, 0.724649630025665, 0.21954183951168924, -0.20780245994759491, 0.1271480008995382, -0.2687148548145334, 0.5931842836727848, 0.9085203643273684, 0.17307896654841431, -0.053276012123896155, -0.24223323284751164, -0.5468970538823211, 0.08396858742444556, 0.36151919392697024, 0.30114005445524467, 0.4723996265081925, -0.3147813837238068, 0.29449569726957786], [-0.45239555917242924, 0.11438080970318099, -0.007403866586570744, 0.5049033249993944, 0.6106077822169405, 0.09937210706438394, -0.4938970011875728, -0.009817312234577066, 0.07845972994527928, 0.8686823582131044, -0.5973174027170243, 0.25034482251459256, -0.5206006219754422, 0.14601158166960965, 0.09811921676961927, 0.4325586116698095, -0.08119416477423395, 0.40938062022233285, 0.0428881355996301, -0.8061714564985536, 0.5435269421074811, -0.0808677932884083, -0.31598243929706266, 0.42988304630419544, -0.17290954900979974, 0.6708308781123964, 0.2111008008516705, -0.45296786318974563, -0.687824556603978, -0.03297791384175354], [0.4282979693810893, 0.7461663797152287, -0.00506703837459879, 0.03692226736011309, -0.3507564381306381, 0.5385566542118784, 0.19722645491151758, 0.05879654819961386, -0.04045202416792636, -0.17654290623791916, -0.3713730351165162, -0.2952513004237199, -0.2359284325029422, -0.2871383462834351, -0.1601358462386317, -0.3983081738066916, -0.486359391664406, -0.18918299039306435, 0.08664485358442238, 0.027872478265887672, -0.1329831954330071, 1.167914501415935, -0.2360224929106263, -0.42989068565976274, -0.23616678635822913, 0.015527398310062907, -0.3144432535475042, -0.9122508467958302, -0.43388537600201377, 0.2653823605299694], [-0.2498717707709505, -0.022241056863843697, -1.01900310905946, 0.14291692234120534, -0.07077511309506934, 0.03644523574900638, -0.2673406510900103, -0.3630001982329364, 0.4794490505684206, 0.12675669844021142, -0.27336843574520614, -0.017983526264296494, 0.22349570770039556, 0.19222837761396327, 0.4773689040756582, 0.004988584913960543, -0.47488447828324537, 0.4888676580840837, -0.29492371824832486, 0.29310267690629255, -0.12897615902380036, -0.36379591261365074, 0.027155044739745792, -0.5244439657272937, -0.5204238518145435, -0.5641921124463798, 0.5389761395840588, -0.024996850187027873, 0.42170859277595835, 0.47622588730252063], [-0.3824974158164554, 0.5933807621601258, 0.2954344556695905, 0.4704743540248495, 0.01105702677180538, -0.11543477176001998, 0.539300241171436, 0.5235480450762516, 0.29083592775322775, -0.3613275096488998, 0.9194297296283024, -0.41149087394521505, -0.16396771801065912, -0.16796364923418422, -0.0982579588791597, -0.046792206126977536, -0.5184060617617114, -0.18376201432205655, -0.18790667554632576, 0.2197632841765584, -0.5217008130692348, 0.3426028945552609, 0.2773134636307016, -0.06242461552642462, 0.05946811493719868, 0.2280789426872955, 0.4461165015903616, -0.31335298206303036, 0.6956442773781957, 0.10061142342486995], [0.15636000593312752, -0.20237106408627586, 0.07715207240176264, 0.18991712829841498, -0.6765755412900989, -0.9307910817406386, -0.25905949201769174, -0.6597413851172711, -0.13933588150295356, -0.07011890645696206, 0.7238820292671335, -0.13215803530474707, -0.2609905376328455, 0.006326494074611208, 0.17530524495464295, 0.007571247868758284, 1.0424986415562152, 0.5621925421844451, 0.26388094171593435, -0.056615802919512265, 0.09978559970495668, 0.3903155650778835, -0.6715919321066668, -0.29455544266755784, -0.33763932558082804, -0.33745780055554014, 0.15887467200227093, 0.26782302048841333, 0.7494271014582842, 0.8779477922781518], [0.10026354480687612, -0.5043088602586422, -0.13519837527861012, -0.36271019898005125, 0.1937137955935956, -0.7425237427512245, 0.7725425584267613, 0.517359541002893, 0.2658624780834323, -0.05892531771623814, -0.2942694772818842, -0.06145001077775471, -0.500016120538013, 0.09262504829391445, -0.21239669504547706, 0.1616808479050476, 0.8518141270300771, 0.1315137832947756, -0.245110161078328, -0.5106888938700341, 0.9043439365741667, 0.22021929107188684, 0.04043120426607169, 0.21725462199117815, 0.000494439949817503, 0.057646746404060555, -0.25030847739060264, -0.08290680194762864, 0.18085101251037655, -0.011538919993563919], [0.006205906432202955, -0.4272788722686799, 0.126039324194216, 0.09772366736723355, -0.4157243642115438, -0.09228231505949586, -0.1588236803324569, -0.9738801928177846, -0.0770218694279568, 0.17901134936475502, -0.9222588032743393, 0.4340810827067351, -0.7113805150630139, 0.2387812349860342, 0.17055223935138888, -0.10570225849696738, -0.4152414747712482, 0.22369764946569973, -0.08554363040872948, -0.9369864854216455, -0.2840953970942367, 0.5038147122632172, -0.11606745432368544, 0.1551479460014199, 0.28670322440305174, 0.5214043125893436, 0.0034028383596307874, -0.4455104269926978, 0.36562853924418537, 0.11216032620734136], [0.3849166381713445, 0.8145330903201332, -0.2930755999290673, 0.14862094443672474, 0.6444724583290511, -0.20826437618599722, -0.9667046234454726, 0.3213391570134177, 0.10841692089836144, -0.20443951496057852, 0.08769603480170525, -0.2619973578284654, 0.4496602312913328, -0.11389337278856886, 0.5236848846931966, 0.41608423622282975, -0.0191236254691951, -0.30691163523104176, -0.2756213507425834, 0.6619155146850738, 0.19080056255461914, -0.2727680972566624, -0.33133416078483136, 0.15058313713012575, -0.08499325749067957, 0.04785700199629382, 0.27271341349092343, 0.16811938837340512, 1.0640323771623605, 0.11136406041976282], [0.3711008666674913, 0.8203796099061068, -0.10378432220004234, 0.2625494117642888, -0.03075656280838442, -1.0903449418677245, -0.6683732594732301, -0.32155524474513036, 0.7477746066625618, 0.5806854291303465, -0.035681877194102866, -0.16812511061379043, 0.18365600065172852, 0.4384884233509282, 0.2966060747161576, -0.6396850372457257, -0.9021143909286645, 0.428378470192039, 0.17685128609334622, -0.5405423262203486, -0.35236832195770523, 0.22684697168926274, 0.1841050203002746, 0.05224753790629922, -0.04428646338844375, -0.2705095403337417, 0.34594586800195, 0.6197102978388074, 0.2862416703039569, 0.12536865072228814], [-0.07694083899717351, 0.345059652211583, -0.2326970346560899, -0.10596893733352393, -0.41896437741732656, 0.5867426688209644, -0.00035395046320432, -0.37371638228849435, -0.20120685087259949, -0.565068155813281, -0.00905702954138641, -0.8218873067174198, 0.5461939732966229, 0.13160154226375403, 1.0435667921327847, 0.3612405211065721, 0.5082499369813936, -0.3605692550758021, -0.5013776493737417, -1.0554474329993107, 0.2712636721703497, -0.2185730990587431, -0.1578539992688707, -0.28796086257247877, 0.31603326086023636, -0.02779284665783178, 0.038483176251496824, -0.7283396556877014, -0.11593046458364228, 0.20640705649068833], [0.1690554361348012, -0.2678272923742248, 0.6068184195308571, 0.3211498009982407, 0.09902569984741152, -0.2119850019534642, -0.7333820419573089, 0.5444700329618266, -0.889075973809247, -0.08964304939853288, 0.3335430517501446, 0.454696879255678, 0.10250122178238891, 0.01636060710331556, 0.6686132460775575, 0.6447281066840342, 0.36098313201005783, -0.21508226451485904, 0.3720948052603524, -0.1246441424774321, 0.10112601140406147, -0.26105369247544963, -0.04925741283425365, -0.2501347166782445, -0.15039572803375845, -0.17183566672540335, 0.4740938429113064, -1.352996333490179, 0.6329305902434423, -0.12866519929927975], [0.1527899756860199, 0.20530598535481262, -0.3838595305855936, -0.9286971443772797, -0.5843292819445302, 0.10002061530022734, -0.2591756706086398, -0.19997163802827544, -0.5637121354229176, 0.05431899090735022, -0.683773929613786, -0.15796234088639183, 0.41396148873727795, -0.7166120064109015, -0.36610281309366527, 0.8645895258260688, -0.09229463500217368, 0.3966100757494888, 0.1738001013018322, -0.028794057932880892, -0.13401434647293506, -0.5035551705798462, -0.4273738646270331, 0.13723636715492105, -0.010504127880639548, 0.16226734578094937, -0.18111508444861052, -0.723700690337226, 0.17875859654061693, 0.09459077859667281], [-0.29334296404350735, -0.09159660973112245, 0.6602574347817952, 0.18663779755945412, 0.20777968837065713, 1.0076283001713413, 0.1803652889840206, 0.546176819514513, -0.6207932157436936, -0.9355885264900676, 0.1004685635149575, -0.2372805280478234, 0.16565361911766857, -1.0478976146051857, -0.3006586342012295, 0.41168941114092555, 0.5943308596520991, -1.205989478983328, -0.2847299948474096, 0.30344897412073696, -0.7111692421278865, 0.43310339319553715, 0.49445028989513484, 0.08527719900759939, 0.35061960071408643, -0.19897954265873183, 0.525973243165607, 0.07796764713259473, 0.14235818389565505, 0.13827211070919204], [0.7652395496574459, 0.29258942578290525, 0.5089301320705041, -0.42192451479006826, -0.3861467184734654, 0.4359562798362938, 0.6530626139319261, 0.274117273662487, -0.2536726372421773, -0.29848278855391164, -0.560973865195832, -0.14610918816934, -0.22330761815047967, 0.2942573878721335, 0.08534655747565605, -0.029199833671032165, -1.0696380309678082, -0.005782756392976592, 0.7942393406967557, 0.2732062649416666, 0.6255575987239825, -0.6991877125582503, -0.3800545974524678, -0.3563603520680317, 0.41614202624750346, -0.06954695916203134, -0.6899250902456766, -0.09499354658553608, -0.15304501590417854, -0.24319874260118152], [-0.23496140701732804, -0.9208669893571715, -0.004386170549275349, -0.3044692347478445, 0.3197300177220225, 0.1997098016167373, 0.25493200794664345, 0.3905311907530006, -0.4958743016257205, 0.2844518053476501, 0.39347846366299205, 0.32181169153405587, -1.0297751309392809, 0.733927009409976, -0.6124431710996955, 0.44814261962949686, -0.15795053988215696, -0.4125704330425124, -0.2201553429146454, 0.17365296893966276, -0.297147331841192, -0.8188355332496643, 0.25088698733316855, -0.48148108228612446, -0.0478943482077749, 0.43426330320995643, 0.1863900491310187, -0.12666467558368857, -0.20903640052429762, -0.6435255919160816], [0.920546984020008, -0.10800042043709397, 0.21402677951851962, -1.1361408825964288, -0.7296037559878791, 0.3055876270647876, -0.017980203127062513, -0.3333513694895491, 0.44130425668389844, -0.27364926422197516, -0.6305170247622084, 0.2903186885514135, -0.5535317308778006, 0.5074328573379568, -0.21743145183895726, -0.8708834887158119, 0.8131689135237651, 0.14312423823599393, -0.32892976086449627, 0.586584934689039, -0.3988888124982703, 0.2744068992023275, 0.030922665585495383, -0.4150024103818241, -0.3520575143805462, -0.0037239739880240165, 0.49931553649977634, -0.12417571138086823, 0.4752150467119869, -0.5152034821473879], [0.4712239588839771, 0.7567407268255906, 0.142311770435545, 0.46534263226891237, 0.8080259636273145, 0.0469685965803719, 0.010960400412587204, 0.4395860820688286, 0.5411509539576528, -0.2797891284155148, 0.38802887051547313, -0.4728032065283473, 0.2986617554328391, -0.0700229230101724, 0.609156203710418, 0.11893185994206625, 0.539511857877025, 0.43468865011409785, 0.04909286999225686, -0.48181299363552094, -0.5818758110328577, 0.1737414606658735, 0.30501725052108036, 0.3411133909295331, 0.1631210512099094, -0.14403799759046396, 0.013135776248900216, -0.4672249680045113, -0.24102626277618963, 0.00878396647723342], [-0.25083904473934227, -1.310924650703411, 0.0631188832666944, -0.05122724506642947, 0.3826646591282785, 0.006624271622492204, 0.5211148640662063, 0.3260843978677812, -0.40115849119986025, -0.10717578589438284, -0.044480406896723966, 0.2950575724545956, 0.8385975249134231, 0.19771236619109347, 0.8420333562241572, 0.5041396561700057, 0.8263642535781635, -0.09201842457001684, -0.2173242134893301, -0.14381464922248555, -0.4942634250723168, -0.15965933262029525, -0.44323673610526965, 0.24952019056135472, 0.0927410885000539, -0.13263845068913843, -0.4536869974460263, -0.4557249073966103, -0.05648047159821688, -0.32259456636554673], [0.6161984084812213, -0.29416058607821577, 0.039200106481962864, 0.5197026314795817, -0.03236705973047321, -0.990267702477683, -0.123124610961074, 0.46562356690936657, -0.5173845665018583, 0.4461237349292203, 0.7415246850251511, 0.3569056262687031, 0.5073404422527148, 0.4127886777231025, 0.10000293429624932, -0.29241332552621113, 0.6663778951334753, 0.561759589253562, -0.3282481140123016, -0.17082169891610477, -0.6654736225807164, 0.4132354175624675, 0.5632118273367, 0.1775845043908613, -0.05536623286170443, -0.168349194306352, 1.1944257809127437, -1.3068579590360385, 0.037411852377341785, 0.3346863796873082], [0.39963141499745347, 0.017508856823102416, 1.0970739784880208, -0.3911510384530076, -0.36954156690081935, -0.2796881818004083, -0.5024863846851575, 0.2549572136489526, -0.39198954930901, 0.9146979619241705, 0.5947577256184045, -0.09329862593747709, 0.31563190456185786, -0.7808134728174216, -0.0814124340015403, 0.2201056192979905, -0.4747232151273363, -0.6225698471656154, -0.278467229392961, -0.6022368880897588, 0.0611204711531053, 0.08144084495475148, -0.7888931502151425, -0.023816233279103188, 0.19066009041899903, -0.14334823728153975, -0.07210036463120345, 0.4720054109753783, 0.23824434641030576, -0.08644070513778636], [0.3500738100832221, 0.5253890794120335, -0.2328431977474446, 0.31357203725314037, -0.2112732407611342, -0.18185588572832279, -0.6349287317845913, 0.841582494721819, 0.4962111697034852, -0.0989117959586947, -0.1914325484831334, 0.5446370366265731, 0.7078375047426321, -0.007317969150911121, 0.6941101639944842, 0.16023016926193814, 0.364383019258482, -0.2763864255204067, -0.16009369968826725, 0.9713362641513886, 0.5410118454577998, 0.4403015090836477, 0.2591786467212283, 0.4478539499976493, -0.31462336085138765, 0.3130604318426268, 0.371319636556086, -0.07476249637288239, 0.9794398670284394, 0.06408235309404282], [0.6216325574715904, -0.8616970582845032, 0.6855453355638624, 0.6011501260731641, 0.1936263498700236, 0.8966313880580913, 0.0257408436588669, -0.44023665495126146, 0.6767541317228007, -0.21193665819755614, -0.06589539214718922, -0.2539010437329615, -0.2716537630596698, -0.25677655184363707, 0.17020692900051537, 0.33789937710635964, -0.013888372264745725, 0.3965597137209168, -0.17315412713548986, -0.05444659856978056, -0.6011803463485752, -0.6707272365225991, -0.16790072123715272, 0.33670613615084494, 0.002275632181425349, -0.33277327651000294, 0.8551238718163878, 0.4503524382066573, 0.5254165915885051, 0.4505062766144262], [-0.6326241950983544, 0.20395473382022009, -0.012501066874069582, 0.0016804017984627447, 0.12493109543010084, 0.5430083456783095, 0.05802655930966285, -0.12352145329846068, 0.21883850810495706, -0.1512786798624582, -0.36973226629081746, -0.16736938334613163, -0.3859037885949749, -0.9073960109114909, -0.14512507657244925, 0.0005702600169486899, 0.10577247629408179, 0.024390185152028152, 0.5953404438972891, -0.22579075244653016, -0.48836910589978444, -0.038660523484939424, -0.6050219713914599, -0.6861805469600039, -0.585925194237397, 0.7264430772272981, 0.3882036011718537, -0.7081391929383564, 0.15015443749716248, 0.556031929122244], [0.7592358859240625, -0.013600814128774692, -0.3499044006455453, -0.18662079513967056, -0.023514322172504334, -0.36144127930785375, -0.2635743299218549, -0.10073241724822396, 0.6082743962535389, -0.4624524928049003, -0.6261438278327458, 0.8050967238291089, -0.20441351981034564, -0.2923796974608978, -0.24312514456424805, 0.367630227241562, 0.17751076112058828, -0.22064320640074636, -0.3595061194321339, -0.5003345108709064, -0.8354244680827101, -0.4636648677268272, -0.16796904707526236, 0.09145446306762492, 0.1209091004188434, -0.26510177508794575, 0.404079774128764, 0.29482739215868703, -0.8197194893805133, 0.009020530129503582], [-0.2336895272904506, -0.534489671327318, 0.45911082975978923, -0.1704385314148438, -0.5822745112972072, -0.018576116209378487, -0.14445377732556308, 0.5967721871943095, -0.3383359200763792, -0.3089626127224504, -0.15338672043395973, 0.7057038199084212, -0.38156458652911124, 0.29724480274867293, -0.1368467560146509, 0.35089316000288023, -0.7285025112421244, 0.26565663144606383, 0.6497033246886148, 0.05215194296542431, -0.15623970746359359, 0.14258835606661577, 0.029189649959235744, 0.3730950722108022, 0.5610304513694063, 0.3595019193028621, -0.6990631001694605, 0.18690165785110238, -0.5740681419311189, -0.07754296540055364], [-0.2353510449192637, 0.5120685865562433, -0.1945321959806957, -0.48522997866088396, 0.7299325355055558, -0.3383815629390362, 0.8956723259453924, -0.6891205616766176, -0.21158570761416615, 0.3092241782734155, -0.30050833309797337, 0.5262805823949682, -0.7511573573563637, -0.44178748469558515, 0.05609802786646134, 0.5876059301130544, -0.357812291656432, 0.5461335631151051, 0.13627509457273457, -0.5178672438573962, -0.06819969746555825, -0.15485507119019398, -0.21326425089667406, -0.3165288901605509, 0.26176137446344905, -0.18360248998754894, 0.12186658730312398, -0.20067410943598357, -0.4228188193143535, -0.07782380868080914], [-0.20494174000767432, 0.2521105138590046, -0.3096259248448195, 0.5234589892570726, -0.37312211247852656, 0.04823292469025816, 0.17491761851476934, -0.18807077650428267, 0.5717330036723535, 0.5335574271191337, -0.4077689018329831, -0.4986372062627414, 0.037293831625792764, -0.5339552022789732, -0.18856015024258738, 0.2239104681431454, 0.3266533298347632, 0.8397288619698665, -0.1695253097876451, 0.009948546692295213, -0.48053485278054414, -1.2140963679281886, -0.07710410828922272, 0.29079811707815145, -0.46119711946210734, -0.5313758141379484, 0.7581315119377262, -0.27287960223621116, -0.4990080477048008, 0.18384805672839236], [0.08306668949745606, 0.5512522589995899, -0.13702656069552274, 0.021473528969203935, 0.2088795301632475, 0.18429110900274584, 0.6607891333911678, -0.12712739147752045, 0.2640170371573596, 0.04442550274218032, -0.05016465207078848, 0.43086336234129313, 0.06796681864758583, -0.2938106557003239, 0.6835194692885954, 0.21619921669842238, 0.3557229504704311, -0.6076672795860565, 1.1623178175765543, -0.16325297717685017, -1.0336439924695107, -0.14614788818897054, 0.04326412595085915, -0.4410363096855395, 0.22690175937560336, -0.5379514875143617, -0.08765717506679475, 0.42905907265239324, 0.21515069275770854, -0.6512869134749094], [-0.39719135841442504, -0.450091492939046, 0.14960943897308118, 0.5812412155462843, 0.07128700604944224, -0.7391372291886869, 0.8427500185159624, 0.3199655732545015, -0.28107787842426835, 0.5221394895984109, -0.46517818522404036, 0.1538936680500099, -0.5775572647653988, -0.9586296645121806, 0.8186171754204989, 0.14900021971354943, 0.19279607862751413, 0.06254521675399827, -0.14468055102116087, 1.7026277197107313, 0.09324728605190617, -0.09752714627635133, -0.21470529221804305, 0.15060250111466392, -0.08531785778864395, 0.36994935948716334, 0.27497121281685777, -0.07771707842099515, -0.3030286864504045, 0.2041146391221513], [-0.24871789340224407, -1.079813748872676, -0.06221144437209669, 0.04343744504039372, 0.5548522455945745, 0.4823852916617033, -0.8155762624039463, -0.08398009555659798, -0.09657671058309017, -0.41310271561052897, -0.14910136048593348, -0.2779838201122484, 0.5594813245509634, -0.10371878382759883, -0.19273668881303369, 0.0513553205660258, -0.09566964315928678, -0.2568448432133755, 0.49701692456846513, -0.3692462755935396, 0.32341449292394403, -0.5444242151090423, 0.009938560201665596, -0.4599895192340287, -0.07658798859907183, -0.44765211027429846, 0.331605602605447, 0.466494132154802, 0.1925446389871017, -0.43685218898828065], [0.1078457329352175, -0.46278451544017873, 0.22564199897676235, 0.058452304325392425, 0.4011505847866265, 0.3445431886908322, 0.37297986548503864, 0.041587425530053214, 0.4666566898842896, -0.17646766388594703, -0.4551831606603298, -0.39839871182591197, -0.38512425864255256, -0.4413011569671676, -0.006390922065997355, 0.7455995384207555, -0.23159358892232998, -0.1628227045972317, 0.14134716814289197, 0.6571997882177287, 0.5730808987962293, 0.12213970863394512, 0.3486156547963248, -0.4862564741787495, -0.07203947276583499, 0.6248245650113285, 0.17305605364240761, 1.0423160427442533, 0.2772340203001334, -0.03167810934591456], [0.14999467170440298, -0.033104931572410436, 0.11476092706616173, 0.2707651124625789, -1.6264525645412433, -0.12224293819217397, -0.20112228537137483, 0.7676082995897381, 0.2036450211437868, 0.2334841881919546, -0.24188613185062935, 0.08787220963719714, -0.36809859575554826, 0.09399818044160262, 0.2126807348374178, 0.6701638747015569, 0.42735053759326225, 0.03724968970163664, 0.3381294512416748, -0.34706195173508997, -0.21015944758414642, -0.0319442856509958, 0.25795344884109234, -0.12648854256216643, 0.11591080713264834, -0.059153093300228526, -0.44917624223963304, -0.27364691132909763, -0.5345710160301875, 0.4809672887939383], [-0.16605331597934556, -0.1296573400180232, -0.3191199736144832, -0.20633523440578716, -0.11050738687093226, -0.18272082100147993, 0.07617432835403953, -0.8034461988977921, 0.3810907403342874, -0.45096289565347286, -0.14254005297028308, -0.2924079637769387, 1.0530759654961717, 0.2569110072465418, 0.3262342084023078, 0.5043600010610617, 0.3694714883850572, 0.19099019530603978, -0.4676036722683812, -0.22105586646320494, 0.318180022225728, 0.5247041450462538, -0.48680982771235676, -0.3624647951528499, 0.13033881713644463, 0.09814650767167177, -0.419141478108614, 0.5510765892068308, 0.6249741634939947, -0.5657264038469726], [-0.8622687552181615, -0.175842836515107, 0.4582076796503089, 0.48407140340826266, 0.7846550977322271, -0.035949139720038624, -0.6661167043950618, -0.09942823506575116, 0.016820655166835813, -0.17136618178402868, 0.267703507737941, -0.40941363693107263, 0.6768847352475763, -0.605034915479031, -0.5100305776657362, -0.833102287460391, 0.07976708474245386, 0.18080367741837214, -0.6519826868198549, 0.6017948962425883, -1.1224930234627124, 0.2968451713776074, -0.24446190479962063, 0.09273315598237299, 0.1353681860154627, 0.07177967394068671, -0.4226021435256953, 0.01223464099538786, -0.7961721342346886, 0.020773340589137157], [-0.19579264462265258, 0.2099541622196062, -0.7504318464043065, -0.20073380956398748, -0.6841830824028303, 0.6678193925993144, -0.02227346480656918, -0.2849512347481088, 0.3647519907431821, 0.33506605090774455, -0.1621668044251952, -0.6745053784732028, 0.31062500868714793, 0.670126423941562, -0.27340770705137085, 0.2287975161539434, 0.0295367268691887, -0.3092693294421163, 0.11158534536972758, 0.13327367871592194, 0.204877758635992, -0.4018619423046477, 0.11154998236120009, 0.988042680535754, -0.37059217380501464, -0.17899941052487067, 0.8435576654079441, -0.6821942144914372, -0.03472620076776226, -0.29001856520483366], [-0.4083558812413628, -0.2671934420237439, -0.2504739742635714, -0.3843611452619913, -0.15180149231232323, 0.7477905412028484, -0.5122858552634282, -0.1590849492804906, -0.3549430032731592, 1.040439443474167, -0.6982015004522143, -0.11387492982024323, -0.26320428191314227, 0.4422600155648119, -0.14362275046162326, 0.015782962091520577, 0.2663664456316337, 0.4004020227438345, 0.47339209964650436, 0.4480011261104063, 0.5544211235270061, -0.023308524140211274, -0.2335774735917636, -0.828041977387622, -0.4210821124023753, 0.2513569745984337, 0.6599976061945932, -0.24924307121381553, 0.5575607238237351, 0.5237351785863528], [0.236090110919201, 0.21611140626403902, -0.2602367131522909, 0.48460725900552337, 1.0739383805379425, -0.21262464630059563, 0.8559251985385543, -0.25005877127703247, -0.2848256825112841, -0.7108566861517915, 0.49392616362699043, -0.13154244405017462, -0.04003188503781444, 0.9675583796707538, -0.6486224508702846, 0.6471552935585598, -0.1974278671869052, -0.2004551787528597, -0.06239122648154295, 0.19970211438521998, 0.514876539556279, -0.4574140492582711, -0.2605893627389328, -0.4616294371195975, 0.27500692939650756, 0.23267651492865088, 0.1737049190124189, 0.24517940941477218, -0.5307782468885461, -0.24587366154645293], [-0.2715085761212489, 0.33852755591292877, 0.19622376830568564, -0.2872768903682454, -0.6146792459891743, -0.4966730700255821, -0.24592194723085825, 0.32314970867897846, 0.16959375089711717, -0.4156063585161792, 0.5400772607717467, -0.14097984059737945, -0.02436324846672476, 0.01339872523258746, -0.38016691885123577, -0.577901897062838, -0.05889647828443659, -0.7906674356703707, -0.5018353456745336, 0.48438831940777954, -0.0369853993344993, -0.9740385320322315, -0.28309310423006406, 0.49854851835460895, 0.7280840954122755, -0.24561387086879666, -1.0841171791710775, -0.6008012747823771, -0.2385980683635348, -0.1751319209265762], [-0.6382914486463998, -0.7708998871362344, -0.24115048365511996, 0.2284982188841234, 0.00021818399167343195, 0.20366187710477113, 0.268145784830787, -0.2680071278674258, -0.3368806034275802, 0.14672701774688116, -0.22192749417097052, -0.4227419464208524, -0.33842488940436577, -0.9248630854506857, 0.010079906475227395, 0.2529145910862283, 0.0006414596839178535, -0.054725134536865574, -0.45268817821589935, -0.25813322449695175, 0.4695397924445768, -0.43363519275315776, 0.32274596593345956, 0.9999086955471173, -0.46574791853696174, -0.5184358208420853, 0.13285779660429264, 0.7962828834880139, 0.08340473959635882, 0.2186119030193916], [-0.5549779999226857, 0.6120064592576221, -0.08737700021189436, -1.1587294202457263, 0.23836888485947574, 0.10269406146675589, -0.267584029686321, 0.47939385958603037, -0.4244750759910002, -0.2982100368533605, -0.4509386673853777, 0.5002218502774762, -0.20301223194396528, 0.783492837212833, -0.27643828162407547, -0.17871313996502364, 0.5224334453423164, -0.2937601454027065, -0.06409785536778603, -0.5919970493563489, -0.7428620277912127, -0.7925413335659449, -0.03288710872598444, 0.35142426108254265, 0.033886925580553943, 0.6191561564786697, 0.3936952203438564, 0.4755369734153384, 0.24776558979105223, 0.6765673987744545], [0.2814305219549902, -0.290715597815725, -0.07589396497984931, 0.5253230461912771, 0.10280781818216608, -0.17056116853652617, 0.15311672192087866, 0.04967193710106183, -0.5389957478095735, -0.5028785129879935, -0.231978724824506, -0.15205336564975447, -0.17573763626922748, -0.11785805953035851, -0.2732653292709373, 0.781648661110453, -1.0733645966619672, -0.10225321963601926, 0.10205919182731343, -0.6595269642723928, 0.02637194527660643, -0.7008958754309896, -0.33778555485066186, -0.45936025683053483, 0.08348769876528571, -0.021114361982290126, 0.4113973580833413, 0.2919222093937037, 0.6634237488986687, 0.9858404941342022], [-0.37153493012880545, 0.07347441082902958, 0.04231984662274802, -0.2147591834039968, -0.0758721527795757, -0.005515009456261148, 0.6437836874978411, 0.37080543964546964, 0.2642754624348753, 0.34281812554406876, 0.6752624385038255, 1.0821959429622003, 0.47845150846073436, -0.24241998829990688, 0.32582849734790426, -0.3754884840514432, 0.1916009678534864, 0.3737330980121516, 0.14901724746348352, -0.5289630510215821, 0.3958543315065108, -0.0972279252306614, -0.9438079873946816, -0.3321239225244774, -0.5022653719938742, -0.7457410203296576, 0.2100120651117384, 0.6267693956572924, 0.40629089075816055, -0.2308846611520783], [0.3601197098375696, -0.7262428304270722, -1.2443646615477235, 0.1865735546616061, 0.38676014727502617, -0.19980815546943276, -0.11734355010386263, -0.05671368457526414, -0.12870931031464766, 0.5558059113423444, 0.40783612013349035, 0.3408937278923727, -0.06474212636258402, -0.36301630212498737, 0.04859041800011275, -0.3600799589509818, 0.07231500295805553, 0.44116397410094976, -0.9695895139790625, 0.021398298046928867, 0.6707641227926292, 0.7330481347034794, 0.1234774771576737, -0.45901697131003544, -0.2537992048093069, 0.4121719605955747, -0.35541656164833185, -0.40050498749772523, 0.07479503510828919, 0.4947602390215438], [-0.7350725467619971, -1.2569432272940135, 0.040084302426053285, 0.7336965643757788, -0.03798795045989798, 0.22365853251632223, 0.07646110111933131, -0.2849378854968991, 1.2841915334841247, 0.7050563853728711, 0.3273485346644096, -0.10556786874989742, 0.24677787775847299, -0.08289524211476039, -1.0016045233462625, 0.09185384922245593, 0.6359633792699486, -0.16814336311145275, -0.4922916598435546, -0.3934546971570816, -1.3910318976098015, -0.17809721429338077, -0.28422124702372464, 0.5064050364106493, -0.23359626097310554, -0.08231644817958639, 0.03742012770483951, 0.12008249276649333, 0.0496935095182155, 0.20056859691889067], [-0.41802060118118173, 0.9567740152660489, -0.7778013347747693, 0.4466077011999231, 0.2371356062444866, -0.3276670791171948, -0.46486746755820746, -0.09171889862153552, 0.7136332898045591, -0.16553744238688428, 0.5416178174185704, -0.2100575498275539, -0.4015150890921816, -0.39518488085149794, 0.28879961379673286, 0.5990154063290145, 0.4941720195444167, -0.18649317667563517, 0.14598916703140438, -0.06897389560315081, -0.8690244723554197, -0.4463374268555973, -0.5754972319133907, 0.13251701234796084, -0.15212179318712057, -0.04247004893042845, -0.09014518757739386, 0.48252907224687036, 0.05094492137090503, 0.49404106081800214], [0.5147439086773443, -0.11904970314744583, -0.29292953679693784, -0.6111884607266086, -0.2532144258376274, 0.24728110903415515, -1.1216926582458289, -0.3124242448266887, -0.5513394241989551, 0.1609453879905305, -0.6905887325729507, -0.1691014707865396, -0.6466078110677491, -0.15865310310643682, -0.2938264863945887, -0.6047883259107117, 0.15220248693746197, 0.16284683945788248, 0.012919919564994444, 0.6162113714193072, -0.3247802234203938, 0.37191748174188455, -0.09883747612065769, -0.6527321864861987, -0.22431975537135482, -0.6869387037733186, -0.004548527093050543, 0.6605443669082084, -0.44927259326906704, 0.15186192269426577], [-0.6932859766476644, -0.19632919803161575, -0.09569844035830397, -0.7902546461294231, 0.07018886203680556, -0.0531370080147474, -0.3433058979605383, 0.6152944391382226, 0.22527693449004685, -0.39912166075074357, -0.3925525354014553, -0.4461309412833341, 0.5823901287100055, 0.4861724155128992, -0.5409603230320446, 0.7275148289494204, -0.3491987381352619, 0.3724756927135484, -0.5850478061611759, -0.05311238801134583, -0.5405505684282059, 0.5472252443185673, 0.6460555891629013, -0.457703691571783, -0.37636295333382136, -0.250699525155025, -0.31379226673551175, -0.05558899805768741, -0.007441943933636203, -0.14449853857521336], [0.031657568866905184, 0.19730322075101242, 0.39881689365003165, -0.24180233662054906, 0.8338752756976476, 0.07987625676945728, -0.03111992096897548, -0.6672723363481833, -0.39689888687044284, 0.24054986063739284, 0.3947152948061296, -0.6147782857777253, -0.15423366235544755, -0.01771471672331117, -0.5208537281178959, 0.013451901158920596, 0.4881405819042412, 0.07114245627857778, 0.008847952784508353, -0.8071136430913587, -0.42596142068300746, -0.2055260202182222, -0.1327489208655071, 0.494895016109035, 0.1432303286907159, 0.23762150089881745, -0.4294621068335163, -0.14783164673192867, -1.0374177649854688, -0.1311459155212531], [-0.059050247082098946, 0.17303498576788542, -0.5837695414504123, 0.26647792596965225, 0.7118163709695168, -0.24165796602243553, -0.09191282738036818, -0.5475448035583911, -0.5281684432653796, 0.02529826559759453, -0.9405939865243111, -0.11746957815635267, 0.43267669586490776, -0.0005169261716654698, 0.38730844822978555, 0.5054094767083355, 0.2978833418225785, 0.0048616314732325035, 0.12867985567290344, 0.98964470872834, -0.8326368459752268, 0.08648945030288026, -0.7602967311348116, 0.3795051474660261, 0.10382355124856059, 0.2055883350212683, -0.3479210835081732, 0.06288722712605581, -0.0550168667041464, -0.006489131050612688], [0.48254458594408367, -0.46297546134758316, -0.2631618746158149, -0.3799119236127966, -0.5685198428993251, 0.3460103710087802, 0.20079501013792625, -0.39043441442894816, 0.01760419639842065, -0.21191083307122816, 0.2138983088817731, 0.3140534347712984, -0.38524641835934875, 0.1722480678867205, -0.3700242327714588, 0.4118375786253093, 0.3205905447863934, 0.0018365730818846633, -0.29760753087524267, 0.874795551834973, -0.6294028964941467, -0.040383158274698724, 0.2527965610713501, -0.3952109501952346, 0.33453894441210485, 0.5246809751515047, -0.10402280538245587, -0.2978031288837107, 1.0104450437629309, -0.9509768727215863], [-0.014221315955786861, 0.4436297618414384, 0.25731202958058524, -0.10347092779063465, -0.5950153388954137, 0.24102730617868212, -0.10997249311776044, 0.5856665397890933, 0.03704466483359144, 0.6079612186298867, 0.3183813311967613, -0.5310270553803453, 0.5985668603612131, -0.08692565851791079, 0.023007872614287266, -0.5103110049821282, -0.6873502136779868, -0.6081218846137184, -0.3332819936711723, 0.6209899790556956, -0.733380783851627, 0.6494977008311194, 0.41181659455369185, 0.29262104982267534, 0.2040415413186636, 0.024429660927477625, -0.2584862721109173, 0.28458346042945454, 0.011584207760202615, -0.001069374872750085], [-0.8382818962705633, 0.6342200996314267, -0.40420686978603015, 0.47111876472654396, -0.7296259392703943, 0.3832658985941647, -0.11936421047515043, 0.2248116540012061, -0.7073485255960216, -0.5100350787728999, -0.4044629461412122, 0.25008523072375666, -0.47352042050459586, 0.14362353650496656, 0.3132228654294779, -0.4485043807793234, 0.3235285094184517, -0.04328653492276136, 0.06402793264945567, -0.32324166897623197, 0.6497774074329434, 0.15515341589392867, 0.08320919822622211, -0.44001599366482264, -0.06707407856277268, -0.7760503639203146, 0.1271292497807349, -0.22848319691976682, -0.3230121223144594, -0.03646176805854468], [0.46947752080900396, -0.5187598750629826, 0.33152845416815524, 0.39828084849511913, 0.6961792998151605, -0.28459174732332143, -0.40951911985021866, -0.09651681660399844, 0.17662505269023449, 0.004537841953367455, 0.2809435011624195, 0.8226180958229438, 0.21640320028888582, -0.6328245213176462, 0.22812531743602185, 0.30126913697316876, 0.22642814265012706, -0.16196585127260937, -0.22643338879357608, -0.510605437747377, 0.28356684639989943, -0.25137859705412297, -0.07913323828312759, 0.033345452133728505, -0.37130124200223147, 0.37813500619657925, -0.27999232404277846, -0.3675802766635404, -0.03967729723062307, -0.15451671956628193], [-0.15784796717195124, -0.22713423056381044, -0.00015132409067984624, 1.07090198893244, -0.131452805184789, -0.12692815056749232, 0.007328699165981391, -0.30864260868194465, 0.4996583088509497, -0.27554128478668505, -0.3465637264858267, 0.2865412303438513, 0.7113152262059054, 0.167116967214183, -0.10547960282561226, -0.6161048005284319, -0.30528277444975804, -0.1523651682956396, 0.08975073982963984, -0.4069177577020761, -0.00733926394301539, -0.4177823074062473, 0.18301297609825845, -0.17433445751624105, 0.04791252757745891, 1.0808795248528127, 0.28642489612057, -0.005711143709642435, 0.5821819672621772, 0.5396479802984999], [0.06717470982408048, -0.1829633184523568, 0.22484639123895903, -0.03396414731839179, 1.0212840375274883, 0.21299330435944466, -0.34353107239305786, 0.9167965673468427, -0.3618134834425311, 0.47878905910593517, 0.30541625391378147, 0.1303687842557083, 0.21047881073154356, 0.09054034311907494, 0.11112661914786945, 0.9858665411084333, 0.06324442329215949, 0.00901737780347118, 0.6455356784456298, -0.4734618203790674, 0.1713868969123387, -0.585999633834052, 0.414287205693999, -0.2969013636040119, 0.18891964927484436, 0.8000226579616115, -0.03637358785156836, 0.19828903653989835, -0.03584226281953604, -0.06479591715888285], [-0.03856248033409891, -0.031043186372660552, -0.2987818931244786, -0.9275554941792923, -0.3127844223366581, 0.226153388639139, 0.007212441444322578, -0.48483262944259736, -0.5978192696086689, 0.07760529466464836, 0.9284380613491737, 0.533963139935194, 0.8326425072632936, -0.4516066183015243, -0.4587666125432427, 0.3339784591763824, -0.5632000864405311, 0.3450190409213516, 0.5317378234877941, -0.13634897037164756, 0.029020621216339294, 0.2782988981005899, 0.5152489964848046, 0.7447942143729379, 0.029665425362314885, 0.6127481799802459, 0.1697857361725926, 0.2856149110647203, 0.5099169159257121, 0.06109005708614511], [0.09749011072976363, -0.6671809759149757, 0.36933421469883826, 0.44753268729270607, 0.3800339937017824, 0.05145626574711331, -0.654846356247958, -0.42225096778029164, 0.12883916543873852, -0.8916095683800112, -0.9070549785644679, -0.16714459211574648, 0.10308098469824652, -0.37102315362095384, -0.5215619297322444, 0.18293338749792704, 0.6976541499860802, 0.7213263344036955, -0.0891421775408387, -0.18393421862681222, 0.03827319103242325, -0.8160337088118778, 0.011865782934511467, 0.14667238504417518, 0.4441478469117466, -0.1358477810132547, -0.12343882662846407, -0.11066103194452281, 0.4371255961865783, -0.017965428076464736]], "bias": [[-1.736921218400945], [-0.13237960183086953], [-0.895006533654785], [-1.7871303523595952], [-1.0649896422935234], [0.3346288812033021], [-1.0253473233190549], [0.3402131256098376], [-0.023589605376422414], [-0.8451116449415902], [0.14907110552918998], [-0.6743449884562648], [-1.3615329751495735], [-0.3156716979812401], [-0.3685886276084883], [-0.20528460170554166], [0.009576884564417838], [0.20906708903120746], [0.06189083572396421], [0.302259113063118], [-1.136918001007867], [-0.31505371586299796], [0.21271006113899077], [0.11704379911194257], [0.12509833222510194], [-0.9826824719629885], [-0.0032555328379438625], [-0.527145473138007], [-0.3913839197911046], [0.6490206214186349], [-0.7383487501967163], [0.7890632377156539], [-0.13730207731528327], [-1.1421110826516365], [0.7172937576278028], [0.20648193802699333], [-0.656621581995773], [0.579335707614356], [-0.1812703142989271], [0.11935547896084735], [0.5984411870140176], [0.017629000276419844], [-0.21827779949869403], [-0.058911533070597426], [0.8746357769019424], [-1.670476132516792], [0.31313172278503165], [0.6878359425746581], [-0.38081116924457414], [0.02143553136393443], [0.05586334316120439], [-0.14940531795051173], [-0.3489689263475303], [0.2971238892089481], [-0.07978554004336039], [0.9521082259665504], [-0.7493526874377296], [-0.7322651290170408], [0.30093083036333645], [0.08981720747161863], [-0.6840583981993829], [-1.0065621327515921], [-0.1415634619791496], [-1.1580486661221039], [-2.5160993586164078], [0.4952859868303124], [-0.16137552070517097], [1.5154226283047265], [-0.24418710990269676], [0.4856486032174948], [-0.45251606557187846], [-0.850905901646934], [-0.3890971525554614], [0.08418433770361425], [-0.09424336055145624], [-0.169550576784677], [0.5390950638827073], [0.653521862436027], [-1.6229044360320453], [-0.4840436062318955], [-1.0095091057607162], [0.10887955579664378], [0.11367250323019629], [-1.0007874496700835], [0.5175462942146748], [0.31035439921779856], [1.2397345621016636], [-0.6273827940323561], [0.5581905160204019], [0.17475865833323329], [-0.5902165839324208], [-0.11142060156572113], [1.3400178901635273], [1.4907384685283618], [0.0294948732395019], [-2.4188869640984088], [0.31019309404280193], [-0.6180086883412756], [-0.15279199540281208], [-0.9143570882513202]]}, "1": {"weights": [[0.5552860173290768, 0.5296512014374735, -0.052104407383029246, 0.812697346217903, 0.22730792603289668, -0.10603152356554386, 0.46396059234572856, -0.06394386544907357, -0.0928903544987794, 0.23359513033766555, 0.002836771426894859, 0.14891280978456228, 0.2913662082657757, 0.0981846293004203, 0.5147995867622728, 0.18141662967924735, -0.08049112230485775, 0.2744774699757268, -0.31127978113523275, 0.10704534747282875, 0.5874113688490181, 0.500411209360127, -0.12351064428652526, -0.44318038531540316, -0.11973867267888379, 0.5568815803451861, 0.13387160688207514, 0.5478700296811054, 0.2902633480056449, -0.22749481253724363, 0.493053456638859, -0.07373704534782533, -0.009387890497154671, 0.4448411881840087, -0.22213978260173967, -0.268438546809366, 0.2389759254782589, 0.03010677768429982, 0.021373627963287012, -0.09634969612629239, -0.5576827475695302, 0.07016525310172528, 0.1415430111966291, -0.028150720587922295, -0.22040647748698142, 0.6238772391563749, -0.28752612973332164, -0.2770473931879252, -0.03787699361744071, -0.006133688572643825, 0.2281271066475517, 0.22976162419999843, 0.29429329344451427, 0.061860675324908326, 0.1429142850068109, -0.4097906155919761, 0.1905481739407567, 0.31267046645322544, 0.135671907425468, 0.026521434791792774, -0.08082250546194754, 0.6041218725874786, -0.2629679193868433, 0.6376054188715125, 0.7790186117840602, 0.19257154119123862, -0.009858703037482175, -0.6254518138254461, -0.0448911500822757, 0.2627489438992489, 0.3786623561015798, 0.5435787610938168, 0.10633608384400296, -0.1986498082077535, 0.1631143838054453, -0.2507838029353279, -0.4117666182636818, -0.2376204650350483, 0.6600254996073458, 0.04377063548685675, 0.3567873903663595, 0.08387955638716757, -0.4455425213253863, 0.4007910293495454, 0.06787012320160757, 0.29398479935466737, -0.16392988894858435, 0.4114504819216369, -0.14312055890970185, 0.1466697873724805, 0.15078510974081702, 0.061594471588958956, -0.5095407172788247, -0.5840382892105074, -0.1839264757615101, 0.7174456454814966, -0.08820394763831016, -0.03278862000859029, 0.1707861676177366, 0.25526387554745], [0.6008057451490973, 0.647662553267001, 0.022966594612345705, 0.7895507280635911, 0.33936655074191374, -0.03479957095615568, 0.576347402416176, 0.02190105709965478, -0.3266615848438099, 0.2865404820261177, 0.011214298910192577, 0.06291200862280737, 0.04101532097548058, -0.027697270413422414, 0.5986583384306019, 0.09137725139251925, -0.08163697575220172, 0.2968680178685717, -0.20378848926066204, 0.30023170875801086, 0.43253661462967435, 0.46858469360725885, -0.1393163615799886, -0.4866990319978669, -0.3389418456057774, 0.647727789891328, -0.023378169722946467, 0.6815212049681983, 0.2567020001984455, -0.5400412953414403, 0.5755117948669566, -0.11204888203666065, 0.13560578958562522, 0.429288505341437, -0.07331516896229624, -0.32495322665574833, 0.3485529679887571, -0.24323590384813534, -0.037808124379566856, -0.21037179161704775, -0.26475326523247295, 0.14398117520209372, 0.31255626909650186, 0.14363119374494093, -0.20754831420923053, 0.8554207967233797, -0.0920303820058072, -0.12688998293598794, 0.06497898729999001, 0.2176440613937138, 0.30713385545857225, 0.44166945415078834, 0.16341147233191364, -0.11495984452522516, 0.20298034227422299, -0.7048800940489629, 0.15836399680123475, 0.279861072270697, 0.1095838408983177, 0.035386793603325514, 0.33391737238857705, 0.4500577732583449, -0.2974919232157575, 0.6940775369769419, 0.8081056492475552, 0.23102810389781864, 0.1844240953125321, -0.5937877010550109, -0.4275236302281133, 0.16502559762824875, 0.35414617174988783, 0.4135029992387853, 0.03284471448718278, -0.3353018142524411, 0.13793608731249496, -0.3600876893659045, -0.3945607786940319, -0.1688690752580191, 0.679574212919212, -0.02842556845049845, 0.34387242509708554, 0.20315696356517032, -0.5515073245317725, 0.3576853498704855, 0.04852082448086752, 0.3306136801596839, -0.36457853998956885, 0.47743912015141415, -0.06124912945595874, 0.22066440051536657, 0.5499055121209709, -0.08766888129202753, -0.6356003551206535, -0.6039046187247711, 0.007536036257181563, 0.5815868215792906, -0.3047942916006176, 0.10259139231978086, 0.3366909049996866, 0.24253421077896703], [0.565716364240455, 0.7773563302173391, -0.05052100592183114, 0.5678628434306892, 0.2816339845238429, 0.11669318660453175, 0.5212917585432896, 0.0151993927209059, -0.2637922118741488, 0.13321011812906444, 0.014299304001453716, 0.37576791687755207, 0.26040802244562233, -0.08118275238320583, 0.710663826873188, -0.013108706214291221, -0.14901769340480994, 0.15181726149019908, -0.3313361495341525, 0.12002348837341768, 0.44270654726227726, 0.5112020016219906, -0.10335811445939481, -0.39188002969128694, -0.21092233776813732, 0.6351304265712474, 0.008469000588910036, 0.40098004964530093, 0.14609020989661609, -0.3251326037503988, 0.37647833578319395, -0.3002774637774348, 0.03586207632567241, 0.4667830648171942, -0.20456305889527357, -0.2996751118261089, 0.29472406258015676, -0.000546377624357871, 0.07458489916010376, -0.06169963965831108, -0.18663241201436082, -0.03992746216299131, 0.43628235402125015, -0.09781704958338996, -0.06211327370037266, 0.49256350653874154, -0.18515071481950554, -0.14906047794276778, -0.01958011439234515, 0.10468446520592942, 0.3531611059764949, 0.32897099575860617, 0.13981459080534475, -0.06742115053489241, 0.2679868581402565, -0.43219518603255547, 0.3345062196727478, 0.24505343655080958, 0.025814735846104487, 0.1467471327428816, 0.20007990355098998, 0.5230258097188349, -0.27306766159384094, 0.5937815561663455, 0.6742752667893732, 0.24607498956244908, 0.14672510623643523, -0.6291861151859248, -0.1151021609253688, 0.17299544604934183, 0.09129756658310699, 0.34700045689814796, 0.05981429455334629, -0.3103682853662476, 0.05541349208028255, -0.492680850289331, -0.5445433257816874, -0.05933640210531987, 0.632242670544677, -0.04723968377815046, 0.38529792273261004, 0.23807056314315375, -0.42027733225147124, 0.46484171143283026, 0.1420960561823359, 0.3897973088536273, -0.29020247407764643, 0.4917575955354172, -0.12784016871517037, 0.19338028902988133, 0.42216119516067224, 0.045014732398605185, -0.4984318565104295, -0.6086066973375666, -0.05456622669586852, 0.6358417829693273, -0.03534102236368476, 0.11875054474102864, 0.3140152470393345, 0.2870783621821475], [0.5157925180548489, 0.49309260971167096, -0.2809416398515704, 0.7165457034550413, 0.2638112767392113, 0.16077804384967112, 0.5760424353071176, -0.1236862863288266, -0.271754172735014, 0.24800080367792363, 0.2492731789639874, 0.15108013476531734, 0.14609114070910278, 0.034994718516259536, 0.5468576180277472, 0.0831057306442147, -0.2570795996100812, 0.10192248241301138, -0.07399878789130178, 0.060705716704787055, 0.5663571850876226, 0.1466977750770347, -0.09041120487692306, -0.4583356130603771, -0.34111551859041755, 0.4356046323505011, -0.08430990579797465, 0.4092890748113039, 0.31104926002359856, -0.40758260534384616, 0.6456345349207666, -0.2232356142715506, 0.04029007284062555, 0.5616479910473099, -0.16891554080040994, -0.28915663605545394, 0.17208842846786662, -0.009275702871734594, -0.0029579105683160416, -0.18855693045653554, -0.5457421191216097, 0.16887551223819366, 0.26710913470669, -0.06341584052756163, -0.26725617648365857, 0.7265146731692254, -0.1989202543431612, -0.3055915959803383, 0.16895050101305914, 0.031562044387040994, 0.2107510311837056, 0.3206038168654055, 0.048340335938125145, -0.033868829912152086, 0.0678443648638652, -0.46053957426855324, 0.12126895617370782, 0.2534463180515042, 0.22160012972620952, 0.06245668232783951, 0.2729198659763919, 0.8573297520049855, -0.23932588641568314, 0.6841950486022533, 0.7710014196386404, 0.3852314621182679, 0.18066018116361618, -0.6980472886451807, -0.15176141095713838, 0.05848477727702516, 0.5531859567327067, 0.49330154940451354, -0.08583970191963791, -0.3576105883789239, 0.18024451445905135, -0.15411026571141626, -0.5794110354365363, -0.2275991143217063, 0.551582163686853, -0.03522750597105812, 0.36968091950222176, 0.30486607729211745, -0.6288406613534739, 0.4425225174690381, 0.012157903835090939, 0.3059622134036257, -0.3204869702246273, 0.4185709402851081, -0.050046210539902165, 0.2653613288774944, 0.3393031249635347, 0.08098973305714373, -0.60281011736121, -0.5330160929543233, 0.020040128758183434, 0.6644223857447059, -0.07174440717650467, 0.19906407355471784, 0.29614538432984383, 0.2709973264235463], [0.6315359900536581, 0.4701682745661722, -0.05214968422397445, 0.7981131239287634, 0.45743487385903653, 0.1715716546432221, 0.5159323168809706, -0.11950732164264065, -0.1746263499204124, 0.3101383904345467, 0.023214216841792396, 0.25320247373471305, 0.04385472168786251, 0.05999826291047056, 0.6293146572980773, 0.02238894647513073, -0.021544685545444264, 0.3109207749205712, -0.35688411344846027, 0.22444830911825717, 0.3732376090523708, 0.4053555968956885, -0.16489750610631385, -0.2942076095775273, -0.31608700806816753, 0.547175508502568, 0.040782222851804883, 0.6235287306090899, 0.23460269680330112, -0.3678813523918885, 0.5768796798555076, -0.1374089361776295, 0.0660281436994127, 0.46945349835641764, -0.1431384363681112, -0.1984967602659674, 0.4117561220924959, -0.07131206982100682, -0.034855895429800866, -0.13702329501736688, -0.39464535417035745, 0.0672528926919712, 0.08776303606977556, 0.036596089642407355, -0.1827813422441229, 0.6912365870168345, -0.12595041409962413, -0.1666215609701225, 0.018988124923867193, 0.00823407532293147, 0.11783999804440497, 0.2559140107306429, 0.18411613458137263, -0.11484048610150493, 0.13912626380844542, -0.6387980968823264, 0.011723010254067275, 0.19010707032194515, 0.0965077906574237, 0.010484881925865434, 0.186821010656045, 0.6603055180105619, -0.04237156727673283, 0.7694670441022755, 0.6709928133194659, 0.11232070590081066, 0.05855540342909544, -0.7058769890095857, -0.17535591812120635, 0.018201037954680945, 0.5536978528207407, 0.5078095112644841, 0.07754650152080779, -0.3478844606152322, 0.2205454723335234, -0.326578846388711, -0.47083999155692025, -0.13451690739407837, 0.5335712327318359, 0.12681810237272917, 0.34552422360803325, 0.12975673164862786, -0.3754404780605128, 0.4338476794046424, -0.0016703846763926678, 0.2918039766091803, -0.3264709134266527, 0.45066216130982295, -0.0777661468674078, 0.21868359137167404, 0.2772457361249859, 0.11463748833140193, -0.555558941067838, -0.5821517703543501, 0.0030108468149369133, 0.7694077549845784, -0.17699863969862573, 0.0531253548955228, 0.3626829130283976, 0.2460104270777293], [0.43786715188556374, 0.6363765688251474, -0.13911646455942228, 0.7020513229276882, 0.32175905544756, -0.026039945335052044, 0.5745826613151556, -0.13388009223681596, -0.15489341478445984, 0.2883938239262041, 0.008426642597267876, 0.10843796928162011, 0.3071184641511842, -0.01311248897842971, 0.5058286428376931, 0.2515556943214481, -0.1670541918054224, 0.2269854581879003, -0.410380224806052, 0.18464544461478988, 0.43959664650985114, 0.40685587104916165, -0.13014415635875473, -0.5658148323589842, -0.48704786368642006, 0.5678955604372238, 0.11472373646682245, 0.38346897500429095, 0.14116025016874012, -0.4265728184077637, 0.537436225368797, -0.27844292533713566, 0.15040743480106533, 0.49388775649082417, -0.19111476776825687, -0.4786663150689719, 0.1805710637341069, -0.09674278900728228, -0.026973819382023492, -0.02406124424008205, -0.7129476569602143, 0.05908303796238849, 0.479753175137222, 0.01743247064589612, -0.22273720559117513, 0.6680142566231577, -0.0689767279203983, -0.30091892883498866, 0.19005483440031137, 0.10397214096163479, 0.16980990489075515, 0.33485297372564843, 0.20903526170247844, -0.12718124463569028, 0.09278601271105937, -0.549175640645045, -0.018937084222649458, 0.31468087998344857, -0.0001421133818126632, 0.0840988775196322, 0.17222733871486978, 0.5589454895667941, -0.3361988223742076, 0.5490625812006881, 0.7855352453970406, 0.26629340713336924, 0.16222418619679152, -0.5986716801512144, -0.2633839114234507, 0.08702270953670413, 0.5699404653393255, 0.38714994626719373, -0.18902626617620524, -0.3762106473376964, 0.1324907632053017, -0.4152376548594285, -0.47308230231270215, -0.11117789690122214, 0.5322813133015009, -0.03091382787853609, 0.37974549074727276, 0.15536792375206632, -0.48791402071451917, 0.6559060910158921, 0.13674182996346015, 0.16649659590984045, -0.3133002808284452, 0.4266675612477254, -0.2305800467977623, 0.3235450020205487, 0.36249425095041854, 0.05445949946636574, -0.39588965323401926, -0.5010963022148015, -0.13281839271199145, 0.6586146757887417, -0.24661419360643874, -0.020058085055509114, 0.28254147135570185, 0.23295460074351063], [0.5565800757292461, 0.5891561743600993, -0.184994721618946, 0.693459459777326, 0.5117412354181581, -0.07513359844633195, 0.725407634155026, 0.03641948463580806, -0.18257714832208324, 0.23398893510458427, 0.09711372998034025, 0.3061541961819054, 0.250111628065174, -0.05150051425269345, 0.4855518002792743, 0.030559723479141963, -0.15486892134211241, 0.2896740897303739, -0.3737556036081583, 0.05229966784657479, 0.6158453632009226, 0.4766581978223637, -0.28807178545982826, -0.5324412568264487, -0.4261941148151208, 0.530338768778051, 0.05691663813861627, 0.5581434789356688, 0.2399320121721643, -0.40144055919664773, 0.466458827067943, -0.312642771755818, -0.027989907185450916, 0.6368188867606174, -0.25818128459331885, -0.34289914450318654, 0.3263333346458052, -0.17530010326996529, 0.08407352622236297, -0.19887680419525786, -0.5240884614863357, 0.0016729905996931789, 0.4890997901836415, -0.009402640957795845, -0.11937361010539624, 0.6685194320648009, -0.15154749382045363, -0.19141640645950903, 0.030336524758744703, -0.010650122576705197, 0.36789299920108415, 0.3115586169411535, 0.11572657765955942, -0.03158132940129999, 0.1437164952050881, -0.5614308376894824, 0.20000491720503996, 0.19837297665587605, -0.07829791802821692, -0.04733265785002012, 0.23077635396690044, 0.5618734230734713, -0.42822334531803574, 0.7813406632385155, 0.8215905296559423, 0.162110234795844, 0.24614156191803244, -0.6567360141947515, -0.09053754897659826, 0.14233549396284154, 0.39946283656959725, 0.49547158489068094, -0.023671520474842427, -0.3392083699407067, 0.07346136967873239, -0.29349812550568577, -0.4100560802894721, -0.20612818324608917, 0.664920724144627, -0.14285627443564716, 0.31994120079493743, 0.18256748490529257, -0.551569179174293, 0.5506407364544155, 0.17601825623781267, 0.1993057587961592, -0.17107629115186812, 0.36666429327469907, -0.16854804466493062, 0.14954328669598654, 0.47110683179305957, 0.052413098341423534, -0.6254216602633274, -0.41324738979754927, 0.060925822891085585, 0.6114896065897852, -0.21998753878705846, 0.12622378907388132, 0.3321533036513438, 0.277594933359794], [0.8239832449899196, 0.619783519383339, -0.10100026826485277, 0.7769905611757711, 0.3676856751870676, -0.06068038578257785, 0.6027821481240045, 0.01810645912899981, -0.21444792602068496, 0.2147054877315424, 0.08965892656109321, 0.20190726634334824, 0.1567369095004736, -0.02099270383484877, 0.4743119057900834, 0.0723953967629417, -0.09331513728232622, 0.2537900322184368, -0.35958709592032895, 0.16668983646372112, 0.46001357239106416, 0.4423697839197281, -0.17803960179066872, -0.4408777313097058, -0.30570671932354154, 0.40786259170772504, 0.011460269906356669, 0.4340087638342465, 0.21364989383432142, -0.3035406442520887, 0.5071141189840302, -0.04203595766636862, -0.0760639287505229, 0.34791973763557144, -0.2893394534253397, -0.23855960749468438, 0.25828165749370663, -0.13242935087823732, -0.1145247193460231, -0.15679873068369213, -0.4934970885581988, 0.12195172509614624, 0.13132446965162872, 0.020763607172724147, -0.2242451799994248, 0.7275295742932412, -0.36047837647789366, -0.2821921105904703, -0.03516577885878243, -0.009827872053566432, -0.032116668908589885, 0.25653097344399484, 0.17212914379903235, 0.03466733665618468, 0.04499622883573034, -0.5678275775705358, 0.14460247166850793, 0.15093192408504644, -0.059711411814646086, 0.028681098001105663, 0.06671698463819097, 0.6934908794891863, -0.14226732655794758, 0.4467375979196999, 0.8738641958821304, 0.23505147379434338, 0.00554175001558233, -0.8379804531765623, -0.3851670159822341, 0.09168312644679877, 0.4325346007760585, 0.48970535419651084, -0.07594969455051198, -0.41202862412617025, 0.09683505989714541, -0.32821274540580486, -0.5094152170607, -0.11156283989850216, 0.5383798039067873, 0.09383103928899134, 0.26178387354638866, 0.137234823466327, -0.4614992403742634, 0.6140219709425343, 0.13523244618989164, 0.2042295748554383, -0.31493981151427636, 0.4566221250625949, -0.1650273076753476, 0.31831826882069697, 0.3076294022236564, 0.02865971729475103, -0.5917559374665712, -0.49696856654743643, -0.06174501889986902, 0.7373321179138411, -0.02233996446838844, 0.0915409633037602, 0.2324806073180826, 0.42534319452620767], [0.6381435304330474, 0.4912435046836454, -0.13265592205202428, 0.7117639523971403, 0.2214769210569903, 0.08877236805852808, 0.6175221834091916, -0.02481608536802942, -0.29559821013617776, 0.22205226435216177, 0.081128102311809, 0.08505593052444889, 0.30717665878184464, -0.007402604183844822, 0.6872428436135215, 0.1419322423901834, -0.06043590239378941, 0.31534065668116, -0.3701105074278048, 0.15356192843567584, 0.5881959914936101, 0.4166622157102822, -0.26756776152526807, -0.40840755194222733, -0.3333519007372486, 0.4999789200868856, -0.016460921262840607, 0.4473622007574525, 0.3240324161910135, -0.28840891487504466, 0.7225334210894826, -0.06838100009523533, -0.07931548226880843, 0.4178887312323657, -0.18726684857139642, -0.32446476835162447, 0.3541061799652436, -0.02268150278459775, -0.06851557304963846, -0.283351138065419, -0.4374638052987968, 0.06692144638931169, 0.4487282046714593, -0.1350003814699465, -0.29953578200331266, 0.6260486571169462, -0.31635752135574735, -0.25462741447789156, 0.053382763156060484, 0.0698563180131442, 0.10121110290388993, 0.3914749349654553, 0.14409061969011625, -0.005816963249569524, 0.1896165787887915, -0.43668299145333644, 0.22741964055327393, 0.030356877466428903, 0.12914758838175946, 0.10326102410789278, 0.16914162146870537, 0.6752016201583767, -0.1919142111837456, 0.7372554800377559, 0.7327694535726575, 0.16819232771706147, 0.12090992562190833, -0.7292673774974356, -0.04044346616498617, 0.1904153387333385, 0.27414665726656096, 0.5434002895928254, 0.10362161105834203, -0.4280380370118427, 0.05502927158580257, -0.32301969175877876, -0.4256725479206983, -0.22535310972479927, 0.5912061180771423, 0.11464921142824448, 0.41137204906977487, 0.034564923001105856, -0.5076885685146768, 0.49859209820381817, -0.004463863549413464, 0.19927265844391598, -0.09336346699232914, 0.45968456098831595, -0.1441044969191689, 0.24157931884140876, 0.3680537462527861, -0.02037263338827918, -0.6260703621245405, -0.5786966165276615, 0.09685506539073512, 0.5000899885888385, -0.008252497879278842, 0.25411540376359315, 0.3366481762632238, 0.19607162134916392], [0.460944418952973, 0.7686979054245021, -0.15202832753492507, 0.6399316711714794, 0.27106425461734496, 0.07857962823732931, 0.6819210712843876, -0.08916557688426605, -0.28730088171284907, 0.1756617259361882, 0.20706658773983402, 0.18241597966585607, 0.1716225263397744, 0.11901627785487828, 0.5783655243535359, 0.09127375326978993, -0.1338729409433744, 0.30807732509714697, -0.11083210139624017, 0.06156442618390665, 0.23119199094073448, 0.38071789652378535, -0.1279876900003287, -0.39586993960070777, -0.30313672285221827, 0.7182789496542848, 0.024939775865899055, 0.37948663144881145, 0.15187632973464732, -0.38578023630672986, 0.3320613809461598, -0.1189884726780496, 0.1487601460283728, 0.29061862348536543, -0.20166866661244365, -0.15915279939546634, 0.2966549784977191, -0.09929660290772654, -0.08168933506468816, -0.04259014119633057, -0.37684521229615586, 0.03085665500881292, 0.29825000370563587, 0.02280613048032862, -0.1467999200279143, 0.5073075580877877, -0.2399204496764789, -0.14042408416171684, 0.05037177358868716, 0.04953918476610554, 0.39609847751949456, 0.2859205132531757, 0.22493660779320884, 0.10814587145794603, -0.053794182491702515, -0.49575634788476575, 0.29240900704869977, 0.29270847287944, 0.15243168145486005, 0.03859865236375369, 0.12437617893179857, 0.5673333709247603, -0.13531273267893343, 0.5293220741618351, 0.5790651975055173, 0.27222978368456785, -0.009536159118607774, -0.45560125316135386, -0.014976975404912912, 0.2297779741558451, 0.31891199251354485, 0.3033095523677111, 0.015332535368094534, -0.4088865716568524, 0.12719518144530653, -0.21027497793781377, -0.33181111666744134, -0.04573604163145949, 0.36508234343787344, -0.02527071232637096, 0.2485797829630334, 0.14657574792757827, -0.4738987792841148, 0.25580162227980024, 0.04869274936980551, 0.3078033331698479, -0.1802060019609001, 0.13543420094853842, -0.10843109473485693, 0.25004589898378243, 0.4125696614285561, 0.1547472230620146, -0.4089504202578461, -0.5533588401047671, -0.007443478241041346, 0.4469288222844564, -0.10749225100957907, 0.15425057375219486, 0.2588515316568003, 0.14538356935734892], [0.6949534872897966, 0.6334472749629564, -0.04498990481555822, 0.640782571634482, 0.2496565038981383, 0.1346548530273129, 0.5782941192180318, -0.08621922870913533, -0.1589354208107514, 0.31079129122619836, -0.012627376220287067, 0.30580632060259977, 0.2107665947493535, -0.09347669614094657, 0.7725027169809735, 0.0673034776877806, 0.039139127957389705, 0.12377398426062526, -0.21079138948599813, 0.28755458183587373, 0.5799195671744604, 0.36789444537662463, -0.12987902827648057, -0.335747942988115, -0.2960103370880812, 0.6112386765912674, 0.08235031917230942, 0.5698957075524586, 0.09924593334065242, -0.42324911290547323, 0.3484337461098258, -0.3379452548648252, -0.09981050814287531, 0.45929880356900277, -0.2122677191600661, -0.22007089959671922, 0.3488844671517245, -0.13253946430114166, -0.07557383129277236, -0.2408265139243106, -0.22539690304144885, 0.035428376528660745, 0.35831196003452054, -0.15645233762953065, -0.26978512792670717, 0.6622783049514805, -0.3281725898238821, -0.24836082309445892, -0.055165094364563336, 0.05672976036854539, 0.22654990497259517, 0.33513982272925225, 0.21048119381349867, 0.10289011531742841, 0.19328780312867658, -0.6229579974096974, 0.07247947213935524, 0.2020310388765333, -0.08376330760336155, -0.03802904180170846, 0.17752502381904134, 0.6281430005838534, -0.2737974568745634, 0.4765647163701343, 0.6748153847089681, 0.336704974087811, 0.08619183451323213, -0.6384122508016906, -0.11510291262201823, 0.12482263725388046, 0.28043162305116787, 0.4851493367310047, -0.28078066550945197, -0.25802455385206063, 0.11311258961592156, -0.39509020359035957, -0.490304317244426, -0.18196931616337464, 0.6034817098806552, -0.009465256385579693, 0.23011195041883742, 0.1539195779088725, -0.5221696958134109, 0.36094957478445305, -0.11728977466089113, 0.17333679155884102, -0.3275793949963081, 0.4717497178291432, -0.08204931723929097, 0.30470243728423113, 0.3840144481726269, -0.06131885525033051, -0.5687273868161781, -0.5676358825014279, -0.007081511300516067, 0.5219947285016759, -0.1565244432025127, 0.05735668765513783, 0.30357136943564583, 0.34426178894297726], [0.49951014587405107, 0.7191520818039556, -0.17175420884778367, 0.7301276014021104, 0.20352254878925383, 0.062307756363696995, 0.4450108443389572, -0.0837291029831017, -0.17794826322406257, 0.26753171423766686, 0.025870394376586437, 0.11034677997620565, 0.4706503874569234, 0.10777745922981032, 0.5217009513078587, 0.06354827591561493, -0.010630169260508237, 0.18849325826796332, -0.4768949253823822, 0.1880719855798068, 0.4768458362982306, 0.36923059466322, -0.14635635345664824, -0.2707614951604764, -0.3029495591569177, 0.5699309515418697, 0.15810925512765567, 0.6247311089301549, 0.1858333490378161, -0.4388143626768649, 0.32467228764931777, -0.10716138748331987, -0.016718817564862314, 0.30912930018178686, -0.1568930666820251, -0.3680056598035763, 0.28748452899694515, -0.15225020535210324, 0.06486927563507865, -0.186608547184553, -0.6662809064320047, 0.09459289588151443, 0.4192823792900728, -0.16872499788168865, -0.1952812381913836, 0.8604794739498685, -0.01603547004727139, -0.1949340905618497, -0.1304728848712183, -0.038338337123909674, 0.29762122164180904, 0.2713196420092579, 0.19909550853578176, -0.005707133533601717, 0.0704207418816896, -0.7216086534765302, 0.18320329209783628, 0.304617550731937, 0.03693495258509192, -0.023377803921180575, 0.28389571343661235, 0.5571576176946431, -0.2212217662390953, 0.5531085166586058, 0.6356753155072168, 0.16475829382055462, 0.2733761896101226, -0.6949746354028891, -0.15215729581865045, 0.026049136787431003, 0.33867116857152435, 0.31219303798693165, -0.16858219627596988, -0.3855526013776841, 0.12917213996807433, -0.3984268392308036, -0.5079195426457962, -0.12623733086871075, 0.6423604986984129, -0.026954360216515632, 0.297768208880326, 0.18877744313427297, -0.5902230108844114, 0.51301958609804, -0.06722339228462766, 0.2054793472019429, -0.3702607752710885, 0.42574694561935567, -0.1544031529309574, 0.2973448891790361, 0.3878794497746245, 0.10903622148387893, -0.6466303578670854, -0.509464107852174, -0.10441240361200067, 0.7004729387693842, -0.1392136477852089, -0.08253373765108162, 0.2093509866332272, 0.35124386007606173], [0.4811227069956166, 0.6473094402355308, -0.05228098755141581, 0.5901824157562949, 0.30802327783323635, -0.06534389492777382, 0.5192997758458049, -0.0827223314344582, -0.17966189248517597, 0.37167382642276736, 0.1170621983385821, 0.015026471938458711, 0.22624179353291324, 0.08242390278626364, 0.5159484351993068, 0.021291522702553824, 0.10551711550471835, 0.1745579752925783, -0.3041156959401793, 0.18840160036387227, 0.5305674053620766, 0.5530571961666655, -0.229338033483339, -0.34813854266238264, -0.3431070653315231, 0.5432842910126605, 0.0715977741993602, 0.605919533446223, 0.18156071408024776, -0.35469660076860726, 0.4125665970462282, -0.10795911083817025, 0.09665120073026265, 0.4328816529876219, -0.20639419627900993, -0.12131154320320937, 0.17853131201812775, -0.18387939259366967, -0.1679640392721258, -0.03326705554888246, -0.3605017499819367, 0.21122235117460214, 0.364623505581366, 0.02709561406232849, -0.16215395678688305, 0.6358630361698808, -0.28628665330557335, -0.22536346837373722, 0.04189850861652348, 0.1854029654681165, 0.334562177916106, 0.32439155084085974, 0.32002851938572263, -0.1601834529163729, 0.04155206215919754, -0.44608154236374864, 0.13470295213848166, 0.05158804692025457, 0.17584283461924965, 0.0809219522344028, 0.11801353891309141, 0.5361027339316112, -0.2570295050124109, 0.5625288756086383, 0.581175756741474, 0.22760303269295046, 0.11207368828905971, -0.5835633801648529, -0.1285840082511867, 0.126786913624465, 0.24106792840266955, 0.353254036298653, -0.005251691904065623, -0.05756023233947309, 0.17340565330776261, -0.18343583424519033, -0.39866759161858883, -0.3132195928995713, 0.4312020240409291, -0.13328229631627767, 0.33452576805248446, 0.08346859982448149, -0.5120087621869557, 0.4873286888916151, 0.2241567607340359, 0.052004939379704164, -0.051746062491281115, 0.28752202270238547, -0.16746354823221227, 0.14934972246093597, 0.36529074547845286, 0.0776251527350984, -0.4539013526540037, -0.3619689511037485, 0.0837487569563501, 0.4832601068112054, -0.2731237350006899, 0.13713948418209318, 0.27484247705095904, 0.06359670096561414], [0.6482544948586009, 0.7451359391677281, -0.1456853916036257, 0.39521645971810243, 0.37418574575043156, -0.011790057803190373, 0.5477255808186066, 0.08442836588455366, -0.3635203678136004, 0.20643873137602872, 0.0037638282340394912, 0.28723521126600116, 0.36768833906434056, 0.053021741937605955, 0.6247824268828605, 0.17135431835851578, -0.1504010881856184, 0.08674773109731397, -0.15793194884282669, 0.3987952821338494, 0.28568038077320934, 0.3824656432970169, -0.24128232878716227, -0.3959914850752089, -0.3104372247384789, 0.43720552168451204, -0.11381710331750416, 0.4134943667338054, 0.4003207345376395, -0.37787894293734053, 0.5192011796469895, -0.11367633032823622, 0.035289323264204905, 0.38583946915168366, -0.14029594419979444, -0.47822330432549254, 0.06982708545375368, -0.23923561715744648, -0.11511015482291002, -0.14507300360870964, -0.3885385236474991, 0.14795626909699852, 0.32538245052330084, -0.1033080935686539, -0.16739183419778425, 0.3881204861566044, -0.045930934159253096, -0.31569367108025503, -0.12946441016541238, 0.07957520896977106, 0.23964930403657173, 0.4147909191227772, 0.19778449186742167, 0.06073943379871808, -0.11831476137248113, -0.48414598078111165, 0.22569990610067237, 0.11350341203527392, 0.23317769981782813, 0.1796749789530208, 0.24942893667941102, 0.5429115757275264, -0.22516764312998208, 0.8010949288541023, 0.297707239023862, 0.18229856176616288, 0.0821844659094205, -0.5408880241622083, 0.03467686747518887, 0.1179803938765855, 0.30236281292579825, 0.24001182198291715, 0.05397711519926874, -0.1648445004060444, 0.26979184631208, -0.17817902873977048, -0.3942877367644833, -0.17889496045345737, 0.4060220405732248, 0.009561062344761237, 0.3594511545893468, 0.16922468224887788, -0.3195767219454977, 0.3473744042190244, 0.08083643776936784, 0.33956890014862656, -0.1903503956494454, 0.301663181655257, -0.29889323261565787, 0.07799532183771839, 0.29387962262031725, 0.12622089838706105, -0.46136126953227063, -0.33878530235077947, 0.15044271336012516, 0.4332634200185791, -0.16365044320043426, 0.07788856385437548, 0.4098394236480342, 0.1429853857246951], [0.26229908029872895, 0.8385112436781926, -0.0852933296509426, 0.4333706992579521, 0.171014510208567, 0.02461610180919476, 0.6317737520547161, 0.023251585093573324, -0.2642609679781182, 0.24135226925111886, -0.0020516882034267657, 0.15417685023302932, 0.07492920685039939, 0.03779163756058283, 0.8230111531679427, 0.1725359170539045, 0.01724044802283218, 0.23523245028334303, -0.21134795406606713, 0.15160344213331503, 0.10567714601768234, 0.46880139896467793, -0.0951045918572311, -0.5755963461927265, -0.3054118609685291, 0.5673728482719133, 0.03720672608606503, 0.24086300987284925, 0.19227365933848048, -0.5197568802239442, 0.4265106008957887, -0.07764733386349067, -0.06193062246874127, 0.27345283289024913, -0.05224645115408571, -0.582256741327348, 0.26181644958160266, -0.11357174375303983, -0.1289872281526721, -0.06416785523792548, -0.2548754315669166, 0.09425247928854275, 0.28091998613267893, -0.1600734134135911, -0.1762485852732675, 0.1322103992739185, -0.13954144246211142, -0.31413794790878696, 0.059285393813955936, 0.06549877288733716, 0.31721027716578076, 0.5154894199133166, 0.2721463061338583, 0.1877533593408721, 0.14849404360818247, -0.5072044313767798, 0.1608668763905339, 0.16697493820029588, 0.008437825962951865, 0.250786683447406, 0.08769018576732583, 0.3158327121253006, -0.27937651919646705, 0.6903430877444148, 0.412340854911322, 0.21540416618471286, -0.01024652380903598, -0.3194589051225208, -0.006464191418551727, -0.025164674636788637, 0.40518289255639034, 0.3465105200260434, 0.09507052964211325, -0.21232392417866858, 0.10109380576121456, -0.25481827085958514, -0.445161798441899, -0.00022543933374921248, 0.3976800914466327, 0.05052557345436012, 0.39804166617762343, 0.034534075471481504, -0.1454040686705967, 0.22167649251448715, 0.009694980149602376, 0.21144766383194644, -0.17064882373396448, 0.1554017030219845, -0.07078479454319758, 0.18229316544707294, 0.22547548787572375, 0.04700857783380949, -0.2852584165002196, -0.42746981488523317, 0.03835864935038218, 0.3777678534309546, -0.12954808895481268, 0.1651482026070887, 0.31211203058397036, 0.2660659368628659], [0.6564397647889518, 0.6465900790184139, -0.11293542707310668, 0.783140661697405, 0.33456293066688386, 0.001641043579045772, 0.42186557645760103, -0.1512571035070022, -0.2679655241068474, 0.2723468670616838, 0.11842817662138407, 0.12178069951716529, 0.13572350845349576, 0.09804773711982905, 0.5611467802009038, -0.06707938500756139, -0.20739064536386645, 0.36952026283490114, -0.22647488298942028, 0.2316965792676425, 0.24434366007148206, 0.32365786462899443, -0.10598487639170182, -0.3908267783072558, -0.23974838722936767, 0.6198744114808922, -0.00924717862060243, 0.4395105024290779, 0.13156978841710673, -0.22359902381913788, 0.6403066505113413, -0.26234627273899624, 0.15322477538865453, 0.365566050826216, -0.24343648177952007, -0.4178438396064153, 0.27311602141273833, -0.10953437467423495, -0.01474934867251654, -0.1590407194700041, -0.44075571486290505, 0.19211473547546581, 0.22231746108574119, -0.08341487119505897, -0.20461638478864755, 0.43662800674131436, -0.18305562200527714, -0.22579443496834906, 0.09719866561312844, 0.052088706753773806, 0.37366188955092366, 0.4983319890180243, 0.1797971604977264, -0.0956079726324127, 0.1247676703717508, -0.6284234314349704, 0.03790253793648445, 0.4272265629556735, -0.028106181233610077, 0.10459349549629976, 0.19679148219477233, 0.5521524431942328, -0.20742230961227137, 0.7506765309207734, 0.7168580095895783, 0.2643793839594256, 0.10573943153239469, -0.5320429672566585, -0.009347800768768705, 0.14088104641453092, 0.438314399991768, 0.6369501814265417, 0.060490594456538344, -0.19274751241284147, 0.06062454801449735, -0.2633320612608378, -0.4037719531119438, -0.1544940766632335, 0.8533865278126771, -0.03758752622631698, 0.3770926993539819, 0.012933959188125985, -0.4638666915210604, 0.4464200065197234, 0.04503848300271235, 0.23662268687895105, -0.3667557739693899, 0.2404981616572499, -0.21505245455433633, 0.19118588713635687, 0.46681997548987025, 0.08747521901601629, -0.6379384433992219, -0.3913147059332244, 0.09163139326444027, 0.7227412395654095, -0.14208055171329684, -0.03231278418701396, 0.28630926871017, 0.2726704351459086], [0.6190789838990779, 0.48887739505621397, -0.1204968863971796, 0.6757819338414135, 0.3877035687145522, -0.13081463406896937, 0.5580952678091778, -0.028887619404115543, -0.1826976018602507, 0.1400722489916506, 0.173671973775328, 0.13414543704972626, 0.2001557012912853, 0.05436401519901133, 0.5434421130102209, 0.1367831858418126, -0.058758771784598166, 0.14765460989742304, -0.33000809997831637, 0.1625830741036036, 0.527741019576305, 0.21271453409959512, -0.20401634362551038, -0.302360374354675, -0.35410302565581225, 0.37276491489883895, -0.09409673716995429, 0.6963345469687046, 