{"construction": {"0": {"name": "Flatten", "params": [[28, 28]]}, "1": {"name": "FullyConnected", "params": [784, 100, "object>>activation", null], "activation": {"name": "tanh", "params": []}}, "2": {"name": "FullyConnected", "params": [100, 30, "object>>activation", null], "activation": {"name": "tanh", "params": []}}, "num_layers": 3}, "data": {"0": {}, "1": {"weights": [[-0.006481734898528046, 0.025216949656958337, 0.016745245242423552, 0.01661706711862307, 0.036992676611189414, 0.06364248548225628, 0.07445133464099817, 0.04815174134170892, -0.047336232011352876, 0.011812835321168396, 0.06454428094827981, -0.06383700118215388, 0.0050166633587932635, 0.08034134199645847, 0.024570189097074552, 0.09176949523514476, 0.03437338564576208, 0.0708596779132739, -0.008168143098100716, 0.0037089455750082033, -0.04021529501534902, 0.005871325952905589, 0.03308593994227814, -0.0004578066893412882, -0.00650322532948846, -0.034231618285715304, -0.021101466000454976, 0.006045541792781294, -0.0038028431403633605, -0.00533598173499309, 0.058310865186938225, -0.004404305851576498, -0.08490451980759223, -0.07845147684268172, 0.07644986859912448, 0.07804458721855811, -0.10102874980314029, -0.14481964177588008, -0.08538039857797651, -0.06330074169772341, -0.025520611163622742, -0.03985340814071107, -0.08151406383651387, -0.12631436429523238, 0.0622575346411321, 0.011525630781005665, 0.05830200607391427, 0.06759887475319662, -0.005531915829005956, -0.01639417629184204, 0.011974597402897096, -0.09369349423910188, 0.014528887866771801, 0.020169512410457446, 0.06741876978140143, 0.043157069243821754, -0.025438765126923113, 0.01617594805155691, 0.08891208076499868, -0.09606202364726203, -0.0765290582706922, 0.017620175182733268, -0.05283922561836817, -0.03273313959407961, -0.08684467169154228, -0.05717842423907649, -0.003980007981669311, -0.053522303834625404, -0.07178746159784663, -0.1300807586460933, -0.1919824823740242, -0.07664769429967101, -0.03361774541980203, -0.0015139570081985007, 0.06515897964839537, 0.05748124775566418, 0.0006503315272472664, -0.05426671099220278, -0.012543959345662171, -0.01927189728130352, -0.00308414686995087, -0.008575075968564733, 0.02625024276261841, -0.0042775512416500195, 0.0765770959921352, 0.024975015054850065, 0.07942582052667428, -0.012275975257448979, -0.014722507606515629, -0.034582777224809555, -0.006964667696326422, -0.12679630577234935, -0.013930596813505242, -0.0634335608746665, -0.16778369691806894, -0.22217225953893002, -0.38255755922390733, -0.3147772908711532, -0.27961616162218733, -0.13426745998319614, 0.015578046691414266, 0.0941288211507704, 0.07903012523531981, 0.003494523034199298, 0.04651813504004407, 0.019093589485021167, -0.06424538423457003, -0.041656645230092534, -0.08207097309975232, -0.05486935724049483, 0.07950719734907367, 0.028969938146744204, -0.02992173997438449, 0.02165036521323781, -0.04952995296803204, -0.06529549122852764, 0.027036448973812435, -0.05649075747460739, -0.08939902496861607, -0.06031559684601575, -0.03454700887402671, -0.07179896723210723, -0.2255673371615478, -0.3292738295427579, -0.32760122281844894, -0.1674126467383041, -0.1415893440357381, -0.05193344621642981, 0.030938851851947502, 0.08757869436949368, 0.0781029977605129, 0.06123504619938209, 0.01183038555112604, 0.023695744882385756, -0.06311710609381652, -0.04497954325141366, -0.05197044197923848, -0.037791279403503526, -0.01988424971275113, -0.10937967022596709, 0.056529906831287176, -0.02935562034153007, 0.04695616563915901, -0.188366053935742, -0.0129864043148844, -0.009668097651207611, -0.05864643782510105, -0.07158674675832138, 0.021197860043951973, -0.176844734823696, -0.3471254096013506, -0.41487799243985807, -0.36746263880893876, -0.23455951476085535, -0.10296938641187223, -0.0016729213595665358, 0.04807860286188774, 0.047224728078052766, 0.11968444777272948, 0.041285092513488324, 0.025805555075426086, -0.0013527761892612679, -0.02004942199327642, -0.09066354913793218, -0.10358928721085785, 0.10501741453143917, 0.04636407698180942, -0.06690644531062886, 0.05844393011620439, -0.08977446839179194, -0.018532773526245234, 0.05323680138787895, -0.010917375698838465, 0.013222437061162898, -0.08219849031947948, -0.14452775975249188, -0.13529621375321493, -0.23193366503762544, -0.2822000157865259, -0.2240858089412086, -0.12342342343363343, -0.057573975721541916, -0.03650392511622929, -0.0017966821644259826, 0.05472543380716744, 0.08271435710129428, 0.08713532712737723, 0.04555603802387602, 0.014184238270062129, 0.03959451158626942, -0.042298193603876655, -0.07639975442811209, -0.06834037222451855, -0.029925657029896607, -0.04853383810454989, 0.07420409412575524, 0.046865225222492396, 0.06945307591876396, 0.04139140092159583, -0.035323566336958115, -0.0499562037657161, -0.07010722040481024, -0.02759010282627186, -0.09185561404547339, -0.06927282030674416, -0.1924032540324753, -0.11631637977795699, -0.0649038853581708, -0.017687555382603595, -0.01373171788659189, 0.03358887647750801, 0.1676654698945575, 0.05310373887976798, 0.053397740603281556, 0.017954288285594908, 0.0006035656272357786, 0.03300561946226111, -0.03179097347165488, -0.03282801439019633, -0.03013665282922599, 0.010791890564303358, 0.091687631032707, -0.06249418299397317, 0.04059095781434693, 0.04036181094676714, 0.049181651923770615, 0.02192370904638115, -0.028520511286790843, -0.034903926109301465, 0.01408810780032026, -0.03590636057755621, -0.01500031321147784, -0.05477838231434565, -0.10502331446049949, -0.026097356770050848, -0.018611545524795683, 0.02069946173190403, 0.10857565140284808, 0.10362259171198879, 0.08936569112265912, -0.04702778042945123, -0.020680738212613507, 0.025471669398808523, -0.025485576275026536, -0.009373782290308528, -0.03330614100381578, 0.05167103077527471, 0.035469608861764194, 0.020318220016663686, 0.07631772469405798, -0.007139994099273866, -0.15357884212316938, 0.04583429277304181, -0.03870787919192447, -0.01626924017378329, 0.0384496575955746, 0.03510499167097904, 0.01121211975896641, 0.040855154065996, 0.027765544723718335, 0.10290817391766668, -0.03656841144340445, 0.0352527081076781, 0.07484154395916293, 0.05972468429303933, 0.0592807359101539, 0.08372182709269317, 0.03753487835150965, -0.01857104355080425, -0.011266497449326115, -0.019443297458167058, 0.030203752684375782, 0.008137642710423745, 0.06113007772886243, 0.05720881818663338, 0.031174556726540074, 0.10082072183319893, 0.07534255020971965, -0.018656599938747482, -0.20541285464889386, -0.004535973124283322, 0.12348595765688257, 0.04798042356440284, 0.04381043048427387, 0.042959022211829574, 0.06806180582154174, 0.07898119823985349, 0.04805483805923738, 0.0679079874684173, 0.026820717274159623, 0.0044073469196337315, -0.008191538193685762, 0.06414471245000838, 0.02853241725087563, 0.07245460596010218, -0.03499751034622401, -0.033788907450189594, 0.06724230943110775, 0.0653076444348302, 0.05544798342788135, 0.030116787615086113, -0.0007020978815176235, 0.04565945958231914, 0.07359989307010505, -0.004619973497652795, -0.025431378834688975, -0.027148228979308298, -0.11606352568985162, 0.14730810692349133, 0.03187390682957681, -0.0191511937211104, 0.03457350920873894, 0.1334963546782802, 0.02898619303565418, 0.04391811038989853, 0.056184353018365225, 0.0267484663730527, 0.0420125095063211, -0.002914444365932142, -0.00778964545405503, -0.013120044760777638, 0.004543052120669763, -0.06473178023358028, -0.045018819804661915, 0.00817008566815751, 0.03979587150743718, 0.07566849543919406, 0.002810547694606322, 0.03034144185909013, 0.016948518059656987, -0.005763668985472138, -0.03531497490164053, 0.0646091436493332, -0.0959705535800304, -0.08056733971172096, -0.09046750449528808, -0.06397368637384238, 0.013238780685192866, -0.0007447196740059205, 0.09407811950364046, -0.0018699544503608296, 0.04668732759948136, -0.01953332397817096, 0.003255949929812362, 0.027142030638408192, -0.02598042499402227, -0.04354015142844458, -0.03731903868389922, -0.0023816254147691796, -0.01100027832341204, 0.07589396134925888, -0.03649877039329497, -0.00852616063055809, 0.025287977956741984, 0.012945165210565381, -0.0015173007208869158, -0.019626801609343353, -0.03294216820515512, -0.08742883026393562, -0.023081822224793897, -0.023258636821357162, -0.08359630461564184, -0.003907604338329796, 0.1002604953279787, -0.10989904411287608, 0.12115004196017971, 0.10168447962493866, -0.003382253627895712, -0.04316818942690326, -0.04523929816827227, -0.03259388845536535, 0.002120136529239658, 0.03284887307117315, 0.010359897976270616, -0.0148641914513182, 0.036250781444941683, 0.0017617367124631183, 0.008026524494858635, 0.04656025303278179, -0.09355307110159168, -0.03723729867064956, 0.06688350565269381, -0.04301222576433373, -0.054690116846581524, 0.010235408959820004, -0.012569879821305915, 0.03203522835954629, 0.028977214923777514, 0.03483906407294498, -0.0074883899487291836, -0.01722493864963998, -0.015472315733436355, -0.02749701905706891, -0.02855483951838186, 0.04497367861027175, -0.08038903615995473, 0.013304519666099027, 0.007951804205677447, 0.03096316757567273, 0.013620626967573298, 0.023982219709140124, 0.027748135691948214, 0.05051826590414182, 0.03226549125383495, -0.002553437531445152, 0.036773100159876976, 0.012938905484915247, 0.02421484206392265, -0.013373997176887021, 0.028437667744797595, -0.017082469345325903, -0.025180122605066683, 0.013273123182146945, -0.0106258719490256, 0.009660476382751764, -0.0057778353831656705, 0.008774144194407824, -0.0057260547602782045, -0.14352187484250883, 0.057332792648923714, -0.0547507967471722, -0.03462306014603359, -0.011148585337182491, 0.030002176023973363, -0.0015122988316890445, 0.010931655861511994, -0.0026716143113275927, 0.013632623014535767, 0.007961243212316511, 0.03635018441347293, 0.016201779166210704, -0.008865269077207699, -0.016472820072570192, 0.03325022258060214, -0.0055376422777834505, 0.03201838421187903, -0.009493388503060328, -0.004820467251255957, 0.029595311393426513, 0.02890702617195769, -0.004094407746941941, -0.009005253190139768, 0.030220588824031804, 0.03438432449393855, -0.060389425481119974, -0.10098341492849396, -0.04942389870667814, 0.017770744386481314, 0.025411991746381063, -0.07670088111830096, 0.04561728159883112, -0.036033483063579175, -0.007336735559628964, 0.018598447426878932, -0.00494644686203052, 0.02385287960306485, 0.017920878726897165, -0.02208670438941986, -0.026970006253959504, -0.023758089433999888, -0.019309979949079153, 0.021580064476333732, 0.005330881351621215, 0.031885250244063405, -0.025225164344647322, -0.018903157943076294, -0.0325213941291914, -0.02597352414242576, -0.01797858948368232, -0.020572521786005906, -0.035165163600413246, -0.00044209472543245236, -0.01766645024264104, 0.02801058964362587, -0.026255280399360075, 0.09955449484218556, -0.00761148451086963, 0.08554127328376684, 0.07395679470105725, -0.03138386073999194, 0.024446115669321433, -0.03231367145703019, -0.026332616062603193, -0.008032880180799421, -0.08128418351919203, -0.025612800615519776, -0.04037865327035362, -0.06627578774588475, -0.06325720230658347, 0.02237858579529403, 0.053177252249887175, -0.03825109702581494, -0.05992127487754553, -0.04188480504436309, -0.008080315605563854, -0.03345420813221383, 0.009072414556400977, -0.019995133504055265, 0.009515723567055767, -0.03208123924854181, 0.03549083295734547, -0.16453850039599116, -0.09747514104900325, -0.13220183601966765, 0.11315169121937013, 0.017181836385729416, 0.032652662751784044, -0.07352231038960884, 0.010731145371482448, 0.008148007716564173, 0.0002962363491731528, -0.03108096262153481, -0.0005509332305340185, -0.04538165538954288, -0.02130386398794706, 0.01817259103367486, -0.00831717906117982, 0.041599097469619505, -0.009266168259879673, -0.041793232551493455, -0.029746076494125827, -0.03068103609675111, -0.009185954476512489, -0.020706173157698217, -0.050077095062858366, -0.0019125591359205494, -0.02957902417083941, -0.05040295607219733, 0.011396209329199486, -0.10304286583528081, -0.02002003474390656, -0.17269561556468757, -0.10797261392675041, 0.029642251171581164, 0.12005870728671586, -0.032492090584363795, -0.00959909278509528, -0.03141641501177579, -0.008948429892224536, -0.038705668370451106, -0.029493396645088616, -0.0035380237146399817, 0.03265394414713036, -0.03199683414342354, -0.0069568977131085254, 0.026663793900187905, -0.008506836407765292, -0.008673279766674693, 0.024090104391886823, -0.03224036706735684, -0.05606445897637427, -0.014722555790932597, -0.06738752745060829, -0.023111036987282205, -0.032040525376603526, 0.05491944546851845, 0.11323315862409658, 0.006825499559915761, -0.03135433189408562, -0.07442514311154652, -0.016147523633879987, 0.010108185151221579, -0.04628076761399238, 0.013373735474974618, -0.004302250569148899, -0.06294758115003696, -0.023817624968821966, -0.0020539295100677137, -0.027080982992170762, 0.022459958609294273, 0.005092261711299332, 0.013006032427247754, -0.00560498561117762, 0.00721770311975746, -0.02020279202023637, 0.00763014901092313, -0.016299286040542364, -0.030134901673925813, -0.0783452307907292, -0.024536766536082288, -0.07753194720988202, -0.06150660671803002, -0.06505803387526121, -0.08546887803431324, 0.010107535555079213, 0.036578948002674465, -0.025636101307758435, -0.07322331972813761, -0.028699283032413953, -0.047270183808906734, -0.029159318243928718, 0.058792562677157885, -0.012445481348230267, -1.95142615047733e-05, -0.022179103080024097, -0.005099507821182043, -0.07774834222150906, -0.029081254673758137, -0.06558465754607341, -0.009159159485893152, -0.0382846744542875, -0.024729624545896046, -0.01798927909716599, -0.04736019409598889, -0.036359973589290245, -0.015645037391878794, 0.0005988289278127766, -0.06717568071128471, -0.05431638440143919, -0.054128700966931745, -0.04769467665525417, -0.05750077597816885, -0.031886560604638854, -0.024145719927923397, -0.055686503135472666, 0.03877461104822378, 0.0026378957648577213, -0.035933523564229033, 0.00013720499074395184, 0.0355513746168532, -0.012954264531574347, -0.0019811721126282537, -0.025074034171066864, -0.024775579396876204, 0.0035040558115864233, -0.028902268395562043, -0.05085108536968839, -0.048276962261089795, -0.01506390488012822, -0.036123372044421856, -0.009313089709767311, 1.825644699503814e-05, -0.037186213733287864, -0.07816438667025782, 0.00029703147172403376, -0.03261720538100917, -0.07455541369235913, -0.019628190875347208, -0.03953814934470576, 0.016654529947799788, 0.01699876542118296, 0.015526801823720767, -0.04250204441166178, 0.03992159696308112, -0.012255269030034337, 0.021325141719549683, 0.02264468824814618, 0.03153517190458331, 0.05976403511685356, -0.032660798253641064, -0.058338381609073696, 0.010922027302031878, -0.0011461911176291024, -0.04840132052207277, 0.012227183051774407, -0.01104107592489077, 0.026359187367799023, -0.03324530286106617, -0.04337715212735311, 0.00795762632801684, 0.005994777747738051, -0.0373100578600193, -0.014011120945929632, -0.09319206406884199, -0.024202384766469576, -0.009420568302291349, 0.04338313552555668, -0.025990637864158964, 0.019794559651385903, 0.004130003337285235, -0.1235175576171408, 0.018835706021065397, 0.028125890844017513, -0.014664060441401847, 0.0515596036915535, 0.06872663768414032, -0.03254351688933358, -0.022136383204316126, 0.014023265089681934, -0.031012288080922868, -0.06370798283554142, 0.03298160574516029, 0.03048826381178362, 0.052779280498528154, 0.04947378990277673, 0.017064049624123286, 0.0019061964522804804, -0.04834164016228739, -0.029269076437028047, -0.04373590207742499, -0.023346555164318838, 0.028935455271308346, 0.015632029096194593, 0.037793975022643284, -0.0049250635036735355, -0.03673810953862568, -0.05638245281943678, 0.0753225558241223, 0.08061615346041999, -0.07238413444901885, 0.028402784694917534, 0.016480257499783647, -0.01885674311127141, -0.0763121075707098, -0.08164729400849269, -0.023005034302670598, -0.02320800225499156, -0.04130223258680943, -0.018495915743227582, 0.025645364700977655, -0.020510824656565983, 0.03119289131420775, 0.0027613443153270455, 0.041492988631204715, 0.07018611828743046, 0.04725236464782822, 0.06567520629815186, -0.008266604080139437, -0.04437183439170033, -0.042629814863886575, 0.04533259616777254, -0.0007290342941026081, 0.09389028912302787, 0.08927106520021201, -0.056161076029682795, 0.05583337843512641, 0.10000765790715804, 0.026282012646354536, 0.07533206115518351, 0.038163438880148524, 0.03970011138116689, -0.02733710790162564, -0.04886072946239719, -0.028257385467339694, -0.0145174299308839, 0.006341953227111971, 0.03387695505217506, 0.03168166800463306, -0.009100367601418672, -0.014654182591837182, 0.017155290760326458, 0.02886350139249815, 0.048287402802924616, 0.060953540246124295, 0.03978341235954868, -0.01705508277933299, -0.002066579553645294, -0.0037866137349481022, 0.10604505925441965, 0.020578440571227978, 0.03635259294906819, -0.11710363171121808, -0.03766394717827044, -0.06635562250946869, -0.011073053887807384, 0.016570296591375856, -0.0017365575274710687, -0.03078106668605809, 0.04592821413137699, -0.0410293043062388, -0.012015209877098053, -0.015488274278542484, 0.04574635947294093, 0.048708877014752315, 0.04828045858924566, 0.026322310879679102, -0.001479057900717313, 0.025203722394405548, 0.027817480517028283, 0.04261663431996216, 0.09391271652711626, 0.08063554102350942, 0.06786787854047151, 0.09557085007536872, 0.026235541578355965, -0.05015529414981755, 0.04068345593524174, 0.061566649916544224, 0.06134596787761019, -0.08633794522762527, 0.011133778707832486, 0.01270850788196176, -0.01453856868727065, -0.03554121669884031], [0.011983609537180955, -0.01643733004213895, 0.020454442823175878, -0.0060127313466226484, 0.026599280883173846, 0.014356681204770965, -0.010092856945229935, 0.03734889920967876, -0.012923478611700564, -0.050684946618369885, 0.06673897302548082, 0.020831367357745663, 0.00021098355176818912, 0.007146324755867751, -0.060963247445873954, -0.07963083833861526, 0.03250252087698518, -0.008272454538392194, -0.05404542022298287, -0.04119046866150923, 0.0580214082605233, -0.006230373703738595, -0.03492972156754335, 0.0006350247828591718, 0.012278168973206032, -0.040852564308899574, -0.0054374465617177984, 0.0024728126811630613, 0.03477153733037557, -0.04531749783285268, -0.002120154865536849, -0.06241487138866402, -0.014575995728384849, 0.05163667475859387, -0.051883028872277824, -0.03188879779988884, -0.005207944937535784, -0.0316463675541706, 0.06286397428030416, -0.04935047339718275, -0.05049227017540786, 0.004949143312039442, 0.0008107269712493316, 0.00987485120135257, 0.016608865466985333, -0.06032689097915581, -0.10557112154118628, -0.03381090465383955, 0.005278136943057404, 0.0464015890878112, 0.033876816534391126, -0.08948648656854964, 0.03159750566512686, 0.0031430467667782317, -0.0005604867939645177, -0.007985754297352694, -0.06806765929799614, 0.022750885712660283, 0.060074779232378285, 0.05544462725253435, 0.033095077311020474, -0.05285726213552958, -0.00033510007440259147, -0.008298698398189612, -0.033065188036920316, 0.0601878257877354, 0.004819505839194033, -0.023023324004499433, -0.044368908967454386, -0.06722131569626691, -0.02070433003071484, -0.019652142780940043, -0.08085264730252126, -0.06617534618911954, -0.07768676466544963, -0.0011630374253406588, 0.048670570908339844, 0.011751606792020617, -0.030506820738649843, 0.0068111752523203626, 0.10937487963055542, 0.07167861512558471, 0.038413398638897166, 0.027814247293764673, -0.037787360273690056, 0.040742204658029406, 0.08146025983020251, 0.18940551590437887, -0.08391102352497984, -0.03641543606722232, 0.05657854717467461, 0.03847781607696956, 0.051457717084606176, 0.04027641155714214, 0.02547788352296271, 0.010576507672078034, -0.0217745908405946, -0.0026089024470866305, -0.021384634717750463, -0.0493182571410109, -0.01573933492078725, -0.08004744032894041, -0.07450108407087118, 0.0278145123494773, 0.1042814215748754, 0.032898966662472995, 0.02267379080332208, -0.04600445914587503, 0.010558255223463662, -0.02177391674340351, -0.03966807777036445, 0.014616380341368732, -0.02473026233087491, 0.04289402871702754, -0.09309244849687047, 0.061582674330559674, 0.06620790892598268, -0.024424495567306147, 0.00524698405138484, 0.01753885510135402, 0.02982924028727555, 0.0669958766486767, 0.08958222191134753, 0.003165002726915932, 0.06731661842582076, 0.024763147194963538, -0.00697887043602724, -0.010310249233232458, -0.0422081618707802, -0.009650338675717888, -0.02360288179908935, -0.0014218828488661817, 0.026358053880579376, 0.07916597100100588, 0.032598404960186574, 0.0661359203697849, -0.009815640457761813, -0.034337858973620045, -0.028500684925764592, 0.035917043839211744, 0.05384627344284706, -0.019764893708598057, -0.19601995268583036, -0.029878786241137177, -0.06336788975732957, -0.05837315880341961, -0.02307757251291474, -0.029347196002158696, 0.0329697611118102, 0.07094581577000346, 0.05192304161737609, 0.048093488847509705, 0.02171182262321422, 0.03506956745074631, 0.025343418347624956, -0.027952561881624483, 0.031555649040718114, 0.02751121876230055, 0.0029928391424174534, 0.023569703893929837, 0.03717644056692249, 0.05697747270060386, 0.05075678496813552, 0.05608027341158134, -0.01703181503603698, 0.02644972156827336, -0.014907659059644864, 0.16062214379841966, -0.06076328401775332, -0.05057310320906216, -0.008990845312943675, -0.03698860936385847, 0.01984443711970653, -0.019714506762630188, 0.0037719064032563578, 0.07023710276206466, 0.0979001662476905, 0.022284372344711624, 0.0545483903047636, -0.011489840691765587, 0.019951664627556667, -0.009701545654782493, 0.04814403895550109, 0.022604011449001347, 0.05927909409131969, 0.02275112554890325, 0.032407284745806855, 0.06392622309994422, 0.06869550238062293, 0.06597075483114642, 0.0746418172302143, 0.04700986732986157, 0.06896495589239159, 0.08473784507193846, -0.02099198587706329, 0.06351077619176618, 0.04377272056466666, 0.04076685380614309, 0.010739800852832842, 0.05269652037341253, -0.0729694280736522, 0.016949277356988035, -0.024249814679667844, 0.03532210068581676, 0.054669180579684507, 0.0511808693924735, -0.025410315425784886, -0.01361394938682876, -0.003776102005075825, 0.008204905239483118, -0.013934192360120277, 0.0627265490991307, 0.01882970080083828, 0.018489581340991778, 0.039659035831842306, 0.014009650173133211, 0.00845104130523828, 0.025445017812674352, -0.013759795234814557, 0.013890200898451393, 0.07882634499680558, 0.019082658876994955, 0.017997666802062804, -0.02985698125673115, 0.05634875171017172, -0.005596764586616372, 0.04848279898408992, -0.024628576857028132, -0.03153804601447606, 0.007513418146677836, -0.040040377722808954, 0.053632434710635835, -0.0007659890409760088, 0.01845087722728718, -0.06750163195516094, -0.06874432053001447, -0.03409303416775153, -0.05544556154907042, 0.020781544184171066, 0.05822558177372292, 0.0702394108002012, 0.009621227266197973, 0.008566832557340897, 0.012374982464329073, -0.01226577487156047, -0.005365255927613118, 0.011256258628982677, -0.002854677536162121, 0.02469958882281852, 0.04455527401536812, 0.0453626831921765, -0.06443709245180386, -0.07385932791424882, 0.0008579074755062765, -0.029737619930955896, -0.020892801638349622, -0.01483069837397819, -0.03306649896261449, -0.02417281650754801, 0.01854143034565072, -0.0246648373091138, -0.03671058061014489, -0.03352488478118607, -0.08646148874818789, -0.05947844154714083, -0.025600954772340163, -0.004742481059853918, 0.07612987686780397, 0.019875020129947202, -0.028027842882611897, -0.023023400704878655, 0.018038960499397027, -0.009102196853205978, -0.021899664216137506, -0.07291410906463197, -0.01967627169676815, -0.044199918850032854, -0.034641525830499356, -0.04490977403527019, 0.011857904346852544, -0.07495630486408582, -0.002181029678521143, 0.07499578336767378, -0.04652780402540316, -0.02404226518786168, 0.0031487976827811195, 0.02200974917123884, 0.02884305848660564, 0.011909413707569892, -0.054538432114324055, -0.05849502561960193, -0.04027394965472405, 0.02061896733840865, -0.0032996589916268314, 0.036303153323122866, 0.05341992379699671, -0.062247388479757575, -0.033498443617145636, 0.007932953909716725, -0.022527610478835506, -0.03877707191285454, -0.030396599521447295, -0.026142853478694286, -0.032042709769650096, -0.019234581156810118, -0.05373530505653817, -0.015063148146683825, -0.02080189104495039, -0.02983727967203371, -0.035669258515178985, -0.028813862007123756, -0.027822141527604635, 0.04083815192289121, -0.004360174168724189, 0.029830019365200838, 0.03198743746645078, 0.05021256614439404, 0.04520379430347224, -0.02769821038731441, 0.011497761292988358, -0.03367581001733066, -0.025184541262948223, 0.01580044093182151, 0.07708527755510865, 0.008009334099415174, 0.010200637541239137, -0.01597522402446664, -0.061714031941067095, 0.02197035254169792, -0.018320967358535254, 0.030074946976415808, -0.014898482655197635, -0.028492262490037893, 0.017203609757828538, -0.007977413946973494, 0.029948422438360236, 0.050313601968741274, -0.042785325444508124, -0.09402086404464124, -0.07307907808365208, -0.020982383124786685, -0.013360800090755935, 0.009791659787297402, 0.07922835647746183, 0.04693202963796746, 0.0416896705563546, -0.005800810213857535, 0.0395936449358367, -0.009866343471392027, 0.04164355017353202, -0.011199355780598063, -0.014779226292808433, 0.012427137173163728, -0.012155421012845002, 0.04105203783041687, 0.026669559535923353, 0.019132701588607165, 0.002987558487651033, 0.03348919012133165, 0.027105795534975618, -0.0016228578681519808, -0.029932898820118237, -0.09924871502364889, -0.05312565071212576, 0.017109640123225894, -0.043235039092999264, 0.03368300447148636, 0.003767654057524449, -0.03578479843400218, 0.06121987782789762, -0.02927293560906187, 0.052489002046360735, 0.04632989083291705, 0.04112269926051751, 0.04026908517370715, 0.05661299823780228, 0.01087096518567762, 0.034024203465363695, 0.005127646484461198, 0.01867486213947533, 0.06643002402327688, 0.07256638182085162, 0.04413812647942472, 0.018666964721101797, -0.021323174624272943, 0.01290651958510226, -0.023495767306052247, 0.0012788265435131447, 0.005228796434895613, -0.02543132658088962, 0.06746804949824038, -0.06980997289837094, 0.07823746019616759, 0.029691263357750245, -0.06249598700895642, -0.017141189153250358, -0.06338596439018243, -0.03365979002420859, 0.003256261711740353, 0.009873614405355807, 0.03719773990125678, 0.014509606036475161, 0.04265990403867477, -0.01933875026214087, 0.00037932469098246656, -0.009799746296373014, -0.006295049095418822, 0.05980860303216087, 0.061802211233468865, 0.023273180397736272, 0.030142193530390486, 0.014467407079350512, 0.06311483982379272, 0.016966302035414542, 0.0011736694223854532, 0.006543078913252997, -0.012294261410019856, -0.06318565877186906, -0.03612451389178034, -0.058028874337368634, 0.09771019051006702, -0.07943582761689942, 0.06571105431783068, 0.026654596237694683, -0.04585748145107731, 0.014868238949641881, 0.018059097148288638, -0.015164255224245492, 0.01755083199757823, 0.02171956385835531, -0.029541121859275495, 0.03280525542333415, 0.006781733376066904, -0.03211341509753733, 0.019637825650766664, 0.012623150096838922, -0.011797211837045792, 0.018061128239095024, -0.006926223934545597, 0.003104331592567468, 0.0008177752463321856, 0.007426538863389952, 0.021209703757248333, 0.011812289220881863, 0.02347789474330332, 0.0531233965867912, -0.04098184857945889, -0.03667281394228943, -0.0827492714590172, -0.10877022984080785, 0.05981331503942346, 0.002298150021710577, 0.016923921805543155, 0.014282701424299426, 0.046359899024825894, 0.04009035440528474, -0.00177268501271017, 0.0012766839676029754, -0.01234507854434856, 0.020848094039993558, 0.00890999000684264, 0.009079740201649757, -0.012254561663533337, 0.0011645832324434498, 0.010696008127303954, 0.012039933532538091, -0.02883677911639403, -0.06711032553593989, -0.06287756716342163, -0.03938159288737843, 0.001332730675025386, 0.061075960151249144, -0.03367712051655715, 0.021215555598043646, -0.006792489500314558, -0.02398516626541123, -0.008258001689221032, -0.044197582270368456, 0.04130828008933536, 0.019839899793522974, -0.013302098835664205, 0.036622092113739256, 0.007097866347927817, -0.006286725739069074, 0.02411083389298604, 0.010448959028337385, -0.003822052709368977, 0.025552036935688215, -0.007593582743904715, 0.051787511349163304, 0.022379874622790924, 0.01241431919050953, -0.04903738594906801, -0.06056019057826283, 0.0020958017208843613, 0.003849532884135823, -0.012951567438966095, -0.03230818185771297, 0.00890831518861394, 0.01222106270442047, -0.0029103232302014736, -0.04812321165011738, 0.04939395119351699, 0.05739016161194412, -0.10784597119932117, 0.02487789841082937, 0.009342156703750546, -0.019925247307820963, 0.022274193643166608, 0.016687905538610007, 0.031247755135352124, 0.03979791245645693, -0.024030439426849747, -0.03230953095126655, 0.050896113330854545, 0.03447048203536487, 0.033441774488435244, 0.03651104607726935, 0.009889923009235907, 0.06342210969236592, 0.020282007657930624, -0.015107805571728875, -0.03942535054251365, -0.023876012911088557, -0.04879998648270323, 0.0022297718871764224, 0.020438554649027565, 0.01612453676417682, -0.05192491768693335, 0.026025976182068308, 0.01844517233062284, -0.018186048859027054, -0.12711988998248097, 0.0256358558943578, 0.09681640069546467, -0.01943554403253377, 0.001602984089075758, 0.035875475491562996, -0.01723939063867105, 0.0012464015836721614, 0.03254207413871705, -0.018619836720242994, 0.031787777709856704, -0.01587500506730554, 0.03882090032752969, 0.03701674972950242, 0.0981979352587176, 0.028016111820649017, -0.007905626311504065, 0.002827275950495631, 0.008444637325253013, -0.05315872571185196, 0.005032580817978565, 0.009305823339311998, 0.06216306075244033, 0.000698966096090375, -0.04117077096794286, -0.005013747711530763, -0.09030868890293195, -0.12842499985992317, -0.055079186246633875, -0.05353793294514308, -0.05049399651493937, -0.049006962862044666, -0.032628521756228976, -0.020358777429212157, 0.0008077590576515762, 0.0012650775644196847, 0.034106974680905684, 0.05704992950118287, -0.022534994044322264, -0.020937122177883963, 0.04204091109651691, 0.060265440670790205, 0.028387495783947097, 0.029442418701032376, -0.0029277651368830467, 0.01646535810718879, 0.039294406463958695, 0.049222680794481125, 0.009652459807819872, 0.06356055391046142, 0.012898355165410155, -0.04492665765609324, -0.021196089782208813, 0.014715956423934468, -0.004221835007749389, -0.02096497429874986, 0.08371642436621532, -0.068291730694348, -0.03494166488813214, 0.014415224079653184, -0.029257746125790955, -0.000628190061270799, 0.028443385184761676, 0.008169925003072965, -0.03254690388280707, 0.020926684465695487, 0.020486709236275224, 0.05384297028248655, -0.010901568674995756, 0.02940445278942535, 0.020798896536093302, 0.02411597392575223, 0.031743585429458925, 0.03225840688723474, -0.03457479616083077, 0.024396888345219206, 0.010927747214399458, -0.005687086779553122, 0.001053466156652624, -0.018403275727528402, 0.034739103699540155, 0.06316667831537884, -0.051334690475454234, -0.043383585365252664, 0.05903814648655815, -0.031197943990645353, 0.0015444730062661124, 0.022829290562566946, 0.03377914550965208, 0.010732621158572481, 0.01656752135415588, -0.01486821116305039, 0.000352549960460428, 0.0015827038772232172, -0.01336409478239887, 0.02023472323140329, 0.02315937055367372, 0.0723964856218677, 0.04838760840768727, 0.05146973137337455, 0.036337637815257, -0.011418675754044136, 0.0302309078483038, 0.017413042720899934, 0.03530979882470239, 0.02589419746909169, -0.03445936785206596, -0.012458023584999525, 0.010215150986796229, -0.018838700096359427, -0.04618160735109472, -0.04793371781190484, -0.009990127533295066, -0.015726761748653634, 0.06125958225242032, 0.034068387424525996, 0.0259031043878616, 0.03435207337856655, 0.00939704140866671, 0.00776444838460711, 0.0019278238461478885, 0.009299532608130932, -0.03747026067307953, 0.031463341745713774, 0.029382426313648725, 0.028523304568479423, 0.010390221671159662, -0.002252985883560985, 0.01463476982553788, 0.015477604159919313, 0.0014670272639761145, -0.05276093135433261, 0.013498034505438202, 0.03392014518938199, 0.010574995445951061, 0.01163078948066495, -0.0999225265177123, 0.0040190214750610385, 0.08925363263383845, -0.0702547149535043, 0.029746677996760593, -0.007645997999065668, 0.04365774872993462, 0.04526190620580606, 0.06014226549898956, 0.10735912095145726, -0.008536524190106, 0.014634881238526467, -0.004160776646236953, 0.010552945972335638, -0.0063059632878581144, 0.006120578671716363, -0.0329754936475176, 0.014802428488765394, 0.020284609681052175, 0.02028654269887039, -0.0061150815931136126, -0.0002511129914429498, 0.05851850607273254, 0.005385315776168052, -0.009827812783653207, -0.02630809372477835, 0.023088393054587587, 0.06890323051787055, 0.0019419713815717415, 0.04913779764420962, 0.027891932465520845, -0.04638620693351333, 0.07238746590179324, -0.009096500512005393, 0.11741050534442138, -0.03257697436706473, -0.022068037046806103, -0.08207966183694505, -0.03949739100795766, 0.017148894667396733, 0.032309011582568326, 0.0457623616014551, 0.017544752770894567, 0.009169684389148515, 0.031853158373274564, -0.0005343108501998979, 0.02137429221006405, -0.0023440533186990867, 0.006389449221623651, -0.04281425131010533, 0.00881517541973046, -0.0522715689321955, -0.030374885705336228, -0.0065763466021552825, -0.007450355465581453, -0.05513964750286374, 0.061232633792587116, -0.006585753212306197, -0.0727359303326399, 0.06354945873359223, -0.01789720769394445, 0.0033136122015599008, 0.014437961408175892, -0.035360472682854256, -0.07625484183194278, -0.03544901335524795, 0.008971838516600002, -0.04922891281992296, 0.07067141464962036, 0.003212009748599677, 0.045107466964076574, -0.026748792213891613, 0.03032861689448296, 0.046940740949296185, -0.01866356840505889, 0.003990237877238573, 0.013885842017837454, 0.048849521946258724, 0.04956455397599132, -0.05535245757273481, -0.06928827385913075, -0.0012063308646712337, -0.015228643471647488, 0.029428960052821904, 0.06685919107216275, -0.11112378640629243, -0.04942370653720881, -0.038894745799603954, 0.050214494511562666, -0.02433069117847107, -0.00898991492131187, -0.035193335964127596, -0.008605876877819049, -0.06392723244549395, -0.07233809462706933, 0.0037545975949228737, -0.038332080246223504, -0.10821282597341558, 0.07986621797623643, 0.030883604574303034, 0.07558466776506202, 0.03700368043694526, -0.02560098391504006, 0.10225664515847001, 0.05576950279803045, -0.008814155644757963, 0.00137739930596463, -0.05955572742760705, -0.028488413868886786, -0.020107367717943372, -0.12097753029297942, -0.01904788532777279, 0.0853907621867958, -0.06813898663544883, -0.01450404133690375, 0.059439645308227276], [-0.034633696885828756, -0.04407942907158001, 0.01756636526311017, -0.07294085445612335, -0.02798624195111796, 0.050322075651136514, 0.055314718189929404, -0.05880758831969043, -0.006302175136263122, -0.06877995189255971, 0.04474495678279667, 0.013993934092504892, -0.06407459164697862, -0.06048052316419897, 0.005691034358167972, -0.0326735036400647, -0.042148526023825676, 0.02079390880227164, 0.049202916786370274, 0.013676376346142235, 0.009705181943873738, 0.0021088237944207424, -0.045435053073789165, -0.016770752729911336, 0.02640942121802992, 0.02273378442738325, -0.024412669600182995, -0.017702248259458087, 0.10348654394539344, -0.03153371786763948, 0.0521342680406356, 0.037967892364318974, -0.022189948253437074, 0.07181974442619853, 0.0176581048471815, -0.01544049104233088, -0.007477382221819328, -0.016431611760092616, -0.031442709760623314, -0.005195067465638783, -0.04151989078566894, -0.033596220071828525, -0.019913495922109312, -0.06464116408633543, 0.05622210319697076, -0.021349453585320262, -0.14888894032231947, -0.0577556027731399, -0.058801133457614854, 0.041205689962326486, -0.01763752968031884, -0.020926603581588692, 0.003966314587742554, -0.05710620573647457, -0.0008557234043774408, -0.029503432497543846, -0.061585208425372254, -0.005792651025498037, -0.007540231906993724, 0.09404913931570176, 0.09193704619104141, -0.0094451474825101, 0.08886863457648893, -0.010171961044508045, -0.02533188062263685, 0.061946467650559715, 0.05942468360023371, 0.08915901021664015, 0.03519210024679701, -0.019148046831282725, 0.020539169398462086, -0.02643654207437655, 0.07003571845549326, 0.06408309872073685, -0.026905906680400268, 0.06367247349451435, -0.02375353128514253, -0.02439661855727081, 0.018157888667613805, -0.052915561627787544, -0.08143684718845967, 0.025795165919366772, -0.0029657810645822677, 0.08062325307308567, -0.02236229088642705, 0.04145975204633212, -0.018126590459175123, 0.19732243602466032, -0.06671326743283428, 0.008548115833574082, -0.009872882947096498, -0.012719787360832051, -0.03242204260049356, -0.04642064729512814, -0.008953699016189445, 0.000857574482032857, -0.013050176617637067, 0.037131214565438615, -0.002744984321405405, -0.03029282757204474, 0.01762798810861266, -0.023702441432819982, -0.022406597562828118, 0.054741358649512295, 0.08720366205852699, 0.005984792437794321, 0.07388539199997743, 0.008969565845840846, 0.007410374543183125, 0.060398892898177264, 0.05585923651210059, 0.041368066167203676, -0.017870546676671654, -0.048266760012873805, -0.005314132081953235, 0.017558443208280795, 0.0811379527165399, 0.06111583337633261, -0.023104423784197085, -0.011488815898845673, 0.02665226902856018, -0.0016696021159812576, 0.0006216999419743922, -0.00948929843661359, -0.03380874833309184, -0.012389861189393349, -0.03399324916962315, -0.027081617734989537, 0.010379427204090071, -0.005427587563512997, 0.025635734934283283, 0.03424484282169404, 0.01660382971160705, -0.03037297178096075, -0.013986501853387342, 0.06137952613228162, 0.059165246458612354, 0.03279487760022132, 0.08728375269705776, 0.06473276429201472, 0.004174576319353443, 0.0025326337419126917, -0.06326492886975098, -0.0276239874315704, 0.07564687023032618, 0.020370269610015108, -0.02517302210138884, 0.007339506481606904, 0.01322736346093411, -0.012574970125066321, 0.005078280999454423, 0.0044719727001685085, -0.00643657250215537, -0.042641614121508714, 0.04012308419633847, -0.002163808576786475, 0.021553935875632244, -0.01813563621902253, 0.023000167947315915, -0.030474238880455036, -0.023583124382542214, -0.00814451330721446, 0.004304412803576014, 0.002207378285315956, -0.04580638658500671, -0.041507068250146696, 0.03995101313008119, -0.03449950463848475, -0.016546560417270845, 0.099372848100342, 0.042752405049334086, -0.04787043179407705, 0.01910486163864475, 0.07157304273412401, 0.017052380610839024, 0.0375661953776557, 0.03351427212121111, 0.01567019616161219, 0.021080451312185746, -0.05353624885317999, -0.03683434143919394, 0.02947505840906841, 0.013040066659243716, 0.025271868888588695, 0.025133853308759512, -0.053931018919124434, -0.037846928319243536, -0.03419252255632606, 0.039998792473568676, -0.013851989547495929, 0.009625986535071183, 0.02005740758308462, 0.025982310879261297, 0.036600063762432286, 0.02363708896615358, 0.033058332156758456, -0.04936945806902645, -0.04407375085904574, -0.014783782760835903, 0.05359085008178693, 0.02944723385796404, -0.030824324497256056, 0.03499898106104817, 0.02393245960316882, 0.007761873595044687, -0.007540304481040917, -0.0038437256595187214, 0.013894510116685526, -0.056961763762421846, 0.01702510980335895, 0.05479627731992828, -0.004137011488520629, -0.020217404737209052, 0.028636031678046858, -0.05175388226676772, -0.0008619587042414298, -0.04570119937809778, -0.011399944100351679, -0.037487041266784524, 0.0305869461142565, 0.00945874421507276, 0.03914264586367006, 0.03585414040876121, 0.02462084769663643, 0.003116112455950811, -0.007091419155679153, -0.08022926154795716, 0.024884918171892863, 0.010515401509835758, 0.08116907162488277, -0.014028261092970114, -0.009883797100604252, -0.005427974150983981, -0.007228542349315848, -0.019760621385782464, 0.04045837781857112, 0.001141547695392098, 0.000944462940386686, 0.0050332711118307345, 0.010785506554576333, -0.05172735866162458, -0.01295323986040978, -0.016724752608455743, 0.009684295262721233, 0.05044160728030057, 0.034224428561048896, 0.022160402752883633, -0.011766958527705745, 0.014413091478825862, 0.06758750341548074, 0.01233314235240553, 0.06779028068627506, 0.0408936228118802, 0.04340988076490686, -0.07077242439960299, 0.014657836195034135, 0.0012276336454230016, -0.008104206116938134, 0.005913087514727726, -0.0035232912054268158, -0.042218856027739546, 0.011223312312450162, -0.038651887206278816, -0.027610316182181408, 0.021117446460081256, -0.0013968881834631804, -0.0054468835497309374, -0.04138772133418151, -0.021914737892960105, 0.009621893913676714, 0.07172104909589128, 0.05918406539091381, 0.011284852889109992, 0.08548491275832093, 0.030468835810947805, 0.0218431800702063, 0.04520395175401762, -4.129503121453773e-05, 0.06268963016165706, 0.012826299331041185, -0.05905153094447346, 0.12942952998749999, 0.020720585054164405, 0.02225773374487701, -0.04856467702540307, 0.019428185412819706, -0.04568424190129624, -0.024114419668937535, -0.01977210553307674, -0.010337365034015332, 0.04756344562361984, -0.035500597238172435, -0.0246887344655871, -0.010307429734485455, -0.002946990643083076, -0.03732811491434385, 0.025819429079028525, -0.026268272971554908, 0.0883317841248049, 0.019412889216219205, -0.0038647840196092825, 0.029367530889094613, 0.004224454817445085, 0.04836676940806493, 0.021948780941810304, 0.0422133578386786, 0.0512315442491011, 0.008129031528401229, -0.07233326601989734, -0.038907756118806466, -0.02893389911586777, -0.059446709990018616, -0.012722706026812124, -0.03286770498800946, 0.00043322974909669286, -0.06728229900116836, -0.006082018239006264, -0.022600014760679306, 0.02789801093529537, -0.03113727030396944, -0.014063839371125627, -0.06625489910951592, 0.014726184102821028, 0.0028767324057947926, -0.0519272069479127, 0.034310207498940724, 0.021977396906574093, 0.034687267481228266, 0.0719544676946812, -0.02331300792970243, 0.07927642617364361, -0.01608925002616841, 0.02047864065801588, 0.046010331171246914, 0.004250752135630122, -0.08892401735337788, 0.010802304590953394, 0.08145504624551406, 0.05439608977357842, -0.046406670763637456, -0.016641996378969365, -0.037228754881506766, -0.034874978827418704, -0.0036353171089245845, 0.00754847178656302, -0.04621522048585871, -0.0438367186696718, 0.01368116634381781, -0.053527792459935414, -0.043628911315682375, -0.06728106465856164, -0.03676609698606774, -0.08047021869170191, -0.039129853333851584, 0.0519579251294166, 0.04120396715138433, 0.010454397850625642, 0.042558764814799664, 0.03634230509436694, 0.019969830105738162, 0.07459085016935783, -0.025321722250467506, 0.08217713770901039, -0.1493027755638495, 0.07058573225616652, -0.050838379349788534, 0.08173361445352766, 0.015103026948656442, -0.09346238019078108, -0.0128305313412085, 0.0010036846002099819, -0.019129424914184037, 0.002183940901377467, 0.030957674189647788, 0.025905309835168526, -0.053744933679800995, -0.006052593062140771, -0.12741675747760578, -0.05906926227814523, -0.0973803139261113, -0.03789221652935484, -0.03015657756374055, -0.012041329625031731, -0.013484793161884459, 0.020639622883485295, -0.016679634608512028, 0.06078560685895629, -0.04958734798557208, 0.023717711328442304, -0.06219853436783225, -0.017267038980653272, 0.006287149283758822, -0.09484974611063314, -0.024413974151922552, 0.008670748078895557, 0.023933802793304218, 0.002530026219102784, -0.05479778780499347, -0.03136613376629845, -0.054017299034786186, 0.018649135433059457, -0.015280953040372193, -0.00667072447387799, -0.006320071244733452, -0.07589689176210103, -0.09217634264255742, -0.1065544195987908, -0.16260255986341687, -0.06074529894099444, -0.016432529735016386, 0.018422891823463686, -0.02194334180527991, 0.0206269750982037, 0.0034015652992410235, 0.02895136719321127, 0.0038366917026631414, -0.006002628259871342, 0.014508229400963985, -0.03292390310355225, 0.045511527866353166, -0.0465281706625346, 0.06378942930339412, 0.09471962885784843, -0.048680160613836045, 0.025762872987470084, -0.004515139821561797, -0.01232974382542028, -0.010364049823181277, 0.01915543544600114, -0.00443653754576914, 0.039070956553047, -0.0800960412805021, -0.0330697312545465, -0.08315383796370254, -0.08034168258707862, -0.057741986576210665, -0.027078472615890532, 0.03796630008615786, 0.00930071766220956, 0.02097993238091877, 0.05842580543704068, -0.012011400168899322, 0.0005947090001510772, 0.09749343827549305, -0.025113525136226594, 0.04702191581356416, 0.04452933909415746, -0.10357644017662603, 0.10116974020104166, 0.07205394569789944, 0.1017508752483572, 0.008223348778398936, -0.0172677589219521, 0.005014612031027288, -0.030263652727267085, -0.008198611473695064, -0.009785924668598754, 0.024109102003942704, -0.0036584269611750126, -0.018322810635349632, 0.0400038210324804, 0.00522699962215086, 0.016792838924271473, 0.011765881731412157, 0.00027322766549910463, 0.0684000976621588, -0.0018521315426373135, 0.027545385859277988, -0.017635925261530332, 0.04694504320272688, 0.05993407975044666, -0.045902143830689364, -0.022074515728956162, 0.01785725483262465, 0.13456312629207268, -0.02125443512193512, 0.0006235136675943498, -0.07319063391939745, 0.1321790955320342, -0.06318566735829852, -0.06998076686789263, -0.03358201764065346, -0.016593093538509258, 0.03976998042959379, -0.004260764070379581, 0.006675138020388558, 0.03217827296831651, 0.049157945876529725, 0.07607857408648581, 0.12415499490859275, 0.05632761959427511, 0.030028870833160498, 0.052198094264447346, 0.04791735417116449, 0.04791687492993945, 0.030823081353628275, 0.018370916207853073, 0.009307853721807533, -0.02486804433296938, 0.017320933353488072, -0.007024115859418389, -0.008185005606136428, 0.04479380740426789, -0.0010413538725613477, 0.08813139387649563, -0.1138242385704357, -0.0349156761230878, -0.026407103579720557, 0.013410005165421086, -0.003930956273366383, -0.025224488780571413, 0.05110351342189626, 0.034744981876032595, -0.02966547010994674, 0.05241933419762735, 0.005765541102632103, 0.0671716505065843, 0.09634184065643389, -0.0002708804240455352, -0.005396083188131367, -0.001930820096414649, -0.004630826000030242, -0.013047413716485304, 0.013945019477358728, 0.019031369652678477, -0.026272809142633875, -0.030114093553479705, -0.041617852828549816, 0.006203283265361354, -0.0677804938505709, 0.05037910832902642, -0.11632447197013533, -0.13241462931269726, -0.09701994078617697, 0.055599756003451996, -0.0246659109864175, 0.025853563247902833, 0.03244610608116391, 0.008848733936229246, 0.009085043518513062, 0.0038088330325474593, -0.031058248562591532, -0.016303025626482736, -0.0191298393989733, -0.04171051220838434, 0.005977304001246157, -0.031040347806631365, 0.0026096877639890585, 0.0489611035028624, -0.07226691854479342, -0.014263557876214987, -0.02520725197412579, -0.013580884461355113, 0.0035055055005771578, -0.00046648171073106247, -0.029420377897233594, -0.009774925964242795, -0.06387918162984352, 0.016846608661623384, -0.02646804857406621, -0.048618876098306604, -0.03779800168151201, 0.02415049157567142, 0.06649242243693648, 0.031056328726714426, 0.04649210363630665, -0.02928442859446354, 0.039279516692926945, -0.019883446750509844, 0.005688835517553847, -0.0433241315822306, -0.0017687892187823048, 0.012574890745462567, 0.011153051514645941, -0.022321151147999138, -0.005848605934111277, 0.023744701732506406, -0.023173671253157682, 0.021648355528612197, 0.019357951210564453, -0.004992702644657382, 0.02558414557417, 0.003693571548030465, 0.022798612565384728, -0.07856468615646202, 0.016610710632400237, -0.10027869665142367, -0.17125319600686323, 0.06955478139577938, 0.051693590069614784, 0.03583705783990979, 0.051077484720681146, 0.04939139687787265, -0.014313897527033725, 0.05508245515093246, 0.0033908974770929905, 0.07377966315148775, 0.01862042180937698, -0.011103598895531008, 0.023165553391086908, -0.03430422777803711, 0.019596513300329108, 0.06028674958954149, -0.014627405507540898, -0.007181966950965188, 0.0027624222670100274, 0.014892931073267435, 0.005680804686735611, 0.023711088323055077, -0.05015570837725899, -0.016344780533408463, -0.006001551710561947, 0.021966169169348307, -0.0009420344737941375, -0.01915547119677514, -0.15904085781505703, 0.09614759410675473, -0.060534057301970486, 0.027442295239351717, 0.055487279838941715, 0.0326186046639498, 0.008039301770444686, 6.50746524111795e-05, 0.002874399439225538, 0.0065343574217265055, 0.014106748247290952, 0.06331712307839751, 0.001544905696450347, -0.018603644616226933, 0.04776943235195755, 0.053181880763131045, 0.021526668540247425, -0.004541580025103211, 0.0057491246047314615, 0.004701902278866893, 0.02437709187199943, 0.012651934969959675, 0.005811624767063041, 0.0315388429032098, -0.010864090530442494, -0.023464271433825595, -0.05570378138155286, -0.06854631965613368, -0.1132729448162052, 0.010906179517361333, -0.029810449142918687, -0.009725319970662972, 0.08020368354923181, 0.05385922646531633, 0.002041874160611675, -0.0034557372636892536, -0.02512744073391017, 0.006135340296920636, 0.03649001187893246, 0.00918687043644473, 0.0045952272999642005, -0.006000893804141388, 0.026961456844369458, 0.0028571541677471, -0.0006860938854080504, 0.007667333186168956, 0.06968039238778645, 0.015084392059362232, -0.016037291480394594, -0.0005020228105258872, 0.01450604745810344, -0.011425611845760495, 0.0030052678269796894, -0.03780632102489859, -0.07785255461927558, 0.056384722774290734, -0.049067976813235374, 0.05904838111343498, -0.028688127582737276, 0.03693177888973336, -0.022348736491862337, -0.030617354968299, -0.009867698161067605, 0.02051685327759086, 0.02589001726525322, 0.006557575413440579, 0.0047667797291037544, 0.08083223502476404, 0.005222573886525655, 0.005306887692179871, 0.02321605300441214, 0.017939687487947924, 0.03427109809836667, -0.03721461467421487, 0.03760949424843868, 0.031571094203205495, -0.02213031442402286, 0.003537901094643204, 0.002398692555379924, 0.07092388760637516, 0.034503033665885426, 0.07093866284771858, -0.06830218170839594, -0.06553405515172592, -0.008044121391113082, 0.054697289496596226, 0.03452332867597037, 0.07454445385769223, -0.01637919207570266, 0.004090143393540815, -0.02128894011772313, -0.018808038522871766, -0.012966034812541109, 0.04798297904699083, 0.008232676146518809, 0.0025167864504086956, -0.0018267074976073495, 0.027238441122053845, -0.015056981238770894, -0.03954514359103425, 0.0016809898565622596, 0.020138032265620498, 0.08433277219996624, 0.02616240829211071, -0.0022841132820222943, 0.043975660593936754, 0.06823761930198292, 0.03130412682944717, 0.09107995720017552, -0.0066072406746726, -0.039171865955410015, -0.05432409348766943, 0.025589045303503626, 0.03289182203239966, 0.027316927991149213, -0.00761573242120816, -0.05292180951992529, -0.0377087068598461, -0.09654234310518534, -0.08459679616124509, -0.012705584818384005, -0.05695052747052282, 0.030186492968221616, -0.06650170638180446, -0.06053998389042484, -0.06657204406088463, 0.025935611535074544, -0.062005890003567654, 0.007943178509010964, 0.0371023294022374, -0.0010467783478338762, 0.04595383148845262, -0.011382634852895288, -0.030274815563779114, 0.011089246693152713, -0.02254582035179151, 0.01941618483914362, -0.03545155988602556, -0.06441079546188087, -0.011861187375604943, 0.0331342997139816, -0.023563618294407274, -0.05091550178342767, 0.0025291571555690244, -0.045193981817078996, 0.027522307843997406, -0.047647660858795904, -0.05993061203744954, -0.063933201187118, -0.006157578239325216, -0.011500375982514823, -0.018544125901924013, -0.03995637685838912, -0.027345070067661983, 0.04844198007872936, 0.06713888355334857, 0.15803099722826014, -0.009183867312721583, -0.02829028716482085, -0.03229897342547417, 0.011091883434058928, 0.08599006003501443, -0.049427157762435815, 0.12639561405642455, 0.03348892959804769, -0.0004976753362006981, 0.02023790146592025, 0.05416623403500962, 0.017777946905913864], [0.02983280458921353, 0.04230166490070812, -0.023463454410838636, 0.05025769433001007, 0.04577158530929992, -0.058353883371804756, -0.028437036348944473, 0.0158736572674883, 0.020969007766685168, -0.004992812822774396, 0.027057232306769072, 0.052123792859692035, -0.02561532551360299, 0.0777822180798795, 0.08997061697878668, 0.062612287854003, -0.016462166986053774, -0.0443735989999466, 0.0006953341748238053, -0.030689669991496662, 0.05685361675936486, 0.006952502053610115, 0.00545163950608536, 0.10797675324687438, 0.01663923131037028, 0.026760485288691144, -0.038357935923452866, -0.048570839833038296, 0.07671873442098567, -0.00987329719410493, -0.025881251621058456, 0.05865615271183715, -0.10168001690339984, 0.006857096444888147, 0.06107334748681381, 0.06749233371090925, 0.04730932860964039, 0.1195286258638647, 0.06648444465643552, 0.03947416775336237, -0.048138767830845704, -0.07405707885475099, 0.016185867696938902, 0.014760290401260154, 0.04507174761356217, -0.0013891999961008269, 0.04042356810631898, -0.11548015393886722, -0.08306657072386395, -0.05988535450184906, -0.061624164414513675, 0.005041430305160476, -0.002458839220807692, 0.0717232457893371, 0.03712320082111934, -0.02372063600722705, 0.0020511090144159816, 0.10023594381828312, 0.08504224288053301, -0.07013978257458749, 0.06678674565294149, 0.09050529130202775, 0.005816828431108847, 0.10939074333489605, 0.03728411787277485, -0.0633633664583281, -0.08840370693045917, -0.08090070064110941, 0.02799570329988456, 0.01644641693736752, -0.034204422805038874, -0.07842633914420627, -0.11023452709480999, -0.14203357927120497, -0.1472460699473673, -0.10452809779481946, -0.187982076199933, -0.09501370238576119, 0.06376847899387159, -0.021318173162095718, -0.02233872391145189, 0.06543097124181259, -0.049311451328840294, 0.02198644916890737, -0.00595412533862479, -0.08581124128558738, 0.05627700295375988, 0.05458565426702722, -0.03379870615383811, 0.09284078751331842, 0.19199666227277212, 0.17836995217200619, 0.18295789661998638, 0.07319995435193143, 0.08650047518901309, -0.0012547680056708551, -0.058764043652854536, 0.002749336670252492, -0.018593978890276378, -0.022305350193684886, -0.053424238994845843, -0.002710729150126593, -0.060010243330578035, -0.0923093656329379, -0.08890983681400338, -0.11653802634491334, -0.0132927202280891, 0.02099060621421203, -0.04653701483018143, -0.07895795755374599, 0.19688313232183188, -0.0214516521312782, -0.0064438217255527045, -0.033107152428056716, 0.13587100647977268, 0.040319190094990506, -0.029433176864615534, 0.05679866884428697, 0.04358153912897918, 0.03894969754462258, 0.021476932572502872, -0.057110019483599506, -0.018191068653152502, 0.052006104299019335, -0.02725716482809082, 0.019409741606628, 0.05772408481943373, -0.04467801667480986, 0.03782311520261983, 0.017124090447290505, -0.07703273755590202, -0.02711498594956107, -0.08046343582876804, -0.057090146612775984, -0.11245053350605014, 0.06548912191278662, 0.06415828712877143, -0.06721593995703493, -0.08917388378358408, 0.015203835142833324, -0.04851591891880684, 0.05309369890596378, 0.08791440392627362, 0.08622816128781591, 0.016915371905609104, 0.01707132140238026, 0.042998383061545596, -0.07595279700587941, 0.008078856313141118, -0.049894461883390716, -0.03334475763381776, -0.011593889133058585, 6.788453441358116e-06, 0.011907076102341445, -0.0043164636922993745, 0.032151845054524154, 0.016161645055375096, 0.019605205437530186, -0.06656751557258846, -0.03427574580745997, -0.05608214264604816, -0.032653731177500166, -0.010805979369850076, 0.015931973777991347, 0.06917082981510254, -0.003017044089912817, -0.1138203862931707, -0.18473856340002884, 0.03311916043749859, 0.1587879784810557, 0.05271851713794837, 0.025145937059832025, 0.004282189087491573, 0.05038639640930501, 0.04504054293260588, 0.015626265262016215, 0.03773645965614399, -0.007640775244559638, -0.016298146175904193, -0.02958526450294315, -0.01800933219321116, -0.05995882015783239, -0.015592048542665344, 0.028948745888004945, 0.02920272149710668, -0.00471044726340456, -0.04880624034397661, 0.020128566947140717, -0.03619802266539882, -0.039427761181820314, 0.0015266554698217289, -0.015886728297934614, 0.01720359430596086, -0.07059556426084831, -0.09271923794143776, -0.08245362801691845, -0.015139583466631282, 0.21053339962633624, 0.010408689072273622, 0.1132830181591316, 0.02519395809809202, 0.03533539823078635, -0.029313045774833808, 0.020189366981422978, 0.0526096353711922, 0.05621704283998658, 0.011135628540367641, 0.03426351349068547, -0.048798710641103776, -0.048504785534792226, -0.031008199019409863, -0.023069083324294987, -0.024133233731352913, 0.006233476125336415, -0.004764167118957474, -0.019074334431885057, 0.00762254289339697, -0.037925354519243254, 0.025360736199568367, 0.04241750173050256, -0.008473839996016898, -0.04188249930886052, -0.11429213719909591, -0.09614272230629624, -0.023384932398571014, -0.0401703066696809, -0.052844915476834155, 0.031996196157011325, -0.015164560236251205, -0.012658415083809898, 0.044377670161910285, 0.005461390166575303, 0.01549552664606732, 0.06504295900919328, 0.03258232915751533, 0.039061795187170435, 0.04299309585176481, -0.012604468969006428, 0.0005235223201709177, 0.0029048572184328116, -0.016126414891087047, 3.5977451487416204e-05, -0.021169428830976843, 0.021827396192121675, 0.01895647002232272, -0.00829282108902094, 0.023799384441141637, 0.032973418047292424, 0.061465864985174, -0.005415220751183469, -0.11315501200947174, -0.07227683233950542, -0.08096174347568805, -0.011941998980609053, 0.09654299560858208, -0.017488027262680977, -0.04548072451616401, -0.06423890025129408, -0.07137297261104052, -0.027170632635985195, 0.005259391205791293, 0.04003865987184017, 0.04955519155210234, -0.00975214112422141, 0.05083177559137077, -0.02664264305842701, 0.03681823326493348, -0.041122909107730775, -0.0018591770708753514, 0.046619114182993075, 0.03505470128386564, 0.02351013127203427, 0.0055419983551282075, 0.04080447709382738, -0.02882966929506354, 0.03251256220666911, -0.02873154187595019, -0.0006545916091941224, 0.02908405626588055, -0.21122588339509316, 0.03401638708660276, 0.03202889714298928, 0.1775606951041403, 0.07239265199444425, -0.008721004375931648, 0.017935826825566728, -0.008425122690260483, 0.010401726037330198, 0.017762295852196668, 0.005298539661736212, 0.01822317465613393, 0.011732883788931888, -0.06797846274813008, -0.006866177247748978, 0.011893342952094467, -0.003773256323303616, 0.0091423580868353, 0.04986724416833861, 0.019285940232066503, 0.011290675097979326, -0.0003366648349679908, -0.022223796707857804, 0.02320545913860743, 0.036896760028469575, 0.03796707127857734, 0.11150697297965727, 0.007796680006603091, -0.09463641374639149, -0.13441763973008325, -0.023238832664207957, 0.059472290436709034, 0.00021708639702264137, -0.044036250928178665, -0.047335160119715385, 0.02485759037039203, -0.01140967003108726, -0.013837865759519442, 0.009565068241720478, 0.014302236288989427, 0.007078743647503478, -0.005308864333718602, -0.04923314847076177, -0.02704518739899306, -0.04617002457793362, -0.011130795013192762, 0.004980237344554258, 0.04210270473346945, 0.020193850711147196, -0.013394832869742579, 0.002526649839159445, 0.005304225630841452, -0.010921985329652722, -0.008256483914254365, 0.09038212647324621, 0.10753143333439517, -0.10320767688975131, -0.11707936502081968, -0.051640861331795615, -0.10548258566192478, -0.023323333004219106, -0.015542398704312968, -0.08035320554615571, -0.020873365379885298, -0.030514039042083548, 0.022232953629069428, 0.03784114752177266, 0.0643462119477187, -0.003199858320774576, 0.013384221069452936, -0.012447456875274798, -0.03052428661693419, 0.0011126592448458459, 0.049955312606894384, 0.0322182549656041, -0.021069062879317445, 0.02257232715255477, -0.03510791871960105, -0.008557652013670853, -0.030123925163285922, -0.027467757154143072, -0.020356749803995756, -0.07209467544819932, 0.15030849167877952, 0.03211353005093282, 0.06582425895743539, -0.033708204355775075, -0.0024588108830733255, 0.08360827042259586, 0.03554349168392472, 0.08145558813149974, 0.04503489153031282, 0.06093326846701336, 0.050931750456658584, 0.06807986819956965, 0.09646563919937394, 0.11180661632614544, 0.022092096148723667, 0.06263846164534555, 0.054210959387902484, -0.0002905396764016727, -0.004598439603703848, 0.013533738794450143, 0.05903136606804996, 0.004013528505066999, 0.005181745908790748, -0.0191196385653914, -0.0049753732894851745, 0.0017860057388911655, 0.043240173757323315, -0.09198673799372545, 0.011815353831795732, -0.07586177479297641, 0.12557007058366132, 0.012609317194173688, 0.029519074185183937, 0.08743000590822193, -0.005736383791459839, 0.12037201945429396, 0.05460757878513058, 0.09180396937464143, 0.03288713708841315, 0.06541758263747277, 0.06529592114864563, 0.08476921633529, 0.0945674134145148, 0.020734752956959358, -0.058367390433208675, -0.08639669821576301, -0.035874542532628714, 0.08124498401135224, 0.009548754609002333, 0.019360594730587474, -0.018697698504447118, -0.02048416671964157, 0.003120962920125484, 0.015740238303956794, -0.00909496507480799, 0.06162558243681191, 0.10434078029608677, 0.0050371969969436265, 0.08514501245874076, 0.030587839006975436, 0.06145618996594847, 0.0014945264510589722, 0.027597657826723986, 0.002785251889112032, 0.06166908035369672, 0.0015573510515214622, 0.01810565548825106, -0.014264429630989972, -0.03753369922080213, -0.0463841161085133, -0.07587751889180117, -0.09813911086470187, -0.062190628223136514, -0.030860345576465976, 0.05931044838722284, 0.10599762415513779, 0.021481265258618425, -0.01469919431754625, -0.008089148240189798, -0.0144270127331901, -0.02675534229651876, -0.02683815182088476, 0.03737491583510598, 0.03400807307523202, -0.03385224547292245, 0.07528789623261638, -0.0966556683999456, -0.03732382671955226, 0.11633147513593595, -0.03499768702667869, -0.036672016332744035, 0.061053481182503165, 0.08441212403643393, 0.04258466934423842, -0.018197525146100638, -0.08834437712076906, -0.03706026880110698, -0.16122996634979095, -0.12723525502476227, -0.06965124757786448, -0.06297730358501032, -0.006688427996041913, 0.1034483004504979, 0.028896075483013792, -0.0369115970099332, -0.054238177024907505, -0.014386237352318336, -0.05109563931919876, -0.06100921558207561, -0.03734829067560772, 0.04603027640597059, -0.06060087630343742, 0.1944445852600859, 0.08715606272548769, 0.0008955224081629741, -0.05476752219414862, 0.09461944421161317, 0.07100733089271272, 0.03535121998676419, 0.021256301170019594, 0.050968244909826745, -0.04533540423676533, -0.05482409459584466, -0.11665694666721484, -0.25065435074023334, -0.18441485277129477, -0.1972553891111241, -0.13054391576514923, -0.09929104407449058, -0.02738828761155176, 0.042073255085994785, 0.026354506648334355, -0.061802625235036615, -0.048671950105975026, -0.08509567980113973, -0.013302764916015524, -0.04782131142946608, -0.0034327277196079713, -0.056111636644647134, -0.07373179950186935, 0.1496992461535287, 0.004960636620852885, 0.04269191442333021, 0.000959607078576713, 0.048086502209622545, 0.05950840052016889, 0.04592342076353473, 0.025527184057027287, 0.028692286818267142, -0.029975376602677985, -0.09344741930459521, -0.21864502197360342, -0.31563213246338645, -0.20582333054171262, -0.09188928931751142, -0.11228611660073842, -0.013932834691736938, -0.008806982004630207, -0.03555191915126761, 0.013944505316085896, -0.001965698927078838, -0.050207475149037374, -0.018239276198516206, -0.11746543272702362, -0.0435967290155052, -0.020732596263934585, -0.03921955811288074, -0.044321242591678384, 0.08359624084861332, 0.12783487632639, -0.08492315719477421, 0.013065428428061692, -3.1398730592590616e-05, -0.004391925029553805, 0.0903243105809114, 0.04840745028408611, 0.10772425811423166, 0.036413330367067336, -0.057811455071904064, -0.14731926612054255, -0.18164487930889284, -0.09977183696435254, -0.09374888170669325, -0.010371972402379203, 0.05282285736704703, -0.007696924179157707, -0.010251024073981275, -0.029432547571997026, -0.022995954247837957, -0.04157590974158761, 0.02096790595708153, -0.04201940768208047, -0.04474816851333957, -0.03848753261970019, 0.057664884843814324, -0.06709772392551434, -0.0063607637167470065, 0.11654450793836357, 0.005725602635154191, 0.06670579825666033, 0.06652606393957311, 0.08525258656682522, 0.09517359034499033, 0.10754412965790318, 0.11130201108951142, 0.052762738087102495, -0.03210884919477833, -0.12518644599929354, -0.08156484403735596, 0.02828147614011949, -0.014300381875512922, 0.06596962956177783, 0.05698958266751935, -0.03162521994763229, 0.016607999036476136, -0.018186957159018646, -0.024416532627464082, -0.029708181546230457, 0.06364046894725062, 0.003363999922695514, 0.04190703149156188, -0.03992818063503114, 0.039877374040873, -0.019441263409088073, -0.015735916325572065, 0.022275635608523, -0.110488849406161, 0.04302148378713145, 0.06587514659236136, 0.056312531129896315, 0.04298809588657968, 0.0805726192101155, 0.05090205234425888, 0.030362626846067997, -0.02153648893091847, -0.02187300015917148, -0.03599108851088774, -0.006106168956809357, 0.01333573435266579, 0.10528505339881938, 0.046769470365482006, 0.06809770857169807, -0.016423404939148848, -0.0037365678885029198, 0.02052797663161389, 0.05067472202374321, 0.035397516933950754, -0.005012353942490456, -0.03452565932310369, -0.04958396145175615, 0.11103797945621227, 0.09745085653599532, 0.14178111439215296, -0.02610985091402407, -0.03575493246577416, 0.0370390455976783, -0.11646785158605777, 0.056779691181004295, 0.052955615254801615, 0.05569204483116527, 0.07774817505605543, 0.0012421340823596868, -0.0022404463267522187, 0.06307474174389514, 0.01010234249502307, 0.0626630969682624, 0.06476122973889412, 0.06286984922474845, 0.06006575218768818, 0.09287604755142662, 0.05555583670203419, -0.03731924802258202, 0.021457606648407384, 0.032866483049023974, 0.0020433930255318797, 0.027076284027195825, -0.056428425443273, -0.0374880457630125, 0.04603005833878369, 0.027396505222017004, 0.10922913298558512, -0.04545386366573017, 7.815076991132244e-05, 0.009965456774874233, -0.10433754934693062, 0.020670502320141376, -0.04324161463007629, 0.05292928756778287, 0.027387690758051402, -0.0151207209383574, -0.03548782344167634, -0.012773292446138935, 0.001044351686994617, 0.03891037114401403, 0.0767136862821115, 0.09982051356490877, -0.0038815383067029125, -0.003804281435882265, -0.02360695399252779, 0.01771523035789099, 0.012651723918040729, 0.018795678732190443, 0.006445931851528062, -0.0028091213380317037, -0.11114552442573965, -0.03163453666979454, -0.027887628005880117, 0.02520878493132856, 0.1013821775999773, -0.04240822218107669, 0.03480586513176655, 0.006659678278918119, -0.0675502592725346, -0.03578040351080919, 0.010044370755050765, 0.0001245275099067126, 0.014181509703214728, -0.002662328070424576, 0.003684927575640449, -0.0193860002764425, -0.040785330745752274, 0.038161020536905975, 0.0060057700912002285, -0.057068899380717734, -0.07615990801539, 0.05344205157854502, 0.04035060749037613, 0.015455449401710702, -0.029223945916722546, 0.00823512227772596, 0.04061353489189149, 0.018278972077044136, 0.008375517802090069, -0.0022853093784497747, -0.1758688857977768, -0.06224230115833313, 0.06286368792341444, 0.01210146141331213, -0.010417680168968607, -0.01819280693277742, -0.001986237117581443, 0.048064261957122836, 0.022983512332361945, 0.09975951492807589, 0.06317394955464099, 0.0544376208426081, 0.05241264515744688, 0.02440257881435381, 0.10550709188061001, 0.08148145595884368, 0.09107980776835822, 0.014305536674081193, -0.014520995649962743, 0.048236920351122946, 0.061225470740293816, 0.06988459807876103, -0.059662409761637884, -0.02177371399096122, 0.1100288316054657, 0.12999299143701093, 0.07648721886396767, 0.0566065033566155, -0.13727699255959372, 0.07104001950007216, 0.03963183622558297, -0.031216026501422005, 0.002988783252790982, -0.02138587881822365, 0.021681578426511822, -0.07348143810111389, 0.05639460471807625, 0.007162166985110328, -0.05264981048293011, 0.08852430709906517, 0.02716853259316729, 0.10961041178610978, 0.09087354528733808, 0.09939686013112624, 0.07853833861511565, 0.0021996750108545845, -0.0261915416844512, 0.09236593740904361, 0.17498769244292173, 0.07506821381617004, 0.008048320515370225, 0.06817123922296159, 0.05687397991903151, 0.11790798269495661, 0.09356566360687947, 0.013047187843545562, -0.10003373761460173, 0.02781624410980532, 0.0424083508673223, -0.061475798981474185, 0.06078698071068356, -0.008042996594768564, -0.004789194335351503, -0.028969140314309423, -0.045672897022707104, 0.05013880398937796, 0.12135618774530366, 0.08268284171255094, 0.05501379508075828, 0.10082942877205395, 0.10161501380570602, 0.08146472807745961, 0.1206952263081226, -0.017489521670560823, -0.04546866176473478, 0.11526689779416723, 0.0030607341904411696, 0.007023713622801906, -0.017178561852606775, 0.04864618793215906, 0.030587036240651858, 0.04826034315952737, 0.004331136558207722, -0.01148522179960779, 0.04388085751345078, 0.006620566971032508, 0.039182409843816615, 0.049101607087280306], [-0.04763195014673488, 0.026818608149471186, 0.013994539952338464, 0.019734038071611167, -0.07414257945327084, 0.043098847859367115, 0.029531645961912767, -0.0411572150745899, -0.01064986090208291, -0.028039778948171935, -0.027051426709326164, -0.04282880910219749, 0.018320615891325536, 0.022870135261313766, -0.016022105672646655, -0.03562081471723435, 0.000807922675390692, 0.01099871275072469, 0.005689726710926233, -0.0444953731319242, -0.01476256915552854, 0.00979996308225625, 0.02925717882961122, 0.01317771253941217, 0.041735107677840784, -0.04113305325470557, 0.041388895429085706, -0.03192189959714741, -0.030518506028834904, 0.008697682239445354, -0.0018129090135129131, 0.002188463710902682, 0.025371602068526174, 0.023075973395489193, -0.03789278655513154, 0.06230946317968049, -0.06581142796305993, -0.03825023760769302, 0.021386182679019313, -0.06110355573407646, -0.10125891897187726, 0.003389615997128027, 0.010594061985112853, -0.004038111517177773, -0.00459316913260445, 0.05362137848436552, 0.02552305557948374, 0.012440142472969862, -0.019944481769343488, 0.00868373354173288, 0.046512253390974874, -0.044909207187915995, -0.03395043435093369, -0.022737928041067456, 0.06687780909887624, -0.07193337971406492, 0.019046816730191228, -0.016273903294148878, -0.056131175329834686, -0.14469891536502358, -0.11129990437720733, -0.10737002125871273, -0.03835536955970289, -0.022445213199043752, -0.05047283713229052, -0.03886624821222017, -0.01694898761922595, -0.012877529248169267, -0.02558943504284577, -0.04490205638104661, -0.029343593823738197, -0.01197595201867927, 0.01315657966590203, -0.02935383844401117, -0.004025628115820494, 0.024267091155040763, 0.03118879009200225, -0.006776725233126853, 0.06260616837905221, 0.0016116862579534357, -0.024079115615079583, -0.016640729899799225, 0.05885248808583706, -0.01536228143830986, -0.011273132038677894, -0.01739819547691094, -0.05193963299715802, -0.05304894016002049, -0.055037597353272565, 0.10385760804208621, -0.02325495243880097, 0.06457098265294255, -0.029153417133717427, 0.029781302244600565, 0.006843345324187421, -0.0074269639106289064, 0.03327967072699157, 0.0032097218557069077, 0.015027444809480829, -0.04729545370607477, 0.009199668215839384, 0.008610679165632292, -0.05496893269509612, 0.016125532417159666, 0.0012606075172101048, -0.01706769961233222, 0.00555256543392753, 0.014973495295223163, 0.058342900793725345, -0.0015436415914960955, 0.08024221963762072, -0.015847024391336628, -0.034584310986347684, -0.045173992064651114, -0.03513257422491672, -0.06255301828209263, -0.03384963696178485, 0.0286373142826271, -0.03541021873481644, 0.02139261839650316, 0.025437457891600474, 0.03891888055169115, 0.02951353138718236, 0.020158397445045342, 0.03918413689136695, 0.06240794197063756, 0.1039018143902946, 0.06404869081156073, 0.041898176559736856, 0.016970564786503682, 0.05442700542697533, 0.010802286937191829, 0.02863384967905744, -0.012108779523751247, 0.014794084018892588, 0.05797040656684544, -0.03770703387404768, -0.0333566304363009, 0.029019445988827528, -0.13155681388237908, 0.0163156796689232, -0.03933029297328761, 0.003870408875796282, -0.007999847115701137, 0.005698875623770544, -0.02830391275177032, 0.019272982085048466, -0.09347060626969018, -0.02358183772223711, -0.023774112371778455, -0.0008842448347405967, 0.034001838251864994, 0.029635138768356977, 0.008463581276508918, 0.040307248390384104, 0.00540125194781101, 0.025396885402134778, 0.027821589039583622, -0.005971866488742811, -0.018812368476689878, 0.03738652217541032, -0.04198665375130015, -0.0411204505811615, 0.012568236229624538, 0.016899204451977574, 0.006216288047114537, 0.027256801075994087, -0.09428158245852258, -0.0022652016059095713, -0.1600441112045258, 0.11167607084137407, 0.021601435200784887, 0.007695033897333434, 0.015021649079455909, 0.01561423662083103, 0.0340182877731029, -0.04236314687468621, 0.013129139592630639, -0.01620696459976869, -0.015717016985278054, 0.03894463912209131, 0.0054713036633351145, -0.02038141002153257, -0.03343571809175121, -0.019542273676610353, -0.01757511913147498, -0.015482228596429158, 0.016877327441457035, -0.011210322763086481, -0.0081285954724597, -0.012594592087229553, -0.0012484010990407592, -0.038591896608452754, 0.01872464186757232, -0.01568396558648411, -0.09255200239817118, -0.037688259715631785, -0.03637236225551249, 0.013290973329817383, 0.022622423513008146, 0.03648466359878647, 0.0010821798494202082, -0.053575441882106375, -0.00401931693202428, -0.009024822786932382, -0.032263759538519135, -0.02315659074003809, -0.013163137102047928, -0.061043799107356765, -0.014595500112826437, -0.026381331779222174, -0.03396995368631352, -0.050159886350491234, -0.02496174307406785, -0.005043853424015416, 0.004679371987460052, 0.02364306270951116, -0.02546589923351663, 0.007442785863516872, -0.08601620124962427, 0.008909636680881714, -0.013132703293397092, 0.045588489509829105, -0.03558733059173796, -0.00542697020593192, 0.026006486896815638, 0.03525007301555273, 0.04093510582920584, 0.04254099253010483, -0.043543712537525356, -0.0077364613057896835, -0.004864711672527002, -0.01689940857174538, 0.023226009090148794, -0.03152149362079402, -0.040305868713330625, -0.04900308302547197, -0.015235383413085442, -0.03614556304078552, -0.0710410828128384, -0.0045460790123370695, 0.001097107108446712, -0.007299915420095331, 0.03761227830630516, -0.0007935936087930478, 0.015373642494129477, 0.012021366297449536, -0.047495584477846915, 0.013610135936168383, 0.002178559065821437, -0.01150955070365713, 0.06770315751920401, 0.03945876675596497, -0.07664163647558514, 0.05862313246869781, 0.09397778282980648, 0.005629550028013011, 0.033847125019509046, -0.03707157513277729, 0.02358107930399008, 0.004320981798271153, 0.0026273799403945066, 0.020802242728804706, -0.004644853493918479, -0.0011693666767768568, -0.016513110813706783, -0.013209019950777699, 0.056408621195339986, -0.021581806055327564, -0.01845226056897653, 0.009289195033667267, -0.011085586748650391, 0.031249707759619817, 0.0389530865526635, 0.02810027811716618, 0.02115607967583171, -0.05153661823361808, -0.0005070830813142953, -0.0010054165426378384, 0.017966048246272785, 0.07538853837083395, 0.04617905840482142, 0.0756129911392328, 0.026385507900154623, 0.044348577492025455, 0.03814546440312071, -0.03569170688688497, -0.017019612821081248, 0.040120033037516566, 0.003952032006174831, 0.024887879666070548, -0.04861609161144733, -0.031495361938341966, 0.02384871770662023, 0.03418919107359509, 0.023374086281351604, 0.0016381720092538876, -0.0020080998095594396, 0.008297395594995602, 0.010577370363263517, 0.04119211230595985, -0.010879027393348553, -0.013999148817759433, 0.013454320917297962, 0.0006857397056838994, 0.03145745594479205, 0.0014258860300590882, 0.046861449273963005, 0.04675700178019639, 0.06448358467099292, -0.02298687738328914, 0.009130979321142018, 0.04179004714411054, 0.009493398889977276, -0.04594115955078205, -0.05160626542357539, -0.003380153506783363, -0.0013915158845109101, 0.007589268705854903, -0.06250715114507553, -0.016129640925180454, 0.015439355655551436, 0.01672987945723637, -0.03750369624965506, -0.036782744411332946, -0.049000602258063075, -0.00878211589639504, 0.024913911118242784, 0.04751453473818451, 0.04415468614435787, 0.044103088054625275, 0.023234982189744697, -0.012033052442243513, -0.03826220404454315, 0.058102056937504566, -0.03453824851272305, -0.02850976508485771, 0.0946901550186729, 0.009041745017967926, -0.0020755998948494476, 0.08977546519076386, 0.03181889348573511, -0.02156587851493248, 0.019709703436352116, -0.021493146969153554, -0.023458333725418605, -0.046686111300238295, -0.025139398805432717, -0.002101366201711192, -0.0007582425551818589, 0.02015472857098504, -0.015370899617577328, -0.07164159086651621, -0.06446298418569812, -0.008017700550492637, 0.03682900372287749, 0.01975343870042906, 0.006955588786899701, 0.044889187290492245, -0.037141217557906975, -0.04308470284262743, -0.026060266479840045, -0.026801016293506688, -0.15314782065196167, -0.05899521649143628, 0.14226141404944007, 0.0442091852362028, 0.02644799714656512, -0.03737145189323137, -0.026100051250378006, -0.03952959177449182, -0.0054313772553774, 0.012161375784762837, -0.005492283929058582, -0.027154533544215327, -0.011429213061359337, -0.005671170060049874, 0.019701317841592497, -0.023754578821031366, -0.031173915132601007, -0.024794329163989656, -0.0576536794754637, 0.027809079226224796, 0.020072502190182865, 0.015504154525045914, 0.00979369031226188, -0.024174221909640293, 0.004017406198222746, 0.055232262538603284, -0.02575740485007968, 0.09563145185684577, -0.06133513459248045, 0.01547048823535777, 0.12924576731390086, 0.015951529813412815, -0.0008805324637901904, 0.019585018235740662, -0.026836136823104314, -0.0022845081420619874, -0.012666482293057236, -0.05593171432478123, -0.0285489792659553, 0.016088538038652303, 0.005385317017525496, -0.011138143702782186, 0.011092990428345266, 0.005177331868386793, -0.012379242510987038, -0.026896725918153112, -0.0123432076388785, 0.05249896152079067, 0.06764057184326179, 0.009096991702652695, 0.02766794613766325, -0.015721983686890154, 0.04115193986446032, -0.06390877809050345, 0.008016227204930414, -0.07589397305253594, 0.038456563096217464, 0.133662317981896, 0.04581112584441882, 0.0015349946849312788, -0.01878157993478797, 0.0046773683411163785, 0.005152921832717855, -0.021948114812278974, -0.03243907916712456, -0.006099310940383038, 0.011102043848233963, -0.0042909659652445335, 0.010239193048986388, -0.001480671694116534, 0.0058345197284596605, -0.006024596878193692, 0.025361608600155166, -0.02469282763077098, 0.010006971947419794, -0.01628378031324921, 0.007475776286827975, 0.01694525034225101, 0.00629086236101614, -0.014414204949211315, 0.0034971502195870396, -0.0075687295911345785, 0.0003559718839911873, 0.03923694167531348, -0.08304258075360052, 0.09164968529527893, 0.14062869095778363, -0.07594386941105279, -0.0046130675927028835, -0.001692679634793464, -0.04824152983839392, 0.006859700172322255, -0.025375596179566338, -0.019685230447448833, 0.0020977023182642152, -0.041761042252385173, -0.0013751755860167778, -0.016194429224629138, -0.0061166104359088366, -0.015009567568528276, -0.03439850485360375, -0.06582568048443967, -0.035968655910231934, -0.058766781012691956, -0.0009305181883095092, -0.02742011341641287, 0.016477167109926923, 0.011535689278410876, 0.004954880652986249, -0.007206289415418241, -0.04582368363332308, -0.0737745941759353, 0.08932928725509529, 0.0017505022159206814, -0.05828215538831889, 0.025883594023933396, -0.005604206656998045, 0.044811843529789404, 0.0010251781260825269, -0.002454851909843433, 0.03874966413888675, -0.013099734028306345, -0.032192972933565975, -0.017749004687890448, -0.027590989413792552, -0.0029129523380113037, -0.03151436111267418, -0.01151826640536497, -0.03286133109633466, -0.06831788705619309, -0.09805550932230549, -0.03561590954489965, 0.015766222003375928, -0.008112450872095677, -0.024776951862095904, -0.011328100743192848, 0.0035663918412661205, -0.004527593530207248, -0.06789754605960066, 0.002034878724422912, -0.07404728975956429, -0.0686931956035075, -0.0506713557353814, -0.023183526477895216, -0.03563244050056655, 0.02520284972054852, 0.043620037204237024, 0.0014470227874141784, -0.009529672140182022, 0.0028926950772829624, -0.01046675845939266, -0.02174921411174413, -0.011793640747678396, -0.018549907285955756, -0.023011730781436864, -0.05050080734956447, -0.062297241294033634, -0.07137914546400537, -0.03504044452917763, -0.023880639342427273, 0.019727877311752226, 0.02739959330001765, -0.02127286682607925, -0.015518366392316187, 0.022518846625075663, -0.029553334544078422, -0.029890116543752756, -0.04743963963218269, -0.010088465409206562, 0.05608279652786191, 0.09527766870460057, -0.06044009912076681, 0.01417149476133945, -0.042558970698753223, 0.004725399140839728, -0.012269463377559717, -0.016915306955872223, 0.025703165946816185, -0.012579456595584692, -0.04553479749580668, -0.0035820990545896605, 0.007631925696695331, -0.011533051367805513, 0.02265876935177098, -0.026850984486741357, -0.009673773989462878, 0.02409933008874449, -0.011234291855834898, 0.012127190793841605, 0.035462169512055566, 0.0538625513258395, 0.06673373585252487, -0.015151090858978365, -0.0040712462045335365, 0.03563483901259627, -0.01619594202702892, 0.019400727231133952, -0.031230961977425274, 0.07495604812496856, -0.005547703689049161, 0.048903065787084934, -0.02305760761881115, 0.023209971700603335, 0.013773408376962181, 0.009555702852161124, -0.028731235524345474, 0.00079439931467768, 0.03562007965688594, 0.006351160786405407, 0.006728560626552755, 0.038955467395531, 0.012415673526096562, 0.03667980496072246, 0.03770550354228874, 0.05504923933343168, 0.01536410377691256, 0.017982391052644653, -0.006282387219703305, 0.008127122401005328, 0.00425100528898959, -0.01400225301032699, 0.007788056282460738, 0.012312512915634843, -0.05362769497383828, 0.004798227534497341, -0.032338912793287926, 0.07813454390427793, 0.061665490171355995, -0.00947165419197308, 0.005829469427795793, 0.005031835379852241, -0.02935539469777677, -0.0476531131247076, 0.024524435617720452, -0.030273946970376612, 0.05153245096819994, 0.007848158318630458, -0.017102891740704854, 0.000828669997651985, 0.040766633603165944, -0.01919829943251488, 0.055153615735756854, -0.004337846717113595, 0.014984969583371992, -0.002638707253722365, 0.05334675840928109, 0.004184980497352644, -0.02601194632263293, 0.0034005120006472584, -0.041999056279522815, -0.04782616705062356, -0.05920293784100834, 0.01722602254051536, -0.0324681560747811, -0.1597018265136311, -0.029538738848134818, -0.04123306194273621, -0.002622906149901437, 0.005598465156112078, -0.0026528988978142304, -0.015615989169950816, 0.010355404598827436, 0.0009769089866675056, -0.014191397647757332, 0.01921564061511402, 0.011069523098518247, 0.002378679591605914, 0.03176689269492285, 0.04021330965643328, 0.057639518898729286, -0.01475582540534374, -0.019033062289394366, -0.03437256869145779, -0.07901894077680345, -0.014758512272248638, 0.02933177631876455, -2.1130061636982034e-05, -0.009131320656752389, -0.0032132381487192546, 0.04614007557300482, 0.11655080822141467, 0.004055696141555613, -0.09666919761413371, -0.007346845367415138, 0.012154559867687932, -0.0646920626789287, -0.03616840079479005, -0.01559247378209474, -0.04822365860293818, -0.04515302970395745, -0.004128147749585081, -0.01774084556693294, 0.05414974526033717, -0.018472204525011846, 0.021015914410486697, 0.003647684209896044, -0.000714478798175414, 0.00306638505563755, 0.01774502081662889, -0.018021558738173942, -0.046550290214015654, -0.05184130622211457, -0.028449565044432093, -0.013176660312935455, 0.035187543342573235, 0.010343866376478533, -0.014698674747150794, 0.012419256017729604, 0.030368528504706994, -0.006975526413891266, 0.04085627827749806, 0.02608161212615347, 0.026329952507019798, -0.022099057638450773, 0.0009585733813735779, -0.023048689152962487, 0.02161876841749415, -0.03377450907162152, -0.02294546691657087, -0.037030064626449054, 0.0024092861725525153, 0.0038815317646671427, 0.011900875494974188, -0.027676200956003327, 0.027972495958223056, -0.03704623889215579, -0.053304190310247794, -0.015494376863755634, 0.0049286097530965075, -0.00847596251027352, -0.02855805115521027, -0.012499409841669763, 0.004739186837535611, 0.013368485307575203, 0.04060348658248856, 0.10026551737279636, 0.04723750850660426, -0.014881146174609743, 0.029110683371499517, 0.014162730151177836, -0.028727526503785194, -0.006299057081403356, -0.04165523779969296, -0.026990596422708155, -0.029850076820502704, -0.04373921611455294, 0.005820181366878966, 0.030744733813146307, -0.024759036277405486, -0.08338269595413056, -0.011610154445526818, -0.00846953207255519, -0.06254019471254736, -0.07820895763141368, -0.08168176288566067, -0.043643145423254814, 0.0012979771718507613, 0.0031748183669617863, 0.04547915384717157, 0.0007978066117200434, -0.0257537611664466, -0.11312299122969653, 0.002512622796106056, 0.14504773451570552, -0.04117727270510443, 0.008154313618707224, 0.0036031237141174737, -0.017883197239281917, 0.026208627042133333, 0.05012593092507422, -0.02191107997492186, -0.06443471136961221, 0.020633420637091962, -0.021382350029986733, -0.05330504483713952, 0.00961667532393328, 0.016983582329646703, -0.0627440369157773, -0.001683652419545316, -0.06599936240234928, -0.12384740537398685, -0.09580925173987488, -0.06848894296889625, -0.04893933883137018, -0.022454685102659508, -0.0211494538456805, -0.02941694246703488, -0.11205685730372268, -0.009976567965491692, -0.1321294988674892, -0.07738567537659218, 0.04450577436800689, 0.026791484763558953, 0.00502300897485221, -0.035880166493779724, 0.07135704910374617, -0.006170973018879844, 0.05808292996055725, 0.002658763426680556, -0.03432926229124786, 0.07796392408367228, -0.040307146405127586, 8.434831784756016e-07, 0.026638087037602506, 0.026935466886456576, -0.014738134299267748, -0.016808601423824714, 0.052676078754987275, -0.03047039601380686, -0.033323758245337516, 0.10931844089289386, -0.012389913458292292, 0.10805920721796466, 0.06755439252839887, 0.03579501537399316, 0.0021998034820365454, 0.11337214064464915, -0.05174821071088167, 0.025793837235206958, 0.007952445479253993, 0.007898309586403713], [-0.010853952140323963, -0.04144645453538296, 0.01110530064008427, -0.00932774686006108, -0.048049930076689805, -0.009403116857539398, -0.029753193384695776, -0.06026146247779978, -0.07008748081277517, 0.033485563852006524, 0.006439653873905602, 0.05288897405665769, 0.07169939763867289, 0.029243163952502434, -0.024853145027329365, -0.004537237597745851, 0.008575224040754031, 0.004051263844231621, -0.002012877199851558, -0.04005589501835013, 0.007697351835406613, -0.009481791630206833, 0.011887013456376291, -0.04638306190137954, 0.004200211969585319, -0.0035167380717757964, -0.06544044363341442, -0.007339600939278074, -0.03852275350502771, 0.03253352462601844, 0.02518686598861179, 0.059505343983258754, 0.046904147419098895, 0.03731427099122756, -0.011259372035620748, 0.0006963462708335444, -0.014916700969724209, -0.019795671187203368, -0.03412782357604919, 0.0022656321560539177, 0.09843453007749407, 0.03347034669218314, 0.026348427336104135, 0.07219113610752115, 0.049381587234848326, 0.049698635519237144, 0.05931967550874531, 0.07035589154974928, 0.013035506780639411, -0.026335963566785678, -0.003925491091460835, -0.003031587804964482, -0.04565019723110338, -0.012908063491794172, 0.012984648380947747, -0.023833916053945046, -0.015560910185591201, -0.01780806000396516, -0.04733193510845264, 0.06753759095283987, -0.10409189245408701, -0.0691084070981273, -0.03827761238787674, 0.005598500359549126, -0.05851900554491523, 0.02282975781795418, 0.03774931250247109, 0.049623964484364326, 0.03942831431897731, 0.0594165150799532, 0.04519051692475923, 0.026173640292846304, 0.06899865753308831, 0.02252355816944711, -0.01159544862274663, -0.05611086793864049, -0.009727186633176125, 0.011792991078632098, 0.08213494959862347, -0.0040153393658273985, -0.14269812731811973, -0.0159012142996587, 0.048139091485517795, -0.05112337316470287, 0.03438854151476861, -0.05185680375878427, -0.10296942342852211, -0.05770132320815983, -0.009136272121604967, 0.044572993116670796, 0.0027786149913000156, -0.019216199570441034, 0.002173904196041466, -0.030744125943000043, -0.0069856344622328745, -0.0074141285054073035, -0.0009212117528832976, 0.0011991252802062246, 0.018269300477373285, -0.04880290494594642, 0.022298032928695446, 0.00960612132595828, 0.03194484323474775, -0.004369305717977574, -0.0036660203363230643, 0.03859808965894069, 0.00016457923350609763, 0.06599774655550912, -0.05929018021489338, -0.0743359563120112, 0.0481465830564531, -0.05651425126930859, 0.02716030843389645, -0.07017530145018934, -0.20161423985574528, -0.0038298970479159027, -0.024700900922713955, -0.02999939308474631, 0.006302561860688856, -0.007110242746996984, 0.031134832629594177, -0.041906806639627175, 0.03998234169339363, -0.0027458373352571928, -0.0013077756709998802, 0.02985310457608562, 0.004897748816312984, 0.005327881896815845, -0.006404810630172067, -0.01118481297966941, 0.038540777893321665, -0.015882811279832664, 0.0406506315013402, -0.000626024445809381, -0.021221292424471024, 0.091831957806287, 0.041682182297136494, -0.05389694748636658, -0.04121073847619192, 0.0005481778936755586, -0.005324787293538122, -0.00920409213254964, -0.02318529041084798, 0.01934301745300901, 0.04877235608128034, 0.03911926868059799, -0.005342059370958487, -0.018399068365110256, -0.009594887878611754, 0.017070499656386767, 0.002951721482067459, -0.0040112174123855685, 0.04600260519075806, 0.013937238136504998, 0.027903811606454897, 0.010446896403265044, 0.014728715782168052, -0.02324855993235945, 0.021003599258265122, 0.0018988127134929444, 0.015284593931169424, 0.0020426819289177363, 0.023394102728452618, 0.020767606029559245, 0.032024637946541784, 0.01162076741685506, -0.05839856425098096, 0.013218380799465738, 0.032987509503053694, 0.12645955288310382, 0.02390909144833596, -0.014186312609241844, 0.056033862234694816, -0.01588951672254734, 0.01796216556793857, 0.014471699255450424, 0.041490389081255935, 0.033691901075402875, -0.027456403424979303, 0.02828311029126397, 0.015357498304948468, 0.03394553680044429, 0.03656857976013928, 0.036260061339653135, 0.01324158915359205, -0.014932595343097292, 0.03196978106766473, -0.03131767888735177, 0.003176498230956416, 0.013687029488867939, 0.053743677800904825, 0.01622070180927848, 0.003783042222099237, -0.03663114502082242, -0.005793701546200332, -0.08638035753678108, 0.019517892398671285, 0.04535273314500272, 0.1055786159591635, 0.03129316039520238, 0.004852718335485996, 0.044241616450179336, 0.010142590133389886, -0.025554540085245298, 0.0272149742127481, -0.0033987819436344584, -0.0008060881441113898, -0.027603361916688406, -0.02431842920232732, 0.02192502579584458, 0.028242006116326178, 0.0210537679293906, 0.023925389669940313, -0.006617821687059551, -0.01702524033324555, -0.01096884394132689, -0.024776088226898824, 0.03442223503151691, -0.03456999478914767, -0.022737070078297523, 0.018504779019834203, -0.003486571092441474, -0.003465829159634708, -0.08238447621374805, 9.838270987024732e-05, -0.02183608115627201, 0.11755780650480219, 0.030308765789753427, -0.016792739663280935, -0.0035521423171982415, 0.03355292414341807, 0.009865400167129319, -0.008748365236944148, 0.010764674989944439, 0.009949305132182989, 0.03347045025750639, -0.03440724302853956, 0.03484279980551222, 0.02548693389998637, 0.006354838862371293, 0.05879588842807288, -0.004613005960343569, 0.00275285918761935, 0.022055395683412242, -0.003073972498063593, -0.00805978607130279, -0.02886501750708311, 0.003895853905576824, 0.020704254282792184, -0.06237759298484656, -0.03590701097960016, -0.014067307605457685, 0.05628011511148052, 0.038933685751157174, 0.1471191805214885, 0.021282318988837024, 0.005143897405790781, 0.022306919887058657, 0.014352021066260967, 0.02366205749760465, 0.007614734260712315, -0.002074373050204322, 0.031074347300909744, -0.008554009029644552, -0.03052454491383069, -0.003916590050114648, 0.01443404279956775, -0.029670928021029257, -0.03699436483895385, 0.018243517486249687, -0.02479561629612481, -0.02570482806710522, 0.019661130485097114, -0.04177170265777886, 0.019185706918172413, -0.006050579132457302, -0.039681620988316374, 0.01988732088479202, -0.027829011675432076, 0.036309338807224686, 0.08125561586448374, 0.04951590360579821, 0.03640856917914262, -0.008729447761028854, 0.008257320139400445, -0.034070430531993726, 0.04480304699466848, 0.034754396540206595, 0.054269073642148585, -0.03231675772478044, 0.004267030301141557, 0.01798110699661732, 0.03465087424575573, -0.009004734503651331, -0.0023050808639046485, -0.0034005533825193297, -0.018125174267050913, -0.02454313464177814, 0.00276590279934037, 0.0293182226800993, -0.024560946297728013, 0.0010460138714597606, 0.012004029704733347, 0.0007446443545745163, 0.0023418212224329744, -0.037194369066916526, -0.05466676734652389, -0.05363820425014937, -0.06102764963019424, 0.05918771083234221, 0.007185219071660123, 0.05340224700975765, 0.044312865800772094, 0.03413455155199494, 0.00666339458136392, -0.010522246047266306, -0.020227441982746123, 0.025213258040858236, 0.007545556354689948, 0.005121413658490089, 0.0017731853664031962, 0.06269881569646442, 0.05562667836954544, 0.023983469987522387, -0.02985184279695124, -0.011346628025240613, 0.007073003558289576, -0.004060567869935719, -0.004197573862927081, -0.022473300565480678, 0.012309034974478123, 0.034433227376883146, -0.005175812198019237, 0.021738114160228524, 0.02274586327238396, 0.058398198049295955, 0.05078515967721867, 0.1171253537789001, 0.0782005663611716, 0.03628687821706381, 0.046157208171767945, 0.023396031462388105, 0.058419941316559615, -0.024979508903971624, 0.02286058815023741, 0.0022395124066708293, -0.00333996089131578, -0.02415588625164301, 0.009295646865858542, 0.06631405200375572, 0.03697271045113045, 0.00823168516991061, -0.0403552188440334, -0.030676475805263954, -0.008446007588097857, -0.025334645246794636, -0.04992089868596749, -0.03194162230460144, -0.011949277073413585, 0.00013498645826408344, 0.04489341228816376, -0.00784971176436811, -0.1053534014725153, 0.047664295125351745, -0.07985022258265977, 0.10762605476603088, 0.023293355008812463, 0.03986968399833433, 0.06794988664801317, 0.008513124432073473, -0.019201335809847595, -0.007005899398635691, -0.026712085698580718, -0.021508744061279724, -0.05186213074821917, -0.03562343162487492, -0.009186426433537351, 0.06094488058309264, 0.022436501796131453, 0.031205444893687064, 0.003406342493133594, -0.011219500153077194, -0.00024641821014282695, 0.04636404896765897, -0.027289713657056965, -0.03886955464778291, 0.015025209208718757, 0.041403891740434184, 0.01724591204083302, -0.06566806120030995, -0.10709589370672626, -0.05052376916798245, 0.1066189400694247, 0.04030978261507934, 0.11241108217153667, 0.030287224782289214, 0.09867246707530608, 0.04877918333949532, -0.013086440236930025, -0.02246423899650105, -0.06352949750109833, -0.09654609106119326, -0.08131311213282803, -0.10008764653054303, -0.07734878194966738, 0.04948507823417674, 0.027170833764334032, 0.028519790534157364, -0.06564847619305546, -0.04359645338685732, 0.0031509862756677123, -0.08334218413012848, 0.013745123473615242, 0.013906586508913282, -0.01287153971376881, 0.021032970670058267, 0.05598354973507837, 0.005745304671240083, 0.026475827986036378, 0.04932170314770368, 0.07549518620571925, -0.010993103673724459, -0.008975609222924981, -0.016367448039854723, 0.02681705572825483, 0.051557945329154246, -0.003109068636435816, 0.003855156866576546, -0.08117372351726117, -0.08976967986897819, -0.034225176807408594, -0.10826489357376039, -0.05577368547740668, -0.01796846017592687, 0.020200955000289112, -0.019536263442176842, -0.03199686255808922, -0.03425449393630169, -0.012227745144060328, -0.016221763845812996, -0.0046624683309236395, -0.05021294040802996, -0.006727212936033169, -0.02253196938305699, -0.005438229792354457, 0.02645495567839365, 0.006214263093667071, 0.019356996702876692, 0.10723679902091542, -0.036614097109306826, 0.020989232837191143, 0.023725671553446345, 0.06482980856664461, 0.010085691413702198, 0.015508682052771935, -0.04481509618726879, -0.01376199659033237, -0.03618187650344281, -0.053355087658226635, -0.05883926823075951, 0.014568809617587502, 0.010892519822919229, -0.053766674087414555, 1.3400130280363868e-05, -0.03676587703182266, -0.01211833238122781, -0.008029512100280167, -0.01713158085801615, 0.016140680999663648, -0.004935422516167791, -0.006452692423874183, -0.03473834336699253, -0.005088486531981405, 0.021681357045244556, 0.01605116960184529, 0.012287281322022342, 0.042828897629527456, 0.08020035734075082, 0.004182613006424567, 0.03773591931962588, 0.04910609064339799, 0.02082612771340545, -0.010093233877916033, 0.0022639939301181957, -0.007672565693970176, -0.04203915453556014, -2.3747620186387626e-05, 0.05342577765357137, 0.02223777254814736, -0.011865666115216379, -0.03328430559398769, -0.04138171296895743, -0.007359336676339549, 0.03646106346867246, 0.0276459931329986, 0.028059535363091942, 0.008493945996360611, -0.030503481968140553, -0.03955759323454476, 0.008045959676628535, 0.017338452859437158, 0.0699341921182064, 0.022850922593297636, 0.0156961560354292, -0.04241818944754768, -0.036700851100239226, 0.03516631554121513, 0.026284256874640064, -0.007548508700988502, 0.026331033419957645, -0.05402078539933901, 0.0006684882234715027, -0.058462194244871396, -0.024209822000539914, 0.07144819483044967, 0.012030017032146588, 0.06495325171716478, 0.008467936974301163, -0.07841860238581211, 0.01992011606984582, -0.011168222756336416, -0.003008406686615238, -0.01029029581180097, 0.004303254093262471, 0.0270436128310399, 0.0007564943044672561, -0.0028001133369084984, 0.058629449343235024, -0.0015409762561224762, -0.020037838297535453, 0.03411734430790188, 0.018041196315495927, 0.06144174147327953, -0.0597940407020241, 0.04288258349322494, 0.07655168671495044, 0.03973152686989748, -0.008562461429693123, 0.00713838881800041, 0.008458576513983093, -0.000552776245164312, 0.030415824187111157, 0.04470232484624441, 0.02880478659885194, 0.009897198109287695, -0.04422322627160468, -0.05702373141545141, -0.03136132552647753, 0.015042437155347314, 0.0020701273660443174, 0.014217650169650896, -0.02253886263374013, -0.020632277908732448, -0.003213178836003827, -0.021506993845380896, -0.0038629743651449927, 0.00978098193089061, -0.004599713639423645, -0.024064682652472802, 0.034283215086583295, 0.024446180508972844, -0.03787097138939196, 0.009083128954853756, 0.04774546799031709, 0.024693652351459615, 0.01224329915809998, -0.012370385463163037, 0.043346749346979976, 0.01680157860754561, 0.054936337836041196, 0.027414698759401227, -0.009562960311845857, -0.006078829589468527, -0.014965036683042221, -0.049663455513695914, 0.0436330589549459, -0.020175419063748003, -0.031144519363777327, -0.011538204163375554, 0.002086384807809757, -0.012230153609978405, -0.011678755305439107, -0.020172266858417096, 0.03097652490942582, 0.04302637820726267, 0.10592759087147238, 0.024311357879901834, 0.03711376861931304, 0.026232232351073432, 0.02591543427872574, 0.06443229088151728, 0.03570763659926645, -0.005175838221132248, -0.00657200020207469, 0.02151397145757667, 0.024099733340590734, 0.04469801593387038, 0.021482338699781067, 0.0015830853910500766, 0.016600695387106047, -0.03880002287718243, -0.004277536627676364, -0.026073423961573864, -0.006603622168417162, -0.015259533825565628, -0.01656613385818938, -0.0008966517450517355, 