{"construction": {"0": {"name": "Flatten", "params": [[28, 28]]}, "1": {"name": "FullyConnected", "params": [784, 100, "object>>activation", "object>>regularization"], "activation": {"name": "tanh", "params": []}, "regularization": {"name": "L2Regularization", "params": [3e-05]}}, "2": {"name": "FullyConnected", "params": [100, 100, "object>>activation", "object>>regularization"], "activation": {"name": "tanh", "params": []}, "regularization": {"name": "L2Regularization", "params": [3e-05]}}, "3": {"name": "FullyConnected", "params": [100, 10, "object>>activation", "object>>regularization"], "activation": {"name": "Softmax", "params": []}, "regularization": {"name": "L2Regularization", "params": [3e-05]}}, "num_layers": 4}, "data": {"0": {}, "1": {"weights": [[-0.04990355354302816, -0.007423780551622474, -0.009671529063433167, 0.011038815107434917, -0.026435023724335524, 0.05550424711638713, 0.03499056138809973, 0.04107491260072771, 0.04929918524944303, -0.012229622982645402, 0.0028176754681561137, 0.0022741964457127324, 0.009633070126537002, 0.03648825589993239, -0.0107656031669849, 0.01965316821352274, -0.0105482444298732, -0.009061956450477054, -0.06741417832331836, 0.05433616461125864, -0.017907054862747556, -0.007252610277700308, 0.033534849354638456, 0.03679944322077222, -0.0594362821816799, -0.07699346478120997, -0.03549393207425788, -0.010221011796578784, -0.016626084623820897, -0.04467960013740686, -0.010835309313070078, 0.04177924117351836, 0.022869147537276174, 0.1129688501989049, -0.07694682193864875, -0.0016102994764824756, 0.04088371808371551, -0.020123630272083127, -0.020714219323553728, -0.060264137176924665, -0.0506734413232405, 0.07022022613055805, -0.012582452367755572, 0.07216648531910069, -0.007231207991255443, -0.009655863197276368, -0.020169414595273327, 0.010051143031651725, 0.03201346255134805, -0.005056550200872046, 0.042482874274552856, -0.03678087365649518, -0.06364311539140194, -0.044556622408724954, -0.08214319158549029, 0.03124756912301993, 0.000831593818953806, 0.023489797755802337, 0.009016506697864609, -0.05306522049028839, -0.023533425781122413, -0.1261992644256263, -0.007084511357771292, -0.03213191743339835, -0.05489206688687927, 0.0024984233083169974, -0.03733411280140065, -0.007817778202681348, -0.056837545599021766, 0.03470213835118708, -0.05671328828039806, 0.024920150595073003, -0.0743725076369272, -0.03895781601166536, -0.023151190006951632, -0.048902577594425796, -0.05248282438890359, -0.047087548078462826, 0.0031015944825326784, -0.03237976448592806, 0.030764079207246723, -0.006724088696842164, 0.013584166386585517, -0.0246067488477763, 0.0248143062927649, -0.004620921427336657, -0.001852584945069601, 0.023176754446642016, 0.037430039524105174, 0.006936901352100896, -0.05228611742549403, -0.10920255089076374, -0.10881970105697966, -0.07950019706044836, -0.06481950454426347, -0.035322567266342274, -0.07679453850565242, -0.039773006061966897, -0.04879102941317123, 0.02171510818467811, -0.10474606574897924, -0.04839757321120841, -0.05752224069381288, -0.02429724881943349, -0.0837370415393988, -0.03640043461525667, -0.06302163198778109, -0.019819492147082736, 0.006684207354709206, -0.0027267803651081783, 0.01933373319485886, 0.08191688687333887, -0.017865801456813848, 0.019636742331942986, 0.05359247803372523, -0.02449528013461117, -0.023933587501279496, -0.007162489614102399, -0.049572078032593586, -0.03723376066030723, -0.10029408875255606, -0.16201769194264234, -0.03395928441580553, -0.05202886357682063, -0.025701704302607268, -0.06560840878176843, -0.06675565719392486, -0.00956362813873341, -0.05869451740655555, -0.051203389002530374, 0.02223088656582662, -0.04134278988249659, 0.030340332029489787, -0.002138137321241039, -0.05560582362655277, -0.05879481715101657, -0.07346819930771549, 0.0990800879719613, 0.04993250510811594, 0.023753030016036385, -0.06750753508776157, -0.03936473563431202, -0.02905636255459043, 0.09191488549249084, -0.054501592407780984, -0.01817863934484456, 0.03033484804686137, -0.09280667245206649, 0.0027979500585056986, 0.009523536475003565, 0.014478576523423275, 0.0765585619560814, -0.0468079313852408, 0.03996361978419176, -0.06851287964349174, -0.09378223160906311, -0.01290683414335245, 0.07796052438538699, -0.02734126862711552, -0.10134373132939833, 0.017903138501678743, 0.015457206599628636, -0.03301640912807197, -0.004463405502337555, -0.07097808678674891, -0.002845418795217849, -0.03534187044694836, -0.008579924148512889, -0.088188428914842, -0.006749853378530348, 0.021743914727725647, 0.04840649057694451, 0.0012881029695804268, -0.07227583239229403, 0.027403458979341582, -0.025222334759091136, 0.08265810162240105, 0.03291983250404828, 0.12623842962875848, 0.15500164340685452, 0.12831179005586432, 0.041505999632035454, 0.015474021748064695, -0.12253298062745223, -0.06335798453099308, -0.0016282743913989292, 0.04965260090855157, 0.041554113939824444, 0.07482484646632581, 0.02292649649628576, 0.09149279718003765, 0.05052067726468332, 0.0016882247894649915, -0.03335735776138949, -0.00477941994990694, -0.027823576727966856, 0.042207129619868146, -0.06255471322282205, 0.04812020878561383, -0.035462519658363244, -0.022411864355216318, -0.01143550410733252, 0.041043226853392734, 0.0495660295760134, -0.045731963075908405, 0.06785571572790655, 0.055508913012632374, 0.14541949424577766, 0.14105416675071547, 0.032404320319500884, -0.07367044059697184, -0.2100442520571878, -0.10093822735847027, -0.03689369831461952, -0.07593236596096242, -0.02863563600261481, 0.008291295371912082, 0.1142747945804301, 0.048397214701632336, 0.08510450096527696, -0.011874294368005843, -0.040128176498969916, 0.03909977717627642, -0.028993368254103785, -0.03622172350448688, -0.014693541755702358, 0.05650882045382667, 0.05545490324454046, -0.008049121814822249, 0.003365421990374124, 0.004244251766676885, 0.031240828301900284, 0.015431523986463469, 0.06346684664584192, 0.0796336940808757, 0.11837640314500113, 0.11071550379637599, -0.04676748829037963, -0.19361106935820613, -0.2055750790084584, -0.0944968817672173, -0.11740443833570272, -0.01186072563325136, -0.051149260417068014, 0.003200856881630001, 0.019415023588670925, 0.10686072636008119, 0.1251507721629711, 0.09922712616742216, -0.021253073334226425, -0.04211137257570346, 0.051786323831054665, 0.0014346707129738385, -0.039574939929603196, 0.03588435776597033, -0.03173590941959627, -0.083237443137291, 0.039556773665430825, -0.02295155387730616, -0.07711302166942627, -0.07100234011794106, -0.045295637769120815, 0.06875877515041515, 0.15855034857371167, 0.08187339019787777, -0.09640810076864237, -0.2131153900806552, -0.18048128314400014, -0.1675163537263917, -0.03744022303736738, 0.10906498302904293, 0.012530510833004303, 0.005407222154967234, 0.03498228981460731, 0.0889784011147703, 0.10992340838879985, 0.10620651294576904, 0.004858318235701983, 0.021422193043178838, -0.015325241674735446, -0.026895143634112495, 0.07569824441548088, 0.05206480842458758, 0.0029839925294932804, 0.029649464998555662, -0.021768778770165486, -0.024646541185645594, 0.03304787858392309, 0.06115233003738692, -0.03174928955024095, 0.11995120082608715, 0.0725301665887311, 0.0881932945617619, -0.0959391466156004, -0.24273551025286375, -0.14427095682277422, -0.006110971648237253, -0.03870962513414858, 0.07744649130499275, 0.10004596705468535, 0.027038999387681027, 0.07140535166507701, 0.08173666412516013, 0.06760332640122582, 0.042284623806130295, 0.13577293444970087, 0.012330445952571338, -0.00788072326807006, -0.0143607976756352, 0.0010460269904616888, -0.01554906741412099, -0.04591824997893512, 0.04907183994705108, 0.011855526622489359, -0.07679657814699886, -0.02640717097031277, -0.026694653429253614, -0.012466153765317026, 0.16281653936157184, 0.08934852446834092, 0.0284051719439091, -0.12265511477467006, -0.18631456784198633, -0.13452272580124586, 0.0360802103630055, 0.09914535246604662, 0.09224845194314071, 0.036973012669070125, -0.01594392350008944, -0.13854759532037217, -0.0314364231446382, 0.07486169130568081, 0.01604037825549844, 0.026070717066280228, 0.005792316505482336, 0.030102107917765103, -0.07369304946567086, -0.0626378125216325, 0.010367164160359661, 0.008781273066785718, 0.027054659915260956, -0.01588367405143298, -0.004301259146966951, 0.017045655068988683, 0.08855229514601687, 0.06492879787410083, 0.13004836866270034, 0.09865819851543013, -0.011931355881291716, -0.03609033638685694, -0.17975032505435615, -0.14929921704215035, -0.056484320159400886, 0.03154952489742391, 0.0747622240810135, 0.001913925257203846, -0.060693381390135234, -0.1606030796302946, -0.005306614499772336, -0.010537424994811941, 0.09975047321818072, 0.0360032270325161, 0.04400446016906419, 0.032493534291376816, 0.002996774638487348, 0.0008443701429810693, -0.0581741468135262, 0.012394705295610207, 0.04827489025786539, 0.023714720049442188, -0.018019245498203836, 0.11363632085853374, -0.05271202025881326, -0.014213393591398941, -0.022894944660899686, -0.02341681661998482, -0.02310292262744735, -0.06537809066368797, -0.11685988597933133, -0.16293328444496463, 0.00858114898515711, 0.0023611694836430767, 0.01078693788094329, -0.027621784609703014, -0.08712966280497685, -0.0935540974703542, -0.05482268529603771, 0.08938360620317644, 0.10936080800245954, 0.03046962966720337, 0.07425160788420558, 0.047934547392395076, -0.013966816197617664, -0.1040822106005056, -0.04606771455674324, -0.01595978027552905, 0.057747630052850614, 0.18678456301033403, -0.0009475687104342032, 0.01824546045261767, 0.07817480064304355, 0.01784490138185641, -0.05554255928276999, -0.10049298216954809, -0.04978768066143272, -0.18080100711012456, -0.15772087044275215, -0.10023555829140426, 0.0718088970589506, 0.0475994780140687, 0.020089605793729284, 0.009445796815258797, -0.0054224171131036, -0.1120833216316303, 0.027266419965199917, 0.07983146120524798, 0.0765886388896921, -0.021534021619040167, 0.02801849340379915, -0.017473660708392673, -0.016899084097397096, -0.0006344342207490532, 0.03554899955676609, 0.0544352999788476, 0.02331083402039068, 0.09946613255772194, 0.12704749448150057, -0.028972821954382173, 0.02630652428572066, 0.024107362448005154, -0.06441423153626379, -0.14890830309919997, -0.04612417717825233, -0.1300195548829893, -0.15590158953768862, -0.07520509264379444, -0.03261029601069373, 0.04772576346661515, -0.0030909759120330838, -0.007753400124203599, 0.014262393928842798, -0.033328279467067276, -0.01557573803223906, 0.07529754480845485, 0.1466668921785897, 0.08539236055968596, -0.03592936435318746, 0.067076714313588, 0.036120996456179964, 0.04836161979314152, 0.07280958311798841, -0.028282203229106892, -0.004506064309078292, 0.12653481581813464, 0.08895948666025665, -0.039329175991612696, 0.04449264176731884, -0.08586979048134186, -0.1509740065332345, -0.17381690688746906, -0.04729918675056161, -0.16994689535584376, -0.06082767736640729, 0.02727971574217602, 0.0046964871606834675, 0.05621156412301881, 0.026669710542990603, -0.014904911699218282, 0.04727088611750643, 0.13775492802431213, 0.05515906757428927, -0.003991075313708751, -0.02672884151612528, 0.01612257104594535, 0.008314049189732827, 0.061024621616993034, 0.013021710634698255, 0.03917418921630799, 0.034826433298544894, -0.0003698511546438055, 0.10206498231488002, 0.0984844938464284, 0.16499902706221622, 0.0104140272738892, 0.04499548594136884, 0.08568827290784191, 0.03834813049080176, -0.07345626984484395, -0.09765976146445769, -0.1861200780966167, -0.09974709948134658, -0.01473520525754286, 0.016039714430688013, 0.056084941024276073, 0.10205058172176817, 0.0006189522822583403, 0.06259623232233615, 0.1264055178270188, 0.08537975490677827, 0.07503771742808436, 0.020098733743158174, 0.05034254836991778, -0.1260797221519487, 0.038509821667456076, 0.07244556924672764, 0.08601423561978043, 0.0035113363584101907, -0.11127136190437861, -0.04266623519091142, 0.09445677602264771, -0.020375926049094564, 0.02270510481171387, 0.10181051483616263, 0.1424394160715986, 0.1508286904199876, 0.029247618586718826, -0.05172674658634874, -0.020793822897660637, -0.035624317416484766, -0.006909502419398181, 0.09547095730953128, 0.0064512039797275066, 0.02316437420135449, -0.034336364875218274, 0.08286201496803257, 0.12579557945026124, 0.08688840281739485, 0.030458598481978003, -0.005030427838544718, -0.03378233847980076, 0.05193403895076819, -0.036088860267668034, -0.016381540248335776, -0.035317552114019525, 0.0032555200606954565, -0.0074772698510410145, -0.01701907456825663, 0.04724934903216243, 0.0016558734173978172, 0.012868449770376867, 0.09800888377301943, 0.1623580535981888, 0.1344385124405028, 0.12201145849600309, 0.02602372101357856, -0.005235353933229328, -0.007108580694045932, 0.022940050295350442, 0.01974049930633398, -0.015852081525168975, 0.008440559822308819, 0.042343715336552804, 0.1588791746111256, 0.07033107810006457, 0.022473375903263867, 0.07846162563091269, -0.017986983076304995, 0.03346121098671271, 0.009760456343106736, 0.020543300850184007, -0.03821319433597884, 0.031395409774980385, 0.07263580580061205, -0.008417174176128674, 0.011566644604330253, -0.038187349337244055, 0.01634495682076421, -0.03214047113430114, 0.041241927721474864, 0.03973197348971327, 0.10116197520192678, 0.07349822259073847, 0.045275244414940845, -0.1068380227398113, -0.07801721295367517, -0.07879328692252607, -0.008333696760873541, 0.02790066515892689, 0.05225466351678267, 0.03363771357082421, 0.07266392093870512, 0.0283689670356386, -0.01012035058092406, 0.04660041272844457, 0.011865592524033203, 0.02733428125049778, 0.07482608137138881, -0.010495878667115613, 0.01612473692132543, -9.504521409398054e-05, -0.012526921924938879, 0.07554151037423443, 0.020419457814706915, 0.03472305478286209, -0.03195674898762888, -0.09521430428169153, -0.024818297347619606, -0.026149007446809914, 0.05888900235108033, 0.07884170530665842, -0.040167579800223216, -0.12287701534727298, -0.07691265974978576, -0.043938154500662734, -0.03388191702191568, -0.038116153446747944, 0.042933432774562554, 0.009063102006978982, 0.07578277835913917, -0.0059697764158758255, -0.03944785008829312, 0.0566897036949391, 0.11435413434934283, 0.05495156330755341, -9.308719497521563e-05, -0.010067637093890207, 0.007882704925089795, -0.05601561005278914, 0.034952256940983445, 0.04957147419616543, -0.06671222114315095, -0.04464579176865238, -0.04359610782790415, 0.015876967497923573, -0.017491009258687365, -0.057227740274413116, -0.04430656657034741, -0.11575233851282235, -0.15676855229845818, -0.08597927772296489, -0.04868127370002909, -0.05822337007338895, -0.14395211998432603, -0.03607871599250502, 0.03736893107605294, 0.009124535426624773, 0.07222691836043095, -0.01369959473102119, -0.02897176526633864, 0.09761196555278039, 0.06266357336405164, 0.010942202180839116, 0.020857472675546215, 0.0056332709742376265, -0.033772675793441405, -0.012357565649700485, -0.015752751224394387, -0.07016431402165382, -0.09434665500546416, -0.06782263586770922, 0.02128391399159561, 0.03239365195913397, 0.1364013678622389, -0.0179694256921617, -0.028724611510898883, -0.09014515869061199, -0.03523206950676671, -0.003931172456705155, -0.05592415621063908, -0.05665826501753653, -0.07643067930894132, -0.037017784180976177, -0.08773803031384621, -0.03686945182308705, -0.034789692395793465, -0.016677183128788804, -0.12383992999800514, 0.05389673813255224, 0.09145150718760092, -0.03121391760166484, 0.005376224395730231, 0.019766735165642004, -0.04170486145031051, -0.06340348244846225, 0.05056423180263538, 0.016466597492616093, 0.052690089635358574, -0.04778433472906647, -0.044592394781086245, 0.0033666268981857607, 0.039465064232614235, -0.004359654984975995, 0.020358095641186073, -0.08989935578293665, 0.00283603960954181, 0.025528667484010583, -0.09219813754412436, -0.05578868372643183, -0.04740409908520941, -0.07605688248520616, -0.0006283250012806796, -0.021342673991545824, -0.10004743278902876, 0.07981045860656244, 0.0012596468015671307, 0.06407610963813015, -0.041161241286948945, 0.002174503523470473, 0.06778410582688679, -0.024707594693563914, -0.05255990516865847, 0.039086286499023466, -0.06928442965333904, -0.007239998281102867, -0.02123278690594179, -0.01573101778101174, -0.10405285374477644, -0.011657630028133173, -0.003548325312605285, -0.023146039025696535, -0.11417805456601607, -0.07091399992922937, -0.016144220971267668, -0.08634781711677246, -0.05263848891582129, -0.01335253372973419, -0.042809505179385976, -0.05301516648382908, 0.0074513992033863425, -0.033531320084377654, -0.09534910887717331, -0.027059639205913696, -0.05689091236749142, -0.03298290245776201, 0.056737605432584284, 0.08088469712599151, 0.029712189057993815, 0.0669836213530182, -0.1206117944547591, -0.06140056662741172, 0.026495889707484354, 0.015408019201630485, 0.018349266693235226, -0.02699219877350601, -0.0811919443998832, -0.016592726839716493, -0.03982204774131198, -0.03775698081378625, -0.079912548504192, -0.025952586456329422, -0.10904301891803889, 0.0035321976854001615, -0.004644043307944829, -0.056732107991517976, -0.043408624968683134, -0.11664541078659037, -0.03158690096804652, 0.0029563623435729038, -0.011935008727491894, 0.07426960694662976, -0.0040205316835180025, -0.03913170687259126, -0.03217687647806809, 0.022721367170634856, 0.07374036106852949, 0.013389014512071092, -0.00850685675223624, 0.013976484061150506, 0.012212486111411815, 0.06739836074194842, 0.022449180548520874, 0.01629306010518006, -0.026491688235608137, -0.050709436566247275, 0.03922718872977263, 0.020500585607959115, -0.06965168346165554, 0.011712660709199909, -0.012000488501320055, -0.07397936027007303, 0.04703338231269564, 0.00239194562843804, 0.02817186354119046, -0.01019871913877653, 0.0011222775160840866, -0.017019698216541087, -0.08407956272011799, 0.058247105937888184, 0.09016404682072275, -0.030336818640611964, 0.012690996044418198, -0.09053060339863266, -0.03175265369364918, 0.049064488367521315], [0.04758094290528533, -0.036689946060189896, -0.08899155446174759, 0.06777060517529233, -0.001594062173311173, 0.028351890816710548, -0.006025431204888676, 0.058550935127905844, -0.029030383408451564, 0.019198501446354904, -0.008343153708159683, 0.07507210751203922, -0.008437636037813782, -0.0012648622569310297, 0.05421627104313764, 0.07077756461045263, -0.02305370493578125, -0.03188598186881893, 0.03629616693933466, -0.013324273972509912, 0.04846679521107224, -0.04944042027241157, 0.02571206004845528, -0.019772276306527815, -0.04919843106095185, -0.026222607609287366, -0.00041084819352920455, -0.00658351051695676, 0.03258298614639294, -0.01979309046165822, 0.002092005306026379, -0.057814133927216474, -0.03554496251119736, 0.00935498554327948, -0.098045376312441, 0.029144880711847204, -0.038328663864309595, 0.03152536810319047, -0.025119951305509754, 0.038883806564167706, -0.03358811550145685, 0.02591736303493383, -0.024708786093831286, 0.035294694132329316, 0.01725740479414896, -0.02041349114164679, -0.00959474698643063, 0.0015078021091305815, 0.09208833554036804, -0.06704988075082487, 0.06192605810930325, -0.0857471308385814, 0.08372696031071944, -0.05314984227557681, -0.025794957477302212, 0.027638571790576494, 0.05335012335208333, -0.06675619187358413, -0.054614118211736166, -0.015731464323318425, -0.07588165482193827, 0.010958116204372427, 0.04820966843459187, -0.02045170800474027, 0.06463380403397291, -0.025621567829604727, 0.023842101146133356, 0.06178540278031071, -0.05237614328094933, 0.047500719449338535, 0.05212937307764024, 0.03318660303828702, 0.0014759753637171584, -0.03630327400108917, 0.06926405422603929, 0.011193391429294652, -0.049194436768383795, 0.03444094743978434, -0.0314516302411344, -0.049738620042095005, -0.001337328845383258, 0.02991083354090619, -0.05870455364658824, 0.012478673034293017, -0.03690705829000667, 0.0015735477691971598, -0.0416297250892588, -0.09485983147832187, 0.014472471931382696, 0.04302174875714713, -0.042887879869109975, -0.07794418646433336, 0.05088522080154657, -0.016121291458221363, -0.0827002935731467, -0.04613012698229394, -0.010836565898257882, 0.03600679274878839, 0.03272414515304436, -0.026732685077644466, -0.0028126161907237163, -0.017874899426198874, -0.022194905387247197, 0.11726659384487344, -0.008968303902316519, 0.044552410240607104, 0.0620297191421021, -0.044553290549086216, -0.011560356140669878, 0.007110851936876704, 0.03484446020648071, -0.05327732035015916, -0.008182358678446059, 0.08997645175571668, 0.024055790965328464, 0.019192987589784292, -0.05769601258012542, -0.0140097190460481, 0.04129776012850124, 0.017986371913729343, -0.008008666124658682, -0.025245306539378693, -0.012892043465676841, 0.0500258712211857, -0.008987402006466838, 0.07315724084139814, 0.018357781520344747, -0.027535134062401448, -0.15848251107570163, 0.026975086485353093, -0.0191233746500832, -0.05539996630238269, -0.07462101511136301, -0.06619915469887948, 0.030625623601947868, 0.097962391030661, 0.10912554278065466, 0.060245669223616696, 0.027034378227944196, 0.032599854731726254, -0.03238716958202252, -0.00015786306088484968, -0.0775899989388644, 0.003362456588388752, 0.06802143502228945, 0.042282425643238204, 0.04669656938050087, -0.06148912111828592, -0.021298406608615185, -0.004723920604924843, 0.18307511881691632, 0.19935662552392092, 0.12233114282463124, 0.14869508812155702, 0.17313451854463244, 0.0930750962202519, 0.03708814188367127, -0.030054317961520634, -0.03462968597647033, -0.06816682880210315, 0.01361041480356719, -0.03452386416308556, -0.07712058306314121, 0.10612684879307936, 0.022324239709643808, 0.022372588549284454, 0.0040707876727784946, 0.08841390215412821, -0.018960853634588916, -0.013097694404078594, -0.039080592931273646, -0.01454468362210827, 0.00956994817408049, -0.07345145022784479, 0.00028529445058780476, -0.05141354051981523, -0.09991279322240293, 0.11344331486022281, 0.23186626743157318, 0.3337704066400463, 0.31811708453848686, 0.19967182972241787, 0.10971043019731284, -0.020617505598936284, -0.06382771689066781, 0.03626516617603114, -0.11829424323446525, 0.05107314966063895, 0.015226941451911646, 0.07218106818853255, 0.029787868503704063, -0.005009057181277089, 0.055366991479740335, -0.02486115932454634, -0.012637263550737122, -0.08345516655743797, -0.0031624904968736967, -0.02052852261339236, 0.011760443594146186, -0.01300458133031532, -0.01625231842156292, -0.029879196595678177, -0.0584268140904815, -0.07459121994402396, 0.09906738533780994, 0.2527055078153586, 0.31887765826229436, 0.18671005754317258, 0.06839825233002564, -0.04305436613719404, -0.11902943201975524, -0.06879431559381903, -0.06180708722720746, -0.019826008993725504, -0.10369434214677528, -0.12640310862819265, -0.08104744728155401, -0.02186202327540253, -0.025061757105116184, -0.025467901595419194, 0.014553263258103893, -0.05603996788428432, -0.05177496713507656, 0.011689187485006905, 0.01420396111287102, 0.025124650824569657, -0.01332618237028308, 0.007101753934753613, -0.060082445902247886, -0.09183727616076723, -0.012188936546525982, 0.07118964178100984, 0.17239448676349367, 0.19045495688790678, 0.0760350329740868, 0.029272162632595373, 0.07103156303558888, -0.0629769458847541, -0.06647424037020964, -0.047481173260885266, -0.04266620956629645, -0.08013917458828651, -0.03353918171759893, -0.02233943392714572, -0.0006444549206754283, -0.07760934225187514, -0.031997052865848655, 0.010702683489525513, -0.046060476937794664, -0.019664537906953813, 0.025553573844732537, 0.0733263757612392, 0.010806651563010274, -0.047337377494580106, -0.020744183343338166, -0.01024264024466233, 0.014724486398705754, -0.006137042748804331, 0.0757763082913802, 0.15744719785995007, 0.2361262111354212, 0.061863147103926985, -0.05299668404520525, -0.055903918542305274, 0.006802650567917557, -0.0991793174981697, 0.09253457146332979, -0.004031199717850694, -0.012929768578171377, 0.03503157543252813, 0.09340567186082996, -0.005090644879705896, -0.09987172359902526, -0.025000479478097467, -0.1224200323749804, -0.0768842066605587, -0.059691600741555315, -0.0057202000833859335, -0.014491100164308685, 0.03589264305140663, 0.05247230762904524, 0.0177680822328066, 0.002654468959881974, 0.10811640570759726, 0.0023398231966050443, 0.05747229704747815, 0.15080537228801755, 0.16566567631185863, 0.05724099092161201, 0.026537525242601945, -0.033704064374681625, -0.09194832442041775, -0.03455483263274044, 0.07168528644374322, 0.0512305874284086, -0.01718050464671893, -0.07272050736059898, -0.0037353569318493633, 0.03036189162288996, -0.024106690873110615, -0.14420096917264577, -0.1092061752246929, -0.10487562034733375, 0.04032527131497595, 0.16825525303481703, 0.09076145132653574, 0.018922470990254264, 0.07787030835550361, -0.09092470045595162, -0.024087839854651554, -0.03332548233794142, 0.03873023494072981, -0.04079272278137036, 0.10212246710548102, 0.1570752937197563, 0.13628737610998914, 0.0394537190331952, -0.07344200727722068, -0.08551469561274179, -0.017302603331404307, 0.08846985611021276, 0.14607710331079615, 0.05872741357106903, -0.05953934023474146, -0.13549712660479335, -0.068832889370954, -0.12700443596683952, -0.1465553051315727, -0.10913729048407504, -0.056197962420683104, -0.012798070270969016, 0.14173803945783173, 0.09663673823661736, 0.08219719690948366, -0.043808017773589586, 0.008289865659091808, -0.01767872965221109, -0.03410034504425759, 0.03695324471535564, -0.006176728860098867, 0.022508880465808314, 0.058149608016309876, 0.07756993316197025, 0.042799697546041786, 0.09621615980227778, 0.05614070359001094, -0.07379290017666199, -0.013607457311311756, 0.10021940444073085, 0.15855607554277218, 0.007439585595957111, -0.056605775163645296, -0.1427821190749673, -0.16375859880271598, -0.13792929249818664, -0.07357905218732623, -0.03085388446840555, -0.0885230238696158, 0.02479435847624346, 0.032483066138997194, 0.09347730589854253, 0.07507523862399938, -0.005342686815546816, 0.009626076492265555, -0.03184720457978988, -0.06473975746827114, 0.03345345664826661, -0.036416224494659255, 0.05721693956304385, 0.0716298100514625, 0.041396137177258895, 0.14563951614620257, 0.020075060927658872, 0.00900187797835717, 0.06099691079637322, 0.07065003583720271, 0.09007908832710848, -0.009724772657774603, -0.044469012017956305, -0.15019564783077768, -0.07235550307672567, -0.0825956559684855, -0.04992637113932762, 0.06996514623514417, 0.16952538859467312, 0.033059327580717564, 0.09070015376408375, 0.012179703407755222, -0.016248822834906987, 0.058847934547859984, 0.05823036560251894, 0.02658545407983315, -0.04947817005374146, -0.043259757993793654, 0.0072216673520863655, 0.06386452725392755, 0.027259783081511092, 0.007733184127999123, 0.09292067243096029, 0.06637434027737607, 0.03083956592569243, 0.10353395326233805, 0.11937182283591405, 0.017550609558672062, -0.0432104873662067, -0.040631749581478055, -0.11975232099777612, -0.09268600469629867, -0.06931331250906948, 0.016250146571650397, 0.06230129449193685, 0.13619215946864852, 0.2040212041476397, 0.1064694937662192, 0.11076705491946476, -0.018287808958833654, 0.03036204191854795, 0.02201184180061765, 0.004158411818087369, 0.007177030884799442, 0.06822808111865825, -0.016251376031560936, 0.015060149927789262, -0.020486002415213263, -0.009670436136953665, 0.02112930226661698, 0.07363419740322508, 0.03309975910653844, -0.01991872636338208, 0.07753734323118106, 0.034487069423152696, 0.04412467858690601, -0.04628106366884694, -0.18606205889911678, -0.0059651875964139185, -0.026957200808411463, -0.1077853536103534, 0.04973648575738861, 0.10732061115459174, 0.2072774491794299, 0.1775725654113161, -0.027036315475705407, -0.0233532908317696, 0.0007519041717824616, -0.020766666873044144, 0.03202511807888981, 0.05897745469584724, -0.06172386582809301, -0.025458078254770675, 0.04896308412437379, 0.048570767077272516, -0.0045744594400707215, -0.02258258598600259, 0.01812701505531201, -0.029314686939133947, -0.018039241588855184, 0.056285632118636617, -0.04289737729484292, -0.05628829950941173, -0.008583787585018616, -0.032440207846776856, -0.02834272846119977, -0.02190110367240752, -0.013311517218633932, -0.04000745354880952, 0.040528059149206624, 0.19830839643097503, 0.12903993178925327, 0.04628005291165032, -0.050694062281417415, -0.032742994359996454, -0.09193578573860466, -0.02165599585009023, 0.06051816015446331, 0.035222628241839325, 0.06276592062112685, 0.03932449330226438, 0.06125404078616386, 0.03855038946234301, -0.0010564841704500125, 0.007269080637251461, 0.03459739010450716, 0.06518629682150938, -0.004540328978533847, 0.01149096403868488, 0.017783709227342202, 0.013278836601315246, -0.03530000273176454, -0.0011456053533882443, -0.011830974884793873, 0.01631412668406184, 0.06790523892623601, 0.07080645485584337, 0.018186752262829967, 0.07215800396291838, 0.14258139700994088, 0.03087115219009434, -0.06467860730184266, -0.04489317899292753, -0.05151921401625712, -0.049928570156871785, -0.040825600489016046, 0.0006797933810872171, -0.06038717741937598, -0.022237982201218667, 0.03513441603520518, -0.006106958534678542, -0.08392578142244966, 0.026107496207498356, 0.05787504795897153, 0.08106061790447537, 0.05313027580191212, 0.01500333944921161, 0.024919372049444548, 0.009347439017210048, -0.012301826419834296, 0.11235936240606036, 0.016455727588844213, 0.07763618652186802, 0.07201597617276409, -0.06867790244287003, 0.007756733115040529, 0.08824381308527449, 0.1462504299712572, 0.05914559609174276, -0.058547570480734466, -0.06484139968583254, 0.050533447929136215, -0.02618774560735625, -0.06677093534638008, -0.0012199171665338738, 0.0379062456513761, -0.016884372963447834, -0.004284178650956101, -0.04305675794330305, -0.0011509404278699131, -0.04984861778667527, 0.024821707063395978, 0.014388146200236629, 0.0792934862142808, -0.02495413435076411, 0.08889399525805855, 0.09611846453781249, 0.07454973009467547, 0.12205750779214763, 0.039748430716869974, -0.02982354789168111, 0.0461609413798657, -0.003230723777497702, -0.05795062741801678, 0.141589042073147, 0.1063562914384571, 0.09599163336017634, 0.03792354747574285, -0.02897716972128135, 0.003909357138705198, -0.06568764904801432, -0.035761058397371696, 0.008137655608721478, 0.03263265092348088, -0.09134926203518565, 0.06405559262978801, -0.0042326761216839, -0.005399940028458153, -0.0723169848735661, 0.08757967735110438, -0.005974608236370063, 0.03609894703988271, 0.009467548653377652, 0.049851419133114874, 0.02703565588056616, -0.01265514887909746, 0.029740605999489786, -0.02358182371942007, -0.06466274623846754, -0.03350206513960421, 0.026991589036733366, -0.011760517474121721, 0.05968053528797989, 0.09712541712890868, 0.0718814185719877, 0.007522397709606394, 0.01607810595997849, -0.019857237101948696, -0.04124511667273389, 0.015728896477326348, 0.04135082633546315, 0.01983461878047986, 0.0011499704862003243, -0.0476767638734776, -0.010066154984445836, 0.02499884035745477, 0.08500580476193978, 0.061152172824602745, 0.06801013238043924, 0.027358179142125055, 0.028768956413820133, -0.02114889276560159, 0.01038135000156813, 0.021652576435150915, 0.012403543871028455, -0.027459212621399432, 0.02909826074546599, 0.030108129556744846, 0.093289017736866, 0.13854260631167514, 0.07442120714251578, 0.09239079674589988, 0.013206651573527663, 0.02646493894750662, 0.0013386332739814305, 0.02822131861922946, 0.02253997131209569, 0.010651120972867674, -0.057670654505999064, -0.0586063413982691, -0.056705898485683866, -0.0154154819138994, -0.026279648008556037, -0.027234608297409413, -0.025210988844674282, -0.04541640734921475, -0.10905128346455165, -0.04019455754244669, 0.05254628030482403, 0.028566169416294376, 0.02832929517559901, 0.02299807157299174, -0.025906322760130055, -0.06052775014495334, -0.0268250597321134, -0.009390333074834743, 0.16395447824882534, 0.21097416467692587, 0.14702840907279305, -0.04999787402852064, 0.04867597852134684, 0.11326733235737035, 0.12435847252101014, 0.014454290626481592, 0.0830130744830849, 0.024131759369720927, -0.02092731161608355, -0.020389994045872356, -0.04228965067492685, 0.0068775810322829175, -0.020316218229711674, 0.02892664715990544, 0.07076413216642634, -0.016131645462661836, -0.0069948868539045726, -0.05259706709912294, -0.03901831610176263, 0.047534655804765714, 0.03147042750061939, 0.019262577781386958, -0.016817223770316345, -0.07158154079944692, 0.005143171490060993, 0.06824621854997534, 0.03987254749998127, 0.11996750853574177, 0.21899620398548922, 0.08151791982121159, 0.08398705748627144, 0.00441432614749936, 0.028838394872323876, 0.12421282148174179, 0.019191864500781416, -0.02984613279118382, 0.024229111906757635, -0.06111861041048182, 0.0834289914589584, 0.06341989711171363, 0.018758028693964895, -0.002251025886405106, 0.00048417640887410196, -0.028782123267316474, -0.07751919624018691, -0.04524170741461377, -0.00763724283199516, 0.026800577982976078, 0.0020386650548787364, 0.014300214693644129, -0.0024107705819030162, -0.025972440087302002, 0.08509226882031937, -0.00272757214576836, 0.043042764644826335, 0.02720481115227822, -0.008167412997497172, 0.03491018191691138, 0.052947650598985006, 0.007102601558835108, 0.07296854319344832, -0.002118563450559938, 0.07358628224454075, -0.008729481828915083, 0.03934054772098139, 0.008160385542897492, -0.0811691768157468, 0.0321183622947923, -0.028953977007446157, -0.026858535144002667, 0.03807290638073117, 0.06498877589954646, -0.04859212624921266, -0.1199748417703556, -0.1066703920052791, -0.052773807878688475, 0.060437489530907204, 0.09951900314687981, -0.04208498869056648, 0.008056534228903768, 0.007971371847254893, 0.004281527493898153, -0.05608216215878035, -0.025967839022530158, -0.00118042828462027, 0.05529839023385339, 0.1465276579509897, -0.01729832153495153, 0.06333126516832285, -0.041674888250684494, -0.022641605431844857, 0.019255537060088253, -0.001795475537954283, 0.014463588780177328, 0.001234124485076598, -0.0861539786076914, -0.05246702887009224, -0.0695433571721915, 0.08663074785575924, 0.015686447189266595, 0.02913391517502164, -0.061754243781277446, 0.021900268908372992, 0.01668890302427004, -0.07662123681068864, -0.034536236082947376, -0.040664772852437615, 0.00011101320510222424, -0.07666383541423148, -0.14966364469680413, -0.11956087612031217, 0.02098897962767274, -0.021630000667980796, -0.022572748604680212, 0.06562800575719789, 0.001679858314123437, 0.03361448115378672, 0.05280471159268045, 0.0019249719952078265, -0.013839532046164548, 0.053206224015912656, -0.07015446575775357, -0.03271078993221638, 0.026711593787568513, -0.04927289779466454, 0.00417085206632088, 0.01734259967572545, -0.03181954451108423, 0.013306063288522517, -0.009274137556224778, -0.014071287627938056, -0.04916498085425076, -0.03152313962665175, -0.05114784328973146, 0.009567538926259932, -0.016318704023115783, 0.004820726797729643, -0.010925465242125877, -0.018409102646991526, 0.08007495760004621, 0.014690334250866369, 0.05320008094613422, -0.008268783263098909, 0.03256124498712139, -0.05379256113534064, 0.016750528275843682, -0.03767798228531156, 0.01547653135156669, -0.09748775282632419, 0.07454305708172058], [0.0020985426616276677, 0.03002982992148759, -0.021622743086589968, 0.059769421350756455, 0.00841813661834346, -0.00035324640430967524, 0.017976226458994885, -0.06512833089839762, -0.0191546898467568, 0.04611062847547157, 0.06625246574525678, -0.009866084119777723, -0.012404453458099434, 0.03176744753656443, -0.023064827235491202, 0.017459623366127382, -0.08131022598923573, -0.017963943631562486, -0.01093724836438534, 0.012129826837527074, 0.038321997081088875, 0.0592674903001261, -0.00701826017097116, 0.08912229902935258, -0.011117924749517592, 0.004260199964982225, -0.039099825809513274, -0.04092812574641644, -0.06052541638619634, -0.03580429502964726, -0.027907857627727576, -0.049208028239861035, -0.05206094985134406, 0.0442639622853169, 0.015100417501187019, 0.050004278351606486, 0.018566282557023445, 0.05951189452784891, -0.020169504622434047, 0.06406966644605004, 0.03039709664315655, -0.004477703362781945, -0.011197318290209889, -0.04682639937091787, -0.008050937321805356, 0.07715833452960698, 0.021795536628345637, -0.023023211467435828, 0.043091034716907096, -0.04690906289760345, -0.014649110372513178, -0.028144782715623283, -0.06995788508872947, -0.03590868783768638, 0.023624345345606475, -0.002571534516636797, 0.0361942533720608, 0.006972324825225636, -0.02814837400066546, 0.02882615570310808, 0.020625843039028792, -0.05739240063151958, -0.005692433387400186, 0.06938635862358393, -0.012644458641926107, 0.05093764066026785, 0.026746357252034048, 0.026003714409803935, 0.009594304109076721, 0.06812548207869831, 0.050796245918553126, -0.012399308228517446, -0.0020692816641846613, -0.053163123447086354, -0.005774563708188319, 0.0008524155333730614, -0.033427722116524304, 0.046098145850559734, 0.08358986336238984, 0.04418014145908905, 0.01749694677448519, 0.029107768609565328, -0.0021532466138301817, -0.0005916741959676766, -0.018932173656261857, -0.0022293160140098678, 0.012723460273554973, 0.007897799827673035, 0.04968458857411001, -0.021743779217663767, -0.09328789049318022, -0.043659772931041674, 0.07719045516190061, -0.031739045071383094, -0.013063088802556553, 0.0353805299698739, 0.014554057896577698, 0.07631635730731784, 0.07538924905896618, 0.08486005229639448, -0.002678585148528469, -0.007753331616173529, -0.035159567519998755, 0.03725904112573588, -0.01981600673063739, 0.003071931785543043, 0.008153885143849637, -0.008484541149252468, 0.0072175259661972115, -0.022630145617040392, 0.06631343264621403, -0.009608923310233582, -0.05759928497759537, -0.0255692887350385, -0.07739825784987257, 0.03765376097693942, -0.0021052081409556173, 0.028874908932071355, 0.05136347868946183, 0.01684846687676884, 0.03640073210952946, 0.037440910166012066, -0.029691715778243928, -0.10358664514349286, -0.11247759037354525, -0.0004732516479151946, 0.09640921711255758, -0.028251431192208205, 0.021377158857290354, 0.10852967690783207, 0.06403149942642429, 0.02089888633006111, 0.004537739877163832, -0.001642522287706326, 0.025558945741882572, 0.027251641218708194, -0.024063248636830736, 0.008601395621006567, -0.014595610810928798, 0.07615337858582123, -0.06621290367723004, 0.058208912566901055, 0.0275328581004108, -0.009025055428951259, 0.06537997783447247, 0.038775673587414655, 0.06792537842032012, -0.042258544011618444, -0.024788630584565985, -0.14259548143128933, -0.09128593282967461, -0.03393253769989634, 0.09965879126086721, 0.11685642528401755, 0.004810645652564886, 0.060596179758834294, -0.011160681590782843, 0.050336755250440963, 0.050528967070472906, 0.10476388290572221, 0.0928609092603083, 0.0768309249496976, -0.010349259732005888, 0.06352399595141335, 0.01110574588852866, 0.015446870590403203, 0.010217989616798866, -0.0326184247902503, -0.06069919290563615, 0.0024641821465649742, -0.028035843159659495, 0.004599416429624768, -0.03801464907297659, 0.035228569088681695, -0.05599950602080948, -0.06753418115084228, -0.1071418304853255, -0.11562769980349162, -0.003498954753814023, 0.08658297965864074, 0.08451319395778821, 0.16344046827749692, 0.13692114659473936, 0.011096098663567932, -0.07193873282990079, -0.062331638696609945, -0.08777153930921938, -0.07330502184365568, 0.006286828973795408, 0.05862847676570728, -0.025296584493817886, -0.09543146900616492, -0.02053212325319088, 0.04062934773247036, 0.007149547652748751, 0.045572233318236455, 0.030895388932150217, 0.0042298761699124665, -0.0327081692932108, 0.026842616184558465, 0.04008473433747511, -0.0700747248076283, -0.014410738370446912, -0.005694710885485462, -0.07397864814529262, -0.0691977159838319, 0.011706655571819819, 0.059771516096639395, 0.1602084713963282, 0.16869506351460262, 0.11062655905962741, -0.11138697900417695, -0.11156886197220124, -0.08147791789456654, -0.06362689082636648, -0.024663437212506897, -0.045686587346580036, -0.005834105879813512, -0.027580050646228507, -0.1088913603506843, -0.052002821784284024, -0.041621452457399025, 0.009276083003786609, 0.05937795793242654, -0.04128932332206604, -0.026187615476831284, -0.02886903282400273, -0.11764497220119237, 0.023318079927411153, -0.1503138579635115, -0.01911470099993454, -0.06746747893126388, -0.15241202570498918, -0.11022141928558427, -0.12550847747559632, 0.04104141265208898, 0.1705884956351599, 0.1274781762358894, 0.07627290197012926, -0.1010136411154619, -0.013659816605530038, 0.027614239572648743, -0.014153162967553095, 0.04224457922884532, -0.04828912586071876, 0.008017700236677366, 0.021323696676670233, -0.017563408112836715, -0.08972798694780834, -0.06820363862432377, 0.008461553618525387, -0.03487554597890978, 0.00997683958098405, 0.009913162254347215, -0.014448107896526821, -0.04947149993823498, -0.026290871600161723, -0.09693886053203792, -0.08534140995728551, -0.07351007523367191, -0.12105482615493304, -0.2571227057508975, -0.17597995820847404, -0.006720787018389274, 0.25394222944318595, 0.25432397316313393, 0.08458146241309548, 0.05541252796185354, -0.001796720582592584, 0.03762650951390294, 0.07610335504381399, 0.00508137327006044, 0.0011940407548378463, -0.13500077938715804, 0.02593953351344159, -0.07571000767747336, -0.04322060665186201, -0.0923637003326814, 0.012423877187864255, -0.03826878872826628, 0.00870951966080346, -0.042255061642498336, -0.07069784867732702, 0.08293872786327455, -0.10760922411343181, -0.04539436068530006, -0.00963156053890163, -0.026835969889668777, -0.13362769730057922, -0.24649308353981503, -0.1776767485667292, 0.019020569435265002, 0.1870837892751245, 0.21879614728905553, 0.1515099644160182, 0.16083508328115018, 0.07641800254816021, 0.07320948376648975, 0.09032523628839673, -0.03916481666379368, -0.07195763131984301, -0.014354353679217061, -0.13460940488841378, 0.029857911735893576, -0.00308339309336906, -0.0554832098556585, 0.022080223270245992, 0.09592930738417305, 0.010999772761170324, -0.003949392086340465, -0.0006705741745448506, -0.011015550478291686, -0.05185007239347938, -0.1004571307117384, -0.03583778802699898, -0.01802296761408269, -0.08844870214099444, -0.2413710343770206, -0.2323291758319144, -0.18963573587882732, 0.009799504078115818, 0.07580132979501814, 0.08971906355884167, 0.02726084831130518, 0.07858986197122787, 0.059045282729043184, -0.010195041188217234, -0.029268041474298758, 0.03334692498962655, -0.11079943220060176, -0.06705476079006556, 0.009060781056898243, -0.04658635401098595, -0.02567078804192296, -0.038961362651099916, -0.05968762960660744, -0.004168033993558876, -0.025934757092424987, 0.01153060548296894, -0.06543398540938133, -0.0003744148953574682, -0.0375750542703649, 0.03615490053343271, -0.048620299200940756, -0.13772718236407547, -0.19299846536351895, -0.15660161243390497, -0.06507580134730886, 0.027166903829362456, 0.08122912203334187, 0.14282448836559652, 0.06772655671230296, -0.003514508104233565, 0.03834928335402866, -0.06457863015189319, -0.06731725498765002, -0.00797767835288524, -0.0965071186708899, -0.08659479351282676, -0.06316521037197338, -0.005259950229152209, -0.020755293086908263, -0.0367796290929466, -0.04165603825055042, 0.0470690803638552, -0.03735977004040542, -0.02346175603164389, -0.03211718671960747, -0.016198359698437872, -0.04626992348035587, -0.025095522050083644, -0.0655813140695745, -0.0577581039170078, -0.14144799621796306, -0.05385126592576615, -0.04613917754321553, 0.008724562186055839, 0.06435392661948425, 0.10228302655165891, 0.07094996862143677, 0.02533930424472704, 0.06708211599151274, -0.049357140291195346, -0.01702368270795809, -0.0979719897288571, -0.016799630623255353, -0.05693358543924494, 0.10584750977976597, 0.06297639651966426, 0.0647105941359178, 0.00698126777555914, -0.04005593223869482, 0.011994266255849649, -0.0031134897248629024, -0.0013149852390422479, -0.08692832694192532, 0.022611126570047057, -0.13473115324216978, 0.037113372135407545, -0.021365795126965202, -0.0750672130006994, -0.08343985077889218, -0.08404762715814525, -0.04828891403769235, 0.07481048162037134, 0.14914944508944378, 0.14031320694985702, 0.09061483798168239, 0.1206781546868948, -0.033479825949208016, 0.020609389928813195, -0.10022451645800354, -0.03486172897532342, 0.019502797986407996, 0.04302880611475619, 0.044295717321108395, 0.11842546759579053, 0.13080087623189116, 0.00408076628219866, -0.053467013904253215, 0.012696651263566838, -0.007400216413911798, -0.013867326329896368, -0.08040776250615118, -0.03801060539641281, -0.02256310700059746, 0.059526100919337695, -0.004192983541448876, 0.00344593269255916, 0.0784210446061314, 0.003269248925919458, -0.006125523160259261, 0.032374496937955057, 0.1239282694632709, 0.14397701727656737, 0.15467896123842584, 0.05923503265251317, 0.09015946314896132, 0.04058160903268865, -0.007982284816296262, 0.03169365208396917, 0.08770166154405337, -0.02818637884684782, 0.03889295950429738, 0.08559589742287661, 0.0500179220222763, 0.04020768480186422, -0.04375125463970095, 7.956921769891801e-05, -0.00401266841553829, 0.015156130462353735, -0.0004932387297806, -0.01787212971260904, 0.11424777474133731, -0.007213320309542686, 0.08791664560833584, 0.015265752309643927, 0.09075197769717148, -0.02312311783261612, 0.05887223101932411, 0.02162185678883615, 0.042005946122651336, 0.14531729063510435, 0.11173765339350686, -0.0037212718937099606, 0.053399079633742776, 0.13672298892170992, 0.06412403480194283, -0.023824167315000064, 0.017443296613492438, 0.08098460348641494, 0.04238719241300577, 0.04040677151423356, 0.05860844581816241, -0.031419134084082555, -0.031239595642105634, -0.026408683247406355, 0.006468173684530743, 0.01566627139855035, 0.04255402964421149, -0.01940805895496279, -0.01285130893105417, 0.09428835469631147, 0.16308589470072513, 0.10932837958756365, 0.040953012686189796, 0.081100305162779, 0.03758896490589196, 0.06962613694343016, 0.002957432395912281, 0.0400769478358022, 0.05845787390947402, -0.05846112035845759, 0.014104033725135832, -0.012709425906188135, 0.027077572424472954, 0.0202073462425741, -0.01745098082938946, -0.027977059295423025, -0.025377921388885758, 0.006156857084131456, -0.02534800701298458, -0.0460750412803995, -0.015285210353750646, 0.025835695384517163, -0.09021128851514369, -0.151551065099029, 0.01833510578133133, -0.002428001100087404, 0.01374524056503102, 0.08214466891750435, 0.12751076853484428, 0.036590337375262856, 0.03262505338855297, -0.002041875784167729, -0.03186402165066506, 0.06186813352178552, -0.09818401083469085, -0.06704974190964534, 0.0032873420452899, -0.01648840374528171, -0.0391520463811492, -0.06790622517272266, -0.04087439806968265, -0.022989403053883157, 0.022764172915809764, 0.07297988716601188, 0.07047620425844775, -0.04922759266016607, -0.06210531768669679, 0.03657473809269253, 0.02762023093303677, -0.012794560616353116, -0.025148409553560708, 0.0037097497116960853, -0.008983924355441613, 0.07682598494546401, 0.004254142798136461, 0.03632247917632907, 0.08258169253030456, 0.040304311435494254, 0.016829409301510976, -0.03748807953703877, 0.043341918756580514, 0.048149959001097205, -0.020454781855605866, -0.08691524619437911, -0.00430173679195647, 0.07914031564560055, 0.04714586574129104, -0.07720071483065728, -0.006975862939230434, 0.0032480640467456266, 0.003391277891989041, -0.018556428611829955, 0.0007251989797925885, 0.004632904496418222, 0.033580276247004805, 0.08414919196170638, -0.061993290766794606, 0.04506635679863362, 0.06615738133756191, -0.023601834923617587, 0.02047570591746675, 0.13313308313193392, 0.005237308081673921, 0.05727570397447477, 0.0596785268190913, -0.047536604386144966, -0.039525771234681865, 0.017156000313182256, 0.06038267490148605, -0.04642533976956855, 0.00494293336851667, 0.027847377766243908, -0.13167133245785204, 0.14481873279131097, 0.008937347716460863, -0.042144627702006464, -0.0509344768937515, -0.04394436534956853, 0.03578341955060959, -0.0314975350085805, 0.023799274004833545, 0.044101706585930676, 0.051692391569807504, -0.0374237545956005, -0.030226707488329823, 0.014166387928197141, -0.06559378811994246, 0.008030302622704946, -0.016096325595083887, 0.04823403149487173, -0.049082471313079246, -0.019032397467428457, 0.03314921064919882, -0.03658176481268807, -0.05437639215145432, -0.09544979073121011, 0.015155020658947438, 0.018516680266414183, 0.011319211695969245, 0.029143998706082745, -0.08128141355359808, 0.07328117338651965, -0.04907789772128407, -0.060809859703831425, -0.04521240006782093, -0.045422223435381395, -0.1670604038168832, -0.09885294169781284, -0.04584394146096545, 0.05324997841324082, 0.1185632472830629, -0.047979507322126004, 0.01090436254322453, -0.0708904113285644, 0.01614837693065006, -0.0013928917344512865, -0.03971962581704947, -0.049386221703348214, 0.028535346376313265, 0.025888799497907525, -0.008938261590244481, 0.017994484362154083, -0.03314430757106208, 0.034914182924258366, 0.07700936030022382, 0.07245711125857993, 0.058623017800827563, 0.0670985450017957, -0.037143824548238315, 0.03434561566161527, 0.010843002911171839, -0.10814187856855141, -0.06316359705650379, -0.004980561574480295, -0.03394218617001114, -0.07668448171251634, -0.030122615319416127, -0.03736078810014967, 0.07242388909720227, 0.03423750042058776, 0.03733967245299721, -0.020463598104377367, -0.0193478818962767, 0.02800496076573062, 0.022362328459292636, -0.053724579844364295, 0.010950436008820725, -0.0046178060455907685, -0.004018771576231401, -0.0681343977535986, -0.116981230092897, -0.03955823906925292, -0.010654664842660094, 0.13641172485745437, 0.12170225123885846, -0.011622412897578219, -0.008469671052043456, -0.0800399709902591, -0.030610000668077234, -0.026466574374416886, 0.016523659017841447, 0.015051995535233212, -0.0027332767411613608, -0.008145402960804564, -0.02615469730904027, 0.05352719331480169, -0.014813584145824985, 0.0037488275960608176, 0.016354811128274728, -0.0036082227919855296, -0.025394328560246933, -0.028795214197766456, -0.024773737343085495, -0.045790284500103424, -0.045561223555422574, 0.030049910414054776, -0.016971974474060895, 0.00878713060962036, -0.015873965993661785, -0.06574483617398963, -0.0787625472931093, -0.023121534359360322, 0.003999268372185685, 0.0491984372084959, 0.030690142099444474, -0.001159664860432709, 0.1100095253098407, -0.021181226229993796, 0.049052359925519914, 0.05957160247586165, 0.014672493062283347, 0.07904410580751885, 0.06898345497319587, -0.061900024135871035, 0.11949083466064402, -0.011391676197428556, 0.007635996143441011, 0.002134616163647432, -0.0184909825685085, -0.07033430175302627, -0.0553954506184071, -0.010646384114942556, 0.03003184576642976, 0.005043248107844083, 0.047767900954298725, 0.0057655507047705504, 0.03531543874914814, 0.03640261309749481, 0.0026599283591120424, 0.03709973256011701, -0.04069279116502196, -0.09676910423138307, -0.10516353371748208, -0.12937128097103667, -0.1305480522187854, -0.05180605110873625, -0.043740340420994006, 0.061716921778296276, -0.002716449993255876, -0.040283108138172, 0.011252551163687502, -0.046300107419492656, -0.0026236402474218265, -0.024386547961839092, 0.043602152394871425, 0.01757621337860068, 0.006766538905806349, -0.021213480847691805, -0.014351478845091838, -0.03075158292511646, -0.05030402995030452, 0.031573755420236604, 0.020665757885748207, 0.0029796501174809294, -0.041956870968328314, 0.13397016426901792, 0.009168353222427005, -0.01895371963246901, -0.04194249765655269, -0.021918290587115464, 0.002835286078969127, -0.03860535279322598, 0.000695760077876637, 0.0019763017736324617, 0.016060225361168984, 0.003671254801428771, -0.035843848229915556, -0.07670890252133336, 0.01761241611707588, -0.005192231095898617, 0.015482191603562795, 0.011698193481114777, -0.04746609952167878, -0.0028439200801465107, 0.011582822837661067, -0.06352311499177059, -0.004855403089477829, -0.02151655475971248, -0.030230921870596648, -0.049459913866779934, 0.01843037444772272, -0.03195252550706866, 0.004879341992379691, -0.014189454798802764, 0.08385564528786632, -0.02858324022310783, -0.007876749384016562, -0.04344720673720176, -0.0059402122069911484, -0.004422100454730162, -0.024334009673331016, 0.029212927529888327, -0.02183873514477966, 0.028088518160441178, -0.019394249741926568, -0.036300085457334146, -0.04439168558848831, -0.008455213086551, 0.0378909707679234, -0.06214273219313939, 0.03289314040654097], [0.029875211490353618, 0.03233528889303696, -0.046838055332573444, -0.037772094632663254, -0.010279289521957391, -0.014220289093205964, -0.020344758961136758, -0.03478348398069275, 0.02553270345779997, -0.0003878918351031662, 0.060867954525058034, -0.006060548164198737, 0.020485670293679162, 0.06138150874418347, -0.01069131309687842, -0.04740521669896547, 0.01719635565548836, 0.04690573179504161, 0.03730475658048199, 0.026130913810919126, 0.02773973154864149, -0.0196911349159556, 0.001747873070036575, 0.0063702233355817876, -0.07859258249514695, -0.05153706448374925, 0.04006320597723608, -0.02607172685157271, -0.008133515074293558, -0.002973214720713088, 0.010200437291627394, -0.006168928540011376, 0.01649452387108406, 0.0626163769620477, -0.01554705459762022, -0.01143708985820427, -0.025950077981695113, -0.0777966253756114, -0.022601993563068756, 0.015882252869437185, 0.05879001524093119, -0.031143344565176295, 0.0023208255575462664, 0.00012954687645606945, -0.03561246672428863, -0.026215037195292466, -0.06475716113538676, 0.0341758207295208, -0.015848790154039318, 0.0333628538516918, -0.13143329724275724, -0.05017934644552482, 0.03908034684757541, -0.03563461481351547, -0.037868682272703305, -0.012872031197189302, 0.003019930246001944, 0.010992826135070018, 0.017799979297233256, -0.07835817134960338, -0.08603293140980225, 0.0049750754251306544, 0.036390619621652846, -0.0095847699529888, 0.06613603582762073, 0.03331844962622801, -0.00011913637094470953, -0.0026401987591535493, -0.08165975410120858, -0.039823594738113276, -0.07762010375376675, -0.016969299847544448, -0.03915357123697076, -0.04635382716580982, 0.0154560478555499, -0.041779793413113185, 0.03937547704597795, -0.0007521456446494912, -0.0029717211109330575, -0.022016302908808377, 0.07295893913003464, 0.02077575727959273, 0.032262360482346805, 0.04485884540037959, -0.02049079286474461, 0.033481984027795446, -0.023178580097814552, 0.010744078965162121, 0.009805135376724965, -0.03879284931666281, 0.0029168154594688034, -0.06991950037429537, 0.04604197490941884, 0.020091176505829315, 0.08265946022817601, 0.07091111880473698, 0.023193262737154566, 0.039773406331048325, -0.060838117794139134, -0.01169295575472818, 0.031016658941123054, -0.02732863703242953, 0.04148292384516579, -0.0051169057108254356, 0.05062895378596027, 0.011090672025671357, 0.0012457759444373774, -0.056693151437237535, 0.05373557191621362, -0.026838380907438248, -0.0063724150340370225, 0.015118317496196482, 0.03919932283405898, 0.016392989586310656, -0.01868712123568047, 0.027342547710214556, -0.005411338138404251, 0.019329843975115068, 0.0415381521969119, 0.015565244712942837, 0.14387541405536697, 0.1215819193104235, 0.05035325800945303, 0.09675336487465692, 0.1213080625134464, 0.07979452319169082, 0.0952160894196991, 0.0724975234922462, -0.04446451989681794, -0.009428759612783754, 0.09134143299515202, 0.06501119457489542, -0.0016328633236251137, 0.0909634674521594, 0.07983728368684191, -0.008679947162036091, 0.04026045725268082, -0.00611737944036734, 0.043125178176874036, -0.017875392817763614, -0.07282980474988153, 0.06097303765798651, -0.033694948783602206, 0.003705637835998102, 0.03994512927737685, 0.0013563286213969412, 0.016057118522331253, 0.0744134933305963, 0.1776634758325713, 0.0962275159033973, 0.08495699817245037, 0.25383800562272535, 0.09290008403941016, 0.08812858828782726, 0.03526384794723517, 0.05322318831760069, 0.07390806244160927, 0.017205116402414358, 0.0028521554941527668, 0.00942525055380446, 0.0314106368463626, -0.016453727797370418, 0.05275770337746324, -0.030087925090002268, 0.015911831885197666, 0.013013650882740847, 0.029181606500373367, 0.07679465423097229, -0.06852261675618157, -0.03552387140129291, -0.018787094440968627, 0.05228209055327193, -0.012124566506741168, 0.03264774731202087, 0.1342938113057865, 0.17737141893948144, 0.1527850053515674, 0.19792267969914917, 0.20222412219737226, 0.17833384687605044, 0.008751798865067611, 0.10593377767394907, 0.11582918430858705, 0.04359624191621496, 0.02531511140367753, -0.0012442868035931103, -0.0050552470963212285, 0.02903599207853499, -0.037859176955565975, -0.0009974209198484818, -0.09122886172638921, 0.03344943756429506, 0.06957409040283656, 0.013056416992039186, -0.006768270021324833, -0.01409710165955488, -0.001956927326298624, 0.04244865735210466, -0.012788661689263413, 0.02863061656307349, 0.022628851861661876, 0.028180391030917722, 0.14482523160485353, 0.15224519930476044, 0.10612612978767506, 0.15386307657702056, 0.12088968601444426, 0.13643882682360947, 0.12347685718993008, 0.11536635922938833, 0.0428673144040641, 0.10960971761414497, 0.07607869489664013, 0.08855086130282214, 0.05284120739732665, 0.002413729425550215, 0.009702392333276041, 0.061705971797843207, -0.059871021834146894, -0.009553771287480268, 0.048412564328523006, 0.006632604103480941, -0.00299673815459513, -0.009126151246487977, 0.04829985840469192, -0.08581958987433048, 0.057478725619735486, -0.018834660652712745, 0.0563767091584018, 0.05884157881064187, 0.02598531367746045, 0.07159841369382224, 0.16024236554003463, 0.11509231225116776, 0.11444490808880302, 0.11812702624230048, 0.0830210613143175, 0.11558881721080681, 0.08724821535339507, 0.14466265598364253, 0.09945101572488485, 0.12015050405806643, 0.0893544398880487, 0.053745617699870546, 0.1042010141065804, 0.06122048828238552, 0.0031853932023811968, 0.01734503505205826, -0.02964604295875502, -0.005338480913423933, 0.034833867520183553, 0.03687831940759688, -0.010492854769746337, 0.01954671594663353, -0.019514103618402882, -0.009495643049800532, -0.020319885726784025, 0.051386707562209755, 0.05759766837060363, 0.010537569242594991, 0.1534527646885676, 0.12659987151258742, 0.09071097558779517, 0.07469871895083237, 0.1368164278186622, -0.0071043826571138185, 0.10762073589310348, 0.01891916923621708, 0.08542917492440771, 0.024656140339686876, 0.045308658766182536, 0.04947718657939613, 0.038688638691623235, 0.02027375978989505, 0.022900538352639867, -0.16778630706255013, -0.03984257252268139, -0.045994217930785515, -0.052506293130110335, -0.10359649023764236, 0.007243975869647235, -0.006225842183254587, -0.026041749997340678, 0.019699060389590378, 0.06687250599354412, 0.07243671726459082, -0.03205149891469005, 0.009179544199320887, 0.07928695329596538, 0.03129539051913998, 0.13415760718180203, 0.10159574432299324, 0.05129861239870101, 0.05540295526840848, -0.006938960613176022, -0.07599814884906796, 0.04094298216911868, 0.03509494863326026, 0.0006316896065022194, -0.01658129537719174, -0.012377646943637667, -0.1156852352363794, -0.1172826590462798, -0.21222222454730613, -0.10643932219601826, -0.014005412410157762, -0.018330886639112576, -0.00012805165270846267, -0.025724316191793807, 0.00978996121208518, -0.11320984310203251, -0.02382808154442923, 0.009384422205233146, -0.048776084858368096, -0.02127954478637858, -0.07586365497045441, -0.08097960106101572, -0.02958257117187261, 0.10149229148704059, 0.10938971941225714, 0.06036263513468167, -0.035621880253599796, 0.0407349673757726, -0.05085323361631827, -0.024985060687705868, -0.010318672094291659, -0.025834195944196534, -0.038104860213346074, 0.018616331580367282, -0.12186988952507574, -0.20851490808701137, -0.17002701005320228, -0.11449158513676377, -0.051717541244079644, 0.02147351753459243, -0.041763572848835584, 0.01447499594794485, 0.0005150613960498792, 0.0022836584320316405, -0.042357678312516606, -0.0492221102542316, -0.011915907825500425, -0.11144465468208185, -0.07952629990768946, -0.1361643297586558, -0.15591799385007804, 0.012436404950425256, -0.01742066399353537, 0.0213201656178043, -0.025870659921850104, -0.0863808874579753, -0.055318982303757716, -0.0041048374838078185, -0.048720682171780855, 0.04575581959258483, 0.08740608143265739, 0.0050143642183345305, -0.08503112873601945, -0.17656695454365443, -0.1520183313804438, -0.0651462002876268, -0.09795884414637457, -0.06981233176491303, 0.01675252444966758, 0.04739074607762645, 0.008269193387301827, -0.03039514821387495, -0.03210985231658597, -0.06861837950088648, -0.05974309335106351, -0.1372676770600363, -0.15352141587735932, -0.18772875636102687, -0.1971789977132289, -0.18056578570733414, -0.10333407794473226, -0.06322359425362997, -0.06951402267866365, -0.0385707816645785, -0.00947026118640159, -0.0351863666532175, 0.030867839811958443, 0.02010203031667075, 0.037450405713381436, -0.010739399751638937, -0.07288005863564578, -0.04733993694955304, -0.12073852697993812, -0.10962081746671778, -0.011040226135285441, -0.034768077166700294, -0.05021331190635502, -0.0013154649359673257, 0.04077313786480793, 0.00026261432198724014, 0.0785815369913893, -0.11424267541338787, -0.13009005243574887, -0.225360270028988, -0.24794645255762232, -0.2325273315241486, -0.2375963832788788, -0.23215463115580443, -0.20437129991908057, -0.11967202700793377, 0.004482878387741857, 0.004684514846614298, 0.031030606393756703, -0.01668514612191226, 0.05376608097482758, 0.024817355048551887, 0.03877762382458104, -0.031549938525874566, -0.058205672744379724, 0.0038521156600837955, -0.025439030163429275, 0.02346402847990929, 0.050027026565767616, -0.04872070275475704, -0.05054439064453899, -0.033909495840896586, -0.05343949160851058, 0.029637386485996203, -0.06457931199953011, -0.11444458585456209, -0.2415347302353955, -0.25339510731162523, -0.27257799036977376, -0.25600531698780665, -0.11544076752924214, -0.2455984502604667, -0.16130445868678242, -0.03703897593709719, 0.035265689971757636, 0.001283792655260634, 0.011179193516679883, -0.007851348833077582, -0.011726497616908919, -0.019614850849926896, -0.0535813424616049, -0.09483812309703564, -0.02600538226255536, 0.04535024209619275, -0.02317857921253426, 0.03545485199011097, 0.0014471484829296623, -0.02302928441070873, -0.002846904707582463, 0.0037339322922162986, 0.03245559235125351, -0.04844690683411933, 0.006867217742603931, -0.06675678029325786, -0.12778361753987824, -0.09629998152503765, -0.20018183716757182, -0.1275231953559108, -0.08396603933218916, -0.15042221266514122, -0.07001527704939607, -0.0553876016576385, 0.011011207180531881, -0.022707696504705336, -0.028029310686247033, -0.060240778026780586, 0.11018863152232865, 0.0017661436450790264, -0.010504329708312977, 0.015166050056446716, -0.026299500565232448, 0.05229846848498129, -0.10195833173128031, 0.003976196963136198, 0.03440215132948653, -0.06848249971893586, -0.020668323339541474, -0.010122435746784357, -0.036782057825286485, -0.03963314798522611, -0.037485683267264126, -0.1218149928412623, -0.07359618100569233, -0.12498638890362455, -0.11840070755803854, -0.10535057674691989, -0.03960584871899402, -0.15459883023527476, -0.06947377926791015, -0.03750352416123991, -0.021557472716465107, -0.04631946920410102, -0.02851757228853778, 0.0903929690950061, 0.12257843140122865, 0.07583956146055754, 0.026710465883819617, 0.018746836825846776, -0.006852204765704112, -0.05222711042864938, 0.01172166895661355, -0.03882422385462058, 0.010272783404247726, 0.028571522466614534, -0.05490687135339825, 0.04813642889571833, 0.0005382070916456061, 0.04522827705174149, 0.04527074056439444, -0.024593880904023684, -0.060508407388486264, -0.05358090609374289, -0.09818807805475858, -0.047140247052931, -0.12744510863806383, -0.015265382288851236, -0.05260862147272771, -0.08161330851870234, -0.07158680113633249, -0.07462625586979257, 0.04742100161418281, 0.049468218405745785, 0.10721154692239478, 0.023074940592464694, -0.006708387119862498, 0.016580722761768932, -0.02382380168637328, -0.06928283876802213, 0.011351833792110206, 0.07601184138664702, 0.10513623977866199, 0.002019300565781013, -0.00806820358807474, 0.0033998899753240846, -0.03444683755389976, 0.008998828845313374, 0.04608709214354191, -0.0263057201776895, -0.10685916670650451, -0.04250720576015822, -0.045584300537219895, 0.04148154321085848, -0.04131884546103009, 0.05669351523880578, -0.006061415691036694, -0.08058575861042887, -0.05245927635532935, -0.002391566581513048, 0.06960456821465939, 0.01635158503743582, 0.060680271290392475, 0.02165833205645676, -0.01385929181352854, 0.003686425086889128, 0.049091338902597044, 0.009800697512367113, -0.08208405686471507, -0.06357974903879093, 0.03306064138638788, 0.08407633653555031, -0.05687784447739671, -0.04672814895064571, -0.07247659587116495, 0.031104273740594365, 0.04233791258463033, 0.026222243420864915, 0.05874388186649375, -0.006380927467799777, 0.11000182954891594, 0.10193646629826454, 0.010131199330643739, 0.04905276070175214, 0.04072603129322325, -0.008662691509675928, 0.07087343607658017, 0.037820313261761065, 0.08892010366891587, 0.005954846136230637, 0.048680597189352755, 0.005724439758539337, 0.01377654989167902, 0.01059700448390686, 0.02794910390464289, -0.08335021861272997, -0.03421683869154834, -0.002579758889033509, -0.027966822708579038, -0.024920200525387844, -0.01025464975245928, 0.05832549801687985, -0.03212587825183169, -0.054220667533699335, 0.024294453196222067, 0.02703362100268464, 0.11353784764608386, 0.11258386577090865, 0.16192320489710404, 0.13280767145375427, 0.1328937575168361, 0.07726592225289873, 0.0758537260908645, 0.12665626387495424, 0.04292691573889056, 0.10393384552053968, 0.1313368639123758, 0.0446639005380106, 0.04236797219474063, 0.07366115176478627, 0.05388982496192476, 0.027978388119717208, 0.014384467794904559, 0.07620085205043699, -0.038850979835975054, -0.028342203200343224, 0.039685685272293734, 0.0006195109713147903, -0.05130674280498682, -0.03382905531313643, 0.01625691033168386, -0.038247093903545325, 0.012396632955484274, 0.09294797899555306, 0.054948134146574144, 0.10272512569111464, 0.1352924702863449, 0.09821097908398832, 0.09159055514629423, 0.101188338333432, 0.071873536380872, 0.11150583292083442, 0.013097665609506193, 0.09548007327279794, 0.07666372028065566, 0.06472718045657712, 0.002520952409023702, -0.0015280003168750302, 0.012834416661593137, 0.0013566038680842046, 0.005162525077064059, 0.0505097093848829, -0.05449228143347864, 0.06806153226214261, -0.04901664015703276, 0.026039425648795054, 0.013693071071248, 0.020985037889854872, 0.008905517660738087, 0.02249947092386459, 0.1025663950614287, 0.03921322560083471, 0.07902283845055783, 0.09635725000846145, 0.06603727310270248, 0.0004961953019898603, 0.017101366291904473, 0.01929516078851714, 0.07991390147078825, -0.0031632331646109634, 0.006322632699506738, 0.05876266057748851, 0.022197401942709753, 0.018122596163402147, -0.12592770922639604, -0.10421942629530116, -0.07992113080207813, -0.05982151156818155, -0.04394241409400716, 0.023055449057761225, -0.07241115857771334, 0.018095761204622026, 0.008014898983398903, -0.040540318793268436, -0.005555299759456811, 0.005536461717191418, 0.001975160953118811, 0.04661022260709427, -0.0037183128777140187, 0.01373256920483804, 0.05573835101044331, 0.09189006901338849, 0.057627141213450285, 0.02854595870730079, 0.0011785213627585021, -0.00619250872329478, 0.07763817778835339, 0.046085465667410744, 0.07129790871190328, 0.08299177745690212, -0.03419294624352485, -0.05955630084438439, -0.18612578759428428, -0.10715705053862117, -0.08625123223414181, -0.1264043997138944, -0.09532931259676217, -0.03676033890614575, 0.008031468033428335, -0.03914914159708019, -0.09501917547757793, 0.01947637597610958, 0.06659525532283504, 0.010185467306533977, 0.011122551165127796, 0.059417398518485307, 0.07573146975940856, 0.018633743149597017, 0.1407397135551078, 0.10993504776340395, 0.06284453955511217, 0.10263911451622218, 0.03258905772735917, 0.09940314354319624, 0.054834220783399376, 0.052613714120273054, 0.05136377524077665, -0.07109871077124155, 0.00966142426819985, 0.06584833801252075, 0.049534314004253635, 0.05895827821666188, 0.04549284808785538, -0.013580248396492415, -0.03486588210127735, -0.057718749339421734, -0.03201882115994395, -0.09433071245967954, 0.02801675140222424, 0.028304721091777046, 0.04144767099767417, -0.09471065095346481, -6.283922769620049e-05, -0.0013260726335497736, -0.0100438277807259, -0.045489418454392895, -0.05193436537546535, 0.025850901288954883, 0.11386945236898835, 0.0612331399518669, 0.006816120546410422, 0.06011091692586285, 0.04563834395980918, 0.03761055691785911, -0.037292868384763304, -0.009501767125268845, 0.07995245729708514, 0.0015063422689782873, 0.010270314766720924, 0.04478830702847542, -0.029198265609369743, -0.004293612381679123, -0.03269746808531804, -0.0002033058499601612, 0.02380342675115171, -0.009959516857553962, -0.014306830534422587, -0.02081141012381122, 0.012311419240088769, 0.038708002086257444, 0.0007757265443106689, -0.008525685966434585, 0.003402415576042454, 0.041901880748866596, -0.042752255427350255, -0.028291164733546637, 0.0925433091753342, 0.028809509462330563, 0.016278033411193958, 0.029568462000586517, -0.005989645449633186, 0.02405730261827628, 0.06227363965227572, 0.005524745015757918, -0.024016650884694617, 0.05116992530767331, 0.0722149580949692, 0.008962248835948431, -0.002120156162948462, 0.025648531627502073, -0.0323776076944968, -0.0100028311135667, -0.03770436078207738, -0.04034113387172297, -0.003169494798365884, -0.012763314932609002, 0.03190854293265813], [0.020698872838956796, 0.005767572012201378, -0.0057017633153983805, 0.04895219185027253, 0.05869754327532789, -0.059195596931866795, 0.05453329131222488, 0.019485199944843944, -0.036143952630264445, -0.026595979303722192, -0.006053776413180241, -0.03803528108970496, -0.0644576946387906, 0.030425400356032296, 0.02655988749909096, 0.03283080788683905, 0.017260750874411233, -0.0016773777272270378, -0.024414416777680248, 0.05453481602554993, -0.05159881068328619, -0.014650688731648084, -0.015351733401553028, 0.036852876348465125, -0.03374710043368439, 0.013882808101923619, -0.02138015457655818, 0.010693186484172343, -0.05058862536757228, 0.023641857406322846, -0.007032624594694862, 0.10761173666554065, -0.0523077143632801, 0.039341716579355264, -0.03595881933280125, -0.042592971698928714, -0.01630788659043709, -0.04641704744215927, -0.06159527954634364, -0.12569892209131103, -0.031144459064972593, 0.018071086803479894, 0.004567565990516182, 0.04531491384028509, 0.014476555683249594, 0.061543035957350944, 0.01507563021311363, 0.06438576042274033, 0.011781461476319192, 0.010487321170679747, -0.018767280193607433, -0.06851941000864246, -0.001915843386359279, -0.0033798979034173116, 0.05626969799331862, -0.01741413147360189, -0.017876412430145566, 0.0055960000705495725, -0.0017550877218878544, 0.05208722898489461, -0.013012270028699521, 0.010203156349972401, 0.08893339026004854, 0.028611687815698224, -0.022619196609073883, 0.029417950886058433, 0.06503643861505509, 0.03406510136687762, -0.017969277015741143, -0.0035999014305642773, -0.00482393579212627, 0.03732526579704852, -0.0023873625126641846, -0.07362882335884201, -0.02344396490428987, -0.047150244240876334, -0.01458336938352732, -0.056323628403347065, 0.08047928847914833, 0.0012041303790965767, -0.0485347504370791, 0.010682176564863657, -0.024169846273916187, -0.0173963655518007, 0.033636858209277906, 0.000502826723707113, -0.02986079118336038, -0.07281164243100298, -0.004397162698888645, 0.05760648101791279, -0.05854614644783015, 0.009819803717301692, -0.0423976154343598, -0.015198041594085778, -0.10151991037355854, -0.07917871343872906, -0.06912030652912256, -0.037597199490169875, -0.08332178355504716, -0.08904896210693256, -0.02140190482705833, -0.042494527510921296, -0.10105243283845038, -0.06570314831610775, -0.10866900269100122, -3.404098427083756e-05, -0.03843050511819219, -0.050765847384356654, 0.017724032497124363, -0.08478782200181838, 0.0161920847083132, 0.012220897090375188, -0.01809081829742725, -0.008795567601102961, -0.0577735695336334, -0.011694615394382506, -0.024609606983643152, -0.05986315001833417, -0.029640011476307924, -0.015663814051808403, -0.06676803667817026, -0.1009235018655659, -0.16779341594816677, -0.06536580954862269, -0.007731996737218804, -0.029525272333115957, 0.1273624640521298, 0.040732152766525136, -0.03779466283755017, -0.10552167006177345, -0.054878762204180365, -0.14323610067066384, -0.12239067562311666, -0.08452912990246812, -0.08193799285505747, 0.031464450050011354, -0.04115010039222881, -0.0042287215833745765, -0.07559304010282891, 0.02284838082206101, -0.011446680750758104, 0.0014648730495911886, 0.0632559417621601, -0.07812342639285023, -0.0208035780879176, -0.08511564553066897, -0.042657864696394605, -0.0698754234348582, -0.06107276145707134, -0.1693549031577415, -0.11983241359780177, -0.06581201425654862, 0.03316868639694304, 0.12184002759918681, 0.10670789760430482, 0.04446139425943744, 0.042715683952921565, -3.5721690189227425e-05, -0.06238686796257222, -0.10725413878272501, -0.073932498443122, -0.07459012724019644, -0.01861775100026924, 0.0037373794617603195, -0.027984055619021557, -0.03670712687367966, 0.03316993849162859, 0.0036579312844369654, -0.05009958693466002, 0.011972462200251123, 0.04194136001203519, -0.007924815178244395, -0.034308644729293056, -0.05210183445806477, -0.08443696779058253, -0.1597831901543817, -0.12206615582739673, -0.1497042873000532, -0.06393164713886325, 0.027042212239913477, -0.01652416157455805, 0.051113465419753125, 4.143721313993717e-05, -0.0009903262294752083, -0.07739715124709685, -0.06752056422315908, -0.1897871645677355, -0.07478985663488052, -0.04394141050915843, -0.06656371158125962, 0.016933324953686185, -0.006050589923055907, 0.06643882809363089, 0.13015559063376403, 0.007016055675675176, 0.05897654208324323, -0.0571601808833799, -0.0022945748544549046, -0.06919405394369268, 0.005966099186959718, 0.04367540139261277, -0.096119680934672, -0.08769331902955387, -0.10829535275987083, -0.112721149107834, -0.07950215811872052, 0.03390400982333645, 0.05043699977793714, 0.07611240398292722, 0.054522063209111994, 0.0744915803265684, 0.003866751128683654, -0.07299827314460533, -0.04242391338371818, -0.06547051302145143, 0.02453769133748166, -0.025506929023582484, -0.0037518958397685554, 0.057752652749207885, 0.04347779075802504, 0.0825390801630637, 0.10697082076726121, 0.04483980705051543, 0.018178203624826424, -0.023881715964036834, 0.04947448464881538, -0.0544737715962246, 0.01741305964661436, 0.06430885054661273, -0.052919826078836246, -0.10829688824717949, -0.04051613772416535, -0.20247698078177664, -0.05385149250478966, -0.04666840583661209, 0.06811994576768392, 0.04738373156968287, 0.016654667730746565, 0.12304431873133632, -0.011743434488372952, -0.05931244392677136, -0.04386654385781553, 0.03549736116656797, 0.04299763333894779, 0.0506863837633325, 0.03225706060940564, 0.0794148729808702, -0.015018359857983648, 0.1014323101493257, 0.09985306426385665, 0.02504921330091296, -0.09489216636395606, 0.015117130494135335, 0.037058978110470174, 0.05634355207963723, 0.008789182856854295, -0.004963437081853024, -0.014033097629271248, -0.0033347621736335344, -0.06355387550962131, -0.1432085349786427, -0.09772307118511418, -0.07440578491060415, 0.0264455476776389, -0.020649977475840263, 0.03541141459925176, 0.10081847150609452, 0.02078737081673437, 0.015119197535863486, 0.1156944991148101, 0.0263603582439489, 0.06961798761189099, 0.040801312779879376, 0.05759050300802193, 0.07289381936927969, 0.028328615537663412, 0.10013580706785954, 0.054016747183490095, 0.032742207833768085, -0.007858222192014068, -0.011369605076238864, -0.03289044211424969, -0.014651984519158839, -0.011722060675423756, 0.0006052822432215406, -0.07612037579667758, -0.06675772896648448, -0.09033056503376297, -0.10402311292720973, -0.17219010617919273, -0.01818306196507112, 0.06939863722660078, 0.13915596053117832, 0.10116034970015858, -0.012249629123610032, 0.02727366407736194, -0.008636062424366481, 0.023156933121629468, 0.055489509897399036, 0.11149637743465725, 0.14890190799784628, 0.05198234015127628, 0.07138104685906235, 0.04829491610364641, 0.040407423221264116, 0.1408241555963466, 0.04478777423060765, -0.0018118332241127885, -0.009496822792785747, 0.0262447282521111, -0.09186012201146655, -0.029632549184143195, -0.04027647339540737, -0.09880863327857448, -0.11300716288094619, -0.08087364303758501, -0.14905123439395046, -0.1239771006081496, -0.09780425260748776, -0.005614758519686808, 0.045380916098197305, -0.011353664530741615, -0.0025198494210275915, -0.07089946060924901, -0.008353322286634463, 0.13198250145280843, 0.15651087562668997, 0.09609704456877115, 0.001959365613926167, 0.0971173546941347, -0.052688616924136934, 0.05904041939430155, 0.11698979550999017, 0.09066484554314892, 0.018336704017006072, 0.01754542848641429, 0.00898523104612839, 0.02935634432241199, 0.0013368640438573651, 0.016945353798988573, 0.0574532337508093, -0.10228720707598404, -0.12537921178960612, -0.17557514301071972, -0.19495310784054307, -0.07187133879414553, -0.09666182990013016, -0.04108097754762266, 0.15757145164278538, 0.06620361139722718, -0.0050980253159432845, -0.00525252286475746, -0.011426587187608257, 0.017214384506208855, 0.08769280286957448, 0.052221254785976126, -0.016525205817983297, -0.09935773208772021, -0.09551043545462473, -0.09233519209979259, 0.000275012328503074, 0.06252453345671656, -0.055680896986158857, -0.008224229840444084, 4.38464512199849e-05, 0.05134779767547483, 0.0073768285115222544, 0.01922173532201657, -0.005113544392079437, -0.2264115925764146, -0.21271321781580577, -0.1284939105912546, -0.04812807186160901, -0.0510392463051042, -0.05684802594107755, 0.09415893577073318, 0.08098039299420631, 0.05784845721479639, 0.08097776694236569, 0.012390419297667292, -0.026298267083929516, 0.025708797437682285, -0.04436558758654457, -0.0748680898698395, 0.031564706349403386, -0.042268796493108975, -0.19876892375253127, -0.13495795587340761, -0.11140723984637206, 0.03998621793887025, -0.051288329038240175, 0.11092482856832447, -0.010820223758236307, 0.002475839004081802, -0.06096036654565485, 0.03289214586430434, -0.03303927269405666, -0.06686403548352017, -0.16880915139389457, -0.10912776286498028, -0.026239476467025225, -0.00892604868446488, -0.0678444347888071, 0.05237601234097487, 0.08627757145078853, 0.10748566730017974, 0.032835409801639896, -0.04703903022765576, -0.007582302448111045, -0.01354161072696678, -0.09762740782096635, -0.14365335562662987, -0.03845507685360526, -0.03007384701863456, -0.18840331016144363, -0.12937146153199394, 0.03774308179434738, 0.05055534509537276, 0.012303658169315519, 0.03132272633268903, 0.039518822978754954, 0.03150922305266436, 0.06858597908303382, -0.13421201054985998, 0.059536631437589194, 0.0272837197379127, -0.042226038841608235, -0.051761980966000244, -0.057994628357446114, -0.11441863756918426, -0.06680422112570303, -0.06454599207937249, 0.10420898699949056, 0.046433329655646345, 0.0012655869433087226, -0.013570579874019138, 0.026769859805603157, 0.0036094001266178074, -0.03736105311361939, -0.11067257529393817, -0.08810558620685108, -0.1256124020734736, -0.12749943439504283, -0.11932531976517814, -0.003927923499941726, 0.061815685900530014, 0.04395575917432252, -0.0002332440721844144, 0.02360253513155489, 0.04053089661055343, 0.019689032074534065, -0.04381426857297109, -0.0179486697924221, 0.05024889650066179, -0.006586135349956385, -0.0813863542941497, -0.06296067551499478, -0.12444373245488084, -0.0682344692819118, -0.06217354287234254, -0.02706293083889537, 0.051535169452208894, -0.04229268194486313, -0.027336167696492747, -0.07883331548029728, 0.025086473008616314, 0.036867035601954506, -0.020659191078765276, 0.002226834944047816, -0.1281760613423552, -0.2807255368316218, -0.18807959528035645, -0.0017422904339644359, -0.027177685005218555, -0.055426636282096445, 0.03319846456549232, -0.04448836550445614, -0.055960099553597945, -0.03249471140866576, 0.04513154441530157, 0.05348277560993172, 0.036863334203474186, 0.01803024260444699, -0.02833829193616183, -0.03636996961917724, -0.011978345658432407, -0.1412409522367075, -0.10589880930609365, -0.11260852854743725, -0.03528118799131318, 0.013035509977593052, 0.049394024333694525, 0.07357076551448707, 0.060692048438893295, 0.11382448326460624, -0.012393272275109673, -0.10180565045913864, -0.2547564008915418, -0.20482410787179314, -0.10571706463755988, -0.013952516033098994, 0.04528669623456646, -0.0339247076111905, -0.021008559365342128, -0.012315141105796667, -0.060028059112605475, 0.0074010912693385986, -0.03237207416083472, -0.005737001105510384, 0.06876785109147805, 0.05555840243794702, 0.07162266468652498, 0.002593147873742798, -0.06624532074511426, -0.034572968963367506, -0.010630202505537737, -0.09566015523170719, 0.03126813126920872, 0.02915482089872979, -0.026846860947181046, 0.11696481287928895, 0.09684696482297347, 0.10056691264928479, 0.003079964194709477, -0.09955763468195807, -0.1582595809902505, -0.2563599447357277, -0.1896824397276212, -0.029970554675353877, -0.023490910134005914, -0.021198256617509105, 0.03465948262823006, 0.011089905661758074, -0.023206188177558533, 0.03965927865027148, -0.010110980196356764, -0.020647375643944914, 0.06902854815945199, 0.04413076924558024, 0.03447965303961313, 0.060840004414899805, -0.04619000278679889, -0.13997987767620432, -0.1038517368309528, -0.11047409779468781, 0.08271526112456856, -0.04514083416165219, 0.017032159005551425, 0.10505084165564114, 0.09565481386262893, 0.19449057648412463, -0.01653841374661036, -0.24223952865890577, -0.24575027087349452, -0.2216002366676611, -0.021404553031088725, 0.021093080921786352, 0.06562698309488212, -0.02261836151217958, -0.016613356504729716, 0.04211087430464011, 0.0007869743050302805, 0.035538099210175846, 0.011292838943598268, -0.03058091342744545, 0.0500552438692946, 0.10313047751297433, 0.024801326964319404, -0.05311390070355568, -0.040059814370605636, -0.016985554996868317, -0.09933433750594206, -0.03539033406013113, -0.05578880866684536, 0.009200160491410793, -0.013654327466032954, 0.0162651915067253, 0.06149660701450679, 0.05164880041333794, -0.015492919050225352, -0.22247167432745354, -0.2165080638122138, -0.19587441828255797, -0.035850117862682225, -0.011906741373264692, 0.0016160898313876651, 0.020362065535811005, 0.005914870291571815, -0.02243159568778114, 0.03126283666870374, -0.01920800588421499, -0.04269810439178297, -0.07496826952661406, 0.0026808419901733927, 0.017574970928427466, 0.013449438010408937, -0.046981035595426095, -0.004450218704062521, -0.09223958361898733, -0.0021834894147721483, -0.11230287655207476, -0.02419432311451934, 0.0628078672785384, -0.03590244209453117, -0.008499504232278653, -0.0518015128699214, 0.021344152154187907, -0.1709312818310824, -0.10855320532918798, -0.17243557411136884, -0.1435893452558568, -0.04142083273349341, 0.03373085465011065, 0.008388007838946035, -0.05627450496644962, 0.004225446571443973, -0.002154140752142363, 0.029767851795644108, 0.04416152918026018, 0.012531537152874493, -0.0782755424049099, -0.03924062733797153, 0.061876983912070284, -0.0367849636684194, -0.0007776380470315839, -0.05272110255891679, -0.07559701846324789, 0.03314744588656881, -0.07954915187188931, -0.0003728577179424656, -0.015619191336484194, 0.033267759194871675, -0.0481804363610512, -0.020485698953161637, -0.03453693872032354, -0.08695911995612005, -0.13907059161657967, -0.14914817555131948, -0.09239950894548077, -0.0100449294021272, -0.018645604328906478, -0.025345006561580473, -0.006238735499310743, 0.0378476146786222, -0.010284975520179096, -0.0031641438762702824, -0.022464109973475168, 0.03261757013903661, 0.002297483169784796, 0.11572117947638517, -0.053396538242054536, -0.012662730189755365, -0.008578831953953486, 0.039639562852432114, 0.10319192156727039, 0.06987858442265148, 0.05218037742863062, 0.08036666038458089, 0.046577685606331645, 0.012549266355404544, -0.08696617689793794, -0.03659729832019269, -0.16381393441318057, -0.10567893457604406, -0.013814677207086372, -0.06438129788054557, -0.010864872606238632, -0.011405227440864993, 0.01354893682954253, -0.007003368766477791, 0.012663818868636436, 0.011290451394315735, -0.028753457786326295, 0.034252075404849446, -0.005889584684253406, -0.05244395404835133, 0.03930361103993497, 0.03169462586239932, 0.02810440732810831, 0.03754278041067083, 0.06222588786441091, 0.09458354243408534, 0.041667461800905116, 0.060777064782775427, 0.033034955418875404, 0.0832625702361964, 0.033899571940108605, -0.09426081843382739, -0.15438737728826205, -0.11916252928348783, -0.13008801508964868, -0.016271922196342818, -0.0437180271997579, -0.02109161724176141, -0.008421574692278617, 0.013849762853912383, -0.049238483358210176, 0.023099250938522786, 0.0070448943405797, 0.011681559651039687, 0.02031360133424181, -0.009940187538242584, 0.011818545488937834, 0.006252104688372333, -0.07339650033929368, -0.13111203884095324, -0.11518184204811661, -0.056834129005716036, -0.03468024703851597, 0.017340287380936903, -0.01505094476957886, -0.011083371453768125, 0.05567257253763342, 0.03264830129292248, -0.022979660599240344, -0.1171024371375407, -0.1496076080143698, -0.10631548249946018, -0.045015730797713364, 0.009506894002963008, -0.014658322144913668, -0.06577757253232704, -0.033713514442670726, -0.014205101486488445, 0.015323625700856746, 0.002679720201307253, 0.03844029358665386, -0.024501861644333014, -0.0026102252585724884, 0.01643689325418347, -0.0003878180226149718, 0.017773302952269008, -0.01957754260333653, -0.037476296501265216, -0.01859680881369634, -0.06909628480906022, -0.032285609348457006, 0.03996123613909342, -0.04162367778057888, 0.050568893706591685, -0.043764636775096996, -0.099390011391568, -0.09135994326759303, -0.06329556184308018, -0.08954485318858142, -0.005217302388498405, -0.03731541327092937, 0.05991983945469684, 0.01624539805478366, 0.017727380286903148, 0.015426743692751701, 0.0054453246783815095, 0.031905857958719065, 0.004189641279598831, 0.06026974062291002, -0.027403875031641267, -0.06204786990277824, 0.027234028034797853, 0.0071538742830649345, -0.036152991512733434, 0.04179591106832055, 0.07408978071966084, -0.07925440639856607, -0.050070429542820205, -0.015596327462749249, -0.024631287768290887, -0.031742037472963266, -0.035459559373561926, 0.015159955120587779, -0.012375707111624074, -0.05626113654400601, 0.02944168683576853, -0.049802891102049274, 0.012988063682855258, -0.008793265997171843, -0.040146596221782044, 0.021409489846433427, -0.022358883065390023, -0.009932301844494854, -0.04526635343314353, 0.04296623693059009, 0.04711345237442927, -0.054988997952200476, 0.036808642894489596], [0.0335433649324921, -0.03600290187970076, 0.0032201941015756173, 0.043681991080539065, 0.08442796425951943, 0.022381243895385677, -0.01332035521074196, 0.026494621816941843, -0.02831271395330259, 0.0647703898108215, -0.0011548442650217894, 0.024797534594183154, 0.0596642499298865, 0.02149174620592648, -0.08437527025601142, 0.01852471793338345, -0.012534298727547008, -0.0019486043444183537, 0.0213878783447672, -0.002938217160985916, 0.019894670800955458, 0.05535410782638643, 0.009598016504503511, -0.0458666949671576, 0.029374256379970917, -0.0028332639523977357, 0.0410086472734555, 0.009130213600119992, 0.017602535913405278, 0.023357570999088282, -0.021413849146396054, -0.014261538974235918, -0.011526671268968846, -0.0011109384735330508, -0.03706460593790042, -0.016044333059642348, 0.021001890072884197, 0.06420485617096582, -0.02179183135562157, 0.019937299758192206, -0.023981465808233227, 0.05987352875519506, -0.059040829494858914, 0.001605213614891494, -0.0018771135198067071, 0.005831227861080591, -0.014302439030931334, 0.030904920823562488, 0.06658848338643437, 0.02348795191911132, 0.023981642866457153, 0.03211109076336388, 0.02296091958337036, 0.011966151985988006, -0.04322422044837088, 0.0074696286718645265, -0.022233776272798184, -0.0036800070892074157, -0.04422988902084426, 0.019976331388979175, -0.017164314291344938, 0.06441966193093684, 0.040631377554718205, 0.060275958511231784, 0.007908921025404875, 0.0002535984141524297, 0.035438046532449745, 0.017974319282153005, 0.011426085003959528, 0.0410211388674926, -0.01174186201187, 0.004368803422299478, -0.01716118576864325, 0.00862238763196957, 0.05230777482447208, 0.043342440568689536, 0.0370627842928335, 0.06620345099473757, 0.017900278653366315, 0.016324125207513616, 0.004997147634343201, 0.010153484806032675, 0.04652818506124044, 0.008633853874079262, 0.07551975470006979, -0.01125228621554934, -0.07769459827195595, 0.014780682738903804, -0.02596262035915731, -0.016282431228027566, -0.013802844884578747, 0.008558526696948154, 0.029198769912858382, -0.01970252463330753, -0.08829602684217909, -0.0033656580328911313, -0.040933009127616125, -0.023355449991988828, 0.07494273276017047, 0.01771062052232624, 0.05071270885803883, -0.04848097677457435, 0.004926195686243208, 0.019375155922934425, 0.08395695656552274, 0.042131171343323844, -0.048274275703985084, 0.03174213654531957, 0.00022140986115898166, -0.022850680660751913, 0.007543718589164024, 0.05687618320491005, -0.03714495676176071, -0.01943127938567324, -0.015701724953545822, 0.07183175496820726, -0.045353544264274626, 0.08504413813363103, 0.029025795131018106, -0.016415193775833604, -0.012449921257348848, -0.007543307720531831, 0.009633741094347099, 0.0030777136727012915, 0.01559084953540926, 0.06257507962533457, 0.03643994480746062, 0.02994133481291967, 0.03375227259160101, -0.012563546472872587, -0.010335868129991993, 0.017279213113067564, 0.0027276080525597142, 0.070487646211908, -0.010729977972822054, 0.032402935798904756, 0.02686047319948643, 0.01590461278094747, -0.001511495520840886, -0.005091583850641123, -0.03665888898722347, -0.0843689527224974, 0.03877181960682014, -0.0027133315532811815, 0.008240001216936538, 0.06472384736350853, -0.004168425079359608, 0.015237966529209885, 0.023480593836373773, -0.018745099733244182, 0.01447708770525802, -0.008381427828960132, -0.04915800357248017, 0.030773946507781598, 0.023194379955381133, 0.04257156693398, 0.04978400565997131, 0.04547873442468446, 0.12144654933592053, 0.0506121208864031, -0.033173202691756234, -0.12100967689063571, -0.1059634166285316, -0.0372889451446648, -0.11055487881366213, -0.035238834016928296, -0.06015850758195311, -0.026833712311523216, -0.03723153023666609, 0.03402669632750697, -0.015261883804984175, -0.0075568292945330864, 0.02530556500310706, 0.007861863424694837, -0.02948871426242323, -0.11101085820298222, -0.05305253840068069, -0.0711788796960032, -0.11957105355191311, -0.025540394167824183, -0.00587107695567369, -0.07761044658197182, 0.024812810299162224, -0.023204383769162916, 0.041934358720279764, 0.09563778600695853, 0.07979235379169401, -0.013323496174094798, -0.08797846374171778, -0.10324609186884474, -0.12484564349619151, -0.18867468052307493, -0.039972800567996424, -0.03114934708858029, 0.026201593509957044, 0.020607315677247093, -0.035541168927190024, 0.0500385675654887, 0.01858559834052185, -0.02056414397867197, -0.02318736197629101, -0.0411280130175865, -0.14076578014303406, -0.07573912457449723, -0.09497361708664294, -0.002432592241329971, -0.1525143045969984, -0.10051325666782368, -0.06837248070657007, -0.10007525182306481, -0.05195828130279315, -0.01229941769996552, 0.049237242511335655, 0.04977097548338265, -0.031844878686293966, 0.0034920172904995632, 0.008691108346238584, -0.17069692434042175, -0.11505954059832132, -0.09980902270364132, -0.06704476256295668, -0.028570656099987404, -0.06809989499946739, -0.03343752545699472, -0.060919627415070385, 0.004563334785623079, -0.07438971577612062, 0.009600242831281114, -0.015422536496684876, 0.00950134783596529, -0.10418068756557075, -0.10790271995127187, 0.05546173622949465, -0.0412247516098212, -0.10957276800745963, -0.17144030389170267, -0.1797339737897581, -0.08080035218281889, -0.07602386996296388, -0.0018567290088819246, 0.00693921261040091, -0.01841718819702003, -0.05940796422235509, -0.07612147856693217, -0.05707598020301525, -0.06263597133981187, -0.16662982434962445, -0.08005237773803198, 0.02568192823075853, -0.05602170158711403, 0.007015883690667713, -0.011891626950903626, 0.028594563062331012, -0.044542619310633566, -0.01586536401632942, -0.0040229456549287735, 0.014497147655873972, 0.07377301676852495, 0.024604071881037422, -0.0004413335586518144, -0.022712227493689837, 0.02298701615848259, 0.02736183697666116, 0.028558054027685728, -0.07830949558999632, 0.016263900682490326, 0.07702824811442074, 0.05977870289649626, 0.08846550926942007, -0.06597869071981584, -0.13310452992090124, -0.02398700306915087, -0.05316652990139462, -0.08202248305917832, -0.10951078317443606, -0.05085332080012191, 0.03965270828736115, -0.03359193683971814, -0.04120521453651324, -0.0406423517955508, 0.054393315660702005, 0.05342131912562833, 0.018362839955197986, -0.01647573960140994, 0.05899459433015081, 0.14644366198684322, 0.12310352845534349, 0.12597947286771752, 0.08492710640745783, 0.19333507981077694, 0.17219619169610884, 0.14540707719147142, 0.23869682951304003, 0.19680618441561554, 0.2257696366163944, 0.04608312472038604, -0.03224486533688197, -0.1306838540438026, -0.1081578571012058, -0.06835747779479122, -0.036483135567741104, -0.05765727386076432, -0.07684590543265388, -0.03800846179702168, 0.011184549430097987, -0.06217669064028663, -0.013069893169190935, -0.05317583780330621, 0.07377281368080299, 0.029476290347596933, 0.05323663842088194, 0.038039158167810894, 0.1388904718272827, 0.2069489407810278, 0.2043029434381806, 0.1252957991540497, 0.2182731458739521, 0.20590637341394682, 0.25370202811146436, 0.2746807841752352, 0.20718804726325848, 0.1275977659253157, -0.0052965370342430785, 0.013665153936014966, -0.05780925796585605, -0.054142083476608864, 0.0037696310451727443, -0.10068715595038814, -0.03138841981641766, -0.00020901845519938033, -0.0008187004942847872, -0.05195938935498915, -0.012800828320220975, -0.05506092967131033, -0.03129977288737017, 0.05706771475177004, -0.031139346786510206, -0.00849328858288975, 0.07428739507208708, 0.07680637073408156, 0.15972583781032473, 0.24963153341456856, 0.31351245850322274, 0.27140272535375576, 0.2495985415995786, 0.34299139096590636, 0.2020834716755762, 0.1997554069853272, 0.009203450484754204, -0.0626793595707122, -0.02349914288563257, 0.08748102443399662, -0.060239368537179344, -0.013315572464471355, -0.033300395821250474, 0.026512127575184535, -0.011166661400876104, -0.018163536576520332, 0.028240756652993013, 0.142029082936198, 0.0013538049068085893, -0.054696573858978255, -0.07861047206886793, -0.04168051518225064, -0.09703967288616773, 0.03495831903226569, 0.014534253925433484, 0.0646738518801025, 0.14554028343922457, 0.2706311028682563, 0.2715350078416455, 0.3158209625719226, 0.22901644170902433, 0.2716247816417603, 0.0938912716382335, 0.05499514221816002, 0.004098896271338872, -0.14230420468435814, -0.07387505639020145, 0.060361105499096464, -0.03538671788801132, 0.11430648998345888, 0.050010169452415876, 0.10851930616972592, 0.028242441504062184, 0.04584581634087576, 0.096640805872556, 0.12859149413905568, -0.05350427516401039, -0.05810127071259705, -0.0445448535927848, 0.0012116683844363436, -0.005712340517921162, 0.038510586115660134, 0.003036884285410911, 0.04017465529350332, 0.15623206789279753, 0.19075846851660583, 0.21790941695970142, 0.22594656040204522, 0.18120049842337171, 0.06408958429553345, -0.03880772345431711, -0.11495773106009283, -0.19794227569399894, -0.10292600517923159, -0.031198828947602876, -0.07131773871868266, -0.010323695088787594, 0.025491423221632455, 0.08054335490502446, 0.11487381717180728, 0.070942859774469, 0.14365824381027323, 0.05322414809255028, 0.058920251243207745, 0.008567231194930759, -0.05532120375077756, 0.02993183932081259, -0.03946910331889493, 0.00396709546261314, 0.036236200769286325, 0.05012856864027783, -0.043623050113962815, 0.0425110399950601, 0.05416148968502688, 0.025662506720551412, 0.1262849055849702, 0.11869209217554223, -0.03547336329450798, -0.12097888942156289, -0.16018393976002748, -0.13286573634917914, -0.05389074223958101, -0.06754463775162482, -0.06178398012049128, -0.004393960616128337, 0.06983598288445952, 0.05181787277248062, 0.013246361724432977, 0.07795700040550736, 0.015745821778593787, 0.04615419149502769, 0.05342601085742767, 0.007584279438062998, 0.010503783482539662, -0.0006179582757500236, -0.0034643531719138277, 0.01893405373225683, 0.0021337487517424504, 0.027030522312021417, -0.053027249147677764, -0.01529260431370271, 0.05973649777470668, 0.004167441153173894, -0.051210408420076244, -0.04072683747547946, -0.12858353052588037, -0.20245989973409875, -0.2533445831737994, -0.07262054426457457, -0.0456189329224191, 0.024412859450416866, 0.040608798186635306, -0.04481458603210416, -0.056920714910088314, -0.07003488285946237, -0.013493883410533685, 0.004755854080985121, -0.022549052622892803, 0.045874357703652134, 0.0024827898407743655, 0.02034452082898727, 0.03930485784192829, -0.00016274607735519797, 0.012289360762140409, 0.00625929686373524, -0.020004782634989608, 0.011141573929475752, 0.023391958711435946, -0.08278755216653821, -0.053419546033326985, -0.11418457512153474, -0.0963206947086548, -0.15406609611489522, -0.20485044427505247, -0.1881460541802872, -0.12320531857893291, -0.01932433439475487, 0.05379873345741003, 0.024851510431411778, -0.011159768037828538, 0.0026053478017820774, 0.0037021111139841694, -0.03906678810478195, -0.0073732409858366455, 0.020636219332821188, -0.028284793984175143, -0.001810242936879504, 0.0030385053606578998, -0.03960655155558053, -0.012938790783203242, -0.07784688861330477, -0.05069374792843705, 0.0036016618347927873, -0.004187098885825117, -0.019761433343161924, -0.06035088591645763, -0.06437414544304627, -0.08918422922356273, -0.09970522262281012, -0.09444531274985478, -0.16499858426479186, -0.14771318052876, -0.16689495259043605, -0.06368870820928603, 0.06662165443579256, 0.08412232231407345, 0.04742231381668363, -0.03096184236866231, -0.031356145269680565, 0.025701306609196044, -0.02572188520133357, -0.10876959309721229, -0.031942168205911024, 0.038057682565816854, -0.0801322927149065, -0.04748594777050807, -0.06601768232815503, 0.004465502600029224, -0.040761467361220716, -0.09162644836707982, 0.05661495655683467, -0.03002548187034566, -0.0070258509148030885, -0.044783356968645875, -0.10718542712757123, -0.10049592787637698, -0.09266930243409806, -0.1681264670996036, -0.18657653994400553, -0.12728348795292677, -0.027882680630547645, 0.07337315730752464, 0.12978994274069824, 0.04478445757257266, 0.06197132404929659, 0.05283924161993195, 0.032805977399657744, -0.033902875343710816, 0.009717255428384582, -0.02697374484569293, -0.04329073756774548, 0.006484492327323194, -0.02442824850141587, -0.057464582122206474, -0.06019213786022576, -0.05646115700104673, -0.04688842515553786, 0.010403696329430367, 0.051978843461834956, 0.019593890105080395, -0.051385834096417525, -0.10026509453364366, -0.09451017470160532, -0.03181948913102863, 0.026448571722460765, -0.20549897525714636, -0.24340247445805788, -0.099067780154686, 0.014303320149572, 0.017359174715769705, 0.1104358857244581, 0.00218266348120946, 0.1115696627286812, 0.05352123349619356, 0.12351773098136097, 0.08144555441967948, 0.06256510935830085, -0.050134511573251064, -0.05605362612517139, 0.0038070400058585027, 0.010401243497948206, -0.024395658452609974, -0.04747405844320939, -0.036199708995858663, -0.07015042770726225, 0.0044330971339287, -0.017802171442844475, -0.08596984369992773, 0.017933657007380255, -0.02334482344930976, -0.002499894909651932, -0.009142817161229968, -0.13705835734423522, -0.13381810436993732, -0.09713807952882365, 0.023707341565761323, -0.009747817254811015, 0.014809104925318084, -0.06505539441001133, 0.0013315085468799971, 0.06794207609004323, 0.07688163368065684, 0.04883266565650746, -0.014032952491562762, -0.020675975072980548, -0.07212684410852234, -0.03739360773506734, 0.03868487602552468, -0.03256421217680639, -0.045956258159931075, 0.03339698868642955, 0.021093702255590114, -0.03197834796139911, 