{"construction": {"0": {"name": "Flatten", "params": [[28, 28]]}, "1": {"name": "FullyConnected", "params": [784, 30, "object>>activation", "object>>regularization"], "activation": {"name": "tanh", "params": []}, "regularization": {"name": "L2Regularization", "params": [3e-05]}}, "2": {"name": "FullyConnected", "params": [30, 30, "object>>activation", "object>>regularization"], "activation": {"name": "tanh", "params": []}, "regularization": {"name": "L2Regularization", "params": [3e-05]}}, "3": {"name": "FullyConnected", "params": [30, 10, "object>>activation", "object>>regularization"], "activation": {"name": "Softmax", "params": []}, "regularization": {"name": "L2Regularization", "params": [3e-05]}}, "num_layers": 4}, "data": {"0": {}, "1": {"weights": [[0.025142461836441782, 0.01019778001456138, -0.0413365615838676, -0.012998694775128505, -0.019678994639456496, 0.011553759160868515, 0.012392629799197972, -0.005387096181188189, 0.03847445441448309, -0.022145755279841174, -0.024985430538363784, 0.04477019511808488, 0.03526367248218203, 0.024481053887182806, 0.024381327039926324, 0.040968973791676924, 0.039973941190081304, -0.02012029260608147, 0.008784662785370285, -0.03270173757962157, 0.06347050674950502, 0.06106717060010195, 0.0453547690776551, 0.06793631050148419, 0.05279924338307893, 0.04042090512263206, -0.03411346874918318, -0.01975671082753009, -0.018940678930896994, 0.05990090910432071, 0.01823901447598965, 0.04782616730439214, 0.025566326159717427, -0.030816068529759964, -0.04506772625341629, 0.02488924778060629, -0.01643299873290141, 0.02570553658499091, 0.09348677237084531, -0.04874321882605282, -0.011267199576376084, 0.0026966216773232137, -0.05607604879052778, 0.015079274680465044, 0.0004333221576517433, 0.03384038502212028, -0.0020651237181596627, 0.0038843040568832705, -0.061504448550942004, -0.03831019141910299, -0.011621428984217549, -0.0441245823829858, 0.023854856890094873, 0.0692123266657121, -0.002072845745615381, 0.03409305798965358, 0.03576234103511504, -0.013807685431688334, 0.07229256161546342, 0.01247808528762907, 0.004331536943297738, -0.00781685992953138, -0.0028913691947603723, 0.05196883564723925, 0.022799108168183396, -0.03352579065354884, -0.010903545178418258, 0.026539743736512075, 0.027235908042303594, 0.036498903270453006, 0.02204900308283424, 0.008480398581681729, 0.06193277738115913, 0.026369476197636008, 0.058753886296941116, -0.031747784500827235, 0.0694267997852412, -0.028010617421838357, 0.040306378212164595, -0.05089586121479149, -0.04998706093951591, -0.0035475742457190254, 0.02441803171726124, 0.04695403749080111, -0.00026943257191225584, 0.0170197509625673, 0.0027086658882441513, -0.019178193510397127, -0.023095200584441623, 0.03233205651364111, -0.05852442801947512, 0.013168750093005605, 0.10565059535032799, 0.0804993629210141, 0.14029118403683669, 0.03512309339157786, 0.10793844735153514, 0.14296593103061234, 0.04723846870235737, 0.19379567393596298, 0.12777244294423787, 0.07048179231549526, 0.04973616770183549, 0.06425014242250011, 0.007856184983045824, -0.035423586238554856, -0.06010278539110746, -0.04148318098537965, -0.016895927261252892, 0.0025005149384672897, -0.0025628735789069504, 0.01089090954648379, -0.06918112913931658, -0.014987228699421602, 0.08338979670248223, -0.0009324384379621783, 0.07582334411409386, -0.037971005882726734, -0.010455307457759598, -0.03029802671871984, -0.011822002690827506, 0.022246693390523518, 0.07743811965628027, 0.04728181323548607, -0.05394165816198164, -0.0128052579222686, 0.002594436995767855, 0.10336762029270803, 0.10335395323054482, 0.04193800490786077, -0.036451837903045896, -0.0721921562811555, -0.028159300629727428, -0.06395587070992705, -0.10891106822395294, -0.09873740124731269, 0.0065342194209704425, -0.036032457883926096, 0.04674312710396999, -0.030040287833047567, -0.029628787507490092, 0.009037823013428464, 0.016122700738424103, 0.021466966888290435, -0.07538724480784263, -0.05212566833815753, -0.08976580454924675, -0.016912115141099453, -0.13163703938500385, -0.05237267180498405, -0.04131187891249114, -0.02313039587022047, -0.12576797222188563, -0.07597975930415987, -0.029390051747297988, -0.0418827965232696, -0.01583126275564971, 0.04591483037016422, 0.042409300856214534, -0.0794709421402431, -0.06818164567492478, 0.03146048034992935, 0.09754458895784243, -0.03550311641888012, -0.000886548542029075, -0.026468660088994452, 0.06815540609572358, 0.004009791937742934, 0.03349411983080805, 0.004341057417731969, -0.01396306121251219, 0.009366363054907078, -0.007750701876412599, -0.003136788938400445, -0.04604898258161307, -0.001262088426044429, -0.050321027294670057, -0.07301959383990393, 0.05281063271619584, -0.051771943104953776, 0.028234730344163312, 0.03905188904233635, 0.04065827620539845, 0.04222774671848616, -0.024343528517204217, -0.011664345416449009, -0.019846874397032394, 0.05816991005658807, 0.08259005718404328, 0.09721794527754835, 0.05713036421687527, -0.02712552080592153, 0.057699877356103296, -0.052665557508758495, 0.03201565697507549, 0.021771504485364267, 0.0533641429908311, -0.006697992031242629, -0.012041918829483663, -0.06303690733150409, -0.061897173135229105, -0.03846428736462044, -0.07053793371075212, 0.06337232476548454, 0.08007021639759959, 0.057176059841959115, 0.08000328160458582, 0.07898742244735935, -0.00027316916161415546, -0.034126067466887525, 0.036725707214988294, 0.03863562434443008, 0.023506451586041532, -0.05492895371200959, 0.09367165113099962, 0.033120412320305694, 0.005874196454013369, 0.06550373119187318, 0.08527262890829353, 0.051409818846299984, -0.0260159214384785, 0.028252861714624246, -0.00516687304269059, -0.007065852734799012, -0.027642528656609183, 0.016385189740360667, -0.05234134316146441, -0.006977796979335683, -0.012000354334073189, -0.03896435405030419, -0.037087425602030544, -0.02962260571468464, -0.010545158076017332, -0.02178196923685289, -0.06932257321911092, -0.003215396733026417, 0.014412210913775791, 0.04605655549172921, -0.05228518381873427, -0.0437240189184573, 0.0863118037928744, 0.01723479807888744, -0.029354647591764666, 0.09713946758995816, -0.013489640355352307, 0.03264972139556933, 0.18678039570504082, 0.12318451064713172, -0.0028580863941168747, -0.004823382427468256, -0.03566459737312935, 0.022087368624229938, 0.0033254268521032532, 0.019227655145921566, -0.03949214014375848, 0.04456271663173609, 0.006338407658686835, -0.02097442226655728, -0.028726791655345602, 0.003403138528648439, 0.022302021631099758, -0.08141662579393937, -0.033822934777501014, 0.023959975464311896, 0.0625915131272162, 0.010739390918915246, 0.0316945533988351, -0.0338960484300493, -0.011227134149174778, -0.009353563842528608, -0.010904214683163714, 0.0013350159564180003, -0.04255625017433257, -0.021926391973403254, 0.09768742476370045, 0.1391452508564913, 0.012641276697107798, 0.010864067725489437, -0.0017595193145525491, -0.06911206048802122, 0.023708683359662027, -0.024223656515756364, 0.022469018723335777, 0.04934944855880996, 0.029503902597832976, -0.10265395422458883, -0.06933753520609269, -0.03978785873943302, -0.04328056173946939, -0.04524443970830502, -0.01010877225068946, -0.026595437172187222, -0.011037902455738706, 0.1210932769420561, 0.10384539010742788, 0.014132737470829392, -0.0067914460152685005, -0.04761514322862197, -0.05977083368672193, -0.023308504705697983, -0.06359992032423213, -0.052019237775006326, 0.07106722237201964, 0.05515348466128134, 0.07458522002150808, 0.027928944736809472, 0.06336200523337587, 0.02120460573721526, 0.00470269837079018, -0.017152022087901436, -0.056611473048174585, 0.040649637941643224, -0.011118364420091582, -0.08664127316808852, -0.20229072459429917, -0.1516677086962691, -0.08071044670877206, -0.08606961916830551, -0.08363998161639732, -0.1062177759714508, -0.023448407503850487, 0.20193388875190632, 0.19920323257263747, 0.027963269118095484, -0.10529342274422655, -0.20554640324395373, -0.08786178340086416, -0.07323274922295796, -0.12041495817039699, -0.047605688318261376, 0.023280574289685788, 0.0986600566908959, 0.08491862868838909, 0.02660926536912645, 0.10941590913707108, 0.033303321036320055, -0.009341196090239671, -0.057642228359153155, -0.0012580019686883501, 0.005067428707342358, -0.021010768658332468, -0.06400113969085792, -0.021671382704688345, -0.033365563005240816, -0.11329081885098499, -0.07980409542439225, -0.08168231589217617, -0.046741902898225544, -0.007451916204331161, 0.20261714265166944, 0.27817622440559975, 0.05344698213317863, -0.14678879726874236, -0.16936675312433705, -0.04943898054544399, -0.12973496044092955, -0.10925650400458438, -0.12371917113837923, -0.047261095874212344, 0.03467010369617929, 0.10745434838651305, 0.11667055919566935, -0.02947308174920527, -0.05716442247114347, -0.024981512115874762, 0.010713001364437763, -0.015494622638548144, 0.017540370662962112, -0.1546224632482841, -0.06334943142083307, 0.028259838101843553, -0.01864564051018628, -0.014822850935903447, -0.01670816787040971, -0.09805646292090202, -0.07163634674312572, 0.10562630818991404, 0.3095105337533526, 0.14799938140223434, -0.007860260407326519, -0.1575585819413994, -0.16956294710527958, 0.02897816524017308, -0.058261846507430555, -0.0006444785748536416, -0.09895136350926506, -0.08695290955938366, 0.02045376630081836, 0.16781458910470617, 0.06084181096000822, -0.001999436922482309, -0.009564688414544087, -0.061604967609686714, 0.050621640872072216, 0.007190736786790558, 0.02242441570072654, -0.08497433912861461, -0.031005864523032133, 0.08902755369570114, -0.025481079819294834, -0.023599315044802643, 0.04504030535581901, 6.602588681236439e-05, 0.04527257935069133, 0.19010814415970528, 0.23933857533168099, 0.06497412854936883, -0.07215880133421207, -0.1282099037298891, -0.1714970863652535, -0.07543986182336708, -0.08753209792622212, -0.09866398434147496, -0.06323691655786877, -0.08942321480805658, 0.11999008272495239, 0.09517604640095782, 0.013140226980164881, -0.010969182788308718, -0.03222782365876861, 0.052097679525532084, 0.0045576037232549875, -0.04795539458358365, -0.03283990770196655, -0.047884722948506646, 0.06597024131693095, 0.07810541657068916, 0.0295317038282627, 0.00457707780389031, 0.012119184794608317, 0.026753549898921505, 0.07996780447263785, 0.24205729687519154, 0.24283888934086592, 0.08507410652008608, -0.07490007946345459, -0.13829379347327672, -0.1535483901675881, -0.02937921825604669, -0.13023425524837282, -0.0865883475692918, -0.13696308401666352, -0.09335998326753638, 0.11740458477478162, 0.1383978269221701, 0.06698831018868406, 0.009799865251603802, -0.007523889347888627, -0.0234543739878554, 0.03381870033337283, 0.05712132676906684, 0.03861225924654245, 0.06812509934777654, -0.0007379890971506609, 0.02306321779240313, -0.09885849731908464, -0.10215450037333171, 0.014662460980341357, 0.02713192365720965, 0.15858634372312036, 0.22766559088912888, 0.19914457866556112, 0.06497510754461146, -0.16402383014521238, -0.2054690825836616, -0.10442994554829163, -0.16350011290567368, -0.06486790535922744, -0.07030236095628677, -0.028392828489437652, -0.028949491234178327, 0.056709257747608946, 0.06396802442790377, 0.01276915863641309, 0.05571760577757303, -0.005043404543287733, 0.01574186476706963, 0.025324591236389752, 0.11169466538250818, 0.11749421263059172, 0.1227930108887622, 0.03245985957519507, -0.019833915249469748, -0.1257332360202399, -0.09378713285772958, -0.054934814969143556, 0.030150561981587137, 0.16168920775089546, 0.20930320683631598, 0.14684520418340105, -0.0656847426479859, -0.2894015786505797, -0.18111205838601838, -0.15030309399310454, -0.18555802105246202, 0.00901384363830772, -0.015288668523678548, -0.047341625493230136, 0.07610151730052002, 0.04188455610527037, 0.04859857223275743, -0.019525089200175063, 0.013049467940248066, -0.020288521819696374, 0.03357057237598138, 0.026382422188192707, -0.004038009906876053, 0.07794891635181596, 0.030022361119455804, -0.012620511114884348, -0.039446278501885534, -0.036130602432311185, -0.10980096886130074, 0.03686427401857881, 0.04984758385537858, 0.15307996354532358, 0.22519021434195768, 0.11931905717809019, -0.16117633021730687, -0.1726084369231598, -0.15715755130377715, -0.1497062308694943, -0.15392789071936133, -0.08754508611400752, 0.012736639647129452, -0.04754236760304161, -0.004504359831705316, 0.03433836862352063, -0.0013912897353871288, 0.008927231415887764, 0.03117817125993045, -0.014196247700254058, 0.011649099237770336, 0.07327839394521281, 0.04255789808981902, 0.02860341883851411, 0.004504281840614797, -0.07744053291307647, -0.03230689494335615, -0.06954762467672473, 0.020726919351642406, 0.04574028229369531, 0.14980117781418661, 0.1402522330290454, 0.1627248581177383, 0.04037019802332702, -0.16225231161510223, -0.19176233545509178, -0.11177588050647777, 0.005208350718156747, 0.021719577578858375, -0.04911180998321911, 0.07452794669382586, 0.03439670502609612, 0.03925484081579052, 0.06998134515321795, -0.0798868453230158, 0.01193745557021078, 0.025623002413464938, 0.008234131713419156, 0.02643865384669235, 0.038253833763092396, -0.09717271520099628, 0.01780098730821196, -0.04668779081316819, -0.008825805607891021, -0.0366571019887455, -0.03327972968308922, -0.007122728054820095, 0.13321747905774317, 0.14972323101297372, 0.14611413951868665, 0.07786406992405936, 0.020793033380165245, -0.056453261504247405, -0.007208045709246986, -0.050445848081879754, -0.00999274450640447, 0.012119013142553998, -0.04577305951521284, 0.06648203069103362, 0.09831718365888764, 0.12320225022862649, 0.034246007669067394, -0.03617548418626994, -0.01573970812251949, -0.002295915979918898, -0.0012357081836520084, -0.009607039740594287, -0.013872067987453144, 0.03775008249714899, 0.0514219003700989, 0.015045397283098613, -0.06992032769146611, 0.09143027930806488, 0.1006843204679736, 0.0519388038130842, 0.04866256883155172, 0.06059508207922447, 0.09042136130682435, 0.025812223411176807, 0.015094992770790152, 0.12172643409493208, 0.027124622262328382, -0.07600925951006068, -0.016103227924364687, 0.04511366348363564, -0.03466743161690971, -0.017616273064208116, 0.05520851038577466, 0.047253958555189796, -0.03134508227990046, -0.044625414149644, -0.04975948149324989, 0.02814853059935152, -0.030310891439453452, 0.0030495191808960678, -0.02045815718044892, -0.001441124754738032, -0.016307036098849256, -0.01088733171808051, 0.08654059455984447, 0.0777596333318646, 0.07152213174259019, 0.03467714368913877, 0.05667889798674754, -0.07200559466702461, -0.0016750422824445754, -0.02823223332425761, -0.0039976238496859644, 0.09049175262313161, 0.016949643859295455, 0.04008182637768937, -0.012324109588318054, -0.02472434029307336, 0.022606737800493364, -0.028513514052431414, 0.06452342375935839, 0.09502847066550246, 0.007969981845524877, -0.06286883997692483, -0.045049843244480525, 0.0011156323826119507, -0.016684763550997277, 0.021655668896545934, 0.016569181954088887, 0.09644398589814339, 0.014861872815402412, 0.061806001728637136, 0.13163911527072505, 0.14320915309661875, 0.07828311734427018, 0.11194644532721235, 0.05384667523893308, 0.02730779725638107, 0.0347693413361277, 0.006067972516149488, 0.00872897715988317, 0.03974842054514963, 0.05849389822938307, 0.1306234406372736, 0.06478607207201566, -0.01578538741534156, 0.004709939052213155, -0.01646249905151512, -0.011426417646459802, 0.024372788205141063, 0.03929763586729796, -0.016246058661359166, -0.006383239683515966, -0.036960366712963016, -0.021945396257408337, -0.0020912288193574487, 0.015104277135005353, 0.03121567816044144, -0.06509976233051372, 0.006470722448730331, 0.07890159822149032, 0.04696217192207003, 0.01100327078724644, -0.019088745272619202, -0.0034280293446338115, -0.05989233110492768, 0.05317360891142637, 0.0966593389648255, 0.09384441178827592, 0.09289283264313031, 0.07138625768411593, 0.1668638257352613, 0.0902432093072782, 0.09304654123597401, -0.0028423915130086426, -0.03304676850995195, -0.030554174003367195, 0.016917639149376953, 0.05257972282941755, 0.023832971749005616, -0.0025306710200431455, -0.0011920654089310717, 0.021520033398032296, -0.016376530483656792, 0.028124325669563265, 0.02827038051427827, 0.03832011615597765, -0.037278276296418895, -0.027205738730063714, 0.0032889664279871964, 0.015578389610152794, -0.03551099548665314, -0.019926625730100945, 0.06429587022733116, -0.08029344605273944, -0.09590955181168379, 0.03622606099432422, -0.021464394492516418, -0.02706899518886622, -0.015024972772692128, 0.07733275209635912, -0.04356852269289021, -0.004999636895060866, -0.019781870280460096, -0.0006183203810158086, 0.03218301750702734, 0.08768260885840631, 0.030822531304855395, -0.018826054988454435, -0.015969442610220153, 0.006631631063459963, 0.012479551396167072, 0.023983303688746554, 0.022345990255305582, -0.045128425489111834, -0.017814794525543555, -0.00056553052625221, 0.018075413779939282, -0.05508906824752088, -0.029052333476183845, -0.05916268496038507, -0.05214077950284128, -0.05228086196537068, -0.0733037270085424, -0.14006505856716303, -0.08540675372663807, -0.06747790918369564, -0.012728953793030831, -0.10380478681530197, -0.03213254895602173, 0.007986465835749836, -0.05810807016601265, -0.010155722281849399, -0.017669207435784137, -0.015821931056586976, -0.011250794015243927, 0.06544481716924118, -0.021784371934822713, 0.07825652248391458, 0.009203731219706647, -0.09800173944344001, -0.03378101889039838, 0.00856424094389211, 0.0016200421184625513, 0.05642485840112819, -0.02880649559817363, 0.02855605144619103, 0.004108482556988047, -0.03473592143572257, 0.01195314231053833, -0.06577555421055885, 0.021503820996786056, 0.008379957566512511, -0.05808529390369043, -0.025397162022676348, 0.03448846144019704, -0.046605480878258124, -0.04964571623867582, 0.025473536643443068, -0.019119323704335615, 0.04156098306157919, -0.047989374592558184, -0.01556373670293603, 0.018611892460684083, 0.021908744649436495, -0.011648357841250429, 0.030121222160276268], [-0.006479294741629881, -0.02554005298979673, 0.006865791243520972, 0.05726456166259155, -0.029704842881334105, 0.011164514467018698, -0.003058441916000763, 0.020539313841416874, -0.015598856448674982, -0.01466084744385507, -0.023677186145011755, -0.023451612026555223, -0.025803430598577228, 0.031909153529306476, -0.012458351603594191, 0.009069514752374061, -0.016394867384334856, 0.03560429002682195, 0.01307312082543506, -0.029761772749233268, 0.08836784257214617, 0.04942649184771806, -0.02737447805246507, -0.03450576510567955, -0.021713697796935418, -0.03747182652943111, 0.029148700126230324, 0.01096093684116106, 0.0017043174549942462, 0.02177180180806315, 0.0038703636452496735, -0.005076538082166233, 0.006622393406424735, -0.010734267462974874, 0.01831063968430359, -0.010148902164992389, 0.02860754170404243, 0.027421991545375626, 0.04625450103471852, 0.011281859863832316, 0.023145106687124033, 0.011661325310272981, 0.031609792412826444, -0.01899682447683729, -0.03674504310415219, -0.021899497981773104, -0.032188918902047566, 0.009217611184189883, 0.00043303407268576393, 3.81752708038392e-05, 0.007949379241569859, -0.06812661759631318, 0.029069410180962364, -0.02396996044176254, 0.015356706014765327, -0.012697738204510835, -0.052470214870473486, -0.035957081869681745, 0.022344415936668322, -0.0626381126089103, 0.03179736353066835, 0.057563204241407144, 0.06380536801581342, -0.0366052634752986, -0.011203000901766909, -0.03494697016955859, -0.06577427468025454, -0.037843722581884516, -0.07194991098277845, -0.058252329844696214, -0.0019563579897782816, 0.04548528704268542, 0.0551202940324417, -0.0001676444847508354, -0.03727679589654658, 0.008435035277813148, 0.04071785124016224, 0.012356149890349008, 0.031734967034526954, -0.055537824475762713, 0.005504864470114691, -0.042343894136019654, 0.01799390867666819, 0.002290273463827108, -0.00551794644813249, -0.08455216582210745, 0.04066725816151385, 0.008448870880982059, -0.013682752342789891, -0.022585457508648654, -0.07384065566823246, -0.022987161059675135, -0.04965993745484548, -0.024422447633921335, -0.10194259360833179, -0.10908786898723168, -0.13456681969643808, -0.14370971813345979, -0.11125757894334247, -0.09745805009822883, -0.038790801904373236, -0.017164350725239075, -0.006141932949381384, 0.03373569211304019, 0.08684241255691771, -0.012625274429943444, 0.006649999698969696, -0.005747627480805649, -0.013088395782726813, -0.037933625916316556, 0.030826723997784748, -0.002134500582114287, 0.08326095285605002, 0.07062488950494461, -0.011019998293740781, 0.02201878801804776, -0.0336223503814117, 0.08597533902932927, -0.005160426421654502, 0.01783326546383436, -0.09171316102635975, -0.11498063095656758, -0.15169824555508452, -0.11230404087512277, -0.13635274309610662, -0.11417887576757821, -0.01075737106275521, -0.08902047458987462, -0.019609008628166436, 0.027292450417834985, 0.03218664049013198, -0.01193319144173075, 0.026005409014195707, -0.03185175358116594, -0.008947228061742436, 0.018323891192810873, 0.01692474888279832, 0.05798951825546298, 0.015327157948825288, 0.09649395622678109, -0.022987426820831425, -0.014340618656175976, 0.02796062173688139, -0.05711680124010202, -0.014356607920964552, -0.038611762321983975, -0.005305575969016068, -0.020242063515832198, -0.12725142322003555, -0.19145816514685987, -0.22796732890228424, -0.14389240678352241, -0.16909489137964182, -0.057454246880345373, 0.06032493388269611, 0.05769771474768736, 0.14999399010324668, 0.031093178909813137, -0.04128952741589907, 0.05542750941541245, 0.009483598521658467, -0.06587173130828586, -0.010429587748958179, -0.08351979573072357, -0.01781060923924216, 0.005696196937258109, 0.008949791107785468, 0.02868811825889605, 0.02770928128706786, 0.02532822785166197, -0.03363577795490619, -0.05339253941266816, -0.012360462447034532, -0.09956612279569434, -0.05600916806454818, -0.0581411881553357, -0.03724687267035134, -0.038788843264684354, -0.0848844413952701, -0.12030458174468932, -0.2311933622716606, -0.029754327785204312, 0.05401795601425851, 0.24642449266857183, 0.19397425555719508, 0.14548436277882523, 0.008525476116507627, -0.06567238140397494, 3.576902170206303e-05, 0.01764935623578763, -0.11273958545610932, -0.0952849623174243, -0.06522560040532353, -0.04330227759903283, -0.017609869254518264, 0.013321513563109351, -0.02322749264594554, -0.026606078394034508, -0.00016426552437433825, -0.07861157399304632, 0.07470396236875153, -0.04302391206251033, 0.006303961402107488, 0.01784211972276139, 0.06708587491169173, -0.06486572555059761, -0.13544289458549802, -0.2135452778819281, -0.14339839960349923, -0.11769117050523299, 0.020584353470215866, 0.29080664406589946, 0.15693665466191528, -0.018574894620376026, -0.03981158303603938, -0.09243341213411622, 0.007250182176460656, -0.027924517996872778, -0.022070550743083953, -0.0426490854687835, -0.1464033148193463, -0.08427102156799399, -0.10372595819783777, -0.02897906382788728, -0.020427112818586154, -0.030444804757763167, -0.009116575367018522, 0.046856082594189497, 0.10177839666371873, 0.020767018152569525, -0.031854518830246065, 0.13642029379247658, 0.048183032531603595, -0.04210935860061478, -0.04388778478609354, -0.15206899471807622, -0.24769189012747939, -0.05240846415054288, 0.0987966913385439, 0.2022119946854432, 0.10068717653571747, -0.038995796012707105, -0.0915970827769224, -0.046456674883487106, -0.02208131250472452, -0.0371310182035985, 0.012338524919934013, -0.017468193822103784, -0.11782129165334224, -0.08579975716677832, -0.007296590556346545, -0.008584379981501888, -0.05051937656693427, 0.018650989919666336, 0.006885870569882416, -0.005896609408824122, 0.04437659574723044, 0.048296431620255695, 0.10566817877518306, 0.13199808158796303, -0.0037137127197231575, -0.016020069474358512, -0.0025235986163441187, -0.186190874665377, -0.223975056824579, -0.02930519470761283, 0.20545577415318791, 0.262562095428335, 0.10274591911350402, -0.05670105380351216, 0.06683223901778483, 0.02246452868662502, -0.015337723529391658, 0.06926926254421517, 0.0789922715078035, 0.06270121119329951, -0.05964380031767852, -0.094545422452577, 0.016911108661765036, -0.010364542626118257, -0.005582145210155564, 0.052375717993014936, 0.0509185612120928, 0.07248647453838417, 0.013350941027990617, 0.08270052921782993, 0.06562213691858937, 0.038954691114445605, -0.0477252778519387, -0.08871695176321417, -0.17633220306424202, -0.19483003212336508, -0.21389924483931616, -5.320190558651801e-05, 0.2637109013450185, 0.23690183334915021, 0.09764605021256112, 0.01248579621767001, 0.0672835473647597, 0.14712845416321862, 0.04599210453785544, 0.04615851498113787, 0.09822688147046019, 0.12945649675688528, -0.05817191479527016, -0.062111213139016914, -0.008829143483375218, 0.009733161766340356, 0.04380762364684184, 0.016467439190991487, -0.018869213841449222, 0.008451859126107769, 0.09254006540754955, 0.08898869439134104, 0.0026364266344542082, -0.03438895260099045, -0.07502781705146776, -0.07251309927791179, -0.11783842256849993, -0.1674429945294338, -0.16899787215798648, 0.2118316742998432, 0.22229650227134026, 0.09126972699315446, -0.06857506093656629, -0.04639724081441799, 0.0086476747401733, 0.07647669592469299, 0.10598409073162197, 0.0755680835415753, 0.1538889333596227, -0.026083682575899356, -0.0007275765061978043, -0.0023640647889021705, 0.045590505847025085, -0.03603585411850633, -0.01990392461634523, -0.07238749255865565, -0.009474339579883957, 0.06253893839578682, 0.08056720318381769, 0.01086139673388733, -0.03356109690096536, -0.07283515771894768, -0.08665380640993971, -0.12259347651728757, -0.18928338748886983, -0.16376095487457046, -0.07572369420524377, 0.19619776870221756, 0.18436279093431543, 0.09070414212091618, -0.02325967317370857, -0.06377644032384591, -0.05234413484799662, 0.06194048267925979, 0.07735401150057175, 0.0047993107399305, -0.024727515566660703, -0.11175992456314503, -0.02926849962880334, 0.02872036099502901, 0.007098203180670016, -0.030493654945575075, 0.04820148905112349, 0.03465722064060014, -0.012931537369000441, 0.03314522597188112, -0.06470032917777233, -0.05555552140586544, -0.10774184034517344, -0.10210344326797455, -0.07789200725178663, -0.007779052018165943, -0.0931440152525779, -0.07758483394534245, 0.10297862182239033, 0.1557685195071386, 0.10306133037151645, 0.040035858476595694, 0.056778595243223345, -0.008575836413039656, 0.019032445114099943, 0.0417622399851077, 0.08186808544799715, -0.014947946705208381, -0.05037298927968022, -0.23362647468799777, -0.14292095389004755, 0.022503270090026367, 0.057872882950034434, 0.061531531334486335, 0.02501201228093314, -0.0032529453862254905, 0.019085221087297488, -0.020445273616064897, -0.13742368142911884, -0.1377474770437474, -0.014215981280508222, -0.0287223378403066, -0.02718070958494255, -0.07203672103535197, -0.053203973312449616, 0.0007271109633173762, 0.07225810491622522, 0.07046409273194952, 0.09598046162287352, 0.09633345870449188, 0.04704858088338885, -0.02012617838052597, 0.028109486240475413, -0.01371445006876373, 0.06554749015571468, 0.0360295143307044, -0.1097883610701803, -0.19003587537156658, -0.12942086306588713, 0.08105726663363894, 0.04876193478055663, -0.028766330312747983, -0.020818472032025376, -0.04941619947002566, -0.035377320996239796, -0.02255014798006683, -0.09688470029340433, -0.1283467511078251, 0.008798112603744369, -0.02726078136086404, -0.00311919033994885, -0.04320379117206004, -0.05497667167677248, -0.0021869014969238005, -0.06568165297964529, 0.02955962928599637, 0.1548928418027104, 0.1581355028357915, 0.04785930169600148, 0.037300706162082226, 0.006089961174788648, 0.016556078927910448, -0.012024524192969038, -0.07736134685084067, -0.15725792459888951, -0.20160921913948177, -0.05768590978951434, 0.06525678455422741, 0.06263081255803844, 0.034548361941308524, 0.012960497116651936, 0.0346295765388748, -0.0014219821424502036, -0.027967264184013716, -0.0067601728848847905, -0.13568085511869002, 0.04334341896969706, -0.059129101087611144, -0.04886700621630071, -0.055291619266115, 0.0012183537203477866, -0.0033010261669415447, 0.02736653740954206, 0.059800066463266285, 0.15377903630342438, 0.15788019793623007, 0.17086472081448364, 0.11150286687241281, 0.0813523069322966, -0.00841001246993467, -0.07501402017598736, -0.08129480665456366, -0.07146009547696773, -0.06613044762318002, -0.04897271736511428, 0.07638817123230185, 0.056804244668047225, -0.014106528610595434, -0.02507928958412313, 0.010443790569203533, -0.05697224678185683, -0.023498220214632045, -0.01803244128568761, -0.08216106006798281, -0.06223457000109192, -0.01952501958609793, -0.002505803235076336, -0.034076938094914466, 0.01864955753891637, -0.1063051508664022, -0.05405953128653255, 0.04200792594984974, 0.03878535195254329, 0.1041014215501525, 0.0852985880979547, 0.04289496082143689, -0.05529997065606748, -0.08616950926821679, -0.0617114931128644, -0.14579303336098387, -0.10011883569979715, -0.09577043363752522, 0.009857392597994251, 0.14605312910495416, 0.051666266943305984, -0.015771441522866414, -0.00541030430441859, -0.0043090763561117245, -0.025883905924912548, -0.028114735021374817, -0.07684351178927228, -0.026915524479519934, 0.01372820882421484, -0.059996088628125104, -0.035263252059690615, -0.07618282229234119, 0.04591737337755481, -0.023503720970013103, -0.0019627862996470682, 0.02938716978377699, 0.007389062662112499, 0.07837087385466959, 0.027928037915476094, -0.03207889446665213, -0.049450673119703026, -0.07919951393579928, -0.06495326626816915, -0.026697323105894184, -0.05265855485309802, -0.05463658953376508, 0.03333115458991835, -0.010690517005738222, 0.09376670137825786, 0.06528612868498762, -0.033795168983738674, 0.06056297248814689, -0.10301838338709923, -0.06019645036410535, -0.12601702076401028, -0.08769039268683224, -0.01597776172409013, -0.04199773271702591, 0.023061032840631445, 0.08830004299719793, 0.0813313939755095, 0.03557513287701726, 0.015640982548401922, -0.021436847455594037, -0.010711513791185822, 0.03529075248507176, 0.04316268608533786, -0.08148895164727096, -0.09526594281384161, -0.06401498689542813, -0.013954160662462996, -0.017041688844021838, 0.03209281315798546, 0.05010614464753744, 0.01395933081227529, 0.012808161388243602, 0.00926109411455486, 0.04778771541316408, -0.017490536672703238, -0.02481951179242217, -0.010773162498438703, -0.11616350562817235, -0.13785147147887952, -0.14311790428004098, 0.0060254470479847175, 0.06947144936516687, 0.060642822538402225, 0.018135259989774034, 0.10323157150477812, -0.0217079951567758, -0.013804489345537749, -0.002528133436666618, 0.032309595186582704, -0.033993750840873305, -0.08674297678700474, -0.04330796457568779, -0.03350458691124726, -0.023504743450370114, -0.008503889187081585, -0.029174077470831918, -0.03345043461493512, 0.06269315873238158, 0.06431683976595717, 0.051582898890665925, 0.003807145039377164, -0.03395127170169555, 0.03526513486415514, 0.031487989810555735, 0.009628836172029337, 0.0023881147994113555, -0.09225237743671957, -0.06494631655608868, 0.05789527051955214, 0.059163520811045395, 0.0249802361087735, 0.06936261151610487, -0.007601329083093946, -0.06299116505124064, -0.03330754114425298, -0.05898825384054101, -0.05109031409496926, -0.02859276806833768, -0.061135224397888446, -0.0040604945957031105, -0.029921796266072408, -0.03870645457379331, -0.06558072849255864, -0.01676769819502628, 0.053208364127910905, 0.053392649818678035, 0.07340745694952876, 0.07831884507608639, -0.006363712382127569, 0.004051579296735589, -0.012244688144974853, -0.006648784778509786, 0.06083402327726192, -0.014223635890809596, -0.009097763641414484, -0.0050595933812512, 0.08703327143494136, 0.12046601991276966, 0.1352512936455286, 0.08180742139287088, 0.08292581446810655, -0.06902587590843291, -0.05253619345726826, -0.01797002342027539, -0.0655295077749739, -0.03146732333762874, -0.021072517497103403, 0.012007220184981047, -0.00825956504818212, -0.03370159099218714, 0.009457694836739047, 0.04125099735813443, 0.005892478379763635, 0.020119055361010663, -0.007618675742735449, 0.03748016679699607, 0.004142142479073063, 0.0174687706038344, -0.0341986886909151, 0.045571019706479525, -0.044032312325666866, -0.0363024876163287, 0.013076033293919535, -0.020977061664686342, -0.026933523672061283, 0.017030802481837897, 0.08842848095254649, 0.015072085483506283, 0.006431108233621777, -0.09345578072598508, -0.1431785228090168, -0.1647395508487564, -0.1522960267310209, -0.108638138764149, -0.09258821990370192, 0.010494677520821633, 0.04108509828632951, 0.02438912338041427, 0.018613467340894564, 0.06947669237996307, -0.022454596260052726, 0.010818987882259712, 0.0683729046822399, 0.030093451696004192, -0.010300616287154547, 0.0062157848008107825, 0.004742922544897375, -0.037675825293518296, 0.05722019402405741, -0.03248861095018002, 0.006287173734931149, 0.009685704769677667, 0.05163034490903472, 0.03520569618004527, -0.000623504879504584, 0.013253649373542373, -0.06782250760297591, -0.09870523901967489, -0.18825101102650327, -0.19493786195175017, -0.10834090174578292, -0.1824550967486156, -0.09177714502622324, -0.049650192348379175, -0.03299927963626915, -0.017641318051743408, 0.11073130762548809, 0.062233983001420363, -0.028562220109674828, 0.03625350307929205, -0.03944550505008187, 0.034751390964844676, -0.043760506557308836, 0.02498882847738224, -0.0047841070127541754, -0.006899950211983936, -0.02574032769658946, 0.0132064148590652, 0.0670071974097635, 0.0053710196714673916, -0.0028839608442573503, -0.030382052688355508, -0.008742404650545196, -0.0535271076171612, -0.04826768395480232, -0.036171030206209945, -0.05605183820055984, -0.1081084524863177, -0.0635961943379499, -0.1134924243121528, -0.1413329944807008, -0.017117729379759715, -0.05212493401019494, 0.010977889194969977, 0.0009071092100991976, -0.025986774338010502, -0.08359445344972351, -0.024811541096551395, -0.003894492252080939, -0.051242397577993495, 0.008114800772046902, -0.00237059224834042, -0.005296002239230776, 0.034018767502005984, 0.08415808898158449, -0.035274143013891486, 0.02117658588428809, -0.05385462004513391, -0.007332835466449604, -0.06670711886721897, -0.06613537546005009, 0.03219185263215816, -0.040532640679951645, 0.009234369737201585, -0.04417136995744767, -0.018024957345706426, 0.06495687627306981, 0.014237142367478382, 0.029100415606855976, 0.05586549870913579, -0.027534063393551078, -0.03673050360177507, 0.02181076595527939, 0.017000383659025224, -0.004657466749247979, -0.02870179240805689, 0.02942101216648281, -0.0022255734777738866, -0.012154820760367595, -0.015684968234063106, -0.011012364306654995, -0.03333187507842849, 0.016853464210315347, 0.03389186826031879, 0.031565778148559945, -0.001239528590651091, -0.04064735040238692, -0.033872885698987415, 0.02893622793374994, 0.002669517116112397, -0.024917567929993847, -0.04109352659012395, -0.049330990799277975, 0.05581430574724393, 0.047092730781757, 0.049298282466171704, -0.006213588536361481, 0.06458435983090505, 0.011539955479330108, -0.03180376937280597, 0.04186802893346397, 0.03804202536067837, 0.010813520660440229, 0.029571817386992584, -0.02983414873176011, -0.022077971356509567, 0.02423317170926023, 0.00812760453221021], [-0.038960337294096294, -0.048633247595844635, -0.00034419074536903025, 0.012270773429034227, 0.013060532851077932, -0.02253672988328273, 0.04246630593935156, -0.005549411733539398, -0.03800942310188621, -0.057544753651007766, 0.09074587147015552, -0.07158310543708839, -0.015259744836791595, -0.04473546038589881, -0.08620887055461122, -0.04004360298535532, 0.014497846998372973, 0.03075672330213856, -0.05019544228852889, -0.0170547540608445, -0.014055858114536655, -0.01542283601862252, -0.01828079338387624, 0.059749676027376, 0.010408527766053707, 0.02745558725330772, -0.09466281571199157, 0.01753953956729526, -0.03530551150477017, -0.022690611595663407, -0.01332272978621, 0.023962257877300434, -0.015533392850394708, 0.013902787176508558, 0.003790190945642692, -0.0003897516245945016, -0.02694629293284358, -0.002539567074592938, -0.015727123069781367, -0.019456816727955732, 0.016103016792024794, -0.07069585975737133, -0.06662887151906266, -0.024210678905017186, 0.010561810320114787, -0.02614571451147565, -0.02255398003663515, -0.03879212116586432, -0.06318303602868937, -0.0027068726870362676, -0.006338494569123274, -0.041807387491803266, -0.00013452541387407767, 0.07087280624112262, -0.032113609165356646, 0.03328422855791455, 0.0008826809751593219, -0.016224391701102986, -0.0004189961008654032, -0.010459541082784716, 0.0042608323133799435, 0.016586001265163523, 0.04228863522160814, 0.032641149912028884, -0.01546021087033709, -0.006132571278764812, -0.072580913619054, -0.027290572236903732, 0.020819137405869343, -0.00013465067844586803, -0.022227817551531935, 0.04336085128105777, -0.06780832535438629, 0.012052986968110186, 0.04779653436057574, -0.022396883636037295, 0.034184395525453826, -0.03227320378607516, -0.02171933911149581, -0.02726372900006326, 0.026930506811210068, 0.02395898635193336, -0.009437656177515864, -0.003419115764550684, -0.025377533698606614, -0.04382007724780132, -0.008082413400972033, 0.0024110401772763366, -0.02204337839267448, -0.024443822816430323, -0.008706466335103915, 0.03218451299223553, -0.06309143011013993, -0.07050871996121653, -0.11452939445614463, -0.146175426887072, -0.05652294564494716, -0.057622567595404295, -0.15212500932194037, -0.048338256291172624, -0.15695536144380404, -0.023443635456664794, -0.015305271971041737, 0.04020505448348899, 0.03127162509899982, 0.04492477882197651, 0.010740458931394626, -0.01102417485347837, 0.07364822757756173, -0.0333537910071562, 0.006969455672329441, -0.03596746234105083, 0.011179654864026427, -0.020533681113038438, 0.014193128039177548, -0.0008168507321771697, -0.030959324100609316, -0.008229362317896527, 0.023841398642973136, -0.030367016891264084, -0.16689401817294805, -0.15024827801106386, -0.12169419983703224, -0.02063010939836166, -0.11707039766903532, -0.19492524438778464, -0.11113026253215517, -0.07079940750968362, -0.09252461208615528, -0.03168861553250109, 0.0008121505703011907, 0.05442879913932381, 0.009917846640542122, 0.1022320294650455, 0.096550372553877, 0.0871119385597492, 0.1188153843887669, 0.02003667608347541, 0.03391228268776192, 0.012173231945493851, -0.08127482736986, 0.000567316747466074, 0.02309864529135344, -0.008414692861245559, -0.06208291615446943, -0.04975048722746595, -0.024943185443852, -0.03991798988663353, -0.005936625286245277, -0.03988101142252389, -0.08005961636883059, -0.04516579922638588, -0.06257655340701432, -0.1894756160381585, -0.09443961521236266, -0.14323673310823287, -0.03475246355929253, -0.07169271302972786, 0.005908232481041847, -0.07067843715818707, 0.014876914860034405, 0.032674161260290456, 0.15232044818042675, 0.19731006313886426, 0.16750845671341952, -0.029024148368806856, -0.03872307542577546, -0.01623312414085117, -0.043111488476980805, 0.06697991928738412, -0.0041738301950290935, -0.09255990907576958, -0.03153266068864388, -0.003447944526889977, -0.028284444128046513, -0.07771160794355506, 0.05505271596036069, -0.018387908297815173, -0.061757026157475484, -0.12607141080025455, -0.09945749340010707, -0.03600881952323188, -0.1299727385573055, -0.09243824599226151, -0.20950439272822205, -0.09270310692043844, -0.02276484694475163, 0.05555728415655066, 0.03297783028738428, 0.04171477469602792, 0.040887454513263755, 0.1898382098925759, 0.159295126150123, 0.060807296090591184, 0.06239941381489792, 0.025336631458763522, 0.0631910193779555, -0.016028642243476894, 0.026570321494873657, 0.001901979743121058, -0.012638315536548702, 0.08973913531016922, 0.08849637160801216, 0.030654435903602232, -0.026605343784870124, 0.03852091695284044, 0.027874906842651155, -0.031101828338382938, -0.05777578955822176, -0.13687931682117735, -0.09017884165437035, -0.13130817853659804, -0.11590467342617106, -0.11698194035305035, 0.011577865272058958, -0.06434718223409955, -0.017114726695225384, -0.04958391282639349, 0.06202560504911946, 0.07323687177209826, 0.16917942801614186, 0.09116818161248931, 0.02277733065584658, -0.04407067994882256, 0.03427441604585165, 0.0440940549130179, -0.022865176101040285, 0.07507258361619168, 0.08768673285958195, 0.08746768199920234, 0.086011060538023, 0.12598227652357602, 0.050069105913872945, 0.11161229641629632, 0.044886168313683146, 0.045897947048764445, -0.0037706615925135172, -0.04201518680167529, -0.1013578665169908, -0.17229044503152577, -0.1475907751949415, -0.15837477826859236, -0.07264450246123579, -0.10444670984063255, -0.07307732800940847, -0.08519524200245461, -0.02310327694155689, 0.16758506603507256, 0.2052923676218169, 0.17235743383031557, 0.01415131973098342, 0.022708028622814656, -0.014257598538882199, 0.0691026276753453, 0.01978631599946881, 0.01291630614171118, 0.030950921689045736, 0.018525983732587577, 0.0456167778462844, 0.047482573354787894, 0.07945848194399188, 0.09802789143967082, 0.058979136025579346, 0.06904905518506137, -0.020888635942328256, 0.004919496092414354, -0.07973739317604654, -0.1983839801992399, -0.13432433899369142, -0.12188962406474116, -0.08420963855069372, -0.09020011443889397, -0.10525225766285078, -0.03897621695576676, -0.14326191033235114, 0.09160005861838082, 0.32035484442451245, 0.11807924351724364, -0.017792789308143084, -0.0073958382674935005, -0.010419950336678623, 0.010853275974227278, -0.039634151809347574, -0.019482109655309953, 0.00821869049975211, -0.012421103134058064, -0.07013235483857881, -0.02708326263121341, 0.058169281190355165, 0.08055732762128652, 0.1432762312385398, 0.08782850175930311, 0.12168295372068381, 0.05509205362603224, -0.08402936705448817, -0.07991298504240935, -0.07882126923341609, -0.11572804059996443, -0.07655209649322724, 0.036258900034467086, -0.02104677210718177, -0.03930754454296234, -0.09695515502919114, 0.031218369596308877, 0.25547316716389823, 0.13665870104189348, 0.029174709355643473, 0.01167176751321668, -0.002655108307644298, 0.06224884950859402, 0.08086243889662745, -0.019959793010079982, 0.004450249042177833, -0.07037188114931833, -0.015941826682378372, 0.03163566160818297, -0.017968648004981266, 0.02766693675019449, 0.06212478830579586, 0.12474388814609033, 0.19902343899804165, 0.15146922571427676, -0.04817716013647199, 0.026524851645261648, -0.026926650350069987, -0.14663913242185989, -0.11535695955363233, -0.1097345610804792, -0.12667840371770397, -0.19982142238706802, -0.16340717134836513, -0.02477777113149919, 0.11259913830716634, 0.09746295828501093, 0.049031175708772794, 0.020763348401765844, 0.004204920223451998, 0.0196657567652289, -0.01215164893159275, -0.002811680994390753, -0.010819534599498248, -0.06973363936213521, -0.024820575567523952, 0.07742144071338616, -0.0042285399387354755, 0.03928750462326317, 0.09880870947592237, 0.11153488359219374, 0.19425661324941665, 0.12157253606361026, 0.00794189011651153, -0.04321728836970486, -0.1603852120181667, -0.15061604165514944, -0.09354230668536781, -0.0629216293855931, -0.042211263928790405, -0.08432829731834851, -0.07327637314700321, -0.0907469122517436, 0.03176911287474582, 0.03779211330338441, -0.04453388448998335, -0.018821424850500517, 0.04578474735892197, -0.008788344813593894, -0.004551951990630455, -0.004885202989585494, -0.03860740690474366, -0.03426061085440014, 0.08226657744497849, 0.0047155163040862235, 0.05511799806639779, 0.13387640849529298, 0.16734876601084314, 0.20086590830251996, 0.09376335562822556, -0.03975845789231464, -0.03390369804113877, -0.04349062575713295, -0.18798192927153834, -0.10831887753225636, -0.07263052315061375, -0.06735426280545122, -0.022998165276216693, -0.0846660807338644, -0.05236649662803346, -0.06907195746564382, -0.023435436931985885, 0.02539805392076974, -0.03286178877006238, -0.056109073127611354, -0.03824583795644889, -0.006601155542028915, 0.04694276143589116, 0.02644085112127093, 0.017542150648992935, -0.05315435019194846, -0.04167712736585859, 0.018906579192280504, 0.09679017183782437, 0.19724438631066168, 0.1305910155207987, 0.0674408324733532, 0.06870094594314918, -0.07951545415632401, -0.053443793668245275, 0.0033398190851178892, -0.08810563961465538, -0.07440616023878964, -0.012555407427965395, -0.012601584900858056, -0.040193518968349315, -0.12033437651638797, -0.09384021513980488, 0.016424502990181902, -0.054811137087208466, 0.01860980285199153, 0.02266744787181055, 0.012590293041554757, 0.03704579458991338, 0.014400242959484244, 0.00981264040883185, -0.028175359540485192, -0.037670363648704935, -0.06497344817288091, -0.012975883662462473, 0.1269132549114441, 0.14011487955234542, 0.13127470566829105, 0.016184482107740532, 0.047258534329320444, -0.0891050632694392, -0.13004973631850134, -0.016529277849383052, 0.005194428997736919, -0.04319918536633029, -0.07723991476915756, -0.08377841228343991, -0.04438359253708714, -0.017401461418427376, -0.03842870129771154, -0.04154151953375709, 0.012153126454556748, 0.0759502208807811, -0.08196659124799854, 0.006392323015247924, -0.037759845818594616, -0.000201438010065823, 0.001330668214415112, 0.07296455234136759, -0.037721325367348395, -0.1196030362183353, -0.02983927792223879, 0.0594037280942925, 0.13466810762355472, 0.12464452331130207, -0.002580034189260258, -0.07220382202737864, -0.1532109253881127, -0.09686488997035711, -0.056700624174330416, 0.07964930883447294, 0.09004860326182965, -0.04705062242202434, -0.07406592534780526, -0.08492883631837034, 0.08524780027168674, 0.028077839287501603, 0.11083720431662542, 0.06365452997992292, -0.023209921664977016, 0.011215691547428363, -0.0615551905204213, -0.01839994709087352, 0.0070924773081640705, 0.011955759392472341, -0.014810811240707069, -0.019961796280213717, -0.07781567788383034, -0.0879526655783027, -0.01644399806946324, 0.15638391977811586, 0.07359917175625769, 0.040291478665034484, -0.04576914863383807, -0.14992001001223312, -0.21374692597575443, -0.21894680593355384, -0.1783466461494321, 0.04968020828009593, 0.08011923878414248, -0.06897330049021738, -0.028547782241799862, 0.04003889509685267, -0.0775099762673263, 0.025231593025103454, 0.15238251688684504, 0.07646386439949082, 0.04815013933508047, 0.043375064222476584, -0.01704046673879521, -0.019417907808155176, -0.04346168796187958, -0.008523468074116657, -0.010558140672129335, -0.031424543766783664, -0.07494233065559429, -0.05178367590422791, -0.009751194504590357, 0.08822188244591755, 0.057301349769943805, 0.0025227846286842892, -0.04890808631548222, -0.1005336362027926, -0.1573247994826434, -0.22919322290364774, -0.137483238143723, 0.07662720139065823, 0.0764776964890581, -0.050736913705686316, -0.024066576060600725, -0.023954952362960233, -0.031106759008387237, 0.036791106307522685, 0.08565751010616023, -0.037498560535606205, 0.034958847652024755, 0.007850018966767977, -0.03290062015667315, -0.027183437992534094, -0.003016360647791743, -0.04819751594316548, 0.03658611726149205, -0.02572822217425321, -0.019624738972895885, -0.004386844124313307, 0.014280238672724748, 0.07835815949628629, 0.007964366173838546, -0.004796345450564094, -0.03498504806424097, -0.0012280890461287277, -0.09305219203687462, -0.08897724634403625, -0.07524999693100103, 0.03356491241772493, 0.13742555501301373, -0.0022638535346250926, -0.02474763769403776, -0.044112926085447125, -0.03658336973013894, -0.04147440503633954, 0.01029164123938007, -0.00911004547846483, -0.010076660439641843, -0.010565876351601321, 0.0006661918573609784, -0.026014925053343685, 0.0519733034885839, 0.008057895134334532, 0.002643163706511767, -0.008562962633915785, -0.028767853914207324, -0.08325752523464347, -0.10756157991852676, -0.019186016414493228, -0.017935241459673932, 0.029705125664760662, 0.03571414612376692, -0.023059475877899548, -0.02761179382052941, -0.07665018254027312, 0.04794872824633719, 0.04412704756398534, 0.10563102160308646, 0.0680330600673414, 0.050733578195699715, 0.025474933514407994, -0.03357691109798761, 0.04040465100723766, -0.025335726373674903, -0.016497009754532718, -0.027586578800103786, 0.011191956541863085, 0.04767004628686033, 0.015016474691357376, -0.05145149436839894, 0.02892634766761403, 0.037983664099965696, -0.01962647466573775, -0.006555604531129907, -0.07532700754021356, 0.04188248275602474, -0.04755859893863535, -0.029336922393923635, 0.057451231240373886, 0.05284013829822063, 0.08155421323342468, 0.014476936957867182, -0.0699025280464674, -0.023857450539204725, 0.05106923025894914, 0.09147078838058294, 0.02051316110475008, 0.11869071179446798, 0.00235884512859219, 0.029891463785364343, 0.04385087522015991, 0.0761823104631669, -0.014740457984872593, 0.009751725935855233, 0.02072716087548613, -0.017603423793857167, -0.010444498143378837, 0.06569159930357008, -0.012524768870508726, -0.019244265028553573, 0.009983069929863206, 0.027571482507540802, -0.0033578067313067466, 0.005130890442692957, -0.05959437034577805, -0.08533831333492646, -0.015447142005445865, -0.04170093896923395, -0.06342403358241508, -0.04602193955153617, -0.07924650863419952, -0.07816419171310632, 0.021495699867826727, 0.03185978280418865, 0.058488053541093925, 0.11255410483341831, 0.080773809288052, 0.10034945541830799, 0.01342664708388759, 0.0006126191632678877, -0.05979999820226492, -0.0650229496789398, 0.022980661432372797, -0.0063748962708771745, -0.01723547005296902, 0.0046608878274203335, 0.0625181875342165, -0.0009678028593377623, -0.0031982491440090133, -0.05835674079046911, -0.017131424762216983, 0.023305095965041822, 0.038510528325795296, -0.03636311979356089, 0.029223206871027797, -0.020003243162467432, -0.029391945669059616, -0.13399303450241729, -0.08155710644558561, -0.11302299250601908, 0.017697279385391607, 0.00033164617766452773, -0.04436556438819669, 0.04175798053425499, -0.0642492058588814, 0.015851527038823122, -0.07632697019437765, -0.0878041498552133, -0.11141021009309142, -0.04775633630368809, 0.033976560380256225, -0.017936994542783115, 0.0006285714881466209, -0.012546242356014299, 0.04097935920231304, 0.009258389487755977, 0.00848823562915074, -0.02751389295958282, 0.0012070157794444925, -0.015181500603459262, -0.0006000665610489999, -0.07119765836486008, -0.08972495885514659, -0.039007328909849176, -0.04204838378940932, -0.013656383239682452, -0.06283181755447086, -0.07004722081030318, -0.027714977657061664, -0.009086236327594524, 0.020114004391437915, 0.020697312770592398, 0.11111932776640718, 0.03261520461794493, -0.024281635324326704, -0.03246723633942352, -0.0566060573803248, -0.05836031393198684, 0.002074675345845132, -0.038075445704145644, -0.046110550220750356, 0.004693584670358687, 0.04946817575002985, -0.035094899126379614, 0.020923443287010006, 0.034987244379970715, -0.0002504029911690598, -0.07384510307861368, -0.055094502829160334, -0.14039173533175917, -0.12518499810674877, -0.07938776726368169, -0.04888325590515234, 0.0293947279532121, -0.028779582097303517, -0.03561551505209958, -0.10650102835134286, -0.06986458337487063, 0.03630849570546162, 0.05885479636455936, -0.007601642485200812, -0.03968245988802786, -0.04931116561171013, 0.026026363362524733, -0.009824837380413867, -0.014734061470761978, 0.02523688844204912, -0.04580872075846047, 0.015115351770971204, 0.011938146299505369, 0.048080608213963726, -0.027954749143257632, 0.00728680490563548, -0.0160703985304305, -0.04130704488539347, 0.03589802970314231, -0.0014991329518325716, -0.005636552636810331, -0.019581027037611082, -0.0691671843328759, -0.057619622534982096, -0.026827729602871737, -0.14163401570268982, -0.06084265876488209, -0.09375573031562776, -0.010165476018858057, 0.011535300564622736, -0.03815141225042159, -0.05589572565134304, -0.0967398471944666, -0.07443741744651061, 0.010160219746451872, 0.004760257627727921, -0.00021104218880005823, -0.0028520972992797703, -0.017983456072553396, 0.053399546810888605, 0.05358193712148802, -0.02989462263958495, 0.009013293896697961, -0.018149283181162365, 0.0403287101729605, 0.012951986781397648, -0.023648475083851088, -0.03814290667846528, -0.026864432554210425, -0.0630077256520122, 0.03454405082423623, 0.005793902071790589, 0.002183287046398245, -0.05198427692382564, -0.009869647156195243, -0.003153903940321394, 0.028696822425175697, -0.009908387158500606, -0.08511013839282737, -0.00137741354910123, -0.02424386578134872, -0.03413998221580124, -0.0005161996398871864, -0.04276819791111861, 0.045235513656584694, 0.004881406767916347, -0.024429040075375795, -0.016680973784135335, 0.040690537379200184], [0.06927062703366267, 0.01762512604567667, -0.04017714387652606, -0.014314374439351218, 0.026299006974220246, -0.04017397995636337, 0.0030346315112922298, 0.011337488047539517, -0.05559921110862653, -0.05902690006716722, 0.0190667512011554, 0.04452506980297407, 0.0092511611792968, -0.03426641640919036, -0.008164138711209287, -0.043372646756405016, -0.04673110241380128, 0.00879525835404832, -0.02016179354739411, -0.012054544403308647, 0.024320513688565717, 0.020097991179218174, -0.06336519871607404, 0.002286725965835863, -0.027886093860976003, -0.04330559600635876, -0.017601147475898585, 3.609719086509642e-05, -0.03655981115389416, -0.018434935658366403, -0.014663802768271277, -0.006410690722743225, 0.022221948746329354, -0.019846806099505964, 0.04259398483955681, 0.03898948909420612, 0.07757351924306555, 0.02343035831770162, -0.05950330398109776, 0.02235569067214314, 0.005526981145233899, -0.030439957909447993, -0.05162971007382575, 0.0036179000007771586, -0.057829479243839244, -0.03458272709984889, -0.006730613920105543, 0.016572542373565397, -0.0339144706175988, 0.008048833030975918, 0.01280499637639235, 0.0033436316687792595, -0.05858902468712515, 0.021685509767143903, 0.0591096235139993, 0.008353224447095613, -0.033271555799938686, -0.002354267835894893, 0.052186671004086846, 0.05183164812196019, -0.013118821054362713, 0.037599722209056406, 0.022132017721895398, -0.0006015619008275631, 0.03602847538784018, -0.019860574672462182, -0.0362380321705021, 0.04741844544606073, -0.04798698866861517, -0.04661149281772262, -0.03394346472416954, -0.04949624429716294, -0.022871557050053844, -0.019910939010134517, 0.027832680541066926, -0.018783834880272233, 0.069354957461996, 0.044819229950515564, -0.039129663903426114, 0.025138450431024376, 0.013189730402919991, 0.047801232736040804, -0.023265708987122054, 0.018037851105645403, -0.05397966904390161, -0.031156495445572738, 0.038552521400573865, 0.03497205430994478, -0.03563252336446517, 0.07621912051951692, 0.04192799753187607, 0.005916269890712584, 0.04877443381461723, -0.024065488951411432, 0.0075001550521588845, -0.028562237030704735, 0.00032220407913756736, 0.03932941885172377, 0.10203257220393744, 0.0430102065062993, 0.02857025417342364, 0.02924979796307061, 0.12297528687344593, 0.031163414073404914, 0.11210532710093815, 0.11836954378291563, 0.07778333398525053, 0.030276654674084538, 0.0035192199927133122, -0.0058324379625626435, 0.00985210668306675, -0.04542388293895313, 0.01773246210688411, -0.021367643152324065, -0.006475105522373684, 0.002840084774285443, 0.01107092632572786, 0.02157300466206357, 0.0783302876587725, -0.021206391922404453, 0.026036240289602084, 0.04685680083714047, -0.02611619581189181, -0.04289043159068904, -0.07088536125400398, -0.0009676921019053802, 0.06078771301898133, 0.0778078961332692, 0.030681578984293863, -0.0030580085919661958, 0.001116857661194244, 0.07609405910163514, 0.13436673754914027, 0.1032289017028461, 0.048893355221389934, 0.04730013515144281, 0.05753630931505825, 0.034076714869403696, 0.012908592814496805, -0.03389231209396861, 0.000146200517895213, -0.007910136475740617, -0.006527904345610946, -0.0008475929478391205, -0.005627930229302585, 0.0016747200184158392, 0.02274937860445774, 0.0848977916093567, 0.020456200832805988, 0.04174704364724979, -0.05392655759146764, -0.09366215262454074, -0.027886242403008958, -0.017663443413436095, 0.03265340232605548, 0.01926532236523121, 0.07605798711968788, 0.0728711372529529, 0.003491792277631566, 0.07734970177248605, 0.07757208439456979, 0.028687848806088646, 0.06563973229479327, 0.11398051736680011, 0.02547508581094668, -0.0038088961189126627, -0.018298935213545246, -0.019700326599923348, -0.035325329261203534, -0.003311957278372745, 0.008305318531379176, 0.003827244768792415, 0.011562953832924737, 0.08322263514009932, 0.05364933110116463, 0.0752151642403597, 0.09823465124221575, 0.05695990487963828, -0.03001877509032703, -0.05500352626489881, 0.021545905384393414, -0.06833979115583685, 0.006665312807207285, 0.022424517271349934, -0.060189296596882685, 0.05571351343364515, 0.01014246275934481, 0.0026515890530107323, 0.05699763182976892, 0.0060018704525377255, 0.02184127363288384, 0.009101950187253455, -0.010189126742243001, 0.008387880716716456, 0.012473341326625965, -0.0014883540220731477, 0.01579961846867407, 0.021977761699197147, 0.02130935484462276, 0.07328500909619758, 0.08951368367014842, 0.09370800281210617, 0.08877545351513885, 0.09966867508650737, 0.041407631651342106, -0.0016080192335996021, -0.030044549396244378, -0.09267536400711614, -0.057423091004794556, -0.03007470218307677, 0.010634540249704741, 0.059191653083283925, 0.0011661785945841555, -0.013476051292677345, -0.03461131156714386, -0.016791130720031966, -0.04672188632415791, -0.1015744496268061, -0.09547006317504261, 0.0382206372059823, 0.093921109264692, 0.036189995341265574, 0.026801196652199502, -0.0466856964689178, -0.0065820484711644825, -0.03341836522602269, 0.021334124340488782, 0.010360751922844748, 0.10470774589977457, 0.06711025958057452, -0.01748095313839557, -0.0015810247015371544, 0.023983211372426944, 0.030428050739504952, -0.08224348535994797, -0.06244449205550558, 0.01645929055057964, -0.01648757881836845, -0.049144757676338045, 0.002129730981289634, 0.06490515520429328, -0.06667594441608435, -0.0034678411160305, -0.057523536553252604, -0.06525552294566642, -0.09131730946401323, -0.057366766441640946, 0.04691643317206712, 0.12787961907433326, 0.09993757416804643, 0.007937523795079806, 0.011896468776954335, -0.0003281509197209271, -0.025018844931791923, 0.016034494189345258, 0.015725292360931002, 0.06505533299558897, 0.010622078837229125, 0.042734526080730445, 0.061134710060499746, 0.026776754468194806, 0.00185441451040584, -0.05933960882936221, -0.0781937337153344, 0.008861528815899038, 0.034049590657525365, 0.008235368040414713, -0.0805730117419119, 0.011103636686879975, 0.04020483952752114, -0.0021499601611178676, 0.07317467291981451, 0.0887392463659019, 0.03541743071269807, -0.012241586818472865, 0.10799053243439471, 0.11691485436743486, 0.05524672153990431, 0.006199623193617611, -0.0011077766934244734, -0.005998844314093279, -0.0291248098075239, -0.027170615505438783, 0.06683528501400726, 0.020184806586038724, -0.033321990587263976, -0.06424261891779537, -0.00715837949069872, -0.03644138765495401, -0.019198933389001333, -0.029713190391176335, 0.042821509999571315, 0.04658342329751069, 0.07241338661891634, -0.02478668704302336, -0.0839884860917141, -0.07208286843453955, 0.017616086027216503, 0.01635350048668044, 0.07983571295139787, 0.13355161744594635, 0.03733163639696764, 0.11972914306866486, 0.1541013032956099, 0.13435821921251626, 0.019632931740303988, -0.056426350361703584, -0.008127740201539778, 0.00928329360561432, 0.01570999006708571, -0.02395437961867316, 0.020245884623283156, 0.08453380908251981, -0.031662969969319874, 0.0010928884701839328, 0.048319025860098466, -0.0007915855361990919, -0.006160529980423573, 0.04146143552213195, 0.020550831570722964, 0.11883110007263088, 0.13766130162641033, 0.058278564281096235, -0.04537518492746838, -0.005851968095049034, 0.0796916417934104, 0.060983252832693846, 0.058716557062310916, 0.08956133226332705, 0.011771481586769406, 0.11442580681108296, 0.11968001278946329, 0.06664745922441088, -0.023431068299777154, 0.018892026985964223, -0.014573153395484047, -0.013923388976270264, 0.018288220030027894, -0.007753292830412676, 0.013510966623701708, 0.02942742575892745, -0.06167490139765227, 0.1700667651686949, 0.15301650056104935, 0.08085585193727289, 0.12759111879666332, 0.25986067196647905, 0.22338237978366116, 0.16055772929670464, 0.12955263100760045, 0.043839924453778684, 0.06842875345516221, 0.04482689292480044, 0.022967599651903738, 0.07302935486479054, 0.10247218042999343, 0.06308303982570372, 0.07523751188301148, 0.1773715309503794, 0.13533242718247238, 0.05530594369476384, -0.09733546516493441, -0.05834651788091121, -0.0528512847418399, 0.0005139831758470384, -0.016617768718321414, 0.037220411012934745, 0.05373819415333541, 0.06644534482177485, 0.07206724451695648, 0.253934190452255, 0.25155498685121297, 0.2881553112736754, 0.3012016039430448, 0.17436016518976125, 0.12776156179485765, 0.06121760175024338, 0.002931347522609517, 0.02374245560910832, 0.05240848921421489, 0.03324730729296373, -0.0176279087512477, 0.06114303272998433, 0.133654339212841, 0.1724099072768666, 0.13406597696108133, 0.1721924104443004, 0.048073588205902906, -0.010358028608840648, -0.10394135886712504, -0.09099579752787057, -0.037839887306751786, -0.021048030135784268, 0.023647965083229455, 0.07734614117897713, 0.0141322478676103, 0.035387724955849395, 0.14361620443285825, 0.3220757814637764, 0.20830324670919792, 0.21064312075668679, 0.08491850609020353, 0.06828728434706123, 0.11922148765101138, 0.038919159968872935, 0.04737017632365745, 0.03572737007403614, 0.05705927713991469, 0.017659619965146197, 0.02138792036386557, 0.01926790848249033, 0.22693217669511026, 0.25594057779196855, 0.17913110605328528, 0.03234008411567287, 0.011654880064368208, -0.048044174805009915, -0.06294670155251975, -0.09038337112787677, -0.03475605853507485, -0.018790113481033075, -0.008892105240098631, 0.03742624583631577, 0.04608226210701451, 0.07899629989335989, 0.2259134523235289, 0.18675942950670696, 0.06348846572891496, -0.09789377001233097, -0.026693195979263337, -0.03503404756298635, -0.053566587824576885, 0.02280602228151142, -0.11080270203674872, 0.008347147869324037, 0.010399486480526627, 0.010033848637782774, 0.03971382096273293, 0.17727768731799798, 0.3168969441210696, 0.2673125817718731, 0.17396516335188889, 0.07547945951780481, -0.025247880605679042, -0.10626626612584004, -0.15321772001127928, -0.06114324861127794, -0.019613384120239136, -0.06721352427791828, -0.04523429120737901, -0.05197246884209486, 0.018971907623302395, 0.14737889092880826, 0.06201899066265972, -0.014260901680568422, -0.14719884921841844, -0.0348875340621548, -0.041475562471338094, -0.06711053029711257, -0.1002656861440648, -0.16202252932534805, -0.1333967870250495, -0.0986927513249509, 0.051867562666316924, -0.02035244391586961, 0.06279909733652453, 0.24490509577449462, 0.17710045445632494, 0.03360694738702905, -0.0991746572868342, -0.10818625591229335, -0.10948177560550688, -0.1652354859188712, -0.15804856600574113, -0.07158746766197273, 0.011794064153488824, -0.034862751093339875, 0.0394539186600587, 0.0328635018682489, -0.0315298756513763, 0.03450199783257429, -0.0139408745225771, -0.05839522752831953, -0.05872864984986657, 0.024698670960226224, -0.06463381114564486, -0.09470302086705303, -0.0724600942328255, -0.15083472419080532, -0.11708544151748147, -0.1267824049168701, 0.04176605470985236, 0.13321415990499583, 0.2176408967081738, 0.21709498265248856, 0.05240144018081619, -0.07960305836423778, -0.11467033290611091, -0.1223088479185302, -0.08305519643916319, -0.18163710639487682, -0.1857941725024205, -0.04233323243025005, -0.011148483957846072, 0.03520093090591876, 0.006846365677187072, -0.039811959369495366, -0.08362559882717457, -0.051758174102087065, 0.03569797200093455, 0.040134549085961965, -0.12025242170046634, -0.0841392415618058, -0.07719277891411316, -0.16634473142753967, -0.11203117612314614, -0.11930430761356364, -0.15541350275418497, 0.0492174650986136, 0.11642073825424865, 0.2057064777016946, 0.06704133282199887, 0.016089567246858248, 0.0024312898280901556, -0.018972283081251266, -0.15228690749413135, -0.18794032958599075, -0.08345856472489563, -0.14660199530993112, -0.06250687660539248, -0.04482598547035385, 0.014309453424927947, -0.04513563003511139, -0.01617327262879288, 0.010749065222816228, -0.10548739333597286, -0.0921588035983655, 0.04878868497992698, -0.022223797128282378, -0.03955918775915214, -0.037981051945172824, -0.18913656333971887, -0.13665248252706466, -0.17383489139127667, -0.14156102743738186, -0.15183132286780143, 0.1490821028699491, 0.15126887092347302, 0.10694737560396057, 0.024473129743673643, 0.049438424270235155, 0.0609751808167619, 0.02850676386492748, -0.006446378620167792, -0.05802419259154015, -0.1255247339402453, -0.1046694385679296, -0.09307016844998287, -0.04961935302702584, 0.038656185145355, 0.03229625777355272, 0.008501923096424804, -0.008576584951891335, -0.06341209587813468, -0.16014952993500595, 0.007014046114342258, -0.04776002798641992, -0.05385896920452871, -0.14090138804173025, -0.09452208640620191, -0.08890345291010425, -0.16175361560423202, -0.1528869722877362, -0.0021144800866188286, 0.12403207869227083, 0.18504348495192216, 0.053880442288949296, -0.01727434142893783, -0.03355792984479046, -0.027571020324594544, 0.029433842737715016, 0.026735060488332147, -0.02963367118404627, -0.031249075405934208, -0.06370003421784577, 0.024580534880380808, 0.023011952181842016, 0.07406537192424748, 6.460615830745898e-06, 0.0408949933283208, 0.0459658249283505, -0.05902555232213766, -0.09032496157947534, -0.10549483590978627, -0.06569350937713915, -0.007234058527104187, -0.006296217846893239, -0.048007762257054734, -0.0671472072687532, -0.037695867715320346, -0.04192138297573442, 0.04619857725663147, 0.12411601522699334, 0.08845958552420934, 0.03959782090281088, -0.05034280187590314, -0.0767875576035959, -0.07552218725831021, -0.049015254163951305, -0.022130024025929798, -0.038387237099260445, -0.10530525328826693, -0.0676601146669653, 0.05600642277123977, 0.0030414679908474214, -0.006770844347088635, 0.02025583508483174, 0.038628845872554274, 0.05602913221133565, -0.04018338819014376, -0.12631295484996824, -0.1483606465527587, -0.0716942379843479, 0.08225852004969861, 0.029680225285801453, 0.016796233784049486, 0.00918192207414281, 0.06451636482178189, 0.06066875526736493, 0.08178765957995895, 0.045955455254982805, 0.16025245064835208, 0.08732014834150406, 0.03452211548897748, -0.10461104067029468, -0.10314011865249774, -0.09432476127170601, -0.07586368570406386, -0.06915550491825745, -0.07392560465485115, 0.04524615015816727, 0.010871670881705445, -0.0061869765372764745, 0.004725920219089304, -0.027202277899367817, 0.013063716589145104, 0.016509462421229346, 0.03520246881461149, 0.02300075027162105, 0.003759753850225775, 0.0016068966823493788, 0.04658159504906975, 0.03777191820370932, 0.010805951087488308, 0.0328420710675798, -0.03930477652045427, -0.07980397022083761, -0.039028114735374424, 0.030497943701307435, 0.10278761374033442, 0.14108492434553088, 0.05063395144931362, -0.05109002800227215, -0.08408459156713206, -0.08797108996035198, -0.09685682116894231, -0.08423709842574409, 0.022631256379268657, -0.033671868059397064, -0.016366585315818444, 0.022384038020233744, -0.0021995636416840504, -0.08260270318591555, 0.06355001720479722, -0.023607246402710703, 0.006460241495669232, 0.009100158802452827, -0.038682353081398, 0.11269111039553613, 0.06168611713197634, 0.17588740943122294, 0.12113095764953964, 0.1396355024843165, 0.08643598997875035, 0.03460598534647295, 0.03856339460471044, 0.08259913445677448, 0.1676725804213222, 0.18908147814208057, 0.056612872123077015, -0.01080998338285669, 0.016500654530222845, -0.024061007710102465, -0.017138873554679544, 0.04520541258903493, 0.026210324231021705, -0.03977564942430534, -0.014541826195737583, 0.0021816634313756795, 0.008716403293632873, 0.007762320393714329, 0.043994062479561766, -0.007307664245912231, 0.05390030746798497, -0.022255859421473328, -0.0019998956388572503, 0.024670677013875653, 0.004040157766526763, -0.020352301521196707, 0.008425093214108495, 0.10169792228633648, 0.07957468562808162, 0.10320596864317638, 0.09431411565004008, 0.03674954039508158, 0.08944051301651151, 0.12378857640488235, 0.04334816345651077, 0.0418442588893013, 0.10688436103603473, 0.037738324075204804, -0.046751427959726186, -0.01459450753183007, 0.05618045903081188, -0.05240753603819971, 0.005378762298636184, 0.02029375762474575, 0.009362419913722237, 0.011071284315873044, -0.007539993200109359, 0.012364049288705742, -0.005293061594250445, 0.009460690136615702, 0.026282359602415588, -0.01869416137346775, -0.03475082239450071, 0.057856494691694425, 0.032396862349500816, 0.05847683676000682, -0.01199978814168353, 0.058881281196892454, 0.04592371501923205, 0.029441402765648363, 0.025272935596730033, 0.09127618233951708, 0.05811177222097698, 0.01521188073819893, -0.021984905685998066, 0.015872041695758177, 0.031949654546212174, -0.0034663891452465564, -0.045472750463465765, 0.026774404055661845, 0.07636984537838745, 0.01751647678833846, 0.04158325294416984, 0.005778571664330724, -0.007880679961236484, -0.03760090012551037, -0.018994851404375783, -0.06781808586769551, 0.04161252049117711, -0.01324475567991786, -0.0057004769283068015, 0.03177895458498584, -0.030645965744324717, -0.0037552964619511765, -0.024409009120972658, -0.06602315593593802, 0.013602598826644637, -0.020993761493482914, -0.03912112657742776, 0.010956610256819344, -0.000266229519211455, 0.008128376260530255, 0.02128257593850816, 0.016000205463463927, -0.04651066485725821, -0.012935918622867653, 0.009759878146423737, -0.00625743673354119, 0.012231089608071486, 0.03482043889970802, -0.022461265821476308], [-0.0017846599856153468, -0.046371140757210806, 0.02022730857156302, 0.017053123185573442, -0.05219345361690298, -0.02080499080342173, -0.04631693904121439, 0.04310703086136699, -0.00850676020968694, -0.012418434606782772, -0.06678623753928623, 0.052013512895520406, 0.054456714714381196, -0.008079784034951533, -0.004457507420950503, 0.04529175940412607, -0.0070441673830042755, -0.01365510368107945, 0.001339559157462553, -0.027208098988262205, -0.039899516531803056, -0.013576400109106882, -0.004009506785820259, 0.03772743397474013, -0.002868771833562183, -0.0017432462572902073, 0.008390205878383187, 0.026529791898042197, -0.0350030762232842, -0.004189094115561816, -0.00928510264727606, -0.025266155798867335, 0.008057028431446567, -0.012937506889760642, 0.0017626891869301099, -0.017684612997565748, 0.0194757869653727, -0.03547223889779318, -0.007719282207987689, 0.08488266978456269, -0.046487870785117305, 0.08110486070010187, -0.007099381237165776, -0.038079273333619774, -0.04404695347853381, 0.010892602862981115, 0.02402453245490303, 0.09546947148555844, 0.08243710340215685, 0.00029475487164904183, 0.03633574186523017, 0.05545436450310847, -0.018456792624064997, 0.010819985485167964, 0.005005062351513433, -0.04545589421350684, -0.030366763654395272, 0.004752251391250029, -0.007715748022806358, -0.04427213908047966, 0.0720495879057126, 0.030428562590409425, -0.0170016020299521, 0.007765401610551021, 0.02947290108431234, 0.030937399199981223, 0.11863160067707677, 0.01641731017598692, -0.02410054479430892, -0.00693080965233352, 0.013490816337339256, 0.006143824638749806, 0.016251311312032994, 0.03717212182242305, 0.06202240815273724, 0.08485536166995311, 0.09081857120866525, 0.10185838099168744, 0.12114648107458996, 0.03898636025434975, -0.04453103154031901, -0.0674389670615144, 0.000957625479573953, 0.04773839740035652, 0.04672812680521924, -0.0018311568405885905, 0.04759389969927206, 0.05197507024308523, -0.02612415843360557, -0.004529021319922525, -0.02122280592496315, 0.029177260746849062, 0.04144832775640383, 0.04738354886674375, 0.008528910044053123, 0.021353902515845794, 0.040944284237232204, 0.010402856576859711, -0.13487130119575036, -0.13878216615288677, -0.0404728527099926, -0.09006964634206194, 0.004027878140639548, 0.028128854110828237, 0.10637527802346779, 0.19000814846826944, 0.1393838907122521, 0.1220979996575597, 0.07906603124859876, 0.015540831888269564, 0.06898163649780702, 0.006549592348390357, 0.06890227167824542, 0.02071794781728329, 0.009295056443851498, 0.0005242585614209606, -0.008186055100036586, 0.08857779837913897, 0.059442429432748925, 0.017912372515731946, 0.10797819887966874, -0.06647600978314153, -0.02460694244940515, 0.04257853000072695, -0.08347851263515824, -0.10083098947639232, -0.01783400256416354, -0.17748884156095393, -0.10622741383138476, -0.034372445267018416, 0.005544632432751954, 0.08726755438147166, 0.08044529298079357, 0.06839503403104814, 0.17649435822889636, 0.179713691252503, 0.09220509858043129, -0.00016987646332264136, -0.04185552301689232, -0.004710333404974672, 0.04031120392672352, -0.04610802798688245, -0.02868398533976512, 0.03342198920605229, 0.043709498900317625, 0.061866964745560596, 0.016158366065130887, -0.04066936181524346, 0.07952709073038655, -0.028888743549839366, 0.01710599720599271, -0.07043486478656559, 0.03209458028060941, 0.057628788458492244, -0.03697636905091066, -0.09605623500800561, -0.045137659476197994, -0.09033745353558328, -0.0534817220790937, 0.00831416960177463, -0.00865533770757489, 0.0358376164344313, -0.021149013171879998, 0.13515461415135382, 0.07399719001118554, -0.010742595856639971, 0.03057450592774707, 0.015815892644099133, -0.019705290632134113, -0.02164064214112198, -0.004643563777847159, 0.05255322322003306, 0.04952759348487271, -0.024188445057716335, 0.0003960144936857192, -0.012468701028128186, -0.016918093957493763, -0.0354054386388842, -0.07749762603055599, 0.022615174347253773, 0.11630917357649732, 0.01232377488567448, 0.020038686531561812, 0.0481488575704227, -0.07076419209550416, -0.1345139284934397, -0.08898334172716751, 0.007905955995160753, -0.009791573339487561, -0.0963660412621713, -0.06491588124207176, 0.039840800294694764, 0.12665974990851453, -0.002653286844623703, 0.012263400365250946, 0.0812135972494457, 0.00906328925947123, 0.000333293416211255, 0.014199091272866267, -0.07111396356123918, 0.03993975094423174, -0.02697014027195736, -0.07105855957748852, -0.1191253264639879, 0.024843450391542232, -0.14141439356224583, -0.03596740744274247, -0.021997895152836056, -0.024711694866387145, -0.04057842394469049, -0.007731588171801195, 0.05454692071957195, -0.0598697823923966, -0.1585424600345337, -0.0457054406149725, -0.17092963807394312, -0.07087696329619657, -0.060958838754255465, -0.0888372778271733, 0.057435308660192676, 0.08498241765878387, 0.01976697355711562, 0.021442411835952968, -0.054224923727086025, -0.04070596141366815, 0.04204030344558057, 0.01791038795074523, -0.013263762625375621, 0.08463896933281757, 0.008143429899121193, -0.0043170366572980005, 0.018294311253108004, 0.010902608200997742, -0.11881246041919064, -0.04409529087453911, -0.047119266817347745, -0.06162328405270603, 0.08467038448340095, 0.044062784598998615, -0.027904778149576693, -0.028498798981730817, -0.10324016312547973, -0.10957851485867051, -0.13520391832130452, -0.14350347192032573, -0.0633848917125426, -0.03496713773192961, 0.043941747696152285, 0.009069410498373915, 0.02419650176234496, 0.034884449902317, -0.018885495483402855, 0.016078157179144938, -0.03201150789913633, 0.0020584552001240517, 0.07419715509230133, 0.0833456857410533, 0.09543249589449798, 0.09117155139266404, 0.09685630445034903, -0.017310205704689097, -0.001930887825692692, 0.07041629612111545, 0.014367037670763453, 0.04069250351153964, 0.16356640851164136, 0.16478862085289617, -0.0724509762045127, -0.19028280439387688, -0.22386202078454343, -0.13071574908453346, -0.10038007029709309, -0.12238949171424575, 0.008281261453050734, 0.051487918669715686, 0.01816585832979129, 0.16104078935488628, 0.06022319481778987, 0.03551353290855826, 0.008190161782941007, 0.03151006559449664, -0.047755301902956133, 0.007608066033525503, 0.024692340001262747, 0.1353681872983188, 0.12355618566626939, 0.12730032064731822, 0.18134532740623846, 0.07855240476301187, 0.14571690579345237, 0.15385992828697068, 0.10692914922353408, 0.2027031224942361, 0.21099085537796394, 0.15661949275323386, -0.0010902420992959165, -0.1500906333329204, -0.2299108203511149, -0.2272741185244277, -0.1521158037621895, -0.039731719562324457, 0.07616775195171122, 0.08789227020340462, 0.1012670327195361, 0.1537895656625185, 0.058559394072142994, 0.026650004650086295, -0.043714970933456755, 0.005060322419881087, 0.04787958555882132, 0.04628124978841634, 0.03176249683274166, 0.14963220849596756, 0.2453464202221901, 0.2573317031288061, 0.21490574747723803, 0.20314782557305458, 0.22813700758846803, 0.16661364529288644, 0.10222899208975883, 0.014048114952352893, 0.03843440985006027, 0.18131896650272136, -0.12171811227420101, -0.08196511428820082, -0.17982125357234136, -0.14520553314208565, -0.02191789372499012, 0.07544996968658366, 0.09828807370874924, 0.06630999330281064, 0.10690772721303786, 0.10486119999678925, -0.029917955649777967, 0.04596426978456879, 0.026368836370494152, -0.015815668317746764, 0.016654862886208998, 0.02778712841010825, 0.06730585217805954, 0.19505266488424527, 0.18949055513340754, 0.19137368698531748, 0.2261562208803981, 0.20745386638749874, 0.1347854158239116, 0.03599674631219686, -0.006124856504806284, -0.1309761503458576, 0.025299499591400983, 0.0949588483521397, -0.06731729300037645, -0.13201554252044936, -0.12492415172152464, -0.0934115677911211, -0.004275626778187801, 0.12405213956278224, 0.1516254479693579, 0.09129200218734383, 0.15947536420021438, 0.03472090376017412, -0.0008464937491818924, -0.021976536897046834, -0.05899013898196876, -0.03272156230137438, 0.05038672434188542, 0.02966412555230135, 0.04452163423591216, 0.13540528660576218, 0.16665539029626858, 0.04860069451955227, 0.03934823292229926, 0.04760287044598555, 0.000607638656107421, -0.05363609222187854, -0.05091817751556513, -0.059852587085053366, 0.041057711712873146, 0.11389764698989599, -0.06716086923944585, -0.05812834762473847, -0.08978741358830097, -0.07259278800398199, 0.025690081586892115, 0.07100417864531008, 0.06690855881204637, 0.1284710969477851, 0.10214039181034591, 0.03409148699298268, -0.03862724484318793, -0.012058709805447277, -0.005775315092113046, -0.0002308155539696202, -0.0405069690893442, -0.01973723874081559, 0.008088665614493952, -0.07607632473006387, 0.0489991120002544, -0.05897395034579509, -0.080000738122847, -0.09425961915539773, -0.054795353837772794, -0.09364596791577874, -0.0336193403789551, -0.10065970728762373, 0.025364345257369508, 0.02623634833078556, -0.0631141433591089, -0.007600144425423793, -0.17861788431785472, 0.021488304782194798, 0.04208786541747424, 0.04383844551040585, 0.0017163025587080547, 0.03075331684706246, 0.036640816529035246, 0.0397629305457675, -0.04088511499386837, -0.04641328065228577, 0.03752228130158441, -0.055540534084584564, 0.028345666169640182, 0.019310632081500644, 0.057107765808766496, -0.1004136668086707, -0.03219159552566983, -0.05323316291045031, -0.0716496883370068, -0.04056241596710703, -0.02517442806607842, -0.01787045626337927, -0.028142236521672755, 0.04509814372873699, 0.05342819581520469, 0.03282027737453122, -0.0002631345212926878, -0.059035931070730456, -0.08632086266098449, 0.04277896830753182, 0.07870416306936572, 0.07896208177283463, -0.04333195396040977, -0.06089173611695453, -0.02318133752977541, 0.008302154331209542, -0.02622576511228815, -0.0827799297896445, 0.0050567633742113925, 0.030273552049107887, -0.001015764714653105, -0.025643071056530416, -0.01263330779598424, -0.14731458744613482, -0.11639028174160389, -0.18654895710659186, -0.15086355340121727, -0.04024749269690246, -0.0741777411345461, 0.03699786070607303, 0.04884967392272983, -0.006124584753030403, 0.07107000710467005, 0.010151247370864647, 0.002115138694592705, -0.04130196598991537, -0.0293146848490685, 0.11245647455213982, 0.018450646300160783, 0.02244947460695953, -0.08734025957176149, -0.06958684833211402, -0.056042401053303624, 0.05044219971897488, -0.01830926874164087, -0.06657377083085664, 0.030362677288411317, -0.011233017894767076, 0.02729482646835537, -0.06873875268106659, -0.037568649310370364, -0.21739342166483067, -0.06530171630154105, -0.06476612189027751, -0.06894881127408413, -0.09562589329545705, 0.029009356496700677, 0.017663124033551796, 0.05234121962564226, -0.04837382161892034, -0.01996701831312756, -0.032527773848211185, 0.00027917824592963385, -0.007742430605367678, 0.04444298612888713, 0.03191333155403426, 0.07573793865451049, 0.025212636564350514, -0.03692755649412928, -0.09936651608284057, -0.03271743517542872, 0.0007166989073102295, -0.02551670630263771, -0.02871567389526677, 0.003291234932368261, -0.04919978696267645, -0.05202648410083326, -0.022676614055920315, -0.04069472537569436, -0.21197038733383283, -0.047957018408515434, -0.055718246634284437, -0.06598941068444458, -0.10080180942635077, -0.11353007405380214, -0.006102276976350653, -0.021145636047528265, 0.040992628777473776, 0.05483322855562666, 0.0012811649589795245, 0.03048686356166278, 0.007216551178131531, 0.05430140294717554, -0.004914227557326597, -0.007606030987002772, 0.0023862471360501358, -0.014174800498720448, -0.14932062506854923, -0.060184401809292194, 0.008604100056137152, -0.03825190153787969, 0.007903678112376359, -0.042599697061431394, -0.02280392326221196, -0.011677314036383335, 0.010202627818263026, -0.03457842939212681, -0.10868691789433127, -0.038573817997537306, -0.016509579957702497, -0.02201583731488918, -0.01702726067788554, -0.018459171326362142, 0.04799019045193218, 0.09149368543284732, 0.07856447227517736, -0.017529730468513256, 0.04419944632557545, 0.0569981162887111, 0.01824508517739678, 0.06231116756163602, 0.016245536067178063, 0.05424941871045477, 0.05351194564626997, 0.03263547930731429, 0.0021892086698282434, 0.017221148319107735, 0.05594554779623147, 0.019120153624233756, -0.022168801709553824, -0.012928077145013246, 0.027764788146794145, 0.0429965089882211, 0.027362909132697236, -0.07796333779104697, -0.11008534858694931, -0.033564912427759705, 0.02210065783799749, 0.014334428444040322, 0.018365725962054758, 0.010671986114903347, 0.036775644414113434, 0.11841874400781804, -0.007390655946630821, -0.03236721356365723, 0.029558020876826727, 0.10367183378771776, 0.06764063008367999, 0.041219191726837946, 0.02866620792881243, 0.021549985849263705, -0.003012501543416961, 0.05260086600402219, 0.06459921307500775, 0.04954302459898642, 0.044277323435295925, -0.01567272268992446, -0.06857413043010822, 0.01666772580262457, -0.06140404020448274, -0.03095701391702867, -0.03510164336329945, 0.003586890725952394, -0.08360363973149802, -0.010292387387435166, -0.011273563649192986, 0.03823017125484164, 0.12088022841983752, 0.10925653212066347, 0.07331271469418232, 0.07816211120576609, 0.15483358202014658, 0.023140422144601335, 0.0709020774890645, 0.030043513839206636, 0.0113312750019085, 0.043241822969267166, 0.08629216417582086, -0.01508518863009111, 0.06530342891504663, 0.04368403774252924, 0.05028574227986372, 0.049581035816971264, 0.11811327026700617, -0.011317571462710374, 0.0052906018396168255, 0.013683528061593873, 0.03986520451611781, 0.029340545885483973, 0.017195109580614716, -0.02328821849771236, 0.07009255704132154, 0.015008040648271301, -0.06231368354626261, -0.04183177708503539, 0.058003250184916005, 0.13278606012348662, 0.10421924380763865, 0.04098619641169961, 0.06940656477476785, 0.034507751127656854, 0.060564340609683597, 0.06443227319164166, 0.13019614600383084, 0.05700308725547887, 0.08727921974072328, -0.026607475309709763, -0.021938358576990894, -0.03554219011722947, 0.04901462246314631, 0.008784753713370414, -0.015419820395821574, 0.021678965880500174, 0.0019105408966325489, -0.04340917485539248, 0.04278818447551867, 0.05605042593288918, 0.02358918249647015, 0.04644559355354421, 0.046037792981753006, 0.03479655775558884, 0.004615071658895903, -0.09472582272957297, -0.0055423948635012705, 0.014445506381907775, 0.046390176388110355, -0.03187659533133594, 0.10983261174710791, 0.001916769683103966, 0.006030932597447026, 0.06490627835288151, 0.0522078541384225, 0.033116082497841724, -0.07876534617229625, 0.03790989610244572, 0.02700629981217984, 0.03558900351307771, 0.04430211657394054, 0.01830336300050951, 0.023726660030003222, 0.014222403142854268, 0.020653974114194187, -0.016501664744631217, 0.021865116639020857, -0.06975609612345474, 0.011046814937623401, -0.026894222394928766, -0.03657184473304615, -0.018951107781059733, -0.04301892328735444, -0.029788212375370677, 0.05397247613902932, 0.07428684131063587, 0.06957396246758374, 0.1102582184677413, 0.03408697202120172, -0.07469375246767793, 0.023673403753282026, 0.08119504203641582, 0.1080659210681027, -0.004538010979169365, 0.0337161937623479, 0.08193454938203422, 0.06400974296960557, 0.05276241699803987, 0.023207543578265082, 0.017759626178580564, 0.006794879343165078, -0.005647290643623798, 0.020534726441325663, -0.01723635672272052, 0.01766632771796047, 0.011689105748513152, 0.06478490366688552, -0.020629548054156212, 0.02797430544252512, -0.0055674216577653955, 0.012330317956940569, -0.042597045047923145, 0.0988933088813391, 0.09618790554018268, 0.05782278696505594, 0.046956635282858546, 0.1349540564196117, 0.1077556973292998, 0.04462919989552465, 0.125418408846013, 0.09647502612341875, 0.06748240703279301, 0.0737861473684388, 0.07498065633704395, 0.08999816870861857, 0.058243665196175125, 0.07128754424731369, 0.033976678636249424, 0.014933369955384943, -0.011766284919057922, -0.022558188003658115, -0.057755947573042365, 0.008706991440892868, -0.03398930519822203, -0.005085222928222348, -0.051976191537450527, -0.009831914655352617, 0.006018935187030653, -0.03890156559189938, 0.021873582974558606, 0.06510811440341667, 0.09541855440858735, 0.04720137070942802, 0.09751638939973598, 0.07296872038920317, 0.04765847973075346, 0.14248651911897892, 0.1671023955161022, 0.07696972034145834, 0.053639319387901015, 0.10922572131916203, 0.014447464219207116, 0.08989715862797543, 0.015352610337361728, 0.01812298959219062, -0.045830756190150895, -0.024287184057622146, 0.05698903523740168, 0.007480769127972367, -0.025611950748790573, 0.025827662479444104, -0.031320579014644155, -0.012631796764219752, -0.08039293395051449, 0.02176737748683367, 0.0628208605638473, -0.017829947059548983, 0.06155412358488442, 0.023716303790839256, 0.07334380903549848, 0.027443081063865598, 0.011255742922937597, 0.07334866666130996, 0.01643682991608726, 0.07673598820587349, -0.054723288558479265, -0.008505444623741006, 0.047446316952241996, 0.03061212521662697, 0.03659676339015481, -0.03999863676476282, 0.0602536438888775, -0.0002170281161677877, 0.006954067221030483, 0.031952269089326406, 0.05121863527295399, 0.023245778516603293, -0.007722302359082093], [0.002931916696808629, -0.007519100603304412, 0.005837030386759518, 0.008093238181903929, 0.06437916726231671, -0.018507890734953503, -0.03703189876764174, -0.013831164569868718, 0.02205672412516922, 0.02547289573576453, -0.005388099835803262, 0.03444927741523379, -0.02860599364421986, 0.03060423307026396, -0.012456136138250478, 0.030405451856602744, 0.014529405815711601, -0.03316017054379639, 0.043500692413131335, 0.009793452331341657, -0.06329616683109839, -0.016085037571487045, 0.0022453582414542865, -0.014659828549558796, -0.03730281053342952, -0.0043104761728826125, -0.046138624612779996, 0.015811691399102625, -0.0216764399145095, -0.004555094904660514, -0.0252355451082927, -0.03537411113854212, 0.0037939070519989863, -0.01801089535978547, 0.015652446714703557, -0.029655343064706175, -0.021695748232281608, 0.03035156776233686, -0.030815422123321924, 0.005662219882935315, 0.018165280910738255, -0.002597179500100538, 0.011378763122828772, 0.016909539924968423, -0.01868464460138252, 0.006046843712242181, -0.0014205073477974452, -0.003643029892471845, 0.021161903250337642, -0.01872575436702904, -0.03356652696633783, -0.030386346600302535, -0.03202356561620212, -0.06207801092955089, -0.015749912494289132, -0.03902583734471844, -0.040988944923565945, -0.002262218710015425, 0.021256846416213386, 0.02075026340843079, 0.007774873289508338, 0.030090680752188643, -0.06416461826845664, -0.0125853104784952, -0.062049903278502336, 0.005160360541262658, -0.06895843483358957, 0.019588871079804705, 0.03253628860693171, -0.004166237122056069, 0.018419945031801183, 0.03311019956640852, 0.006432835115432954, 0.08147571061771959, 0.03711939030727618, 0.08824906733077788, 0.01812004813157076, 0.0289919876428406, 0.02046178083357689, 0.028193528561854694, -0.03645820913629079, -0.046160781287535584, -0.008053071786873265, -0.017365850572544087, -0.03312370949711107, 0.03450252218840901, -0.0010669185887492488, -0.019637975110774437, 0.037803022607985036, 0.015519545023378625, -0.024110469166155397, -0.03270828903092153, -0.04858776129103925, -0.10181854269604278, -0.05278812468922991, -0.14814082275712587, -0.13887253612937112, -0.11157383756366629, -0.12009748638743378, 0.057227734116140204, -0.025005419785159008, 0.049926094994153396, -0.0002692857804933742, 0.03334956577440411, 0.04363150040636429, 0.057866624906728815, 0.060534974166925555, 0.02823830692079163, 0.0031627517961528118, -0.0035574176888477304, -0.013056653647223517, -0.03487002002539454, 0.058668768682813094, 0.015517659609110812, 0.021966264939600202, -0.010764813609692251, 0.05513272790343905, 0.014901237140866988, 0.020290334090617465, -0.04676539757650656, -0.1340611950322958, -0.15205828042010536, -0.19107756925090472, -0.19702957536856028, -0.1754051017421056, -0.12795053469665574, -0.03951027484641775, -0.12187829901410036, -0.08185812773423276, -0.030926468220501775, 0.01527204225918242, 0.04171052443562422, 0.048568574852745294, 0.08755772141508104, 0.08883512933000849, 0.08192386426282548, 0.037643784249491524, 0.002378829504352429, 0.0391482430504696, -0.033595473378483884, -0.015101323619827063, 0.018264876172730565, 0.013544966610416383, 0.04550811878168802, -0.015077536050160422, 0.03784356767440901, 0.06199373376410701, -0.04560635799454786, -0.1850719287587349, -0.20707057371800872, -0.2587434743509071, -0.07413082010780585, -0.02829300160021133, -0.044385873777209026, -0.08040022906746203, -0.016926885304822562, -0.057636215468319305, 0.029702241315977186, 0.05435571998790346, -0.011001931256823357, 0.10258357652800945, 0.059712455422578095, 0.14011411221326575, 0.09513337047742497, 0.07355810191548066, -0.03423300169654747, 0.08922746806756922, 0.022068203513233176, 0.0390908450315274, -0.013214655435434236, -0.02014095988227559, 0.04013333664604773, -0.019036129917941638, -0.007329588658129456, -0.04245542913598446, -0.25771181471689625, -0.2837133132127622, -0.2829918002458465, -0.17620445102449356, -0.044104610894700205, 0.0016710678312268205, -0.014012716648622267, 0.014343361853772734, -0.01343763356761668, 0.012657985463040013, -0.027547353407346584, 0.11629005454008316, 0.09060629072305514, 0.11285065028805998, 0.036355768090136305, 0.004575249313128711, 0.05596590299885273, 0.057940240212583746, -0.013191704071257263, -0.01910340140834551, 0.027317748474300813, -0.005688510927920311, 0.030444525137308352, 0.0019219413020037835, 0.031424629359256676, 0.042168876710158204, 0.002297066525729119, -0.06755271156341083, -0.198280586222277, -0.2968753839777652, -0.22026721054413975, -0.03887266370207129, 0.03585739965831083, 0.0899602604343152, 0.032465070956431266, 0.009464043329759681, 0.003635874660154533, -0.023972408576146725, 0.061578052725559884, 0.032458367388370005, 0.10306279047072313, 0.19607703144738986, 0.04780080197347231, 0.11952307363372076, 0.10682575030216186, 0.05256356917623804, 0.008215314554387638, 0.014847921346589773, 0.029232762247742145, -0.01899408046672072, 0.03486628019392062, -0.020389238981877316, -0.027560383134539613, 0.024369149889726514, 0.005219384620705859, -0.09791090895612506, -0.17197783936974712, -0.24436615211822746, -0.20770316075282577, -0.10100381987503698, 0.04447571812200678, 0.17696785954183952, 0.10750737812314398, 0.029666453669209513, -0.029744848576378706, -0.09107175798885038, -0.03366834900766234, 0.055636006553632066, 0.08573231429142716, 0.15441254874028063, 0.14368932435669166, 0.16117280429281944, 0.14955174439461974, 0.08298918287717692, 0.034636850565993006, 0.029887580729810348, -0.029576376840822826, -0.023804368557353763, -0.014426764397541205, -0.012998463551323246, 0.02808826343999663, 0.08537045864392605, 0.011868492262908852, -0.1195209272903805, -0.2172986652515341, -0.2883265406875692, -0.21948424172316078, -0.13100322121373242, 0.08735626110344359, 0.10589894750015362, 0.11227378950860008, 0.023838643453520613, -0.06193180202172772, -0.017907373024545342, -0.11434400794521254, -0.03892788152947564, -0.10478797065460996, -0.010635154172458004, 0.06104580789249244, 0.08994039740257277, 0.026449514987386683, 0.05030931801770163, 0.005794104441583277, 0.06795430211545882, -0.05342671142122048, 0.012443985117418213, 0.008223489134136928, 0.05870608349449931, 0.021130026122874727, 0.04049690779769791, -0.06204207432532039, -0.18026392905117308, -0.29209794342607887, -0.2976680312216649, -0.21661640661959222, -0.056895929861503505, 0.029940900178364798, 0.13071057093447214, 0.04734189332839934, 0.12968880082917594, -0.06411630948363502, -0.11884057317049006, -0.26622945933829556, -0.28727263261249125, -0.31124724158078615, -0.3256879478799189, -0.21368626453487405, -0.1417581559584923, -0.16176672020541408, -0.08555032762804264, -0.06940321680552362, 0.033987094144766694, 0.04199147443192839, -0.028594607888362798, -0.013710291169006737, -0.001846960054231088, -0.04554448603239061, -0.04448719997072573, -0.08755355793697304, -0.2270192720891336, -0.21708409729718264, -0.2079156283541777, -0.2788800578139203, -0.04658164991891455, 0.025247156434503808, 0.047976522709983344, 0.0693328150278602, -0.020579444985943766, -0.011500377861687052, -0.05690402333253017, -0.15257806637924065, -0.28803020208932373, -0.24909138945604542, -0.5032242424534458, -0.41608869516528807, -0.24842081019763837, -0.266447588408463, -0.1403023986254491, -0.01557960907750673, 0.007578446880930738, 0.0011190176964058103, 0.025668353666740716, -0.02764080482412578, 0.004381418522269537, -0.013575144737847659, -0.008124764344227032, -0.1410220784220873, -0.21488159380016186, -0.20445877359279155, -0.18423670166849954, -0.13631712325363887, -0.030344036706083665, -0.009553764136258584, 0.03416021520188555, 0.02039420027847323, 0.07778926081708432, -0.013615026160021458, -0.07369445380312506, 0.003890542711275637, -0.022170254268114864, -0.08283582178678285, -0.21362014719760963, -0.3061810781365763, -0.2899363568376643, -0.25456393720862547, -0.11499752246079645, -0.07393136396963824, 0.04284441977071004, -0.012767164607050522, -0.02282576376434427, 0.008788281217947346, 0.031295930679670736, 0.06680844325697008, -0.020276335320085145, -0.12968477251538457, -0.21461379620682117, -0.19729003875719048, -0.08058349921218502, 0.0003154889208705124, -0.10419988488573491, 0.021927652632936605, 0.00956213187804823, -0.0027487758976570235, 0.04594711158831039, 0.034101926405042796, 0.057988928383587254, 0.006033350452076128, -0.0010554125744535875, -0.05168235135658331, 0.025316241656681907, -0.15496372659296823, -0.2451192281533146, -0.19232602837003934, -0.10324063426608208, 0.004403962767323821, -0.014111450912710537, -0.006820540231164377, -0.023783162538233038, 0.0262449593768168, -0.0006561398332450821, 0.07522067686931122, 0.021758535948147254, -0.08819771850730723, -0.21395443089126273, -0.18283139792912365, -0.07711996175615626, -0.029909197069001952, -0.008042504386021906, -0.1661612651185643, -0.07923678137816845, -0.020198969760623527, 0.03281456789809798, 0.04497851741289221, 0.03884529530398231, -0.06482605115366787, -0.05507879801858874, -0.003313014366664717, 0.10047758242337664, -0.05658188486046935, -0.17736245848913165, -0.18143311142332297, -0.1363416670053745, 0.035449171725504616, -0.023803195867757324, -0.011916449334074089, 0.04571250255435561, 0.013472539603460374, 0.034717116435367436, -0.08752373145349565, -0.07944631296388405, -0.04951191975741891, -0.10535143587280793, -0.08069588808980112, -0.02900241898246567, -0.06281387107600636, -0.0507351678828474, -0.099923695776885, -0.05988325803774665, 3.2433112850511047e-05, 0.04715092715652634, 0.025425573917025737, 0.060619669589207156, 0.0028047483461761174, 0.0010316469386269476, -0.006906901937909782, 0.08578867803082121, 0.04405774093788838, -0.06563454295398284, -0.16998564195124993, -0.10968458561531642, -0.011831951014122582, -0.01645170321323047, -0.01428093244792828, -0.02026048366500969, -0.05000089260723684, -0.02867910785159913, -0.02478856742110535, -0.049243099853457935, -0.013013695369750182, 0.016621358796448927, -0.05177396660211498, -0.07277132153214369, -0.09407685611669404, -0.06729629357560862, 0.02055470387921286, -0.01522516648032674, -0.017049649258161707, 0.0681368077348857, 0.031362758595294866, -0.05764332671787506, -0.09536592820792734, -0.08366537434037653, -0.02829758863138281, 0.06865174419380578, 0.0195682732115993, -0.018667563142936317, -0.07601369018904042, -0.08079230486104742, -0.06039800475478066, 0.009621544228957614, -0.007104706178709288, 0.04795598820507269, -0.04071647739927596, -0.040869810011619635, -0.011594497116870432, 0.0612327980993186, 0.0320776455474406, 0.04214687496718785, -0.03374955531974078, -0.04324166319990488, 0.00786628909066724, -0.0010429250760316262, -0.017504739906055267, 0.044277674822075175, -0.015985741767207885, 0.03463138784372217, 0.022441661712433284, -0.02749165693440231, -0.0038446684016023636, -0.00945210127433613, -0.03879706277397656, 0.08996726895865338, 0.07014114852471777, -0.002415632449458938, -0.05031614923546301, -0.029772774189573258, -0.03904059251679692, -0.029666869997031713, 0.02619427764071969, 0.051688213496388115, -0.045461290695631165, -0.03376608608105202, 0.012536826292979768, -0.022420534940727117, 0.02355889708662704, 0.024355940256853264, 0.033680004011866334, -0.022458038282519268, 0.08214534703940127, 0.02890370468422942, 0.04689005016858966, 0.006310079738957907, -0.0812297062847656, 0.03513878340121699, 0.005877467946095371, -0.008447008355540922, 0.060993695434680105, 0.0529202307630124, 0.021792880679888892, 0.08405788634854174, -0.017056955308398916, -0.10685414602932068, -0.04057885266618607, -0.03339610161708948, 0.018350920132471943, -0.03802984359176282, 0.0025361086831411687, -0.00262722828076749, 0.01629088771055763, -0.0009768485681245233, -0.035561546643098386, 0.014851372246866166, -0.10573802236903733, -0.016866312726368907, -0.08969799174508569, 0.02060927476140956, 0.07332264443947518, 0.039143971496378584, 0.0925040121927272, -0.008931031984932905, -0.0018490181035848412, -0.055439880792598636, -0.09741488808864122, 0.011112802191571384, -0.021029325213223062, -0.0028572874424986822, 0.026693889223655887, -0.0034114115947057686, -0.028407725590145885, -0.20930685348940495, -0.06281093894515387, -0.02489602216700949, -0.017297275640975246, -0.019103096505800048, 0.004444197052411202, -0.03506487211566922, 0.005198252230298876, 0.010885992014341643, -0.07006361176725723, -0.07088036258428877, 0.011060109386341136, 0.0017494383148390581, -0.04838569044710731, 0.04661738718093088, 0.010315323459733123, 0.012929248743998836, 0.02581580532677939, -0.0708322420234636, -0.10403091489257954, -0.029377711749527653, -0.05088080330925186, 0.0020971862945259995, 0.042184219753867463, -0.02638566853172083, 0.06540606254630744, 0.03972523873258013, -0.06492282015241645, -0.13530792011726647, -0.04419705674966329, 0.01693465107516287, -0.004421717609632584, -0.021860816421405364, 0.003873085263300231, -0.01179546826633244, 0.02709336577657845, -0.020502409097244934, -0.04039862220783984, -0.03672127277900119, -0.0546174066706563, 0.03074558396370508, -0.03351466062093937, -0.02534061270781065, -0.00572593876446227, 0.0437748062083716, 0.02220646687942239, 0.020300114926529556, -0.049634227131874556, -0.07057977690151261, -0.07430184161852738, -0.018699993751460028, 0.008129117757490456, 0.05479785789794029, 0.0172990510889723, -0.0738539952812721, -0.12132684054278199, -0.05153885750270566, -0.1024236889795883, 0.024260422080420434, 0.026159913992015307, 0.009995470065648231, -0.03746658852316036, -0.02618670177028633, 