{"construction": {"0": {"name": "Flatten", "params": [[28, 28]]}, "1": {"name": "FullyConnected", "params": [784, 30, "object>>activation", "object>>regularization"], "activation": {"name": "tanh", "params": []}, "regularization": {"name": "L2Regularization", "params": [3e-05]}}, "2": {"name": "FullyConnected", "params": [30, 30, "object>>activation", "object>>regularization"], "activation": {"name": "tanh", "params": []}, "regularization": {"name": "L2Regularization", "params": [3e-05]}}, "3": {"name": "FullyConnected", "params": [30, 10, "object>>activation", "object>>regularization"], "activation": {"name": "Softmax", "params": []}, "regularization": {"name": "L2Regularization", "params": [3e-05]}}, "num_layers": 4}, "data": {"0": {}, "1": {"weights": [[-6.799143438672076e-08, 4.147218548230253e-07, -8.293364754814564e-08, 8.778858774034232e-07, 1.271704447770072e-06, 6.607835321966518e-07, 9.563704479450778e-09, 6.655438244463446e-05, -2.8342800532341307e-07, 3.569322353476563e-07, -9.548653323340467e-06, 4.2514510912563375e-05, -0.0075733141649541955, 0.0026942586029620316, -0.007753624043377754, 0.024693390867294635, -4.4534955047513525e-06, 7.038859602154103e-09, 0.0020742695730186964, -3.789642154221548e-07, 3.889941411841381e-07, -0.0006607527700872301, 5.633071481317953e-09, -5.1615033653027115e-08, 3.5553550337156827e-07, -1.1363266451461632e-07, -3.7039590329965796e-07, 4.6883408738389293e-08, -0.00010511315655417764, -0.0013072999107709253, -5.590704533076664e-05, -7.627266112260651e-08, 0.01029348265840474, -0.0024470194308256125, 0.02269740850942495, -0.014223932831738827, -0.024429795615158904, -0.05795496836699683, -0.03894159652359524, -0.009503851019231029, -0.029992426266108194, -0.024876533784291152, -0.029835692829943555, 0.009673826892274837, 0.02657488898686896, 0.0025630614238409547, -0.06884629108341495, -0.05595544505560098, -0.030296447375491403, -0.0029187749049907254, -0.0318645852673366, -0.01039491964461561, 1.028210947843535e-05, 2.756751741010682e-06, -1.825570947366846e-07, -1.396486095195585e-08, -0.0012361227334828286, -1.140439940976946e-07, 0.002010604102343488, -0.005278165363023526, -0.03686435594302572, -0.0681425488987664, 0.02459361113796409, 0.06527866384148963, -0.008657110403295878, -0.0069448414776146685, -0.027461903466541964, -0.09799385563221182, -0.0015282318594553154, -0.04997344449680232, -0.010234682204790057, -0.02772904574096142, -0.033727125626096754, -0.041797665258981945, -0.02375530400238491, -0.05456089538588242, -0.02610817720725836, -0.018850847666018047, -0.05477765515478503, -0.026223537055892615, -0.015585458934077463, -0.015592442675596618, -0.00028577640367624885, -7.929589792050259e-09, 6.19297530392391e-08, 3.0940948542779685e-07, -0.0002764140184120654, 0.023792075649092567, -0.0027854650869535017, -0.02619567781383887, -0.0197303955052054, -0.05844354729606396, 0.021856608342650265, 0.03697382016742712, 0.009923314087441008, -0.04579940160712443, -0.06659655673665067, -0.04156127519577725, -0.05928210843992251, -0.04903482134154228, -0.09865075260328601, -0.002198997474148576, -0.08847822479222846, -0.017342587084013598, 0.045933912402441844, -0.02291858337118834, -0.09186900140810852, -0.04639438315193892, -0.006899856200203256, -0.03560263551927702, -0.0115908837043328, -3.561572689037107e-05, -3.3660336820359223e-07, 0.0015268157590093412, 0.0011846435042606076, -0.050168083021866976, -0.00943083364436742, 0.019744936129189327, -0.03408178738849162, 0.03899474254724834, 0.03633082705851902, -0.048757101020325724, 0.0365777341139385, -0.05772746156583005, 0.04211643684420024, -0.024995340559789667, 0.030936138324426588, -0.06601988015152442, -0.06614953740131393, -0.019960954461678254, -0.018908110998801162, -0.031092968055507958, -0.029673920856732657, 0.017057069437577253, -0.018729668329581714, -0.054670872442323, -0.007735759584860181, 0.0036225501273587524, -0.042641325772235096, -0.004508243446266457, -1.7348810599850667e-07, 0.00029800825504231116, -0.02082545308365744, 0.003498573941220952, -0.03004021949666193, -0.029480602036913158, -0.036455057928366, 0.0037607227724812684, -0.003776546320787472, -0.02557257804233292, 0.08151779623479151, -0.04915747388402388, -0.06285748973990823, -0.04184836404888728, 0.001708805305549997, -0.007816452874802654, -0.06635508485294818, -0.06009383001611136, 0.003906591056118354, -0.03647184623044573, -0.026436498023039476, 0.028536656519398258, 0.03461021275129789, 0.0017755036335923176, 0.029161021382670987, -0.006862419818404579, -0.0005339636148074044, -0.05590323709014756, 9.588799250762407e-08, 0.012703421880917177, -0.009842557081687547, -0.01746079994533466, 0.028659307223791865, 0.018032509132608142, -0.02228632584349365, 0.006355278285688053, 0.04119739334219969, -0.03788779827078375, 0.027794616804377278, -0.001041340002944228, 0.08433301269643168, -0.06061323037090262, 0.028229910736976723, -0.035814542465824904, -0.028111473736783552, -0.016168085480072043, 0.027013656772512787, 0.009091351031622718, 0.07754904485265889, 0.08392507209261564, 0.0638378379521466, 0.038268103940539956, 0.06679254799929338, 0.06182606680818233, 0.018304065977031745, 0.0426391464251225, 0.010464175160012058, 0.008783548704456783, -0.03382011689715825, -0.07627997569479444, -0.01617342539720256, -0.0749862245605592, -0.020127935212907185, 0.0823039284896073, -0.01981707955433179, 0.0031179203173523976, -0.008361191271749592, 0.04488328498670695, 0.012088573808706387, 0.04224140637516932, -0.04318672475206538, -0.012042736221572908, 0.02929961501071681, 0.03301669444800003, 0.03312033745732284, 0.03572805303202917, 0.045976738157005696, -0.004116947280948242, 0.006544775004766379, 0.014555516986606324, 0.10822478536940255, 0.028225131197673996, -0.018316029261266725, 0.005353788351356887, -0.0015022114701648773, 0.026942094744705238, -0.042013303075366326, 0.038699643823677264, 0.024025198583008948, -0.028251061234967297, 0.04970026983642124, 0.02717197026340118, 0.011240744515249363, 0.061099322162139216, -0.017895811366003534, 0.04004252619367382, 0.03985423730244564, -0.034255771821579024, 0.013699915658854188, 0.0018327967765177052, -0.024936556128851567, 0.04297376490138423, 0.024522580226374685, 0.009935217015753176, 0.01772932747255871, 0.00032856674726754295, -0.0309869299478054, 0.02099465041043115, 0.06401856958250277, 0.06703420433221109, -0.023550284904633678, 0.02945824735964149, -0.0019853247464580357, 0.0049371979499368696, 0.04632970809042237, -0.014653248846757965, 0.011630513363668672, -0.10277701321502386, 0.014786360828409758, 0.056632332808790146, 0.0013426412226675906, -0.0799632788020437, 0.004848741776545015, -0.034718938922198885, -0.05438774313987621, -0.015005291982113481, -0.04011221417283457, -0.061724961617869854, 0.052755613719571735, -0.0004167621336857696, 0.056780668732321814, 0.0540796259981129, 0.01004742201622505, 0.00011997350106037483, 0.004783427249819657, 0.01336271555985049, 0.052197257889364315, 0.07116329119504056, -0.04219396087603012, -0.0005485710824284914, -0.001499386211837321, -0.04916413562787723, -0.06673948665599506, -0.01455431627739624, -0.050750195134002356, 0.06636874254246755, 0.04059926071615808, 0.01206891194737728, -0.05532198465236002, 0.03078740275762178, -0.046887084221237704, 0.005330403239761408, 0.0176959200914542, -0.012058807388174766, -0.055068487140436946, -0.04159378655983503, 0.03606339866376569, 0.017420905625948693, -0.03339978642911193, 0.02311206541723151, -0.03219483233189804, 7.682948606766392e-05, -0.0021132654967196823, 0.018878986746708258, 0.061013687110908835, -0.02239164872040781, 0.0046338157063697885, 0.00867007022177514, -0.006419157262995974, 0.02293410705826009, -0.0087450536841663, -0.002264198876466223, -0.028401128157083334, 0.0007879953838874848, 0.0962082097924399, 0.004402060632669264, 0.04958756671095875, -0.021860687400427084, 0.04007218119257288, -0.04459138413346928, -0.0387211304285168, -0.0046797115273500296, 0.02854178534288562, -0.015544545945159265, 0.01853985952809712, -0.03531608731336856, -0.0009778226785615908, 0.018950570542442303, -0.013036686026822345, -0.028313793839173002, -0.012921849594031828, -0.05264405409266016, -0.05376706775960044, 0.04917612764865555, -0.036906620184776556, 0.005414931466191107, -0.0021526064903598253, -0.02436500566287144, 0.009149151456623136, -0.008398974400395559, 0.01838000066534183, 0.004939502347658865, -0.0055498333384392815, 0.004159556662740469, -0.060940380043787525, 0.0034419140900120715, -0.07358570248842564, -0.04991852933379343, -0.059408322577644695, 0.02431196907878263, -0.0060051949890926794, -0.0067536695175248705, 0.04220852646754979, 0.011964728658294812, 0.04735563815320141, -0.006611463869589754, -0.041220272351291914, -0.07290170620742663, -0.022610698981528968, -0.13187075846193663, -0.04166335020973055, 0.014630191421642031, -0.000551064493133595, 0.04096634470290886, -0.026937256103797713, -0.05556553217934989, 0.029693344252731204, 0.019507566002606006, -0.011170460081191949, 0.011760378878006348, -0.04319788114162898, 0.022464011396709407, -0.04217618151599032, 0.03780113739132035, 0.00370578954122909, -0.0711665694164743, -0.030850922492087606, 0.05424745496717126, 0.04668646351265121, 0.014006350124910619, -0.03851918872631388, 0.021727040434993416, -0.002182104432744081, -0.04732767836966211, -0.05906762710296502, -0.052000065092490444, -0.07125967347096497, -0.006938213496906155, -0.014011316313287678, -0.02118541479555086, 0.04077296490543804, 0.005823666906461362, 0.0011920834040439461, -0.023154723150010426, 0.011997856697412828, 0.019962822346960944, -0.0005402269748650911, 0.02530136379328233, 0.026742121787212032, -0.12915422182603187, -0.06810155894732073, -0.07566260638368251, -0.0958603923135107, -3.693602279276253e-05, 0.07895321788169671, 0.07165436080931684, 0.0010818129198840504, -0.06512595069281013, -0.052926800894090416, -0.03835059984101766, -0.0054249812998105815, -0.013484306706003141, -0.05407922618050562, -0.08870169471458206, -0.02761750148928402, -0.03989063568475114, -0.024613874912996495, -0.022680917047882162, -0.05818988567368458, 0.0053225514760302, 0.0016248835990451754, 0.003349655418729815, 0.009911016388097339, 0.02241208730895864, 0.03063129536660383, 0.012432886853953528, -0.04896562890188525, 0.006467059866767561, -0.0011860813585995022, -0.12910862131744485, -0.01903127070036789, -0.0779212760352486, -0.02141530302024824, 0.04953115288059385, 0.04902926877575506, -0.012011415759423926, 0.04992569137206462, -0.0005147039533432087, -0.01585647347994424, -0.0313401639899077, -0.02604074669205794, -0.06353618824028003, -0.06546971996890523, -0.055829344313732016, -0.08231892734753733, -0.027387447784762427, 0.007298058075596932, -0.012276016710388511, -0.004862884729263972, -0.0009514026103117009, -0.011416569550974663, 0.011151247088231953, 0.047681233090891596, -0.057993923299506325, -0.04151111353930699, -0.06729567137217897, -0.024634617749103756, -0.035937256937328216, -0.115794142304198, -0.0009169994371814332, -0.023480051212402486, 0.01591479462211164, -0.01558336375111635, 0.003675229850649111, -0.017018924379562286, -0.07385312489365063, -0.07639125736520243, -0.03729082673095777, -0.04802780552219678, -0.027843246235866075, -0.057696585952890116, -0.06716953898231615, -0.01244038335531657, -0.009141956521758319, 0.05012427672759169, -0.017154346039565057, 1.2620638924330783e-06, 0.003803248387528753, 0.04139427507277306, 0.027095809106465068, -0.038816053954549734, -0.01627195890326673, -0.02000469119727534, -0.05759651070287553, -0.06193037378789802, -0.05884264949334659, -0.034827588086193115, 0.031061866837041506, 0.034307917188163575, -0.01082296029036658, 0.019595738058494253, -0.04469896884374073, 0.031934979133195776, 0.00201051583161503, 0.012034125880589467, -0.06781909594895222, -0.01114909716351861, 0.03683544933706984, -0.005250439937657628, 0.02673977707178078, -0.07823025219011844, 0.020998724007589783, -0.014480096958376012, 0.005012333898318955, 0.00150665634774938, -0.00010434405829248282, 0.00781466606570978, 0.0287940428819944, 0.05649720383533266, -0.021974424892369105, -0.002494784469455599, 0.03024955212080071, -0.09791791884692931, -0.01491178071478345, -0.11483853184087642, 0.0005314189884178623, -0.0067222143845729904, -0.07221257920840095, -0.035589566040308204, -0.0025016965864345007, -0.03046997417318732, -0.04873283025759044, -0.03211143226590641, -0.029804397751895542, -0.06652669289723312, -0.01189145780654156, -0.07812989039129051, 0.004837962532482583, -0.04905338537221214, 0.03645912312508509, 0.05236313022495438, -0.04196089024917579, 0.0003376427867561559, -0.00635313200122421, 0.007638268955712799, 0.04822586049057598, 0.04718585397039385, -0.01061762914656228, -0.009192207805548275, -0.012681164042781629, 5.691708499371486e-05, -0.06739359676970293, -0.0695257977005683, -0.030737759844052148, -0.029429166664004993, -0.029760392162743968, -0.06910534273125213, -0.04506181480148643, -0.04184764135217775, -0.06829834395161598, -0.07474113105270051, -0.06632390458004887, 0.0010203064033817077, -0.015678800629909062, 0.03379553867178572, -0.03592011075216986, 0.04825817708041884, 0.0025559231333885496, 0.05047248530594014, 0.01713172316369643, -1.4645397592601568e-07, 0.028614501726871036, 0.01683216396934571, -0.04060917062699511, 0.03978689717759727, 0.013487350329392973, 0.014765181547072582, -0.02394713291939427, -0.04920660439124214, -0.04786638522252071, -0.040984346083983485, -0.027224083523328762, -0.058363055039091005, -0.03285382674062446, -0.06733148852236269, -0.05056092892173765, -0.06545633871098484, -0.1361821156752171, -0.03681053928784229, 0.025427178080901947, -0.06216077337390324, 0.013181620640636427, -0.031696830925493566, 0.03168581214400228, 0.08249674292109085, 0.06417498055641219, 0.00408512020089645, 0.008875407787636068, 0.0009571993676140043, 0.02097242720653907, 0.03890737689181178, 0.06766496796783893, -0.0025448691532669026, 0.02146260778811715, 0.03689216414988538, 0.07476554979441583, -0.08600631645136539, 0.04775878531563441, 0.02871754099019721, 0.031891245151102615, -0.030526387132283457, -0.04224710384769794, -0.03499034745637111, -0.07124796497110054, -0.07775890436170124, -0.019317624057266995, 0.08500390509831286, 0.030595301749569245, 0.029820265362984565, 0.07309301253980913, 0.02572553826088667, 0.03863784118434481, 0.003841078269605995, 0.022698719426123757, 0.025147220415054756, -0.0014849785396718006, 0.0009634383384048822, -0.0022219632299109037, -0.03283197035202824, -0.08936306143294025, -0.011757412590498558, -0.0014389423946272657, 0.016738068917889908, 0.0010544725709254218, 0.06423487816600128, 0.010859249206764182, 0.01068954388366238, -0.04001625830479769, 0.00795959085439518, 0.003567576457866605, -0.024202124779438054, 0.0006232940919353003, 0.01582432480277045, 0.04830739537906658, -0.014651087261301307, 0.010632771623611158, 0.07378112479551895, 0.027366096461867138, 0.032510954919757834, 0.03246762694035111, 0.029526375852859287, -0.03032067408569154, 0.005400967519949828, -0.0015057490531456008, -5.186628922956128e-08, -1.3383508122947574e-07, -0.037290642807548964, 0.017901128388564495, 0.05688707896627486, 0.04736482641049354, -0.013059066416847226, 0.004846631647634937, 0.020346225676797346, 0.026938270809335273, -0.00033450876209267777, 0.0769825280011636, 0.01594694339868142, 0.011122743183063695, 0.10269938447957996, 0.12540776851277172, 0.06430160235754412, 0.06207846199689046, 0.11651256988117004, 0.026297905770806203, 0.012952802454132653, 0.05646060836255477, 0.11310847795959247, 0.04014519275875813, -0.03377328930213273, 0.010807371826485283, -0.017992522416443266, 1.3551899915756528e-10, 5.414433644281697e-07, -6.686187985448626e-08, 0.06907438519677649, -0.030258870898681435, -0.041856044931624904, 0.00045374340745849934, -0.043757108425494316, 0.05609855384831767, 0.01822493342349637, -0.00637695931235423, 0.10700035146844762, 0.004174503560723395, 0.09292708042180652, 0.07024449916432059, 0.0813507001870088, 0.011280350904685786, 0.04363482368339463, 0.0010849124845899614, -0.0007284973951269349, 0.07143350733598088, 0.036574970394342245, 0.03816495404783692, 0.0076302575962901445, 0.06658885772906267, 0.03861991979589618, 0.015424384555271165, 0.00013100423200391683, -1.19782242689629e-08, 3.0080816555896603e-08, -0.00011819081783444283, 0.003104787432391581, -0.025202267098532002, -0.04793507389731625, -0.03142131801056977, 0.021189431386712167, -0.060858960894591654, 0.016657845391762523, -0.026523471108109545, -0.00208731855250497, -0.03731942778257186, 0.04676275183502838, -0.013333791749771161, -0.0012415122281693057, 0.03330165143460924, 0.08559929063392745, 0.030234829648559735, 0.05176707086870251, -0.031158097682626954, -0.00030857939674058636, 0.015692379289969118, 0.05592535739286649, 0.04545542649989003, 0.00382955455241515, 0.03619677520662682, 0.01098258334067751, 3.447247293969702e-07, -2.713384946578593e-07, 1.177291964697449e-06, -7.070582917902655e-06, -0.0006182330989772992, 0.0067217277658733945, -0.022822753797261366, 0.012327068454651329, -0.04339421731772191, -0.06884388162524684, 0.0265531098118989, 0.06308140304670641, -0.01999502739645398, -0.021290178043144488, -0.02277288186200729, -0.09623098545499559, 0.04735040062243689, 0.05219935291501148, 0.014921686338603834, 0.013058805855269811, 0.007379582769884401, 0.04077802433597288, 0.030481888135679796, 0.04420809588604586, 0.004419953828639337, -0.0009934716805883015, -0.005543281549928651, -0.018367888930898826, 0.004259967053547211, 1.3371536673911165e-06, 1.3322298089701433e-06, 4.5842967744854e-10, 2.0472060530367978e-07, -0.00251892411496125, 0.0043788487450218275, -0.038895452762413095, -0.02227525316476669, -0.00111211402722461, 0.016077173799957403, 0.03357985335380666, -0.07127295972126885, -0.01287790725919494, -0.024728304774633864, -0.032493031357705496, 0.04305290628463988, -0.038662148780647, -0.04463571148523729, -0.009555055609822784, 0.0021652044346678776, -0.019721733736619673, 0.004834866158185999, 0.023618000959771603, 0.0026704095387500193, -7.543081904010901e-06, 1.4431648888915225e-05, 1.046408782626043e-08, -1.1092142781763587e-07], [0.011398224136655692, 1.2375298550837079e-07, 1.0530113947143798e-08, -3.117859337891229e-06, 0.0002489175183704474, -9.515542068763789e-07, -1.45674425425512e-09, -2.5650621418848263e-06, 1.1373631573192407e-07, -0.0041773895278127806, -1.2880744968833427e-06, 4.1601849199498045e-07, 0.0014586214200538344, -0.0006079695222598994, -0.0011525755515702598, -0.0528882181723179, -1.1441528747944658e-07, -0.007011261306874162, -6.290568168293348e-07, 2.28500720293021e-06, -7.363997291114201e-05, 1.3933021661544552e-07, 1.0224138733728023e-05, 6.306646536775691e-09, 2.0584302767568195e-08, 1.1763660604304525e-08, -7.364212469001235e-08, 3.262200948329337e-06, -3.5297869938113123e-07, -4.204387989337028e-08, 3.2992853674016463e-07, 1.4371342726454226e-07, 0.002492442124897146, 0.004166068627428241, -0.04235662749320453, 0.00017222443296471083, -0.009876537034369798, 0.004329529622319884, -0.05262303798855665, 0.01097158229782435, 0.00875522635301609, 0.052295186127667356, -0.018043861974698233, 0.04471432277378441, 0.020995820038892724, -0.012146557915220546, 0.03638347247191934, -0.039323845114056705, 0.01862576389683767, 0.027076949625130953, -0.04161816294973089, 0.023074583871114662, 1.363543632911343e-07, 6.676456410698656e-08, -1.6051886038257644e-09, 1.7474160615434131e-09, 2.8924129446911735e-08, 7.172167939373933e-08, -0.0032580894590857946, -0.0013193600973484727, 0.00817862058183524, 0.006582177520406834, 0.02134121930477468, 0.04791437782022091, -0.0018125249955208494, -0.03220013914246709, 0.02529663152387148, 0.030205198945314413, 0.06104541864217028, -0.030856133415361652, -0.043766182486627704, -0.0483024072442995, 0.05179159707656846, -0.0584317082630466, 0.028519982062509056, -0.023646946496147653, 0.020295912113357458, 0.012216965677074889, 0.03233935562086662, -0.009867394459293554, 0.0022886104780709495, 0.0027046390784110147, 2.933341792467861e-08, 0.0030971679335925558, -1.3341645367126522e-06, -9.697091204083655e-05, -0.003457923893979654, -0.07896064793397087, -0.004569821511035589, 0.07954925204349496, -0.003618301936774644, 0.010296993922467362, -0.040799533202847335, -0.013292226949788287, -0.014567862596514379, -0.05737304098668539, -0.0966232308499177, -0.006844698556577657, 0.0009309354719255852, -0.00826640851842977, -0.04182441824799289, 0.009802914605841076, -0.03444936570197418, 0.008271678308421552, 0.030943905952555653, -0.010994354328123622, 0.06085995789168889, -0.06154872863707232, -0.0021331081448142325, 0.000350942208592968, 0.0015527539123245167, -2.4619294915069755e-06, 3.277583234661607e-08, -0.0015252140060375914, 0.017560959445186652, 0.044949839214552006, -0.0019373621796918402, 0.006803717193292249, -0.03343092643518911, -0.08311665922679855, -0.056408098419619655, -0.06333091859456517, 0.003924336430319683, -0.030530500948724816, 0.007880627656548385, -0.0038510880570264607, 0.01668487995286259, -0.014702344772075038, 0.018648586718143203, -0.008973724128645218, 0.03492176729476604, 0.03699532442007206, -0.004588791951921184, 0.054393935097567625, 0.04464581543071119, 0.016988714380360224, -0.0028526549438408545, -0.0038471535371333012, -0.017298362432093994, 0.013951655565691933, 7.03016899130024e-08, 0.0003758952833848377, 0.022999603907700394, -0.04603030772136054, 0.00807479622399649, -0.0378209435488899, -0.08634912311180686, -0.019880121271753336, -0.017128661806052905, -0.06468263803654442, -0.04277097740276019, -0.04641203973036905, -0.06692012243704577, 0.024084774204361076, 0.03985309009925312, 0.003951942257712741, 0.00921738888052461, 0.08902225820337673, 0.07667760958146136, 0.03079397946698887, 0.03998133015145099, 0.07721138528688387, 0.07792637321492372, 0.0789471370495872, 0.031365524884636044, -0.018183089059405244, -0.01909865248578738, -0.004182499438179165, -9.940876420027131e-06, -0.05355450776173422, 0.049939050880689694, 0.015306823094748912, -0.041379126444798464, -0.05300578567256078, -0.04548773302177689, -0.03913723069730374, -0.06738158763778015, -0.016179648618118384, -0.01527771946720511, -0.006828111922896992, -0.012444137508660693, -0.03685237112299795, 0.023298622606774164, -0.0005863411120619357, -0.012897289346079857, -0.002728189268316211, 0.02957863221730122, 0.07408127330418904, 0.03593320812766187, 0.024100339858108975, 0.02927491367601926, 0.014941874577454266, 0.07773789278744678, 0.062012064349705166, 0.06937908036312054, 0.046708684395028975, -3.426610631616659e-05, 0.006412155109865956, -0.000946451978116153, -0.08138668451861211, -0.08056762727639638, -0.1404283665500711, -0.07493875034973063, -0.10885624501967348, -0.08611113457488884, -0.021216629478937, -0.02199323503386026, 0.006833375429649285, 0.02868748946488511, 0.004506948192307277, 0.01760883451982617, 0.016369288425561866, -0.04484147904590135, -0.0060455165315205575, -0.016199619617134883, 0.0160842364420715, 0.046619466480598684, 0.06517200949706034, 0.03886382636797383, 0.07485907305397092, 0.12011768109991085, 0.06621740572412128, 0.016346814235063678, 0.028273192413656348, -0.0014974012557343109, 0.04653189182726561, 0.02711936812664944, -0.0633126179012055, -0.08141658947536515, -0.032675598921155645, -0.08871233830883675, 0.015278364999988855, -0.0929873354407404, -0.041998510816396536, -0.0402823382606361, 0.03108326991428959, 0.002338584301570042, -0.013194697358500845, -0.03824201341164802, 0.024399955034714864, -0.05039483272187582, -0.023343702186893647, -0.09032436392653746, -0.059475919488227946, 0.08214492394312581, 0.03637767982292857, 0.02194012633169021, 0.059827214383161, 0.05794603594894662, 0.04217371724124693, 0.07656468741274462, 0.017525464366744622, -0.0017422006125240666, -0.03574879188768136, 0.040184487875803074, 0.005043132357251694, -0.11109930884565018, -0.09412728205301586, -0.06696188514783234, 9.974166918033204e-06, -0.010042907578853727, 0.031205132246279316, 0.0675603940332878, 0.03620657112318317, -0.03150410607967652, 0.04514383504563877, -0.01952438844691529, -0.016639356213878107, -0.00662507887842266, -0.05118825130621473, -0.049252017380045296, -0.027043277326561255, -0.008239724305029625, 0.024829213216291002, 0.010168730892563383, -0.02630932431551769, 0.06268738738789625, 0.05943423959726784, 0.0546277459294458, 0.013648139984389887, -0.015798185990404633, -0.032426779047185515, -0.043725566792733796, -0.11281702994406526, -0.011539064759865693, -0.08420746700022547, -0.05384379319257157, -0.07056653044386421, -0.07331152923451101, 0.013350378596442116, 0.06513484786475286, 0.005783739014412317, -0.004973733119941172, 0.0603665499920619, 0.07653299750325357, 0.03398322592141578, 0.0046908911913923, -0.04756031185682449, -0.043180496562168796, -0.05013795336250218, -0.0726433947586118, -0.04204851210873172, 0.027234064865546272, 0.029255821593710322, 0.05575691601435791, 0.01396104122739359, 0.016265068543382756, 0.041942302722396706, -0.04006209078271632, -0.004749911820475215, -0.0728077215516515, 0.0028755142461626116, 0.02300257015632109, 0.052132896557751975, 0.00856854572572365, -0.02245070955213532, -0.018305790448376512, 0.008961987655276695, -0.008643828230527454, 0.015679143447141133, 0.1040340918025343, 0.028705261658974184, 0.03358140911519376, -3.48890911738017e-05, -0.0002997028146222832, -0.06306804555211924, -0.017493292319005316, -0.10585535580462592, -0.05602187837130021, -0.027483695200369848, 0.08267916037184751, 0.023501894005304717, 0.04765879736742079, -0.015173870694641378, 0.06389270559309491, 0.03406787472349775, 0.01599225289241342, -0.031232420722851022, -0.0802071726315815, 0.004968157858227363, 0.01668341234820492, -0.0014917247614555267, 0.01798736246878929, 0.03700434852146644, 0.052029233109679864, 0.030526304952260566, 0.07893827711314233, 0.07739577495230446, 0.01961249604659623, 0.00909750508345296, 0.018464923386574558, 0.03446742449475588, -0.010371797047312928, -0.0968230554217716, -0.08552591575532946, -0.0446319544127331, 0.014586706689069077, -0.04788051039121616, 0.05922873943136736, 0.031818183426960495, 0.03139899260843395, 0.05758150360986208, 0.011682170603583364, 0.008281258419676968, 0.012836742965441817, 0.003372226927843456, 0.0058422530351938465, 0.024820445666155794, -0.002431564440619036, -0.025449710389642794, -0.008469161302388176, 0.011883031861435092, 0.013373922215577042, 0.0650530536331984, 0.0602753358370401, 0.014047556172885842, -0.003959182423849364, 0.020271586965782924, 0.01904761670206457, 0.05131870371355005, -0.028856988896971202, -0.01193009653615238, -0.019962972194644026, -0.017625432898222097, 0.001316564137140994, -0.027607135709814067, 0.014441565933652534, 0.009038771833782537, 0.04529548855794854, 0.027559228642554723, -0.004635863479556108, -0.0022550795613166014, 0.001193398590931222, -0.0011919704457014086, -0.04789195268223493, -0.04172856451064261, -0.029809885077472006, 0.057909837951519834, 0.008574346629161681, 0.018152511957477743, -0.06360192754700401, 0.02932944479409255, 0.00178678396333471, 0.04503125044069207, 0.05444561485245307, 0.04645219321115506, 0.10299899763678265, 0.019597557906797534, -0.0696998461431077, -0.07177944453596592, -0.07708469610076063, -0.053480943970567726, -0.017419299335899842, 0.030435653420893473, 0.016765724095028408, 0.02655254662347033, 0.03831483957198873, 0.015852051505190954, -0.0718630996822715, -0.008746288951471054, 0.016790104566183895, -0.0015374258001390687, -0.026322076935164102, -0.04803495649643754, -0.044117558037439275, 0.029725834089727378, 0.0334906603254973, 0.04549987905384886, 0.07757675485889863, -0.00037065635960731346, -0.022761470074017187, -0.011220285218748544, -0.013747425188378253, 0.01006502987476782, 0.07968071668326945, -0.0527451780177315, -0.05807653762522563, -0.1480700215727189, -0.042322497007000345, -0.06077530378950103, -0.023732121517992217, -0.028589969229567233, 0.001251490939131031, -0.014049719590633688, 0.048339605258481314, 0.024433061522726295, 0.06792126689156061, -0.024612197483982627, 0.0028707981687719404, -0.002283450295762244, -0.030797632113138754, -0.01497984268639014, -0.021624230819520467, 0.03510462205571683, -0.027948620011884164, -0.019257114185408302, -0.03502581794123405, 0.010214027227085413, 0.05035896571081618, -0.037947472324398955, 0.010443196226031482, 0.04804539533217465, 0.040105983345418275, 0.01761881623287863, -0.06638715299020269, -0.024448477953323035, -0.031213655697269187, -0.038275179237391696, 0.012242057060814325, 0.05826705596307305, 0.0037376111297881746, 0.007297220164476176, -0.04550658116080381, -0.03207352679791639, -0.02097944878922278, -0.013388660482421311, 3.806463172602469e-08, 0.024946903098706202, -0.06634741491133397, -0.01111085864411928, -0.0668903893706054, 0.00512996135616158, 0.040296415237698335, -0.040077762534292405, -0.030396777064106522, 0.022897783880601767, 0.019425800969196567, 0.03209962837557716, 0.020497269693641386, 0.04302306872909876, -0.0494863820286768, -0.05631867320824696, -0.04860121929055807, -0.07415597151364373, -0.06865985817510199, -0.07398789058316682, 0.002164381499740148, -0.10452432233171716, -0.054218348413676, -0.0745997261219027, -0.035968186285940236, -0.09989918548824657, 0.010915634814588078, -0.01023635921196807, -0.001364479169483483, 0.05743856448534893, -0.004045239431132185, -0.07555160098485748, -0.026620572099971977, 0.012159031124570292, -0.023172141200536026, -0.05813950875440853, 0.02430554626368622, -0.0025697900344125975, 0.02415666937941931, 0.021716082640627205, 0.01724372476380027, 0.006948756281213467, -0.03853842713673553, -0.06264517299696844, -0.006115207813852267, -0.02226119587537556, -0.02903075090512194, -0.03214222409667908, -0.10008509598739175, 0.029524753415670964, -0.035347430391754434, -0.008216051744722414, 0.037520690763764734, 0.02108004599439027, 0.0132937077201371, -0.005949955449052436, 9.435745610668528e-05, -0.01085651366765873, -0.04859646400399713, -0.062035883713578, -0.10967241842713554, 0.024043460963046784, 0.012037798475060278, -0.023227147154081196, -0.024511046395012517, 0.04989636738446675, 0.08796325138306109, 0.03486573142990694, 0.04317065134004697, 0.02850266572620382, 0.060223699203245995, -0.03911748139521005, -0.03478740742050483, -0.06267706055953319, -0.057663759039699156, 0.02429878103178656, 0.020384785671218427, -0.0005623508355811933, -0.03505823513791524, -0.030258702118474413, 0.06502983047777881, -0.06851121735192338, -0.00020419396416596747, 0.0021177315146809115, 0.0003600018194070878, -0.025957425125018977, -0.04005518637588572, -0.04069082561376705, -0.023905593508336966, -0.07504208065617829, -0.03723981594734006, 0.035550999748574195, 0.03808217298158576, 0.025310194517743825, 0.016326252085545497, 0.03135744136526458, -0.008832419977549829, 0.023913617505252237, 0.017242289740538375, 0.006533605105105503, -0.012565283952692494, -0.011767419172873678, 0.019086235448777057, -0.0006786867193675215, -0.034291588841808884, -0.028155523336825698, 0.03531764692441344, -0.05231958152988129, -0.04021015389227993, 0.003886843011638772, -0.03271437591952371, 0.00010244828069673069, 0.0015188938153989173, 0.018396155681818318, 0.031678207044972866, -0.045434801462287094, -0.027043214625081618, -0.05914619157383721, -0.06575413457508719, -0.004605381203684834, 0.03565640102425172, -0.04152089515415196, 0.0060525916000214175, -0.017822308934686344, -0.003968049874925524, -0.008736928820581222, 0.03881619313581884, 0.07399948848492167, 0.009549853119686992, 0.018508346347361565, 0.025131799262890483, -0.026979283634243907, 0.002960277782651417, -0.015536584428150788, -0.012057715480461117, -0.03853681097519218, 0.025183086026719512, -0.01225012961514436, -0.01780833748180117, 0.0011997030844125773, 0.0015257968864723955, 0.01826099353377911, -0.005653893929413681, -0.004729683728057777, -0.028612906463455212, -0.030807323518612775, -0.06720554923174689, 0.006275008222081108, 0.024963914766993285, 0.10061465034080877, -0.006123423738887355, 0.03083730658618793, 0.033953964176204735, 0.02829705135140471, 0.005208470295861663, 0.08010581571720622, -0.01259323690830473, 0.0123408318001376, 0.013718777826049772, 0.08720955143392653, 0.042248882527578864, -0.058612060004358875, 0.019987173455069004, -0.03657010732095186, -0.056448448102829896, -0.008642156533636302, 0.028008386223143847, 0.0015114730429012671, -2.221329680236431e-08, -9.225116369079117e-09, 0.03520159588998112, -0.02824025806659991, -0.031729001121674684, 0.023002078968858808, -0.0275768169589209, -0.01116833442759493, 0.015866620032859477, 0.009326106925596914, 0.03833841034217557, -0.018218860292454318, 0.015811161281910662, 0.0054570448962290245, 0.06457906095377028, -0.031057173710988605, 0.04189456127959063, 0.00870589696442262, 0.04734962083668623, 0.000330894473607842, 0.03550328432876662, -0.04313670148524321, 0.014344706530366746, 0.018076794366292174, -0.058140480831819864, 0.0069548403209118955, 0.0005483666177260916, 1.2811079446786141e-06, -8.494331226711276e-06, -3.372758620553863e-08, -0.050405172177319, -0.04945743239431698, -0.04976400252416641, -0.045678482476806885, -0.048373277648619706, -0.04185948027815112, -0.03889224431548526, 0.012896459561685785, -0.06279167616753449, -0.004059883314682568, 0.015521850226220863, -0.011503417364349336, 0.04337910166860548, 0.06708854778254593, 0.036671100658919556, -0.03434352183148944, 0.040709442721086835, -0.03995365471657535, -0.009626235064392146, -0.0024160064960421427, -0.02029941356008947, -0.03858474394610837, -0.021719164748039827, -0.029437941119127318, -0.02701482368091368, -0.0008660777728804308, 1.4882087771544005e-06, 1.2706055785799131e-06, -0.003446760000000494, 0.027285340464298754, -0.004973087938343991, 0.02823008582996858, -0.08139242435739127, -0.06845700268423643, -0.059971118598173306, -0.06467905883566846, -0.05650437007928085, -0.07109797329794812, -0.018515848587347165, -0.030533261896237774, -0.05101881696458755, -0.06212230677143888, -0.06705168777684045, -0.050357270763056516, -0.04198815016514266, -0.0704715800892532, 0.013143735427417447, 0.005820941065867081, 0.007542105651082483, -0.07522114997031347, 0.02715060773421515, -0.0008964432866365292, -0.001152625191262538, -1.0141041381347948e-06, 7.656873644901928e-06, 0.0007139610666653548, -0.004056243106172631, -0.0015425050393905227, -0.04584905919241009, -0.0005275670527968742, 0.00659690704508415, -0.0361504706690304, -0.09588698163367167, -0.017431021950855108, 0.0502142404471767, 0.024112169277156217, -0.07364908228411984, -0.08725795686720574, -0.13257303100181786, 0.006466086979888411, -0.011920883625740295, -0.09934883731910463, -0.016305654870139036, 0.026507071488287057, -0.015055264014751041, 0.001668352051863674, 0.0022146990172136278, -0.013010762719064406, 0.0015491472260626591, -0.019061366861546372, -1.5891939618641656e-05, 3.382678246605971e-08, 5.8234851110084757e-08, 4.494929418486557e-07, 1.4485160461870446e-08, 1.066926659491328e-06, -0.022056461009467784, -0.0018113607272253448, -0.014354713229689904, -0.01123953411624172, -0.011255760137097205, -0.06293896203349773, -0.06240064006824888, -0.0590804630310694, 0.0028478298313559304, -0.04349192106994707, -0.07545387087284636, -0.05348497759805164, 0.047843566514930845, 0.0025719180617311314, 0.013660776627722275, -0.011724744281324601, -0.0018026254079651592, -0.01962371420973225, 0.04213206972496568, 0.011559078159902923, 5.331789380329662e-07, -4.715882114435225e-05, -9.888234567404617e-07, -1.0329291737867537e-05], [0.00018663136331439133, 9.709113198402063e-06, -3.184268781152277e-05, -8.891737465400223e-08, -8.886699385654311e-08, 1.337154259156809e-06, -3.112393014410677e-07, 2.063750071437797e-09, 1.0206487236067053e-05, 7.07700481058102e-08, -2.6644512168458136e-10, 3.500722377750475e-09, -0.002626414332398771, 0.003140053881017727, -0.03327523870845292, 0.01707887052293468, -0.00028925217871688205, 1.0705533447892973e-08, -0.007517024337303052, -1.4437023322940086e-07, 1.5208833867728833e-07, -0.0005196493645102757, -8.590126939248921e-09, -1.0801585196306723e-07, 1.852525292592334e-08, 5.244671949243522e-06, 5.562489837557628e-09, 4.528824034735834e-05, 2.3664925394417824e-07, 2.4340506522027523e-07, -2.51584090048677e-07, -2.650161033498954e-08, -0.025562152039564794, 0.006175231522681965, -0.013964059222662532, -0.0529005053264073, 0.010078117009106267, 0.0178363757710135, -0.0011157300077362863, -0.01217482344530566, 0.04233507370982555, -0.0357427275418777, -0.02228668738287984, -0.04884451082348154, 0.011239027486222707, 0.04229169367352597, -0.0350826165940247, -0.01875526243622552, -0.011628828663233634, -0.05237222221942661, 0.0007593890772284542, -0.032298010051645086, 2.0006852867503944e-08, 2.002591647406512e-08, 9.963228517423557e-06, -3.1216121841187714e-08, -1.1932433056025605e-06, 3.0516073561677805e-10, 0.0013956055062063135, 0.005013213526698758, 0.030600046608407233, -0.03946815962530366, 0.06774634188320647, 0.023311962173118202, -0.07582913081493918, -0.012838106504828238, -0.02446130533491912, -0.08522656043353309, -0.03012117760365319, -0.0596775269884139, -0.009453451683170258, -0.027210785309676293, -0.01086151018021674, -0.06431996980540029, -0.05239435949711984, -0.05297213196867895, 0.0657046596749307, -0.047247097994441434, 0.0037900179002713307, 0.059298598250640655, -0.0035757163447209628, -0.002510289958569885, 7.043705858375434e-07, 1.0087108222659445e-05, -1.1881636988475637e-05, -6.473712618993257e-07, -0.024552511671883475, 0.029554377481682458, -0.010092847317448883, -0.061961072795392716, 0.013397053895745404, 0.03860735824649961, -0.030875034034826106, -0.012986902494233942, 0.04643758103205528, -0.043165435830992076, -0.040559530290417915, -0.06542072072365425, -0.019010130614675498, -0.03181720432177173, 0.024982283230179213, -0.03480565382875671, 0.01869505449055883, -0.010781974521700575, 0.012989188082073846, -0.03250168056431432, -0.015370358532527315, 0.04125375681881684, 0.0013564913311598017, -0.000458333425063015, 0.03182856221787637, 1.4435037541920116e-07, -1.3628053894748737e-07, 0.0015314456063779275, 0.031801480399829586, -0.03028418414901296, -0.02126037794444214, -0.028213061776125037, 0.0505457692383139, 0.006917146457193516, -0.029307312414221118, -0.02083166527244695, -0.016041427591266158, -0.047262912449068606, -0.05247172963070453, -0.10480436356113645, -0.1048612732779514, -0.05860819631702608, -0.05411946013334165, -0.022953109191457485, -0.0247527456109891, -0.07042875925665654, -0.03429017108152912, 0.029093772074936304, 0.058523656239001194, 0.0701625468460241, 0.05206181153140041, -0.0030009725214056363, 0.03670556225826922, -0.04362240876164886, -3.6848808133894014e-07, -0.0007794263181906602, 0.0014821836888908755, -0.010793604317873311, -0.002452874005367364, -0.00748700987965704, -0.044353119277011736, -0.0018050727037023618, -0.029691940422984783, 0.001111856449814243, -0.005768594260524501, -0.056633861343166295, 0.0028465201800521285, -0.001971700489735727, -0.027182702140731554, -0.10082565010676856, -0.014792306340477368, -0.04598905411296665, 0.011389113225371238, 0.0056688569484341905, 0.00026313717699640547, 0.01856828092643628, -0.03452690937262982, 0.08454635685517353, 0.028871712529608348, 0.045302366557336125, 0.07189025744621994, -0.0005776171480231611, 2.2810647487955938e-05, 0.010178475752365796, 0.015546976445451903, -0.007267630688785442, 0.10416068651634457, -0.020641506644222055, -0.0069063887515838085, -0.024405712758038267, 0.013724730758120316, -0.011098978994151177, -0.034628016551855365, -0.04917349692923475, -0.01262159926869735, -0.05163242573397992, -0.021125362586429258, 0.021080520384966914, -0.06473415885036177, -0.06998538958299087, -0.05417407373849563, -0.031291745683506754, -0.01404029585930119, -0.014526554455142627, 0.04337468482583092, 0.018334687339492655, 0.0845491471477124, 0.038827321452832596, 0.005618584665389654, -0.016293486256080198, 0.008811485925036255, 0.002601178489971186, 0.019880363155942916, -0.07078524714337175, -0.024881833425027363, -2.396165470041079e-05, 0.0007535055155050629, -0.008763114627818726, 0.03515420548947132, -0.0015247273812193584, -0.023485490800598696, 0.00688909961363009, 0.0943964671029101, 0.03873541831929791, -0.004193283677773251, -0.015250186752924685, 0.10674158988138485, 0.07261046612020454, 0.025161746209834253, 0.012361802536298823, -0.04396991405247868, -0.03339565369808553, -0.03483187452164252, 0.08172182497549295, 0.12313016691234273, 0.05214130213120304, 0.028155657595880106, -0.014843671178967163, -0.0014445623218021452, 0.005370203166940634, 0.04275871918429231, 0.01200183183847912, 0.0155942964417705, 0.040506448523134043, 0.06380125838223426, -0.010474178642860012, 0.02879609447132792, 0.016639021925685966, 0.004597340482391122, -0.030025128121022447, 0.04424163484420927, -0.05446275140889974, -0.023488795247206026, 0.0069227685320459595, -0.03578020654498723, 0.04228474197208551, -0.0025285394525518742, -0.014214022807076397, 0.003478604972593102, 0.02522062453313075, 0.07680903729353454, -0.02187487782970978, 0.05308576524737802, 0.07915081005691843, 0.02661838467030107, 0.004973353007626591, 0.0008342525024847078, 0.010225010764941667, 0.03508043591353038, 0.032393167567216066, 0.038857304736077465, 0.057847770038542086, -0.03729327705413656, -0.060226151389975204, -0.04766885443172999, 0.03774092380122588, -0.05136666574822209, 0.07680263948858555, 0.009310621752310769, 0.004135087912644916, 0.017383026479491585, 0.06280781669351766, 0.022278336230722885, 0.05251415607543617, -0.009284687680773642, -0.04534328289121221, -0.05247062976071173, -0.04536986848632771, -0.05644986774219991, 0.01680706411744151, 0.10823536965685966, 0.06612711185071331, -0.022821149520110162, -0.01657691919980061, 0.0021138314751699885, -0.058201260219398525, -0.012182754751474649, 0.04045654964237454, 0.005770041987236063, 0.05614730218345713, -0.05551225824035729, -0.020733814942668714, 0.08067515771350689, 0.025510306148024953, 0.020409174611238364, -0.015448765146545624, -0.008943284124156766, -0.009760518466178475, 0.03639427093842001, 0.04629939628628586, 0.04463637030932378, 0.06804397144101938, 0.04375369285191602, -0.02015669209371417, -0.07741035292057018, -0.06352394693216178, -0.03266726112777847, 0.016055379939278688, -0.002755672848608302, 0.07798122241926886, -0.020236739621869147, -0.009127045013365379, 0.006119974561199885, 0.03318556884118624, 0.030281526273836762, 0.01659347480157945, 0.1007618188670011, 0.025889933622242355, 0.009884746787565134, -0.0111809504853467, 0.014938720474914633, 0.025399572241551132, 0.015279819496485809, 0.0126223661200116, 0.056784708840948765, 0.049546143560667055, 0.0912810575177983, 0.06446936927172366, 0.06113683497174829, 0.05137770063942887, -0.010496669845845352, -0.055391516854564796, -0.04967737024447309, -0.09305078698601041, -0.07701959730224155, -0.06872775876945895, -0.0386428697762167, 0.057101173487998085, 0.06556386778711874, 0.02273870833113423, -0.005769813486730939, 0.07127177598204046, 0.01771466266956077, 0.018349174389598617, 0.015682460562743052, -0.014415568296272881, 0.04974086504313711, 0.0664698218142534, 0.031231511724948622, -0.019892457273422655, 0.024533304328858446, -0.04450190413930081, 0.05038290948784199, 0.021791522778831778, 0.05737149531311742, -0.013129362876319363, 0.06168536366825662, 0.005813380568272695, -0.036424921042170745, -0.06119421212800265, -0.023932128688893075, -0.11649874478950491, -0.09075375837961999, -0.05817966083022139, -0.04469308066038198, -0.026456857876146923, 0.041933001072733594, -9.199503656880756e-05, -0.0069416417519222225, 0.06197269824795713, 0.0847571139776387, -0.02082860492638491, 0.0017821491724491433, 0.03370293421043441, -0.09152386559639733, -0.0005762427848698287, -0.0049522579182081266, -7.185341617552214e-06, 0.02621321668225949, 0.025237275540609252, 0.015678594495771334, 0.10236262431504377, 0.011320588651786803, 0.03167809342902782, 0.02564632308734321, -0.03457613472836629, 0.018086767200760596, 0.05475650760122698, -0.014385730973347175, -0.09613589624153149, -0.07346987072734194, -0.04344913318898543, -0.05856533806704268, 0.02305876298062264, 0.015744915333600132, -0.01970594453234126, 0.0011930309785582055, 0.00690533725208862, 0.007758704679527234, 0.07822621401963352, -0.01553777170584344, -0.012808818259121507, 0.03517350269295385, 0.007608990878971473, -0.06722354049708777, -0.02291982734989117, -0.0061593288313515895, -0.0058554354992728375, 0.010705712923627472, 0.013245454349505043, -0.006887946585494762, 0.0054763379792393055, 0.03288186293163755, 0.03458623195017722, -0.020124287543002835, -0.03721624745244815, -0.06915093459871487, -0.07515396986388165, -0.03555556349761858, -0.03928310804307546, -0.061869029473637975, -0.04337137848103939, 0.001966280355608252, -0.0038829956583961616, 0.010308660082561021, 0.0014733498467266847, 0.014352927552150114, 0.024702892601089307, -0.02417040864087116, -0.007353151295770415, -0.02757773469110415, -0.08807100731801877, -0.03835165827840053, -0.03854115597615521, -0.02564690620671405, -0.05833295364914336, -0.00593491959665463, -0.011794572277146302, 0.04585437762341807, -0.01027609654305282, -0.033638174503675004, 0.0044580562349200705, 0.0144902324271012, 0.042606799215128804, -0.031901384580708625, -0.027646781348607888, -0.019978443481187307, 0.02640593985873924, -0.0432138459856302, -0.013464631756087054, -0.003503632327184264, 0.029383510443735775, 0.0009633157394329454, 0.0027851089463417494, 0.008199414535507986, -0.054057200512582594, -0.041036244020832335, -0.052662993110971154, -0.09909580259338195, -0.05391891830014989, -0.04140886745525347, -0.09075856506056343, -0.08187501651547859, -0.01234227690020693, -0.13679758895526953, -0.005939951801649415, -0.00419662829277862, -0.017187933491828115, -0.012488222997966997, 0.00730181546867826, -0.04969080045266459, 0.04192393470349562, -0.060507504956988714, -0.017350357462174282, -0.0492358622949771, -0.0038180916439858417, -0.03228584395011903, -0.03803494966340321, -0.08993210874202551, 0.0027812540257381078, 0.002098208150985801, -0.0021077868598794367, -0.03943115687521582, 0.021052807049040625, -0.03321956745007057, -0.12115437119965967, -0.05710375500857935, -0.08298547345807537, -0.08950087719642309, -0.06111675233438336, -0.06863650080679999, -0.06965397257338862, -0.09716590346211505, 0.0017968476307925545, -0.04492594792013745, 0.01790150602472688, -0.005866718503963243, 0.031552430751652004, 0.02525200391883417, -0.00885627320086066, -0.04550002739080891, -0.01700464535824064, -0.0488156675692877, -0.045226376165026366, -0.0011206038451124594, -0.061700343010584566, -0.025679115083592736, 0.00022475496081805727, 0.001518725876749197, -0.011794407483525072, -0.025739413702739168, -0.025019811756407915, -0.04692285675030589, -0.004196304503158981, 0.036625862114972034, -0.056062645192267155, -0.09980020040012395, 0.025583532433541535, -0.07699000951328612, -0.15423863892236708, -0.049777278265607454, 0.05449843987701687, -0.01294020183399491, -0.013342930900032692, -0.027588181268780678, -0.01861980152401138, -0.10880101016110706, -0.0012556908543436755, -0.00912754025973199, -0.04457528677128322, -0.04372675050717793, -0.04796505507212616, -0.10484228567298107, 0.021141541557413893, -0.016365519630796604, -0.01998250608043949, 0.00012031206893695682, 0.02693585293016594, 0.011736437636560177, 0.04641580799379733, 0.024922168323388054, 0.07065919128537579, 0.022927569396734463, -0.024593644978274792, -0.05150904149866589, -0.11242637752927342, 0.005588010494970145, -0.09287869510356318, -0.07763900479909339, -0.054426796273388985, -0.03293231252337641, -0.024038782803798123, -0.1165883402934728, -0.09259522311661958, -0.04167316799159607, -0.003932488548799728, -0.0834855882445657, -0.04031601110289176, -0.025973800271984836, -0.03670351349301495, -0.03889869051176177, -0.049655157971040226, -0.014121558833705984, 0.07019667256687578, -0.00011792292606795054, -0.012282495874217899, -0.002873093304206718, 0.034187093829751485, -0.012166861933414503, -0.08927107610075048, -0.02445337924014066, 0.01668220521934185, -0.04247579876937593, 0.00046284965953331944, -0.05611815238897246, -0.07698088086232835, -0.0578292470447711, -0.03541049530382794, -0.03655204386251333, 0.030094869162944578, -0.06976024770119596, -0.03856763915020368, -0.035154275185958164, -0.027905375160789926, -0.0037408940358711422, 0.008771427203281152, 0.005237666874972021, -0.08024263604962456, 0.033101907799890494, -0.03469912316279752, -0.049070833691876425, -0.00018993969348137085, 0.0014159561265024519, -0.011590645413134662, -0.019261534009099888, 0.015433829009574428, 0.007125641264833777, 0.00900678070754253, -0.09932062864538917, 0.02622388567909922, 0.004905351780833166, -0.019550752862921357, -0.1227753419570308, 0.028146867093016975, -0.02234560185612928, -0.031664861042605755, -0.015219107406531063, -0.005542571662645284, -0.008528859516040694, 0.009551283843430566, -0.035640897496185445, -0.051454114295314345, 0.04257750320474098, 0.03399776333969346, -0.017206747813102097, -0.03499641548013671, -0.05159416888939546, 0.000751036257221068, -0.044680355926063384, -0.0015069987499913306, 0.0008808950930969181, 0.00012857346854341643, 0.016990459973703218, 0.0053445635334471876, 0.004626308848855386, 0.042117772740737094, -0.011440914399749423, 0.0048542985606507385, -0.01976262625900242, -0.03079859089971659, -0.06821397859448236, 0.017590297616478724, 0.00768659761771141, 0.020321029298161694, -0.0009361779807686778, 0.023906675518196294, 0.030457655816806564, 0.04094612026129085, 0.0034170599299471645, -0.06927609173450316, 0.06876529609658634, -0.02632301824236777, -0.0385645200099401, -0.01861577060864471, -0.03791309745326465, -0.057271801861597804, -0.04087403764770325, 0.000716708692714474, -2.6039823025546314e-07, 1.6730142163373995e-08, 0.04790588170026254, -0.04554167907705632, -0.05694407577277451, 0.03787051598119859, 0.07025836966300289, 0.019428382658680222, 0.06423129262565433, -0.02143149927358234, 0.058090792701482756, 0.0327121276990615, 0.021111493615095164, -0.012916045497493459, 0.029054567181166606, 0.04205460635141642, 0.04101840930371407, -0.01834412464715454, 0.043217490364196316, 0.03862351065599685, 0.011660794887781028, 0.00031559581066913035, 0.008205388280105138, 0.009229923033496937, 0.001080470271418938, 0.00891117241710178, -0.0002999802594460832, 8.458247458027067e-09, -1.2999547717955275e-07, -7.854065559872979e-07, 0.060375555492631884, 0.09866210391561782, -0.017723811982856216, 0.03413653122233967, 0.013390118697006882, 0.06330122602321707, 0.07696044566961936, 0.04432711797175282, 0.021278140773602645, -0.00673843894352007, 0.005412811269509661, -0.03589553524166878, -0.0007114083710066741, 0.08418207882120007, -0.03263005226913399, -0.019152748695348932, 0.04295504202964241, 0.032959972685659936, 0.010270981290958532, 0.028780545047554434, 0.045984182757068746, 0.029754962258930533, 0.0239143401135101, 0.03335201979538207, -0.010474955207552919, 0.0006057760392552062, -0.0008871284348326599, -2.8772115529152326e-12, 0.0007915808314925572, -0.0002957254670716486, 0.0893647877051455, 0.05584087775447864, 0.015641460915358167, 0.02719136750360159, 0.08253287974068096, 0.023524960336879775, 0.11031616441268623, 0.009736506225157832, 0.06020388455082232, 0.10033456635969884, 0.09379404124349613, 0.06445511169690284, 0.09788313315018607, 0.018599069249531013, 0.02416605374076994, 0.044149147338010286, 0.014833397381736163, -0.014358605563012375, 0.027633584682488735, -0.03932486747963328, 0.0032036940495657924, 4.79086498668022e-05, 0.044049793080278496, 6.148616546542868e-08, -4.0319990636542144e-07, -8.48489817012992e-06, -1.0081720413692567e-05, 0.0014769783259420792, 0.0108949132148827, 0.07671082020929756, 0.031872401517121146, -0.02560035542573479, 0.036584552950188316, -0.01619022247441498, 0.050480465092560226, 0.021781817777857142, 0.010647104852960304, 0.04656832915414868, 0.08318650356406071, -0.0015630369908835175, -0.01328933312797884, 0.07264840232794645, 0.010722060039538961, 0.09110013394909797, 0.07751075880393118, 0.015295098077720694, 0.00787899713851623, 0.03370369106502733, -0.0012992883349085013, -0.020072976001528284, 3.101013706995435e-08, -0.01532359986298138, -4.077674934333842e-06, -1.0160868363846066e-05, -1.5789340560976272e-07, 8.667783238755776e-09, 0.0023785889897149394, 0.0040425360878143645, -0.013502493106419846, 0.04157762786318246, -0.0343944558161709, 0.02776048648570219, 0.012307018880963803, 0.011062105823023778, 0.030601807149523434, 0.055685368312751685, -0.01791956118446798, 0.0489994161136022, 0.05971378012261922, 0.02758650248708918, 0.0182952052393748, 0.020149019044474987, 0.07905065353425275, 0.03269306858187061, -0.019894531063327846, -0.03752409676013011, 9.82549309831341e-09, -1.3181091299630433e-06, -2.2073700869428938e-07, -0.005534306998751215], [-0.0008157322136688066, -2.4365516237962917e-08, 5.727951424053857e-05, -0.00016210156288730312, 0.003921760690032566, -1.1461351072533538e-08, 1.2738381584418572e-06, -5.718514200688185e-08, 1.41480374521729e-07, -5.651816789684003e-08, 0.006452988840461887, 3.632968070967408e-07, -0.012772321066493134, -0.005106327620350373, -0.010965239721065528, -0.0009416201534048865, -0.0009211724384739641, 1.0195608575027234e-05, -8.372487233630196e-09, 5.165787069190299e-05, -0.0010326417973797264, -1.4286561662799265e-07, -8.905700196051275e-07, -3.600217372708151e-07, 6.805064367326483e-08, -1.2188127878135886e-07, -0.0011579168769394793, 5.964892118511905e-08, -8.009818156504827e-05, -1.5196266474076694e-07, 1.8812323424271716e-08, 3.2064724680119064e-07, 0.00219082291087579, 0.011413102547241918, 0.031846784170927143, -0.005174665297303538, -0.07159203740278851, -0.024497977437469207, 0.0013655765965076012, -0.04530283931952811, -0.030848593710312056, -0.03407261396661859, 0.00625267706604635, 0.020712952878131716, -0.010898793440715857, -0.009108936434932404, 0.0331148200977358, -0.04322448307624951, -0.04674367766323929, 0.016104026608062972, -0.0320725969172672, -0.07194779277422664, -1.265784101650895e-06, 2.594744673063665e-06, -1.22049854452341e-07, -1.0305211983410779e-08, -4.534904385493295e-06, 1.992469603825789e-05, -0.0013119536272983262, 0.007604592184456236, -0.015095966088764005, 0.01833505763495628, 0.014427865508633257, 0.029213396542490333, -0.021794407667171927, -0.04823862664632226, -0.06830513794282539, 0.01775253369808997, -0.040855637560911394, -0.017558878960743034, -0.0045135424941366185, -0.032124888502268675, -0.05892587609620263, -0.07316791241950225, -0.060547670446566226, 0.030486896410396123, 0.029562217375562368, -0.02476391039926254, 0.016208366702354385, 0.017677254625337584, 0.003341312807276462, -0.0018977542356279657, 3.345282424394706e-08, 1.5038376833201702e-07, -2.814335674807393e-07, -3.3392837063327215e-09, 0.0019515489345648673, -0.035796945953151714, -0.01183641367044343, 0.01516334807164847, -0.05360158630752627, -0.03403031596492518, -0.03377930822557499, -0.05774886539123844, -0.06221166199306051, -0.05499181618829695, -0.09040843816658024, -0.04496035170725731, -0.013012336496135939, -0.1162928599042853, -0.038776342244754104, 0.0035079829042658525, -0.06528665761884865, -0.05149750931211881, 0.00800591366083879, -0.06299418607581336, -0.08327122722236378, 0.036117804475729556, -0.014844402872696642, -0.016438757305880312, 0.019169347468858986, 3.557816889998649e-07, 0.0017831669873696176, 0.0015338490039810185, 0.025819976687031933, 0.010973669450994835, 0.00043130505299248707, -0.036270767784172916, 0.02355663530612969, 0.0779160455425958, -0.08136604402341127, -0.11699986791500472, -0.06670939323743563, -0.013834155457316316, -0.05051300899885131, -0.028207150971833565, -0.08348213648965787, -0.043677830680588205, 0.021399626690555458, -0.059072378800580076, 0.013934177438370015, -0.012087156467964108, 0.004437430043877329, 0.020663194269425124, -0.06728502987183925, 0.09003301428871507, 0.0638305978517903, -0.02014589803541829, -0.011367497168144895, -0.037210547384401375, 0.005295537995344114, -2.3134400722883057e-05, -0.025788007646492226, -0.033429555505601484, -0.052493102865549195, -0.04793611098781489, -0.02421729227814528, -0.06210145505530627, -0.010393519613158058, -0.0206812575852123, -0.010806474949474735, -0.04313651016125883, -0.03463787131552079, -0.09894802831294862, -0.0281051623436689, -0.021979981154753917, -0.005785106068232745, 0.013113222908973972, 0.013512618469788852, -0.011599509884770811, -0.04488352253643626, -0.020744764026956814, 0.023679186424418484, 0.01563446208946067, 0.025822119602366845, 0.05094714556847688, -0.04148046004983708, -0.0020373957279793144, -4.462522813521091e-06, -0.009815734671067876, 0.034482769341896535, 0.04400539208289565, 0.019855078098992836, 0.014253596635843368, -0.051783342850206, -0.0033013526559261446, 0.052972297066432805, -0.023029829865070094, 0.03472714190868025, 0.023030121629607263, -0.008564426587114773, -0.005130829935183947, -0.010816203404633296, 0.05385795949168492, 0.03850447409413738, 0.04581180253038421, 0.06637857708107357, 0.0424404368974725, 0.04054690826319348, 0.009693961904258917, 0.03136286856627357, 0.03422116221941194, 0.015579046119237881, -0.001283684334277404, 0.010523280066121314, 0.05953033032981231, -0.0014894998656818867, -0.032819189793990323, 0.008541148870774149, 0.07409341348660481, -0.04247143664248556, -0.045084207266264664, -0.02370209338804363, -0.006204101352909566, 0.019130427292016382, -0.05662903199908847, -0.034171150810265574, -0.008589063934756787, 0.019256810154112156, -0.017335125920233778, 0.006895586420908232, -0.024342938631142542, 0.042299597297624336, 0.02572455868248066, 0.0012041102281539142, 0.05956802426897949, 0.03497398785156566, 0.09105560858024338, 0.051959108773957055, 0.029100589805075548, -0.002894343774030565, 0.02302221536106978, 0.009296893967575858, 0.025977179025445475, -0.0015060261618857324, -0.04339810410887025, -0.019621360813339823, 0.07176109063965148, -0.03316878943412908, -0.012760466466801736, 0.02268162545218602, 0.04288891934502107, 0.07436016147442234, -0.013628488916533501, 0.04285861809772973, -0.018651736575108113, 0.033000176551663374, 0.09963610818124356, -0.02280093903821153, 0.0453762087421673, 0.04617746152634354, 0.014941516676917486, 0.007263223601409275, -0.021616786524493548, -0.02418395533288544, 0.00635262587659873, 0.0643062888129042, 0.15017104574605827, -0.03392887018762444, 0.07994257185063373, -0.00018056609486113268, 0.017107683506471405, -0.000538955793475461, 0.014508517712115492, 0.04877525003138814, 0.053114699522380765, -0.054410172604610015, -0.016612993223853675, -0.031662376716883864, 0.025194650348132102, -0.009042113619574226, 0.05561325514273511, 0.054750824670349946, 0.022136867894366277, 0.011488894095462561, -0.003454630397925327, 0.015593100927240817, -0.004519027029796457, 0.01784051750278941, -0.0005837754055961336, -0.0012499290274849766, 0.024590521686040555, 0.03445400096615363, 0.017695452413569707, 0.04205761029051483, 0.09395281633794908, 0.05898202270814919, 0.07259913973875282, 0.04158366435991443, -0.008805567699177282, 2.6862148283341753e-05, -0.04600653473809392, -0.001995988579018786, 0.02712573674801054, -0.09594331347052527, 0.04306752726781253, 0.015903744661778265, 0.0790938121060487, 0.010435875065503095, 0.04489497809663305, 0.022011806240711775, 0.08703256853650307, 0.08319036012624052, 0.038955240501729174, 0.033364136823089544, -0.034323772080369644, -0.028466491064362425, 0.006337025064602136, 0.056780770049167234, 0.030834076138739966, 0.03962089810772425, 0.12242077925541048, 0.040720218856577194, 0.03726588326565785, 0.12869994199047574, 0.05938602039310508, -0.020692148112113968, 0.0006225284316441789, -0.009938754150454253, 0.020544479839003604, 0.07298792828591269, -0.0328056668391643, -0.01815651734616031, 0.06354963053138345, 0.0636945101554039, 0.027866919748899505, 0.05214317443059202, 0.04020384941233564, 0.0840550565480984, 0.10261334311420509, 0.03185447585354302, 0.013491620100817827, -0.03447007694054894, -0.011495157959930884, 0.02495311593043913, 0.01723504429434281, 0.027805667076979894, -1.5688734584084112e-05, 0.0834311773030412, 0.03486936988632215, -0.011521228407616522, 0.027764592873909203, 0.003138437949625624, 0.0075850681670628075, 0.03729277324591086, -0.02950245476372554, 0.000636379305444399, -0.012378380891169048, -0.012433253651983018, 0.039600360471655466, -0.01569632730442961, -0.005668103337671742, 0.08785358391576892, 0.06122110860426127, 0.049526331509615655, 0.06599420910733181, 0.1666268964978831, 0.08424897387245975, 0.047960244862384406, -0.012511361030473277, 0.007177722639777311, -0.0230795423975765, 0.05595023577753, -0.031320268979059304, -0.03525640293699118, 0.012327774229984852, -0.013339388665788186, 0.002236815515480967, -0.009969724183530482, 0.0494768928972309, 0.006482183318925119, 0.019604689347707815, 0.03682810586255856, -0.0033836954658918272, -0.0019166266839318814, 0.006714858639559085, -0.016996045788645924, -0.03566325775819657, 0.005183349695667801, 0.016407315588714406, 0.10513869478564841, 0.008026957541721188, 0.008990151113054151, 0.07292797444222089, 0.01201554823765926, 0.05235561010239111, 0.1395840483413999, 0.09798190848734561, 0.0035955555268007877, -0.002909291369840331, 0.02709858629959542, 0.0315035443555161, 0.0681180201629336, -0.07013526300876924, 0.05087593337413913, 0.05035641004449553, 0.012387498113990288, 0.016304033220829548, -0.019278904205485333, 0.012862931823385751, -0.01946958577661846, -0.06271016214451061, 0.0011912201423195914, -0.017951328504817093, 0.004325979386897817, -0.006099291493715748, 0.04369432858831439, 0.0003696275916479428, 0.060543864298531896, 0.0736856913372189, 0.04830845518128762, -0.021274120738796705, 0.03292871047367926, 0.0009233926529029002, 0.011557590026519462, 0.0004317350200984679, -0.02309428964304704, -0.034541001274213626, 0.020329419807379033, 0.03269977303473451, 0.01067896891160952, 0.01198898389054125, 0.06252720272988682, 0.04109929713518198, 0.01753694308429095, 0.014226292950622683, -0.009649284537478446, -0.0012415068787507636, -0.009799697554616559, 0.028213886739080606, 0.007579137707950683, 0.0014758322880658189, 0.0002470734658360917, -0.056614729966209316, 0.04960817543903497, -0.00680301760097136, 0.07661983646463301, 0.005350547293033027, -0.04106682118115295, 0.005102774816571478, -0.03548074335608642, -0.016771029695066775, -0.03751683549211758, -0.043862314143155605, -0.039028065044111666, 0.01662502429069889, 0.00924041854690886, 0.06958481979682213, -0.031952258651029866, -0.002159678870786711, 0.003384595538319669, -0.006213983061174595, 0.023378630343964684, 0.04211074296842427, 0.007820022239183207, -0.03156191379234187, -0.02008686684137853, -0.012399042367946882, -0.0001554526549204676, -0.016136340206755976, -0.04319853148300086, 0.030080791783719626, -0.028115713687038694, 0.027689500737562375, -0.055091729357116, -0.021592934729444672, 0.05384209883158932, 0.021862526058208, 0.006789175099185878, -0.0021150361530995854, 0.013595354545161704, -0.05999264269242893, -0.03973202470309795, -0.053418487436027055, 0.01749281423010232, 0.036046139151003236, 0.028847664144153667, 0.03170842817978945, -0.03643766065218904, -0.007076076859032155, -0.06334842744982039, -0.02524494418616524, -0.014027268023868833, -0.05716702129880791, 0.0022661661735699787, -0.024978235359082893, -1.4468405429697463e-08, 0.010904865049446637, -0.037006729847486514, -0.0067605146144582885, 0.01742001325223476, -0.03450029337502074, 0.004990763423515037, -0.034763955262485456, 0.008422331888774304, -0.038351282535566154, -0.02010749394790352, -0.028237359912131294, -0.07922989722169349, 0.002859684667889314, -0.01384202346446892, 0.020579869835818766, 0.03820651807475106, 0.03260698679838209, 0.017808350841316545, 0.039094240525423325, 0.08399964313593536, 0.07163754326104903, 0.016564216699363074, -0.025670765853308596, -0.021523993483223473, -0.04784958919811216, -0.02038412043036176, 0.00438727300933261, 0.0015171060764556992, 0.00158250022592567, 0.008192548416511677, -0.0033059010008274882, 0.04109614542928545, -0.006517208096922879, -0.008178470343438552, 0.019770514405636402, 0.02943688968331925, 0.009769304843172856, -0.002650751285465662, -0.08071695341619187, -0.06058809216989228, -0.11053047850933156, -0.028484625529655097, 0.002663711517365224, 0.0004660137418842931, 0.06375869280955122, -0.0222224851344575, -0.012251438456972278, -0.009297294817707526, -0.013117995135505274, -0.0004243079315571584, -0.05289587052841755, -0.015411051715221639, -0.0025066204293061494, -0.022920545359418433, -0.06741899322235584, -0.00011659630343277563, -0.019675068854478377, 0.0026481218831274126, -0.0051322706543225575, -0.06726890678496275, -0.06341430539910418, -0.00933822075098631, -0.05649561066940098, -0.039363875630863285, -0.001353742780315471, 0.0006023275252591099, -0.013952271660407132, -0.04718124897162318, -0.01551614588946584, -0.06943021632911578, -0.060407326420305656, 0.0327987048792846, 0.03649715985566983, 0.006685856047804397, -0.004167842578899242, 0.038678210519710515, -0.0007128579592124058, -0.023892151180476037, -0.06189461983891916, -0.07998189896991222, 0.029937666465548813, -0.025992943445394864, 0.00576307532648359, -2.75586642265005e-08, -0.03169611310313483, -0.03828384089800885, -0.004019445153779107, -0.06471160058956314, 0.03547831322907675, -0.006621722901437082, -0.020536859952856715, -0.04012553537780227, 0.006220180738618477, -0.022668428367675963, -0.03217749697429074, -0.01497380084699815, -0.050441569695488, 0.03685940785237254, -0.006076314185148245, 0.04954533259154627, 0.016944925939904477, -0.039649938816481406, -0.034284136028716015, 2.67664236970351e-05, -0.05399485079828093, -0.007752628182876855, 0.00953959955469658, -0.02433037988725515, -0.02741609143273834, -0.0718487566590426, -0.023444955625506355, -0.0015163688811767528, -0.036214626496837564, 0.016725942560816675, -0.05016775562448793, -0.03395317496274395, -0.01768154180281239, 0.07056175673668277, -0.07747057732063946, -0.020924740506598392, -0.0039018594072794087, 0.08353537482857927, 0.04340438181556331, 0.05117034089666939, 0.008270683418930776, 0.013828671593271596, 0.055396505312183604, 0.012948052477143784, -0.0002889107742680373, 0.0536058875439321, -0.05978905950848695, 0.015412549086013208, 0.005930893126980205, -0.014442865946739837, -0.013484648659617099, -0.05947244165127334, -0.013122838449603371, -0.0042080051594000556, 0.0015078044490246557, -0.0015171414857861098, -0.005604005391833889, -0.0674962745125887, 0.024771558909639977, 0.02590840801066113, -0.025525096569438133, -0.029526223015976075, 0.045553878221139814, 0.010555548613058996, -0.01830819123130473, 0.02715520223184017, 0.002970600391367256, 0.11230172370669828, 0.07302914223060361, 0.050227424043366366, 0.013278806299601622, 0.05131458072652319, -0.010724767494391593, 0.02507094433930646, -0.042267237820454974, 0.02269306333920399, -0.03657092364834109, -0.00110592306551961, -0.04741857935909948, -0.06091970804186936, -0.027367043738814954, -0.01942906472562563, 0.0015388788365120574, -5.113888943255159e-08, 3.361218793759232e-09, 0.007290675682344572, -0.015126111644619886, -0.014291485960159903, -0.047247186783770774, -0.032111091966008753, 0.04021341418136099, 0.02645740640439477, 0.05788209812727008, 0.018303672003629163, 0.029470804939994138, 0.05111817434492898, -0.007440499817559355, 0.05694359404734223, 0.08487546545125613, 0.10260561372196421, 0.08637082258145307, 0.0959242178858796, 0.027046807384146603, 0.036843301990214745, 0.005634928043446902, -0.009055611351477616, -0.05774272639008771, -0.04420518768434249, -0.020675912944361302, 0.043275637304108966, -3.3149871120665764e-08, -1.0766584478530122e-07, 7.210753759238774e-08, -0.029078699577207746, -0.04299621291933038, -0.05288399112973621, 0.02019853921540555, -0.03136249765501399, -0.013357977075967966, 0.1107759076710333, -0.016465844105879753, -0.029223808739665947, 0.10773874552405349, 0.008578262690606684, 0.021165075044594063, 0.07598756675819131, -0.008009906478768602, 0.09287685465186256, 0.024098319622085525, 0.010852244263988219, 0.055113913330161114, 0.008668556560496707, 0.03208554967681869, 0.015815586668085822, 0.03273828338537551, -0.020515853995814876, -0.06337519659644095, 0.05087956691804251, 2.943742549240199e-08, -1.0336639730845153e-08, 3.810552738516631e-06, -0.0009494193434406216, 0.03968980156928716, -0.021455715669697686, -0.03571672790063354, 0.015768620586100228, -0.037380757476691416, 0.0867334038633562, 0.08571026741357125, -0.0023023658409196206, 0.03967715679269341, 0.06685720062117996, 0.0729583887539887, 0.07071077090079732, 0.08193589404184705, 0.015570080253242694, 0.06647805486236169, 0.08541493024744352, -0.03383893246535229, 0.0392097355505999, 0.018775982972199474, 0.04680816262552469, 0.041617211094363775, -0.0071419665185390325, 0.002338524621355621, 0.0026448707822979752, 1.295120425250572e-07, -7.169453332300976e-08, -3.3135541838955074e-08, -8.294253644781935e-06, 0.0014701939699168446, -0.019127045368933955, 0.06152218164998398, 0.011514083412614695, 0.019269027696834626, 0.005223836567662308, 0.026110255718562597, 0.04303748183808658, 0.05372925760639119, 0.02765011594735977, 0.023829828918334163, 0.07603674267673265, 0.07599749678513526, 0.03864895808721856, 0.007807243360707274, 0.05971670418096699, 0.06303023146363983, 0.058570352598511045, 0.05075894209947194, -0.0374931668775415, 0.04112272021607405, -0.0011314709992071997, 0.06943481546860782, 1.4740916549438556e-08, -7.127899569990503e-08, 7.292852144387455e-06, 2.778589584064335e-07, 1.8412010568841724e-08, 4.377454420624599e-06, 0.0012771372703685507, -0.000629686785508393, 0.006824812611816806, -0.03233721888953794, -0.03351489397668874, -0.02005185031421263, 0.006165279865725973, -0.011018418097744892, 0.02322816505294976, -0.07266051439810182, 0.00018197316579225277, -0.019315362564962295, 0.01378107284670925, -0.0177874135446686, -0.002166545135386936, -0.05237432575659828, -0.004531992150923529, 0.019538737799735872, -0.044005584015410965, 0.01762817410376715, -1.7326894848502844e-07, 1.4094468164610974e-09, -1.011855641309826e-05, -2.4162301962081788e-08], [-1.232741021785811e-10, -2.930890862098055e-07, -8.404514748423602e-08, -1.5141973949491642e-07, 7.791934737192937e-08, -2.0624839186488603e-08, 7.1855725867531e-09, 4.049475701043926e-08, -0.008509345568352006, 3.652384676386424e-07, -1.0501422164758962e-08, 1.5219784239060793e-07, 0.023899791383817197, -0.026343980309077652, -0.027079702402969065, 0.009976134099027744, -9.214943871408861e-06, -2.6910870397974877e-08, 2.768789008047808e-07, 4.009603544096902e-07, -6.473438772715344e-08, -9.151588903723425e-06, -0.007489024102192252, 1.0355658994720112e-08, -7.720703675095647e-07, -5.4271135451228846e-06, -3.616212551542579e-07, -8.267882108735095e-05, 4.8509493006990413e-08, -7.346829929339275e-08, 7.090221905637093e-09, -7.150001770223789e-08, -0.01999907479914527, 0.011158417937613407, 0.0041310957420925675, -0.004965982270656261, 0.03131251597146023, 0.022236069864687232, -0.045192104295728806, 0.004940046570169422, 0.03071413042443232, 0.039837735767967154, 0.006813634839804782, -0.021160427068440894, 0.01705424726649346, 0.04002339391856239, 0.034083029610252995, 0.01716449411617408, -0.008979072022367906, 0.1477561137623951, 0.013259085337097257, -0.004629941925288948, -2.292202748293346e-05, 5.973125088670612e-08, 1.3013084443011534e-07, -1.8669499824906204e-08, 2.1513618886044743e-07, 1.148751715158379e-05, 0.0015266685517543407, -0.0015019013339723445, -0.011112612785682091, -0.01744582430907591, 0.016876458426617433, 0.018324209352458144, 0.0182806575290667, 0.057057750726589355, 0.05185269944072814, 0.06183955120180409, 0.09423009822621943, 0.05999580283917451, 0.10978359586275648, 0.10804995488073293, 0.028354231412288922, 0.019067529051853903, -0.029996196391778408, -0.008361065779587949, 0.0077071086957159664, 0.03466705850039805, 0.07378262502136745, 0.028430982589985988, -0.041875199529762736, 0.02233686838577397, -9.29080692614448e-07, 0.00019188277648262968, 3.6127081084632793e-07, -5.383287860101233e-07, 0.0029989763091194345, -0.0047930986565576485, -0.018672072360417822, 0.049789751975675436, 0.04573310005886906, 0.02638721477996463, -0.005331243376427217, -0.004836607443057745, -0.012288356395047896, 0.09550624886363937, 0.09532802947082789, 0.058816145419221866, 0.07358502778023104, -0.011403674062280992, 0.08195904381207376, 0.05961398767498115, 0.11336138858642868, 0.05029793003967965, 0.0414782135328443, 0.02880339772798424, 0.0008005305204380696, -0.030344724094205723, 0.016045343647996493, 0.0034501482373005318, -0.02760663239524391, -3.3099738675271067e-07, -1.1849621176483196e-08, -0.001533790160048137, -0.0002939434390467249, -0.006472421817780345, 0.05233922658115672, -0.010193290995314975, 0.02667594651879096, -0.018502207123510007, -0.03430324146999764, 0.041566484296977735, -0.0025388011437212266, 0.02181526512804424, 0.012218752231401822, 0.08887646179759963, 0.0609710677863974, 0.02521366648978998, 0.07252943110136925, 0.010032004984866665, 0.060225732091838576, 0.006205744026037835, 0.06073358840287739, 0.08187805970611976, 0.03760040631841311, 0.051543624271360236, -0.02251048380959283, -0.058618075239616624, 0.07414787421969299, 0.013342630207384498, -1.0098122095548658e-05, 1.4610433435496453e-07, 0.01838884130192195, 0.05339687714601045, -0.0056079352466416755, -0.046169071208536944, 0.03735930495332383, 0.009939683971601967, -0.05137067035573509, -0.0354859025128829, 0.014765535116139001, -0.058817971981907066, -0.00339697162695792, 0.018220724595223253, 0.034797874533465015, -0.002310943259929816, 0.034365023284479476, 0.06585682979630858, 0.062489642683017564, -0.014532592819032674, 0.016382894059553742, 0.0313631132653041, -0.017197510426747505, -0.052502663437723134, -0.03419787328023053, 0.014635214323471478, -0.02983702407013745, 0.010081011445682022, 2.1425162494004908e-08, 0.07746072299219428, -0.04759999988091733, -0.01626136622432854, -0.012194625873707673, -0.08571036089703275, -0.03398159282155893, 0.02181823778659477, 0.01996439456090066, -0.035924261722205315, 0.027490404910249386, 0.006871089778875025, 0.010434698283346292, 0.010500758912369302, 0.04889499438065732, 0.03235564804152459, 0.0401837918083186, -0.006891980978434968, -0.005227985099460681, -0.0575220700657252, -0.023677757846777905, -0.021263780528291806, -0.03848215276294964, -0.03885723525985021, -0.010221431066204953, 0.009823357754134853, 0.033268609193529516, -0.021060230580326855, 0.0015069540198487806, -0.01670121415279029, 0.002169703262635428, -0.008773433766785525, -0.01788842313799095, 0.0227884755929368, -0.018969457632358636, -0.0036803567505454262, 0.007849184088158625, 0.0045306059765372305, 0.02426437211418337, -0.04596176975709596, -0.01326715404172416, -0.039353106662407385, -0.04102654476545184, -0.03477316978738016, -0.038073874177011066, -0.07332118124206506, -0.018377524734949673, -0.06320317152140184, -0.019677031024204105, 0.013305283617539526, -0.07397504176835516, -0.04240247452408516, -0.02886690417929703, -0.10671075179934002, -0.03559674024937197, -0.0007997782530579881, 0.001511074881400719, 0.03345731528913774, 0.029605710251381433, 0.09519264155794781, 0.013663530638483721, 0.016452421904297607, 0.030900704321769043, 0.012063182310542103, 0.040485377566788015, 0.020443674066475397, -0.03457712578764943, -0.0435455777457156, 0.037503144066425714, 0.03083318406776439, -0.019227824076611243, -0.01571196434995332, -0.010436802021059541, -0.02100943120325329, -0.08812911250224156, -0.10483916749868942, -0.04652986915711958, -0.005669196442421458, -0.012797826134874247, -0.052446666732594585, -0.12828812636573875, 0.021687570484131984, 0.0033644475324229465, -0.05604881513124747, 0.0017927839341788205, -0.024161707875315245, -0.00923020541704813, -0.01685722758541622, 0.06410458645644322, -0.009581921984122865, -0.045322716916299244, 0.0174954866880589, 0.006641224374618952, 0.001906767754452493, 0.001377585058367874, -0.013007106298418286, -0.029085926298003134, 0.08150163253888194, 0.02066125489299035, -0.021615841790490413, -0.017978442247833636, -0.03468425612472078, -0.03020293896084107, -0.03299485867156039, -0.08906310634425658, -0.006635248231099751, 0.010528434324815953, -0.05414691845597231, -0.05121224959693269, -0.06270792640840926, -0.008449684796729697, -0.02007201405360572, 0.0010422500218272947, 0.06510098846047438, 0.08129908615035263, 0.05086860337244206, -0.011320740416295973, 0.04432883850156598, -0.039238448035626435, -0.07422513571805921, 0.047701221986854295, 0.0022329231231930664, 0.03946594108815184, 0.028272671486583655, 0.02973204879154973, -0.0022763984455473423, -0.004900652706851164, 0.08766163239338971, -0.029428151535115216, 0.020907866801645282, 0.02170664900709017, -0.036131852073883364, 0.006489788930840008, -0.005679925255637831, -0.02505294563432123, -0.027989951465257658, -0.02277518049675236, -0.05512628997490234, -0.03452131828837089, 0.07573486131649082, -0.01672501152344265, 0.07697972456182742, -0.05242532510925798, 0.052040732991118936, -0.008861452364606733, -0.017164226969561575, 0.01977350130564254, 0.02785486010186468, -0.03241498426874301, -0.0041521846548014905, -0.04373570975846985, -0.06341945846683997, -0.0329143677476063, -0.06953869900431159, -0.012175541344386346, -0.045472055946871384, -0.03160733432528057, -0.008749653128540332, 0.010015007546184585, 0.007587979101848471, -0.03870376028285496, 0.014893707289967327, 0.008823123725185466, -0.065847145403744, 0.050568372561309714, -0.0814815480291549, -0.028099517908872794, 0.009639834020504714, 0.042236210307983975, 0.09422253965185579, -0.017302616787968097, 0.019369554578839814, -0.024550194746848525, 0.012126180333354447, 0.04884578915187183, -0.05150536882603857, -0.04889300494977924, -0.04964006620303104, -0.0973864646486951, 0.008937994693258358, 0.03331881164719811, -0.038128605147170626, 0.04846892641776623, 0.01727789755105845, -0.022154302566084853, 0.010788313504451669, 0.01040626250852012, 0.019755853747252708, -0.0038737608641785694, 0.12728129409119116, -0.04006335473963806, 0.004887797304597495, -0.02874461726341353, 0.06104403812024749, 0.002796658667783292, 0.005115591607060554, 0.005248748351962433, -0.03109077649634073, 0.005571450854987748, 0.023002672552448637, 0.048604915418936225, -0.06674149184410659, -0.03908524611248494, -0.00396058696266324, 0.007817337448916384, -0.05148349395273144, -0.03307066197081031, -0.04879738867584467, -0.00995041048850452, -0.040965063277494544, -0.03570688120426883, 0.0030828433406690724, 0.007333125383221992, -0.05686655475133916, 0.04225534175554546, -0.032440268787901495, -0.0004981836796669392, -0.014348713568605674, 0.020321933794439712, -0.0191696111693072, -0.00035987957802049113, -0.021087028988273655, 0.01332390692215411, -0.0038929528717252895, 0.0030953649265420984, 0.010742162637753726, -0.031897450393560865, -0.04107176756465685, -0.0022347105733366342, -0.09641513771383026, -0.048281345264069096, -0.04327949527522814, -0.03530960913274999, -0.07821324828660613, -0.007242334941641538, 0.012536768734640512, -0.004493714372480456, 0.03730492252003362, 0.06364603360527936, 0.0255314117918469, 0.03506435523897755, -0.014207919756766631, -0.03175777744636256, -0.09864719641060957, -0.0010965636313205814, 0.01920409391013661, 0.07577977690723164, 0.009548350648623421, 0.02540638300734576, 0.020125165039862326, -0.029363700824854316, 0.0448565106622598, 0.013930020616126141, -0.0014644823342221305, -0.00574664903449882, -0.04418051452955056, -0.09439061297994253, 0.03126254992309864, 0.01486443511116919, -0.035527169431285394, -0.1241971903896551, -0.002958619016526318, -0.009937030230645419, -0.04752161423801705, -0.05714743162844522, 0.09813975934175033, 0.05425838498555746, 0.01654062485652311, 0.03738928702013337, -0.01818922500743517, -0.048548551219407994, -0.013584389599138345, -0.01720347042825742, -0.028175675346585445, -0.02679354117281185, -0.001298130091252523, -0.04335555829868052, 0.02302479461033279, 0.01446372028248026, 0.007036313247139452, -0.0016793040520846592, 0.00028784966319984976, -0.05522548309708218, -0.009359306125739712, 0.007671685248346644, 0.018013542370464895, -0.03395354403676797, -0.027504669404714334, -0.034916303565609444, 0.05471955753330634, 0.0413562374786271, 0.08997155247886496, 0.04849966686667155, 0.047766439561708465, 0.03942259005514015, 0.011638444620202486, 0.007581838182015235, -0.024631002419940724, -0.07738158476312984, -0.07874135142605389, -0.024028751732400225, 0.013412923953528543, 0.0518418581081966, -0.03155121390380032, -0.050927006831562566, 0.026379893841441387, 0.043568813041579856, 0.0010703373899105168, -0.00034524679733354067, -0.03064413119070375, -0.017596915854239562, -0.028741878650372178, 0.060386275912138625, -0.05169904457910707, -0.03228602122991025, 0.01923421421792847, 0.09234423448453201, 0.02861092312119475, 0.05824270153457011, 0.0735139505440601, 0.04592472719342158, 0.0756636609541141, 0.056228053924083685, 0.021202609682400078, 0.025098587570256375, -0.08251734531438049, -0.044229871473408455, 0.04296984848011457, -0.009439042891204579, 0.010832629088554958, 0.07042152344220719, -0.005069740093054844, 0.0250921127339857, -0.002303083926523503, 0.06387619686954332, 0.029480407432531906, -0.001522113426778307, -0.0030474595427208706, 0.0041773184518439435, -0.06123392832080594, -0.01876086265437643, 0.007745337072167455, -0.08491568471941886, -0.005140454314208095, -0.0220711327365652, 0.052760438370617474, 0.10454524718551188, 0.09117024214254207, 0.0995436824390426, 0.13558872219218412, 0.02923303993064254, -0.006527080837085401, 0.043875750767881666, -0.0026411870060659166, -0.021667663628576344, 0.00721277466092504, 0.008198702422928165, -0.04964022344532052, -0.005903679285943758, 0.06645605883802484, 0.013010073521161963, 0.028566017358674024, 0.06278510706443069, -0.044106436843189704, 0.002118811031007501, -0.015684999582355204, -0.024469005832739105, -0.05436507469567413, -0.006460355062380757, -0.0787938882730215, -0.08242312640130503, -0.04220998497937986, 0.04510884796166709, -0.0035131287997583697, 0.10607949454912334, 0.11004808117697547, 0.07933334647667724, 0.05591227620974806, 0.11768914953423412, -0.0008683035367970459, 0.0516650075808094, 0.010294862868801994, -0.0012348684913476898, -0.04867168927800187, 0.0221034300727864, -0.0002544582092602003, 0.02606523864054346, 0.0024792550475037168, 0.030131018423031872, 0.05814303835952922, -0.030311859067255156, 0.022055334022156235, -7.44417166448168e-08, -0.010538021760594764, -0.018259093235204655, -0.08154503524301818, 0.040720873511773545, -0.026744504707590898, 0.016470634823447888, -0.011804584317798192, -0.02929446714587963, 0.031561395154031294, 0.060116331268788584, 0.03356197238384903, 0.038382749908567486, 0.04693674424230653, 0.048975471918405, 0.02020650524734907, 0.005845270935780488, 0.05549765883630295, -0.0030135178637279306, 0.05037605519211278, -0.01927201902631277, 0.018127896642913102, -0.002205247251384106, 0.0024445578550548754, 0.03904860038012634, 0.059709703445774025, 0.07735888970519293, 0.033979593118427, 0.0015239414746468667, -0.0313319013101338, -0.08353876847854932, -0.054024022077098985, 0.06745178634741096, -0.07480327432118763, -0.008037042343196547, -0.05749245163354728, -0.006771917469818682, 0.04236042185252138, 0.031834880655532534, -0.012549271704244, 0.040773448900630185, -0.02650224198184871, -0.016545062374429615, 0.015417202870999699, -0.013882765720409447, -0.059523149481660424, -0.03557104713284687, 0.014324108429545984, -0.013307449166139337, 0.06897338072113769, 0.015313349300888316, 0.06393535654165983, 0.050530775028093736, 0.051706366823292015, 0.040190593003518384, -0.0015203250456361603, 0.0017912163273923285, -0.0007458767300279129, 0.026675868595380414, 0.03694676957306954, 0.00625574528601992, -0.035107615899125304, -0.0489135407499464, 0.01659129579537075, -0.04463242560936216, -0.010813310651495347, -0.037224129886532564, -0.01818117915964622, 0.0211834858679359, -0.09478798774631907, -0.06457027547909473, -0.04373942021627202, -0.020481666856836625, -0.035897796296915724, -0.0038003580942546807, 0.0033740114751484506, -0.05323598120424109, 0.012777221218086995, 0.04685165242857908, 0.04837682920432008, 0.04724125641044923, -0.0026042762483919546, 0.005593985665678123, -0.0015146423176470778, 0.0003557888017194029, -0.0002230492853179817, -0.021612940987085417, -0.018274765961543524, -0.004109468491197845, 0.010672190678316379, 0.016410649887979946, 0.04682170847324805, 0.01156283055673248, -0.008734090170867726, -0.046976912054755154, -0.05006182793336993, -0.06547064574599921, -0.05482003510842486, -0.009407742119267185, -0.03497565477383903, -0.09791907626844874, -0.01206979689499259, -0.0861626026620201, -0.06154277250425554, 0.01392045467213578, 0.01088145236404795, -0.024556800406850404, 0.020786083902167834, 0.029132720025372216, 0.025285909633863745, 0.008425037106041922, -5.416147353508602e-07, -1.2403791714042498e-06, -1.5214252639871566e-07, -0.007466418372068734, -0.04398689069296747, -0.028171691130197615, -0.01752815825727579, 0.053575790744204675, -0.012991256740108773, -0.04430526810998939, -0.023692899727883736, -0.02672965295221339, -0.008646074370327954, -0.03968625493011306, -0.0556398605713743, -0.01271490011214739, -0.06421998429457322, -0.028516342936016223, -0.046244130022813607, -0.014846425622786933, -0.05359257715193542, -0.0407805206589979, -0.046994556108121796, -0.06300339567872158, -0.040997490561356535, -0.055670988244003405, -0.00804694405629627, -0.040540888852613075, -0.011747518912927328, 6.408972532208549e-08, 0.000825410788501588, -0.0034020995604236662, -0.0006022950553684436, 0.0026389015521824195, 0.014065662681069622, 0.02973143126541138, 0.0643570283180219, 0.0252225169364132, 0.029517322000075397, -0.01901419593650542, 0.002053350293904153, -0.027033920736169573, -0.0028616143220807897, 0.09550607520188074, 0.004060203546294986, -0.05344509317788709, -0.011524196808084666, -0.03550332415636208, -0.04867007065073596, 0.035935477833641954, -0.04657613462921904, -0.04035685078201355, 0.030277163071131062, 0.002876378948073535, 0.06166251662765987, 0.0015247267606603707, -7.064886206665317e-08, -0.02610071232207262, 1.768628816675795e-07, -8.678544298825456e-09, -0.0014845465885225649, 0.015199539596304622, 0.02900775400381473, 0.053562809711714426, 0.03647913713807633, -0.029327375102226504, -0.01722868518289805, 0.12237617235679085, 0.06456890550530868, 0.042510544313948455, 0.01095053660874738, 0.08253135003217571, 0.001776499142888023, -0.031655058366308546, 0.027307053900729517, -0.08910573625702173, 0.0756818065883277, -0.017288201342839874, -0.04585903619199162, -0.03885788502387063, 0.057783901256669455, 0.0006143196302582727, 0.028749199588296595, 0.00011092037196308898, -0.003853605216541328, 6.258747615072516e-09, 7.2525022594964e-08, 6.835096765996096e-08, 0.00028546805976780706, -0.001398957564974225, 0.0041689610862019775, 0.020462238079842328, -0.01061181767033499, -0.0359441650247667, 0.009748689375872676, 0.013550722564065865, 0.03979139689726889, 0.020438420168770333, -0.019679113509971865, 0.030953850433089677, 0.06446096329761485, -0.016418799937998108, -0.02369820733863757, -0.023248543859100485, 0.05825145039770451, 0.011496195022683859, -0.0033058226320612336, -0.039357441236809516, -0.028999038431516286, -0.0003879860442698421, 1.445248948679435e-07, 1.3618138257247275e-07, 1.3366586297170293e-06], [-0.0001942369097005482, 1.1099544364579203e-07, 0.0001952816189572163, -0.0008306819486409382, -0.0012003227110894952, -1.1549314847180759e-07, 1.471594336459569e-07, -8.103163412194556e-06, 9.266412557793714e-09, 1.9162511357222367e-06, 0.0007383946860792207, 0.0001313267124563152, 0.000281076852722426, -0.047747803543588645, -0.01209233130584679, -0.025683476510823956, -0.001061990076858547, -7.317411545082795e-08, -2.1764211026089803e-09, -0.0004960635281247215, -6.760926849167297e-08, 0.0024603216828833164, 9.790405766129739e-08, 3.7023815490668666e-07, -0.00025606109368648584, 3.0255149689613687e-07, 4.1201497651032835e-06, 3.6981033651302176e-07, -5.379726660283117e-09, 3.254464080301801e-08, -1.0276336283663237e-05, 0.0015453224977028464, 0.00128630889683967, -0.023666092490367392, -0.0037425008556611432, 0.03747779096306864, -0.032960765039961086, -0.008302731246944271, 0.049741887928739466, -0.05631582224507741, 0.0692484605720363, -0.07560490329777707, 0.02285601277057778, -0.006673794438903542, -0.029702611792476144, -0.005405822641881832, -0.015446144256709163, 0.041301715669795146, 0.04083872484373583, 0.025310717042633085, -0.02071250452482963, 0.0015225147287237575, -0.0002104978039817172, 0.0007359582036063146, 0.00023874073784529708, -1.3606243793297179e-07, -3.164019708401728e-08, -1.0073756358770581e-05, 0.00016507220125725456, -0.0013463344325349126, -0.016508415289291086, -0.036929088284198046, -0.015057814712369706, -0.0073760841984456225, -0.07378334126615868, -0.002282543456574403, 0.007959917245202008, 0.047737053397612104, 0.044126159794320045, 0.02480337546675124, 0.013926863712031182, -0.019336443662586772, -0.015341362306678898, 0.06625272019762654, 0.060360287318430635, 0.05294502943546122, 0.050778705311198054, -0.039177413966749446, 0.036474579707893924, 0.03691744496357801, -0.07388808896113191, 2.5817745228387264e-05, -0.00343103710328798, 1.521347410393994e-07, 0.0004868422692001681, -0.0011964405042045043, 9.257651399663914e-05, 0.018905870008895743, 0.05369231058408544, -0.028519551550057635, -0.0011114937301816574, 0.006625366003896556, -0.01949520382443849, -0.02322322904421555, 0.0248654501946988, 0.04718346774127988, -0.05285199789660976, 0.00818665726110568, 0.050257971043655966, 0.026564872892828443, -0.010440381219382367, 0.016691412234685538, -0.07486333058947484, 0.057495611350549286, 0.06552386076091045, -0.021593117210086256, 0.04094091087408234, -0.06230051169733648, 0.033234221590114875, -0.003091156943470827, -0.015946660973174796, 7.131261329232306e-08, 9.805582871039566e-06, 0.0014309092101628114, -0.001134153540919542, -0.018636234692532314, 0.01880031193203595, -0.049233080257316555, -0.013420968197153117, -0.0096264330362105, 0.015701678978160032, 0.01163126685974069, -0.06183061061449537, -0.042053024972992716, -0.0860582602474343, -0.00608448553084842, -0.029370676551056837, -0.08836198010399539, -0.012286810306484462, -0.06604419033606052, 0.00032826757966634463, 0.019237372299744225, 0.03762103711848889, 0.05614007042820096, 0.009010143372726518, 0.02559741755897555, 0.025733078394631886, 0.05817501517052019, 0.06039872518336386, -0.05691852141529356, 7.48085090753824e-06, -3.7036079680666295e-07, 0.003114597852808218, 0.03995408962518154, -0.03339610311033437, -0.04208636862973407, -0.018440793877932713, -0.024896160072867293, 0.03709752212154435, 0.024345933287731405, -0.018625724126908154, -0.005174523419927612, -0.04356660391840234, -0.043662080796603636, -0.03890357466517999, -0.016158234271405565, -0.04545695148824461, -0.06967009958732323, -0.05245208842651772, 0.008340277286027169, 0.009830786915346812, 0.043848018560280325, 0.06872111955655437, 0.04703780858099448, 0.00012762127354428788, 0.05639359803145453, -0.02808418936525447, 0.0005925454854678731, -1.069668804751931e-08, -0.013573904845026274, 0.07153367851638574, 0.01718635210426941, -0.02934650212718992, -0.014096065652260303, -0.01840429580720398, -0.026534678992590297, -0.06270730720183947, -0.10736740556822552, -0.03444019215299643, -0.035383160170031826, -0.038785771317641785, -0.006599934596956309, -0.018267162393486417, -0.047214625168866466, 0.012584451276579391, 0.012281891609598921, 0.04012829655331355, -0.04683341205509099, 0.03721544382525634, -0.01938810120729774, 0.07988166621108403, 0.022214603937898984, 0.05830960016649853, 0.055873240999790866, -0.024494530585226788, 0.018462868581926615, -0.0014720232889707508, -0.003568130411989452, 0.053855156759333105, 0.032772090988294963, -0.043308785964389494, -0.1327732658025502, -0.0223966591206422, -0.00015067561739698842, -0.06354852900649478, 0.06074088393508492, -0.0351782412790444, 0.04386894167616184, 0.048328207710189176, 0.0706702486481846, 0.03417408405952806, -0.029854350857413073, 0.011498284233008641, -0.005943638458167686, 0.02224304729116752, -0.0388198165899147, -0.05936587644492029, 0.03570174875207194, 0.04079222532907143, 0.06330636503113583, 0.04878098352974764, 0.06785103444139695, -0.0835023319438135, -0.03978171814629545, -0.0014929215248708583, 0.0022233900135415078, 0.0481726095301057, -0.02522924751776247, -0.013403411684168696, -0.06149020978571508, -0.03653037167681999, -0.028100634083960362, 0.010581296092170818, -0.007492577610057467, 0.01922785161257891, 0.022396708428898064, 0.07139697111110266, 0.05386384538574109, 0.005091434609315592, 0.019822467552149257, 0.1086178965309266, -0.00287440319339061, 0.01021448501873799, 0.006052097252678789, -0.028884145915664308, -0.03166951583395504, 0.010494811634096471, 0.06493139459821157, 0.05230893367765801, -0.0025321228073596678, -0.015878336040442954, 0.04505364649178196, -0.0020809646185023438, 0.03660103898725687, 0.07326300427702061, 0.052920850838364, 0.028197508740216957, 0.004244686781292224, 0.037787185214246906, 0.04442345256338122, 0.07647731059111118, 0.07393275854892957, 0.06454571020780615, 0.08551891089694148, 0.008454356878515845, 0.07223625934925768, 0.04192019542546696, 0.03891738259269634, 0.07878562692987418, 0.02642674240586708, -0.023929156819290396, -0.026892136854469874, 0.010331091796533612, -0.02073735657302721, 0.006090953997783515, 0.09104304593742499, -0.011238449033624363, 0.030649072110304418, -0.003292431485196966, -0.021178360421318897, 0.0035467369084828614, 0.07730277572973226, -0.010372786672239806, 0.03334846901255899, -0.013243547611594693, 0.006580296981527779, 0.01046589930937492, 0.06300198891007272, 0.04776834520173082, 0.05513143383521065, 0.071129264543402, 0.06316101187005706, 0.0825433009502851, 0.007213034460109175, -0.03816804189291222, 0.048890185585942166, -0.003836709712954487, -0.0943036161598228, -0.02060118007853395, 0.013626791891318758, -0.1067281678015089, 0.06843086919860307, -0.0016990479861782163, -0.015062579676308719, 0.0008224185782115977, 0.029549314987350087, 0.015301511976385653, 0.030935899434930247, 0.002626985599339046, 0.0026069334536852934, -0.00026224743063738714, -0.049863145365604954, 0.04062463507979531, 0.03866150352214547, 0.10429011120706319, -0.003765769224983641, 0.0813037750946284, 0.010954451282749451, 0.051025645509880604, 0.07933926691201362, 0.0594290368635527, 0.04382306598562387, -0.006415568897607028, 0.025404827607562262, -0.002460266857310091, 0.03555639021991718, 0.01697220516424065, 0.055542686911305116, -0.011663889597633707, -0.013798777920864657, -0.00434837917660125, -0.0348215034847859, -0.010493715470103889, 0.030138129895224148, -0.036773047855763644, -0.010565339978288742, -0.02237048538152021, -0.0260897217523861, 0.024340543587213475, 0.0041192058657875345, 0.046231850024723097, 0.06591739222824927, 0.010491779941227531, 0.10802266090214115, 0.07929904718866373, 0.07770872076587836, 0.00787889021177179, 0.09439644651784289, 0.04688219609026339, 0.053916850135128, 0.05948241510219356, 0.004729153073619219, -0.0022210608702027297, 0.051667924665799315, -0.05154883021428541, 0.022094335586154333, 0.012648573201490508, -0.0720261331736651, -0.031668131562481584, -0.042513100025593734, -0.014091866353857008, 0.008051907430561065, -0.030974105779694717, 0.0008145963630208663, 0.0013721723558195102, 0.006978843873841125, 0.031694992757232233, 0.027970503951146954, -0.015464375408088284, 0.009696435188182893, -0.0151658890226572, 0.03329632762620129, 0.08608291652481025, 0.009110361691420618, 0.010138752844909657, 0.06138929747162127, -0.0021764721635642117, 0.03173651679595465, 0.11272096834984527, 0.0738890534048294, 0.02437215255444051, -0.006317676590270099, 0.04607684608125746, 0.03616625952226624, -0.02963670383328788, 0.0033879830943994707, 0.013546381889085203, -0.042883284042746606, -0.027066658937093858, 0.013602882117453679, -0.018070267303746224, -0.0014847484605410959, 0.0011935238845162707, -0.024826124577963033, -0.031444206484649156, 0.004792744596387711, 0.0808314591556825, -0.046206436479037404, 0.03323810596212944, 0.045129336913142935, 0.04362076792824651, -0.03674174021009049, 0.00721141636623905, -0.02437780429626904, 0.01683544024596267, -0.020735406556127104, 0.025107930097821106, 0.03200244522608859, 0.020622601927374768, 0.08895850977146336, -0.01587428082599616, 0.07172122268784831, 0.019475832875895577, 0.03122176583726543, 0.017511225199681617, 0.015447474743620185, -0.02467117549826322, -0.040520427290980605, -0.040650754348456886, -0.02888231731764607, 0.010797100141703906, -0.0013356503533905406, -0.05331460526380124, -0.010321745640900059, -0.0026612915699118357, 0.031339446671410844, -0.04628357141792697, -0.0360925675931948, 0.0296383231952526, -0.007975212151989817, 0.03155451166846432, 0.009368772035851191, -0.0002900143612685979, 0.04011346516285682, 0.07796425778559711, 0.07574400110604544, 0.06573869309480632, 0.05284549961108402, -0.01825500312126779, 0.0019083272703305735, -0.025973182365957588, -0.01794143427788395, 0.003882970848700177, -0.041899220263371936, -0.007899320515390601, 0.04939499180492694, 0.016795940650884737, -0.001376476696329095, 0.0012670334992521501, -0.009672254730321208, 0.0476729157680505, 0.026318132393132358, -0.042460132876234874, -0.07451298323266647, -0.013102384114751195, -0.049730979983785034, -0.009538825751632741, -0.032556628999006666, 0.06930398035205476, 0.0256983016905617, -0.06310014928399843, 0.04847875754857653, 0.0671498617417421, 0.03301455820669975, 0.02337340615207599, -0.022996094065524816, 0.04371245275420287, -0.010914113070609134, -0.03257388317073063, -0.007326138088819541, -0.04251891213286133, 0.051460892082910374, -0.053652831096244955, -0.012696279638448637, -0.03869921977556327, -0.004095495758406037, 1.2158210351771505e-08, 0.031069673254467144, -0.028061120531914396, -0.09097216957357453, 0.016576744840223537, -0.0030230215556385567, -0.06231010038044081, -0.050332720867522, -0.05734666304210819, -0.0008995261346326774, -0.020031695648409356, 0.0619472839871934, 0.04208016808226926, 0.04552660439181285, 0.03317058585033051, 0.01716607744389981, 0.043178713375040215, 0.002273952202080413, -0.042879552501648044, 0.002837476007492892, -0.010983189694044417, -0.006502027452477034, -0.002340398592685883, -0.06322505247723298, 0.02052522621618548, 0.03029154650959781, -0.058668774721491755, -0.005440290924915267, 0.0007019552915749107, 0.0017769107690515555, 0.01605657727397432, -0.05657506024530308, -0.05359739290632673, -0.10597166765703293, -0.027131052000467445, -0.011436060946343292, -0.008967640647135322, -0.06394497597971764, 0.00954169741194942, 0.04457964198310343, 0.014720941626473255, 0.05211318288459609, 0.008902546415462412, 0.01621128110307774, 0.0366343713250566, -0.016894433097750405, 0.038609840818119356, 0.006687974801899657, -0.038763194684674374, -0.012897888626499685, -0.10414093904798444, -0.02414511270823571, -0.00787992139332815, -0.04363031285521604, -0.0038138400143902453, -0.023629029933301723, 0.0001264794609223203, -0.011050489302029608, -0.014220195015793531, -0.06318474501902455, -0.04378200472282951, -0.029770863062209798, 0.006144642989003205, -0.08209407581188649, -0.013531186594661517, -0.036926756641178754, -0.0040575065089309284, 0.030569476650823678, 0.05869909894229243, 0.03051811715815081, 0.030985472363965955, 